%YAML:1.0
---
opencv_ml_svm:
   format: 3
   svmType: C_SVC
   kernel:
      type: RBF
      gamma: 1.
   C: 1.
   term_criteria: { epsilon:1.1920928955078125e-07, iterations:1000 }
   var_count: 17
   class_count: 2
   class_labels: !!opencv-matrix
      rows: 2
      cols: 1
      dt: i
      data: [ -1, 1 ]
   sv_total: 1998
   support_vectors:
      - [ 12., 1.19744353e-01, 1.01874106e-01, 3.57473940e-01,
          1.17953353e-01, 6.89633982e-03, 0., 4.46219593e-01,
          3.80815342e-02, 1.22819557e+01, 2.47332883e+00, 3.42109895e+00,
          1.62626028e+00, 2.42660189e+00, 2.02216819e-01, 0., 0. ]
      - [ 10., 9.51141492e-02, 8.16796646e-02, 2.58703738e-01,
          8.11763704e-02, 3.64307105e-03, 0., 2.98177987e-01,
          2.70227399e-02, 1.15788107e+01, 2.47155595e+00, 2.77145314e+00,
          1.50192761e+00, 2.43058753e+00, 2.43058756e-01, 1., 0. ]
      - [ 11., 9.59741175e-02, 8.29694569e-02, 2.59092659e-01,
          1.00925818e-01, 3.16501944e-03, 0., 3.25391680e-01,
          2.27713659e-02, 1.82402706e+01, 2.42391205e+00, 3.19155216e+00,
          1.63891244e+00, 2.42274737e+00, 2.20249757e-01, 0., 0. ]
      - [ 14., 9.60887894e-02, 8.31508115e-02, 2.97326297e-01, .Inf,
          1.65698640e-02, 0., 4.44518209e-01, 1.90720018e-02,
          1.03034458e+01, 2.58124828e+00, 3.27371335e+00, 1.42484355e+00,
          2.43088126e+00, 1.73634380e-01, 0., 0. ]
      - [ 14., 1.38836905e-01, 1.30530432e-01, 3.55004609e-01, .Inf,
          1.30563704e-02, 0., 5.57241261e-01, 3.54969166e-02,
          1.36335535e+01, 2.58633304e+00, 2.97133827e+00, 1.46976483e+00,
          2.35974431e+00, 1.68553159e-01, 1., 1. ]
      - [ 6., 4.65766042e-02, 3.67223062e-02, 1.14300124e-01, .Inf,
          1.95564004e-04, 0., 1.56624883e-01, 2.07416285e-02,
          2.11334400e+01, 1.75600100e+00, 2.96092033e+00, 2.30239677e+00,
          2.19304967e+00, 3.65508288e-01, 1., 0. ]
      - [ 6., 4.63232584e-02, 3.75455804e-02, 9.75896493e-02, .Inf,
          5.59573455e-05, 0., 1.71570510e-01, 2.19323095e-02,
          1.33281994e+01, 1.70281076e+00, 3.26977086e+00, 2.53365421e+00,
          2.17931485e+00, 3.63219142e-01, 1., 1. ]
      - [ 6., 4.08075787e-02, 3.32197100e-02, 1.08293325e-01, .Inf,
          1.53419003e-03, 0., 1.22533448e-01, 1.06502455e-02,
          2.06345596e+01, 2.22796679e+00, 1.97433960e+00, 1.56337464e+00,
          2.37997746e+00, 3.96662921e-01, 1., 0. ]
      - [ 5., 3.69816907e-02, 2.83900611e-02, 8.59626830e-02,
          3.51742585e-03, 7.06341758e-04, 0., 1.17312789e-01,
          1.47931231e-02, 2.39204597e+01, 1.52580643e+00, 2.44804502e+00,
          2.27744508e+00, 2.16999984e+00, 4.33999956e-01, 1., 1. ]
      - [ 6., 4.82319407e-02, 3.75174396e-02, 1.31070688e-01, .Inf,
          7.90330887e-05, 0., 1.43264845e-01, 1.73414089e-02,
          9.98749542e+00, 1.98015881e+00, 2.46672893e+00, 1.92000306e+00,
          2.35497761e+00, 3.92496258e-01, 1., 0. ]
      - [ 4., 3.15329544e-02, 2.39952002e-02, 6.94765598e-02,
          1.78345363e-03, 1.51186387e-05, 0., 8.17802697e-02,
          1.81715377e-02, 8.28620434e+00, 1.29300189e+00, 2.04957962e+00,
          2.37016320e+00, 2.14997959e+00, 5.37494898e-01, 1., 1. ]
      - [ 6., 4.41624410e-02, 3.69413160e-02, 1.08415559e-01, .Inf,
          1.63586286e-04, 0., 1.35440588e-01, 1.30688008e-02,
          1.03297644e+01, 1.85298979e+00, 2.81905961e+00, 2.19313550e+00,
          2.18340206e+00, 3.63900334e-01, 1., 1. ]
      - [ 8., 5.65483943e-02, 4.66274098e-02, 1.47090033e-01, .Inf,
          1.66728190e-04, 0., 2.05358267e-01, 1.53880203e-02,
          1.53910313e+01, 2.08890200e+00, 3.37274241e+00, 2.08543682e+00,
          2.21697664e+00, 2.77122080e-01, 1., 1. ]
      - [ 6., 3.24191675e-02, 2.62444820e-02, 8.61224607e-02, .Inf,
          1.81729672e-04, 0., 9.49667543e-02, 7.82828312e-03,
          1.86216450e+01, 2.10059404e+00, 1.92655408e+00, 1.52711630e+00,
          1.92636526e+00, 3.21060866e-01, 1., 1. ]
      - [ 6., 3.22781093e-02, 2.58974638e-02, 8.50135162e-02, .Inf,
          1.42517267e-04, 0., 9.28841531e-02, 7.70235294e-03,
          1.83427029e+01, 2.27805901e+00, 1.77368546e+00, 1.39087331e+00,
          1.93998158e+00, 3.23330253e-01, 1., 1. ]
      - [ 8., 5.10305837e-02, 4.19533402e-02, 1.35244355e-01, .Inf,
          1.45697413e-04, 0., 1.83371514e-01, 1.11751072e-02,
          2.11544266e+01, 2.11106706e+00, 3.26986980e+00, 2.02199578e+00,
          2.15471888e+00, 2.69339859e-01, 1., 1. ]
      - [ 6., 3.23621519e-02, 2.66629551e-02, 8.42054412e-02, .Inf,
          7.91625003e-04, 0., 1.04421221e-01, 8.92280508e-03,
          2.74691944e+01, 1.92123377e+00, 2.22760963e+00, 1.78105664e+00,
          1.92954087e+00, 3.21590155e-01, 1., 1. ]
      - [ 12., 6.99742436e-02, 6.00552112e-02, 2.07995892e-01, .Inf,
          1.59990008e-03, 0., 2.54015446e-01, 8.17483012e-03,
          2.75143433e+01, 2.62461972e+00, 2.80905914e+00, 1.36314034e+00,
          2.13367438e+00, 1.77806199e-01, 0., 1. ]
      - [ 11., 8.80970582e-02, 7.58517236e-02, 2.30993241e-01,
          2.70740724e+00, 2.74687842e-03, 0., 3.03146541e-01,
          1.82874296e-02, 2.72099762e+01, 2.48324299e+00, 3.06483746e+00,
          1.60565281e+00, 1.95021665e+00, 1.77292421e-01, 1., 1. ]
      - [ 8., 6.31480739e-02, 4.77419756e-02, 1.64058626e-01, .Inf,
          2.83034286e-04, 0., 2.50312686e-01, 3.38963941e-02,
          2.37538986e+01, 2.05853319e+00, 3.54076338e+00, 2.19077134e+00,
          2.06236959e+00, 2.57796198e-01, 0., 0. ]
      - [ 8., 4.79844734e-02, 3.86697389e-02, 1.32018402e-01, .Inf,
          3.36539902e-04, 0., 1.73240244e-01, 1.22378534e-02,
          2.23222618e+01, 2.11344934e+00, 3.15160513e+00, 1.95361924e+00,
          2.02748632e+00, 2.53435791e-01, 0., 1. ]
      - [ 5., 2.70159822e-02, 2.21684538e-02, 6.73663691e-02,
          1.63595029e-03, 1.07995569e-04, 0., 7.29347691e-02,
          8.27219710e-03, 2.18654346e+01, 1.89019001e+00, 1.75933611e+00,
          1.62315595e+00, 1.93022335e+00, 3.86044681e-01, 1., 1. ]
      - [ 6., 3.40262987e-02, 2.73827929e-02, 8.93476829e-02, .Inf,
          7.63080840e-04, 0., 1.05497964e-01, 9.11783148e-03,
          2.58078117e+01, 2.04470301e+00, 2.23544192e+00, 1.79552209e+00,
          2.02998066e+00, 3.38330120e-01, 1., 1. ]
      - [ 6., 3.40263359e-02, 2.73828525e-02, 8.93476903e-02, .Inf,
          7.62456504e-04, 0., 1.05498113e-01, 9.11783986e-03,
          2.58078785e+01, 2.04470396e+00, 2.23544145e+00, 1.79552281e+00,
          2.02998066e+00, 3.38330120e-01, 1., 1. ]
      - [ 8., 5.09651192e-02, 4.23596762e-02, 1.42697379e-01, .Inf,
          1.62536817e-04, 0., 1.70091361e-01, 1.01995906e-02,
          2.20171242e+01, 2.23585749e+00, 2.92138577e+00, 1.81018925e+00,
          2.08498025e+00, 2.60622531e-01, 1., 1. ]
      - [ 6., 3.81653495e-02, 3.26418988e-02, 9.77306291e-02, .Inf,
          1.05656439e-03, 0., 1.24783203e-01, 1.19615886e-02,
          2.27557430e+01, 2.02125239e+00, 2.11703205e+00, 1.70929492e+00,
          2.24359441e+00, 3.73932391e-01, 1., 1. ]
      - [ 8., 4.82768193e-02, 4.24602069e-02, 1.25631854e-01, .Inf,
          2.04549613e-03, 0., 1.50728181e-01, 1.18050128e-02,
          1.41854725e+01, 2.29562140e+00, 2.53437614e+00, 1.66608799e+00,
          1.94332623e+00, 2.42915779e-01, 0., 1. ]
      - [ 8., 7.14222640e-02, 5.18639311e-02, 1.90236330e-01, .Inf,
          6.91445312e-04, 0., 2.72423953e-01, 3.45212184e-02,
          1.87865925e+01, 2.08152866e+00, 3.47764087e+00, 2.15753365e+00,
          2.02989006e+00, 2.53736258e-01, 1., 1. ]
      - [ 8., 4.40409482e-02, 3.60139012e-02, 1.18606016e-01, .Inf,
          1.05072476e-03, 0., 1.63891599e-01, 1.45971132e-02,
          1.94734592e+01, 2.13959241e+00, 3.04914570e+00, 1.91211927e+00,
          1.90899956e+00, 2.38624945e-01, 1., 0. ]
      - [ 8., 4.28291261e-02, 3.57365049e-02, 1.18959568e-01, .Inf,
          1.20565551e-03, 0., 1.63431078e-01, 1.19011169e-02,
          3.47312737e+01, 2.14804959e+00, 2.90197730e+00, 1.82789910e+00,
          1.90121639e+00, 2.37652048e-01, 1., 0. ]
      - [ 8., 3.71975675e-02, 3.04801110e-02, 1.03339881e-01, .Inf,
          2.07198958e-04, 0., 1.27228320e-01, 7.72650726e-03,
          2.82167892e+01, 2.12603760e+00, 2.97643781e+00, 1.85233474e+00,
          1.63998425e+00, 2.04998031e-01, 1., 1. ]
      - [ 8., 4.39383760e-02, 3.58131118e-02, 1.23318210e-01, .Inf,
          2.32597161e-03, 0., 1.76421151e-01, 1.78174209e-02,
          2.03648415e+01, 2.26807523e+00, 2.71741486e+00, 1.76114535e+00,
          1.89271522e+00, 2.36589402e-01, 1., 0. ]
      - [ 8., 3.96710262e-02, 3.33263017e-02, 1.11912854e-01, .Inf,
          6.97059615e-04, 0., 1.31784588e-01, 6.65621227e-03,
          2.83697395e+01, 2.36273980e+00, 2.24392152e+00, 1.42944145e+00,
          1.83365893e+00, 2.29207367e-01, 1., 1. ]
      - [ 8., 3.30086164e-02, 2.74925474e-02, 9.24628526e-02, .Inf,
          1.29094278e-03, 0., 1.23594105e-01, 7.51839858e-03,
          4.26657906e+01, 2.44408512e+00, 2.36444688e+00, 1.51337433e+00,
          1.50427091e+00, 1.88033864e-01, 1., 1. ]
      - [ 10., 3.92675176e-02, 3.27633098e-02, 1.16367579e-01, .Inf,
          3.38193495e-03, 0., 1.44349560e-01, 7.90044293e-03,
          1.98983517e+01, 2.40321469e+00, 2.78888273e+00, 1.51220810e+00,
          1.45498621e+00, 1.45498618e-01, 1., 1. ]
      - [ 12., 3.75045538e-02, 3.13475281e-02, 1.02680400e-01,
          4.01327181e+00, 9.52717150e-04, 0., 1.66322604e-01,
          9.95731074e-03, 5.84407082e+01, 2.41816092e+00, 3.70105577e+00,
          1.75457418e+00, 1.02987993e+00, 8.58233273e-02, 1., 1. ]
      - [ 12., 3.71546820e-02, 3.16209607e-02, 1.02715530e-01, .Inf,
          4.62110300e-04, 0., 1.83682039e-01, 1.22430101e-02,
          6.10358543e+01, 2.43957567e+00, 3.74122405e+00, 1.76724052e+00,
          1.00689423e+00, 8.39078501e-02, 1., 1. ]
      - [ 11., 3.25028934e-02, 2.71068085e-02, 8.98559242e-02,
          3.55997419e+00, 4.34791436e-04, 0., 1.46084845e-01,
          7.93087855e-03, 6.40087204e+01, 2.53699970e+00, 3.18826675e+00,
          1.71105599e+00, 1.00999999e+00, 9.18181837e-02, 1., 1. ]
      - [ 20., 5.38442805e-02, 4.63629365e-02, 1.66020930e-01, .Inf,
          1.20676518e-03, 0., 2.40468591e-01, 4.77149058e-03,
          6.25791664e+01, 2.79171491e+00, 3.25667000e+00, 1.17673004e+00,
          9.60494101e-01, 4.80247065e-02, 1., 1. ]
      - [ 23., 1.96440384e-01, 1.65867299e-01, 6.35324657e-01,
          7.90727258e-01, 2.25301739e-02, 0., 6.47192955e-01,
          8.94920435e-03, 9.51426315e+00, 2.88142276e+00, 2.85082698e+00,
          9.01619434e-01, 2.01999998e+00, 8.78260881e-02, 1., 1. ]
      - [ 14., 4.36149538e-02, 3.90951559e-02, 1.26818597e-01, .Inf,
          3.52709601e-03, 0., 2.06115991e-01, 8.18553101e-03,
          4.12558365e+01, 2.62029052e+00, 3.03876138e+00, 1.41769385e+00,
          1.10414696e+00, 7.88676366e-02, 1., 1. ]
      - [ 16., 4.24906611e-02, 3.57412361e-02, 1.33422345e-01, .Inf,
          9.50273359e-04, 0., 1.58983216e-01, 3.43564409e-03,
          3.98992653e+01, 2.70366025e+00, 3.11106038e+00, 1.23680902e+00,
          1.00819635e+00, 6.30122721e-02, 1., 1. ]
      - [ 28., 2.19896346e-01, 1.85382575e-01, 7.19901145e-01,
          1.19232810e+00, 1.59644727e-02, 0., 7.37012804e-01,
          9.26113687e-03, 1.00198517e+01, 2.92951107e+00, 2.86591148e+00,
          8.16641569e-01, 1.95498145e+00, 6.98207691e-02, 1., 1. ]
      - [ 16., 5.34524992e-02, 4.77569029e-02, 1.50448650e-01, .Inf,
          2.01491942e-03, 0., 2.28521466e-01, 8.05420801e-03,
          4.82990761e+01, 2.75570655e+00, 3.17789125e+00, 1.42440450e+00,
          1.11058080e+00, 6.94113001e-02, 1., 1. ]
      - [ 21., 1.81390300e-01, 1.52159899e-01, 5.92714190e-01,
          6.84229493e-01, 3.63274440e-02, 0., 6.05304003e-01,
          9.83524509e-03, 9.10651302e+00, 2.83997059e+00, 2.86288738e+00,
          9.53126431e-01, 2.04999995e+00, 9.76190418e-02, 1., 1. ]
      - [ 16., 5.02306446e-02, 4.25005928e-02, 1.58231080e-01, .Inf,
          5.63316466e-03, 0., 1.96729288e-01, 3.78669379e-03,
          5.70375748e+01, 2.75652933e+00, 2.81766105e+00, 1.11656630e+00,
          1.19363832e+00, 7.46023953e-02, 1., 1. ]
      - [ 9., 9.38356817e-02, 7.67989531e-02, 2.69385576e-01,
          5.35417385e-02, 1.28595496e-03, 0., 2.71872818e-01,
          1.32719819e-02, 5.90143919e+00, 2.43311882e+00, 2.44322538e+00,
          1.38671684e+00, 2.23000002e+00, 2.47777775e-01, 1., 1. ]
      - [ 14., 4.33553383e-02, 3.77940610e-02, 1.26991913e-01, .Inf,
          9.16267571e-04, 0., 2.17772126e-01, 6.94677932e-03,
          5.22317047e+01, 2.72267628e+00, 3.01933289e+00, 1.41222239e+00,
          1.09935355e+00, 7.85252526e-02, 1., 0. ]
      - [ 14., 6.74843043e-02, 4.98014577e-02, 2.45356500e-01, .Inf,
          8.89431802e-04, 0., 3.08961034e-01, 2.88959090e-02,
          4.33605576e+01, 2.59516978e+00, 3.44092488e+00, 1.46754134e+00,
          1.20986331e+00, 8.64188075e-02, 1., 0. ]
      - [ 16., 8.01899508e-02, 6.37917370e-02, 2.23123327e-01, .Inf,
          2.24414328e-03, 0., 3.00576270e-01, 1.99827962e-02,
          4.05927315e+01, 2.68807173e+00, 3.26951766e+00, 1.44694626e+00,
          1.21603000e+00, 7.60018751e-02, 1., 1. ]
      - [ 16., 3.72386463e-02, 3.14641818e-02, 1.11527942e-01, .Inf,
          3.72438255e-04, 0., 1.57920867e-01, 4.60238755e-03,
          4.42419701e+01, 2.69786167e+00, 3.43071437e+00, 1.38958549e+00,
          8.24901998e-01, 5.15563749e-02, 1., 1. ]
      - [ 16., 5.19491471e-02, 4.53853160e-02, 1.55659407e-01, .Inf,
          5.95689379e-03, 0., 2.33662531e-01, 7.31952861e-03,
          4.22308922e+01, 2.80430651e+00, 2.69068408e+00, 1.18969631e+00,
          1.19205368e+00, 7.45033547e-02, 0., 1. ]
      - [ 14., 4.50544953e-02, 3.70746218e-02, 1.50448620e-01, .Inf,
          6.83598220e-03, 0., 1.79480612e-01, 6.62455615e-03,
          5.06130829e+01, 2.62114143e+00, 2.83699083e+00, 1.23336387e+00,
          1.13187349e+00, 8.08481053e-02, 0., 1. ]
      - [ 14., 3.94658819e-02, 3.43141071e-02, 1.07173353e-01, .Inf,
          7.78235029e-04, 0., 1.86544582e-01, 7.19512580e-03,
          6.46909256e+01, 2.61579204e+00, 3.57999611e+00, 1.60290611e+00,
          8.85414898e-01, 6.32439181e-02, 1., 1. ]
      - [ 16., 4.10190187e-02, 3.59283760e-02, 1.21595539e-01, .Inf,
          1.86524773e-03, 0., 1.67911530e-01, 4.10938589e-03,
          5.58581810e+01, 2.75366616e+00, 2.92660975e+00, 1.27917993e+00,
          8.90935481e-01, 5.56834675e-02, 1., 1. ]
      - [ 14., 3.58326957e-02, 3.06687020e-02, 1.04775667e-01, .Inf,
          3.35537549e-03, 0., 1.55698612e-01, 5.70595963e-03,
          5.97142029e+01, 2.57745194e+00, 2.91861534e+00, 1.36328530e+00,
          9.06238616e-01, 6.47313297e-02, 1., 1. ]
      - [ 16., 4.01403233e-02, 3.39265279e-02, 1.22475542e-01, .Inf,
          8.38339620e-04, 0., 1.60452098e-01, 4.07226942e-03,
          4.90865593e+01, 2.68471384e+00, 3.25317526e+00, 1.33381808e+00,
          9.19564843e-01, 5.74728027e-02, 1., 1. ]
      - [ 6., 1.66133475e-02, 1.43700726e-02, 4.01206836e-02, .Inf,
          1.71657550e-04, 0., 6.72029406e-02, 6.26683841e-03,
          5.43302650e+01, 1.82131517e+00, 2.69605136e+00, 2.14660764e+00,
          9.13274348e-01, 1.52212396e-01, 1., 1. ]
      - [ 31., 2.43596017e-01, 2.06155837e-01, 8.14920783e-01,
          1.65027130e+00, 3.34968953e-03, 0., 8.30868483e-01,
          1.01046041e-02, 1.03282824e+01, 2.94148755e+00, 2.94120598e+00,
          7.86784828e-01, 1.92999983e+00, 6.22580573e-02, 1., 1. ]
      - [ 28., 1.04890667e-01, 1.00964680e-01, 2.94745207e-01,
          2.80648351e-01, 1.09445723e-02, 0., 4.02935386e-01,
          1.68704763e-02, 4.56766510e+01, 2.89642739e+00, 3.06382871e+00,
          9.71654892e-01, 9.10656810e-01, 3.25234570e-02, 1., 1. ]
      - [ 8., 3.29939127e-02, 2.68054008e-02, 9.07896683e-02, .Inf,
          8.45090617e-05, 0., 1.12590328e-01, 6.65358687e-03,
          2.36079159e+01, 2.15267062e+00, 3.08260918e+00, 1.90717411e+00,
          1.43133640e+00, 1.78917050e-01, 1., 1. ]
      - [ 8., 3.47101167e-02, 2.83112694e-02, 9.43685099e-02, .Inf,
          4.16185329e-04, 0., 1.31826252e-01, 7.95557629e-03,
          3.12189808e+01, 2.11145186e+00, 3.09500217e+00, 1.93311012e+00,
          1.44767547e+00, 1.80959433e-01, 1., 1. ]
      - [ 8., 4.26668003e-02, 3.49204130e-02, 1.16006650e-01, .Inf,
          4.86060133e-04, 0., 1.66164547e-01, 1.52650364e-02,
          3.36304893e+01, 2.30103588e+00, 2.98153305e+00, 1.88913023e+00,
          1.47598338e+00, 1.84497923e-01, 1., 1. ]
      - [ 10., 5.24420738e-02, 4.61730920e-02, 1.42078683e-01, .Inf,
          3.62570630e-03, 0., 1.84684247e-01, 9.33975447e-03,
          2.44776878e+01, 2.52025580e+00, 2.55709147e+00, 1.43297148e+00,
          1.57498503e+00, 1.57498509e-01, 1., 1. ]
      - [ 8., 5.35167381e-02, 4.47107032e-02, 1.40874356e-01, .Inf,
          5.48996322e-04, 0., 1.65091380e-01, 1.27811665e-02,
          2.24246273e+01, 2.21904945e+00, 2.78077197e+00, 1.77483451e+00,
          1.75498331e+00, 2.19372913e-01, 1., 1. ]
      - [ 6., 5.45718931e-02, 4.55606245e-02, 1.31389573e-01, .Inf,
          4.98059613e-04, 0., 1.80751517e-01, 1.63754057e-02,
          1.08046150e+01, 1.86384749e+00, 2.86237025e+00, 2.23032069e+00,
          2.74216509e+00, 4.57027525e-01, 1., 1. ]
      - [ 6., 4.70230579e-02, 3.75773236e-02, 1.26003131e-01, .Inf,
          2.51155434e-04, 0., 1.31220996e-01, 1.10749872e-02,
          9.07284737e+00, 1.98618329e+00, 2.27884603e+00, 1.77298522e+00,
          2.80071568e+00, 4.66785938e-01, 1., 1. ]
      - [ 7., 5.36543950e-02, 4.29231189e-02, 1.48986071e-01,
          1.22320745e-02, 4.27684106e-04, 0., 1.58322468e-01,
          1.02926558e-02, 1.12644882e+01, 2.15274048e+00, 2.42631555e+00,
          1.66828978e+00, 2.81216669e+00, 4.01738107e-01, 1., 0. ]
      - [ 5., 3.74952964e-02, 2.96161026e-02, 9.24979597e-02,
          4.78439732e-03, 5.05628937e-04, 0., 1.04002684e-01,
          1.19564105e-02, 1.60947342e+01, 1.88991570e+00, 1.96019292e+00,
          1.83959699e+00, 2.64000010e+00, 5.27999997e-01, 1., 1. ]
      - [ 6., 4.64911312e-02, 3.76955122e-02, 1.20345600e-01, .Inf,
          4.94157430e-04, 0., 1.44216672e-01, 1.20489616e-02,
          2.11059113e+01, 1.91656804e+00, 2.47572207e+00, 1.94179916e+00,
          2.70497417e+00, 4.50829029e-01, 1., 1. ]
      - [ 8., 6.79033920e-02, 5.39732389e-02, 2.02011988e-01, .Inf,
          1.02174497e-04, 0., 2.11560935e-01, 1.44873895e-02,
          7.21925068e+00, 2.26838923e+00, 2.67825198e+00, 1.65568042e+00,
          2.85950708e+00, 3.57438385e-01, 0., 0. ]
      - [ 3., 3.57879400e-02, 2.39129122e-02, 7.13317022e-02,
          1.27254496e-03, 2.54654926e-11, 0., 7.17387348e-02,
          2.09876895e-02, 1.98592591e+00, 1.11857200e+00, 9.75823104e-01,
          1.69017518e+00, 2.92000008e+00, 9.73333359e-01, 1., 1. ]
      - [ 7., 5.43234423e-02, 4.34948094e-02, 1.46294713e-01,
          1.50947385e-02, 6.17812111e-05, 0., 1.70669764e-01,
          1.34936599e-02, 7.05221319e+00, 2.04551339e+00, 2.88669944e+00,
          1.97578442e+00, 2.70000005e+00, 3.85714293e-01, 0., 0. ]
      - [ 4., 4.47416306e-02, 3.40786353e-02, 1.01195745e-01,
          2.89431005e-03, 5.46044961e-04, 0., 1.15437433e-01,
          2.12791208e-02, 1.25902004e+01, 1.35877597e+00, 1.87435937e+00,
          2.19242430e+00, 2.87123156e+00, 7.17807889e-01, 1., 0. ]
      - [ 6., 4.51916233e-02, 3.70004959e-02, 1.18672997e-01, .Inf,
          1.69917348e-05, 0., 1.26267672e-01, 1.03444196e-02,
          5.40787077e+00, 1.96708488e+00, 2.47294736e+00, 1.91704988e+00,
          2.69997454e+00, 4.49995756e-01, 0., 1. ]
      - [ 6., 5.86559139e-02, 4.75777090e-02, 1.53967947e-01,
          9.97761823e-03, 1.14067853e-03, 0., 1.77237898e-01,
          1.82155073e-02, 1.02971687e+01, 2.00350070e+00, 2.46611381e+00,
          1.94345975e+00, 2.80595732e+00, 4.67659563e-01, 1., 0. ]
      - [ 6., 4.54271287e-02, 3.71606536e-02, 1.17364250e-01, .Inf,
          5.71499550e-05, 0., 1.35476038e-01, 1.14854462e-02,
          1.39200211e+01, 1.86438632e+00, 2.66213489e+00, 2.06456327e+00,
          2.66497469e+00, 4.44162458e-01, 0., 1. ]
      - [ 3., 2.76480801e-02, 2.22984459e-02, 4.72337641e-02,
          1.42424903e-03, 1.13725007e-09, 0., 6.82409257e-02,
          2.00399011e-02, 1.40935459e+01, 5.05565584e-01, 1.58882952e+00,
          2.75193357e+00, 2.63111973e+00, 8.77039909e-01, 1., 1. ]
      - [ 5., 8.06993097e-02, 5.97040430e-02, 1.92111954e-01,
          2.35087480e-02, 2.41022426e-04, 0., 2.07932979e-01,
          3.67333330e-02, 7.82129049e+00, 1.62551439e+00, 2.37152243e+00,
          2.18120885e+00, 2.50696087e+00, 5.01392186e-01, 0., 1. ]
      - [ 6., 4.71829958e-02, 3.76210213e-02, 1.05746523e-01, .Inf,
          1.93955697e-04, 0., 1.73768133e-01, 2.12244373e-02,
          1.58340473e+01, 1.70660508e+00, 3.16419864e+00, 2.45469046e+00,
          2.33325267e+00, 3.88875455e-01, 1., 1. ]
      - [ 8., 2.32502148e-02, 1.97661519e-02, 6.41078278e-02, .Inf,
          6.18944876e-04, 0., 9.46601480e-02, 6.49165409e-03,
          6.48593521e+01, 2.25159621e+00, 2.72939491e+00, 1.72412062e+00,
          9.80776012e-01, 1.22597001e-01, 1., 1. ]
      - [ 9., 1.19971387e-01, 1.01898074e-01, 3.05483311e-01,
          1.00307092e-01, 1.02047101e-02, 0., 3.46010298e-01,
          2.56523136e-02, 1.12769833e+01, 2.37429190e+00, 2.50716662e+00,
          1.57647717e+00, 2.36999989e+00, 2.63333321e-01, 0., 1. ]
      - [ 28., 8.85488093e-02, 8.20503458e-02, 2.47846678e-01,
          1.92871332e-01, 1.30947288e-02, 0., 4.17209685e-01,
          1.57217011e-02, 6.78350830e+01, 2.89395332e+00, 3.48672605e+00,
          1.10482228e+00, 7.46088982e-01, 2.66460348e-02, 1., 1. ]
      - [ 4., 3.87168601e-02, 2.96773426e-02, 7.85654411e-02,
          4.43712575e-03, 6.24617314e-07, 0., 1.05499476e-01,
          2.65660137e-02, 1.18938637e+01, 1.14728165e+00, 2.29833031e+00,
          2.65395641e+00, 2.29273391e+00, 5.73183477e-01, 1., 1. ]
      - [ 8., 5.17143197e-02, 4.25717756e-02, 1.44538060e-01, .Inf,
          2.10110840e-04, 0., 1.73731595e-01, 1.01975072e-02,
          2.19209766e+01, 2.18258429e+00, 2.96580791e+00, 1.83643115e+00,
          2.28497815e+00, 2.85622269e-01, 1., 1. ]
      - [ 10., 5.93471453e-02, 4.92957607e-02, 1.69602558e-01,
          8.30077171e+00, 1.87712212e-04, 0., 2.05144525e-01,
          8.80625751e-03, 1.40351467e+01, 2.37008953e+00, 3.25068593e+00,
          1.72293472e+00, 2.11997986e+00, 2.11997986e-01, 1., 1. ]
      - [ 27., 3.36210504e-02, 2.88760215e-02, 1.11988179e-01,
          4.94329706e-02, 3.02983564e-03, 0., 3.03307354e-01,
          7.44819501e-03, 1.13683289e+02, 2.90676260e+00, 3.63389850e+00,
          1.18518019e+00, 4.48972970e-01, 1.66286286e-02, 1., 1. ]
      - [ 6., 5.83746582e-02, 4.89884317e-02, 1.34525687e-01, .Inf,
          2.75601773e-03, 0., 1.88248128e-01, 1.96445137e-02,
          1.53884563e+01, 2.00898027e+00, 2.41476130e+00, 2.05803919e+00,
          2.27472138e+00, 3.79120231e-01, 0., 1. ]
      - [ 8., 4.82668094e-02, 4.07728888e-02, 1.32017478e-01, .Inf,
          1.18747361e-04, 0., 1.49076506e-01, 7.95252621e-03,
          9.87705231e+00, 2.23785591e+00, 2.90502310e+00, 1.80520117e+00,
          2.07498026e+00, 2.59372532e-01, 1., 1. ]
      - [ 20., 4.02643941e-02, 3.45630199e-02, 1.24452390e-01, .Inf,
          8.01796385e-04, 0., 2.26728380e-01, 4.95898863e-03,
          7.70988083e+01, 2.78398347e+00, 3.61798811e+00, 1.26584983e+00,
          6.57616198e-01, 3.28808092e-02, 1., 1. ]
      - [ 10., 6.41335100e-02, 5.35951070e-02, 1.70429617e-01, .Inf,
          1.35716313e-04, 0., 2.62706757e-01, 1.93497427e-02,
          1.65375729e+01, 2.27406168e+00, 3.73377037e+00, 1.96876049e+00,
          2.02835035e+00, 2.02835038e-01, 0., 1. ]
      - [ 39., 5.10071367e-02, 4.40760814e-02, 1.67055830e-01,
          9.11755115e-02, 5.93510410e-03, 0., 3.15002143e-01,
          4.23912378e-03, 1.07816818e+02, 2.95808291e+00, 3.29102468e+00,
          8.58098626e-01, 4.70787883e-01, 1.20714838e-02, 1., 1. ]
      - [ 24., 4.70126159e-02, 4.33448069e-02, 1.48160324e-01, .Inf,
          9.64128412e-04, 0., 2.24013492e-01, 4.92726313e-03,
          6.36486359e+01, 2.87466669e+00, 3.78505492e+00, 1.22845185e+00,
          6.07785642e-01, 2.53244024e-02, 0., 1. ]
      - [ 13., 8.37749839e-02, 7.18521550e-02, 2.36991778e-01,
          8.21096748e-02, 1.10459176e-03, 0., 3.36571455e-01,
          2.15388965e-02, 1.95765972e+01, 2.58847475e+00, 3.55289555e+00,
          1.61728561e+00, 2.00036168e+00, 1.53873980e-01, 0., 1. ]
      - [ 8., 3.72734070e-02, 3.04884128e-02, 1.05223112e-01, .Inf,
          9.99551339e-05, 0., 1.17143981e-01, 6.88413950e-03,
          1.46454201e+01, 2.24651909e+00, 2.78233743e+00, 1.73603082e+00,
          1.69998395e+00, 2.12497994e-01, 1., 1. ]
      - [ 8., 3.89760248e-02, 3.23461145e-02, 1.06337488e-01, .Inf,
          1.97811532e-04, 0., 1.31978393e-01, 7.10149761e-03,
          2.60169373e+01, 2.21479917e+00, 2.93632126e+00, 1.82512724e+00,
          1.69186532e+00, 2.11483166e-01, 1., 1. ]
      - [ 8., 3.86683196e-02, 3.18861939e-02, 1.08367361e-01, .Inf,
          2.53466511e-04, 0., 1.34082377e-01, 9.05524101e-03,
          2.38873749e+01, 2.14928842e+00, 2.93526673e+00, 1.82374620e+00,
          1.68905747e+00, 2.11132184e-01, 1., 1. ]
      - [ 9., 4.28386629e-02, 3.54960337e-02, 1.22904360e-01,
          2.07811389e-02, 2.38685706e-03, 0., 1.46889344e-01,
          6.74913218e-03, 1.93128891e+01, 2.38597727e+00, 2.66779232e+00,
          1.55234408e+00, 1.75082707e+00, 1.94536343e-01, 1., 1. ]
      - [ 8., 3.48134562e-02, 2.85291336e-02, 9.55275074e-02, .Inf,
          1.12335350e-04, 0., 1.23034164e-01, 8.87972582e-03,
          2.90341072e+01, 2.21735907e+00, 3.05978394e+00, 1.90879095e+00,
          1.46329391e+00, 1.82911739e-01, 1., 1. ]
      - [ 8., 4.08058725e-02, 3.45231146e-02, 1.11262903e-01, .Inf,
          6.48003712e-04, 0., 1.25605658e-01, 7.07664108e-03,
          2.10758648e+01, 2.21411204e+00, 2.74728370e+00, 1.72902441e+00,
          1.69219005e+00, 2.11523756e-01, 1., 1. ]
      - [ 16., 1.04673713e-01, 9.64592397e-02, 2.70884812e-01, .Inf,
          9.63836908e-03, 0., 3.90547127e-01, 2.98977066e-02,
          2.45783138e+01, 2.64475131e+00, 3.09720063e+00, 1.38558960e+00,
          1.47168827e+00, 9.19805169e-02, 1., 1. ]
      - [ 13., 6.49666861e-02, 5.53711578e-02, 1.89719975e-01,
          5.42427674e-02, 1.11336913e-02, 0., 2.34931618e-01,
          7.08547654e-03, 1.83614368e+01, 2.57354069e+00, 3.04850602e+00,
          1.41195202e+00, 1.67445207e+00, 1.28803998e-01, 1., 1. ]
      - [ 8., 3.92504036e-02, 3.36289331e-02, 1.07537888e-01, .Inf,
          1.00430136e-03, 0., 1.27198577e-01, 7.11820694e-03,
          1.96148872e+01, 2.21614814e+00, 2.75621605e+00, 1.73492932e+00,
          1.72497654e+00, 2.15622067e-01, 1., 1. ]
      - [ 8., 4.48111817e-02, 4.13506366e-02, 1.05663076e-01, .Inf,
          5.55210805e-04, 0., 1.79610640e-01, 1.83120463e-02,
          1.84945660e+01, 2.29719543e+00, 2.57163382e+00, 1.87311387e+00,
          1.72915232e+00, 2.16144040e-01, 1., 1. ]
      - [ 8., 3.46860029e-02, 2.86118127e-02, 9.54995081e-02, .Inf,
          1.33687383e-04, 0., 1.21147670e-01, 6.82586432e-03,
          3.03044529e+01, 2.16095257e+00, 3.05507636e+00, 1.89188552e+00,
          1.53481770e+00, 1.91852212e-01, 1., 1. ]
      - [ 8., 4.20917869e-02, 3.60799953e-02, 1.10129334e-01, .Inf,
          7.07582047e-04, 0., 1.38037398e-01, 8.40139296e-03,
          2.09959183e+01, 2.17388463e+00, 2.92463422e+00, 1.86084330e+00,
          1.72102165e+00, 2.15127707e-01, 1., 1. ]
      - [ 6., 3.35971266e-02, 2.73112282e-02, 8.93476605e-02, .Inf,
          1.15794071e-03, 0., 9.65719372e-02, 7.99244735e-03,
          2.04964466e+01, 2.01473713e+00, 2.18863511e+00, 1.70969498e+00,
          2.03498054e+00, 3.39163423e-01, 0., 1. ]
      - [ 8., 3.83284129e-02, 3.15457769e-02, 1.05222717e-01, .Inf,
          2.00388604e-04, 0., 1.33007497e-01, 7.79510988e-03,
          2.79612713e+01, 2.17253566e+00, 3.00211453e+00, 1.86642849e+00,
          1.69549811e+00, 2.11937264e-01, 1., 1. ]
      - [ 8., 4.71560396e-02, 3.87563743e-02, 1.29206493e-01, .Inf,
          4.50042280e-04, 0., 1.72467604e-01, 1.04180109e-02,
          2.07079144e+01, 2.13007665e+00, 3.04487085e+00, 1.89551497e+00,
          2.06034732e+00, 2.57543415e-01, 0., 0. ]
      - [ 6., 4.13445570e-02, 3.34417522e-02, 1.05318174e-01, .Inf,
          1.94896329e-05, 0., 1.25241771e-01, 1.17351394e-02,
          9.70745277e+00, 1.86336792e+00, 2.74716353e+00, 2.13054681e+00,
          2.34683800e+00, 3.91139656e-01, 1., 1. ]
      - [ 8., 3.34026031e-02, 2.84315199e-02, 8.95988941e-02, .Inf,
          3.96012561e-04, 0., 1.26971453e-01, 8.04657023e-03,
          3.98907204e+01, 2.23612070e+00, 2.93358278e+00, 1.85069036e+00,
          1.41098917e+00, 1.76373646e-01, 1., 1. ]
      - [ 12., 5.45964874e-02, 4.65093851e-02, 1.51226744e-01, .Inf,
          7.95023283e-04, 0., 2.33322620e-01, 1.00142155e-02,
          3.28871460e+01, 2.47490764e+00, 3.57461286e+00, 1.70104063e+00,
          1.47666812e+00, 1.23055674e-01, 1., 1. ]
      - [ 13., 6.02211840e-02, 5.38173504e-02, 1.70590773e-01,
          8.65706348e+00, 1.44774723e-03, 0., 2.13791639e-01,
          6.52192906e-03, 3.01783295e+01, 2.53579593e+00, 3.32026148e+00,
          1.52008879e+00, 1.39000010e+00, 1.06923088e-01, 1., 1. ]
      - [ 12., 4.70917076e-02, 3.97634245e-02, 1.38315767e-01, .Inf,
          3.03463108e-04, 0., 1.60424128e-01, 4.50914726e-03,
          3.47920570e+01, 2.56676650e+00, 2.95904160e+00, 1.42605054e+00,
          1.35998702e+00, 1.13332249e-01, 1., 1. ]
      - [ 3., 2.81880591e-02, 2.16993447e-02, 5.14869690e-02,
          1.22379081e-03, 3.77698539e-10, 0., 6.50613904e-02,
          1.87816061e-02, 1.25286980e+01, 6.08686626e-01, 1.48570836e+00,
          2.57332253e+00, 2.93124938e+00, 9.77083147e-01, 1., 1. ]
      - [ 12., 1.18766487e-01, 1.07480049e-01, 2.74330765e-01, .Inf,
          6.57797791e-03, 0., 3.31705242e-01, 3.54774185e-02,
          2.54491367e+01, 2.57103610e+00, 2.58396029e+00, 1.44583845e+00,
          1.34757388e+00, 1.12297826e-01, 1., 1. ]
      - [ 6., 4.59399745e-02, 3.69582139e-02, 1.21206239e-01, .Inf,
          3.60178587e-04, 0., 1.35516658e-01, 1.24328388e-02,
          9.97289276e+00, 1.95042050e+00, 2.44348884e+00, 1.91497695e+00,
          2.72656131e+00, 4.54426885e-01, 1., 0. ]
      - [ 6., 5.41355833e-02, 4.55723703e-02, 1.31923214e-01, .Inf,
          1.47717888e-04, 0., 1.75984919e-01, 1.62877217e-02,
          9.30966091e+00, 1.82627559e+00, 2.88917160e+00, 2.24355531e+00,
          2.96870732e+00, 4.94784564e-01, 0., 0. ]
      - [ 12., 5.28021604e-02, 4.45075780e-02, 1.49116665e-01, .Inf,
          1.00378285e-03, 0., 2.20776692e-01, 1.21215479e-02,
          2.29181156e+01, 2.43394566e+00, 3.64937711e+00, 1.72321093e+00,
          1.49024725e+00, 1.24187268e-01, 1., 0. ]
      - [ 4., 3.38667817e-02, 2.72232369e-02, 7.61863962e-02,
          2.39340705e-03, 3.60175880e-04, 0., 8.43481570e-02,
          1.43588362e-02, 1.42308788e+01, 1.48033583e+00, 1.70473480e+00,
          2.00661755e+00, 2.87997246e+00, 7.19993114e-01, 1., 1. ]
      - [ 6., 5.43014370e-02, 4.63451445e-02, 1.33270517e-01,
          1.30116725e-02, 6.99515731e-05, 0., 1.72329485e-01,
          1.58115458e-02, 8.60912228e+00, 1.82652998e+00, 2.88426423e+00,
          2.23687959e+00, 2.97042322e+00, 4.95070547e-01, 0., 0. ]
      - [ 8., 3.57079618e-02, 3.05096842e-02, 9.10049453e-02, .Inf,
          9.71695990e-04, 0., 1.31298810e-01, 9.35647078e-03,
          2.53738899e+01, 2.29879999e+00, 2.68612218e+00, 1.84178829e+00,
          1.47500026e+00, 1.84375033e-01, 1., 1. ]
      - [ 8., 1.11812957e-01, 9.71890688e-02, 2.48308077e-01, .Inf,
          4.88538621e-03, 0., 3.56832206e-01, 3.56511138e-02,
          9.30116081e+00, 2.23842525e+00, 2.98534083e+00, 2.01910162e+00,
          3.03207397e+00, 3.79009247e-01, 0., 0. ]
      - [ 6., 5.27344719e-02, 4.44987118e-02, 1.33701667e-01, .Inf,
          3.09203228e-04, 0., 1.55337319e-01, 1.29059777e-02,
          8.45650673e+00, 1.93158484e+00, 2.58100152e+00, 2.02044201e+00,
          3.00033641e+00, 5.00056088e-01, 0., 0. ]
      - [ 6., 6.11952320e-02, 4.99665923e-02, 1.58399016e-01, .Inf,
          9.20951425e-05, 0., 1.71252728e-01, 1.47245023e-02,
          6.33195543e+00, 1.94875097e+00, 2.50894380e+00, 1.94996929e+00,
          3.41602445e+00, 5.69337428e-01, 1., 0. ]
      - [ 7., 6.19006567e-02, 5.46891168e-02, 1.60776258e-01,
          1.97262857e-02, 5.20494767e-04, 0., 2.02518016e-01,
          1.44994482e-02, 1.04486837e+01, 2.15839577e+00, 2.79743767e+00,
          1.94536865e+00, 3.01647663e+00, 4.30925220e-01, 0., 0. ]
      - [ 9., 7.99848884e-02, 6.63564056e-02, 2.22097769e-01,
          4.75588553e-02, 7.79690803e-04, 0., 2.62572318e-01,
          1.31131690e-02, 8.20333672e+00, 2.27156591e+00, 3.08875108e+00,
          1.77360666e+00, 3.07999992e+00, 3.42222214e-01, 0., 0. ]
      - [ 6., 5.90999275e-02, 4.88692485e-02, 1.53685063e-01, .Inf,
          5.37434185e-04, 0., 1.74103811e-01, 1.48981912e-02,
          9.21484947e+00, 1.97093010e+00, 2.46186948e+00, 1.93394434e+00,
          3.48996687e+00, 5.81661165e-01, 0., 0. ]
      - [ 6., 6.47119954e-02, 5.07891625e-02, 1.60281777e-01, .Inf,
          1.24266269e-04, 0., 2.10190445e-01, 2.44573429e-02,
          1.18004951e+01, 1.76810300e+00, 2.92751217e+00, 2.27171040e+00,
          3.25941539e+00, 5.43235898e-01, 0., 1. ]
      - [ 6., 6.57135770e-02, 5.31846732e-02, 1.69764474e-01, .Inf,
          4.98176320e-04, 0., 2.11310506e-01, 2.17373054e-02,
          1.09465876e+01, 1.97037458e+00, 2.61442208e+00, 2.05648422e+00,
          3.50059175e+00, 5.83431959e-01, 0., 0. ]
      - [ 6., 6.34117275e-02, 5.45244478e-02, 1.54990196e-01, .Inf,
          2.74019199e-04, 0., 2.02916622e-01, 1.74697172e-02,
          7.05602360e+00, 1.81898880e+00, 2.87174416e+00, 2.23090100e+00,
          3.48996687e+00, 5.81661165e-01, 0., 1. ]
      - [ 6., 6.02830686e-02, 4.94371168e-02, 1.55738428e-01, .Inf,
          1.47857325e-04, 0., 1.82224646e-01, 1.65701788e-02,
          1.07546272e+01, 1.89540601e+00, 2.64143348e+00, 2.05351210e+00,
          3.50496650e+00, 5.84161103e-01, 0., 0. ]
      - [ 6., 7.62750581e-02, 5.93044721e-02, 1.86186522e-01, .Inf,
          9.24670967e-05, 0., 2.47713313e-01, 3.45125683e-02,
          7.72941685e+00, 1.76057172e+00, 3.00358129e+00, 2.32903552e+00,
          3.53776860e+00, 5.89628100e-01, 0., 0. ]
      - [ 6., 6.21622168e-02, 5.07493578e-02, 1.58473670e-01, .Inf,
          5.30764577e-04, 0., 1.87125951e-01, 1.67751350e-02,
          6.95496655e+00, 1.89834571e+00, 2.59435225e+00, 2.03420687e+00,
          3.59496593e+00, 5.99160969e-01, 0., 1. ]
      - [ 6., 5.58665954e-02, 4.51648720e-02, 1.43672019e-01, .Inf,
          2.11854989e-04, 0., 1.74323827e-01, 1.60269532e-02,
          1.36506615e+01, 1.83980775e+00, 2.69832730e+00, 2.09626126e+00,
          3.25496912e+00, 5.42494833e-01, 1., 1. ]
      - [ 6., 5.41530550e-02, 4.55997922e-02, 1.36124685e-01, .Inf,
          1.70098676e-04, 0., 1.65352434e-01, 1.47841396e-02,
          1.06479683e+01, 1.90209281e+00, 2.70309067e+00, 2.10908341e+00,
          3.08133841e+00, 5.13556421e-01, 0., 0. ]
      - [ 6., 5.56362495e-02, 4.86905128e-02, 1.36708960e-01, .Inf,
          2.08069425e-04, 0., 1.76714465e-01, 1.51180113e-02,
          6.94577456e+00, 1.85526347e+00, 2.82967210e+00, 2.19798541e+00,
          3.07497072e+00, 5.12495100e-01, 0., 0. ]
      - [ 9., 9.03215334e-02, 8.06910843e-02, 2.43734717e-01,
          4.97137122e-02, 5.51751954e-03, 0., 3.28263462e-01,
          2.27571856e-02, 1.65299740e+01, 2.41411829e+00, 2.88476562e+00,
          1.70297372e+00, 2.98546863e+00, 3.31718743e-01, 1., 0. ]
      - [ 6., 4.53176424e-02, 3.76137458e-02, 1.17364161e-01, .Inf,
          2.95116188e-04, 0., 1.35657519e-01, 1.14850048e-02,
          1.49753952e+01, 1.91506851e+00, 2.53903675e+00, 1.98095477e+00,
          2.66997457e+00, 4.44995761e-01, 0., 1. ]
      - [ 6., 5.35763912e-02, 4.44463640e-02, 1.34533733e-01,
          2.18666419e-02, 4.83379627e-05, 0., 1.65338367e-01,
          1.46903992e-02, 8.73606682e+00, 1.81905758e+00, 2.81902409e+00,
          2.18524241e+00, 3.03497124e+00, 5.05828559e-01, 0., 0. ]
      - [ 7., 7.51248002e-02, 6.21030964e-02, 1.92373142e-01,
          2.87020020e-02, 9.40842147e-04, 0., 2.09066421e-01,
          1.62528865e-02, 8.00211334e+00, 2.25022817e+00, 2.37450528e+00,
          1.68535101e+00, 2.99570203e+00, 4.27957445e-01, 0., 1. ]
      - [ 6., 4.88694683e-02, 4.20889668e-02, 1.16702855e-01, .Inf,
          3.89511144e-04, 0., 1.57304496e-01, 1.31866075e-02,
          9.49214268e+00, 1.85778522e+00, 2.83288836e+00, 2.21453047e+00,
          2.54513431e+00, 4.24189061e-01, 0., 1. ]
      - [ 5., 5.06500341e-02, 4.00653668e-02, 1.22567214e-01,
          9.06384271e-03, 1.12972723e-03, 0., 1.41398802e-01,
          2.00053398e-02, 1.20953817e+01, 1.72256136e+00, 2.26478815e+00,
          2.10653543e+00, 2.54092097e+00, 5.08184195e-01, 0., 1. ]
      - [ 10., 6.09741770e-02, 5.11043668e-02, 1.75455481e-01,
          2.52004378e-02, 2.02206685e-03, 0., 2.16276258e-01,
          1.29841212e-02, 1.11951361e+01, 2.47232914e+00, 2.40728641e+00,
          1.33388603e+00, 2.22771311e+00, 2.22771317e-01, 1., 1. ]
      - [ 5., 4.25982401e-02, 3.22066136e-02, 1.09748714e-01,
          3.94507824e-03, 7.80054543e-05, 0., 1.14584312e-01,
          1.58868954e-02, 1.19775620e+01, 1.84609365e+00, 2.04406238e+00,
          1.87193084e+00, 2.49000001e+00, 4.97999996e-01, 1., 0. ]
      - [ 5., 3.57233956e-02, 2.75629424e-02, 8.94730091e-02,
          3.81429191e-03, 5.44596014e-06, 0., 9.42217708e-02,
          1.10476734e-02, 6.31844902e+00, 1.73855114e+00, 2.20693874e+00,
          2.01580787e+00, 2.40000010e+00, 4.80000019e-01, 1., 1. ]
      - [ 7., 3.30800340e-02, 2.78824084e-02, 8.91774520e-02,
          4.17866092e-03, 4.51512227e-04, 0., 9.72129405e-02,
          7.20650284e-03, 1.34023428e+01, 2.25022745e+00, 2.16368341e+00,
          1.50682163e+00, 1.66999996e+00, 2.38571420e-01, 1., 1. ]
      - [ 8., 3.82247679e-02, 3.26326080e-02, 1.02141902e-01, .Inf,
          2.11051956e-04, 0., 1.36362419e-01, 8.23514629e-03,
          2.91288395e+01, 2.24403024e+00, 3.04140115e+00, 1.90462327e+00,
          1.61307442e+00, 2.01634303e-01, 1., 1. ]
      - [ 6., 4.89565060e-02, 3.97416689e-02, 1.23682454e-01, .Inf,
          7.74072774e-04, 0., 1.32691324e-01, 1.42070614e-02,
          1.20675611e+01, 2.24621749e+00, 1.94796848e+00, 1.55637860e+00,
          1.93998158e+00, 3.23330253e-01, 1., 1. ]
      - [ 8., 4.19816524e-02, 3.46935391e-02, 1.13167286e-01, .Inf,
          9.99110052e-04, 0., 1.58002794e-01, 1.02313384e-02,
          2.76021347e+01, 2.22123671e+00, 3.01548934e+00, 1.93282926e+00,
          1.59140348e+00, 1.98925436e-01, 1., 0. ]
      - [ 16., 1.47299618e-01, 1.24335058e-01, 4.62144941e-01,
          2.78758109e-01, 4.78073442e-03, 0., 4.72849309e-01,
          1.16220675e-02, 1.05326939e+01, 2.74925756e+00, 2.76337457e+00,
          1.08019078e+00, 2.10997963e+00, 1.31873727e-01, 1., 1. ]
      - [ 8., 2.79519744e-02, 2.27290392e-02, 7.45138451e-02, .Inf,
          2.22171802e-04, 0., 1.06738850e-01, 8.84088129e-03,
          2.30516434e+01, 2.11401463e+00, 3.18836045e+00, 1.98156512e+00,
          1.20017135e+00, 1.50021419e-01, 1., 1. ]
      - [ 18., 1.53872386e-01, 1.29648834e-01, 4.86653268e-01,
          3.54066551e-01, 5.72488923e-03, 0., 4.98759925e-01,
          1.07928589e-02, 1.13894567e+01, 2.76864934e+00, 2.84557748e+00,
          1.03822386e+00, 2.02498078e+00, 1.12498932e-01, 1., 1. ]
      - [ 12., 3.75390723e-02, 3.13978903e-02, 1.16458178e-01, .Inf,
          3.82803287e-03, 0., 1.38770700e-01, 5.14233392e-03,
          3.49692764e+01, 2.71799183e+00, 2.40325189e+00, 1.17318654e+00,
          1.14043927e+00, 9.50366035e-02, 1., 1. ]
      - [ 14., 4.18027714e-02, 3.46667580e-02, 1.24499939e-01, .Inf,
          2.95435457e-04, 0., 1.91621363e-01, 8.85456800e-03,
          4.75756798e+01, 2.52660298e+00, 3.81624484e+00, 1.62303472e+00,
          9.94816899e-01, 7.10583478e-02, 1., 1. ]
      - [ 14., 3.04533895e-02, 2.60166414e-02, 9.00843218e-02, .Inf,
          6.11798489e-04, 0., 1.64885342e-01, 5.26824128e-03,
          8.35621643e+01, 2.54196024e+00, 2.62638664e+00, 1.27377570e+00,
          7.96211243e-01, 5.68722300e-02, 1., 1. ]
      - [ 24., 7.81420097e-02, 6.48188964e-02, 2.41992608e-01, .Inf,
          2.18297704e-03, 0., 3.63035351e-01, 1.56012401e-02,
          4.66815338e+01, 2.83486032e+00, 3.78996062e+00, 1.21494198e+00,
          9.38337147e-01, 3.90973799e-02, 1., 0. ]
      - [ 11., 4.83204871e-02, 4.39132676e-02, 1.32374808e-01,
          3.11489964e+00, 1.21420017e-03, 0., 1.96258098e-01,
          9.67104267e-03, 2.23302612e+01, 2.38135314e+00, 3.54236579e+00,
          1.77075326e+00, 1.45022595e+00, 1.31838724e-01, 0., 1. ]
      - [ 25., 9.42875147e-02, 8.59592631e-02, 2.84839034e-01,
          1.96105734e-01, 2.36809012e-02, 0., 5.04896283e-01,
          1.85561888e-02, 3.44632912e+01, 2.82851148e+00, 2.96474004e+00,
          1.09024119e+00, 1.34881866e+00, 5.39527461e-02, 1., 1. ]
      - [ 7., 3.53120118e-02, 2.93739680e-02, 9.45053250e-02,
          6.44541113e-03, 7.42720658e-05, 0., 1.11741558e-01,
          7.77416117e-03, 2.09834156e+01, 2.03902364e+00, 2.87258983e+00,
          1.96828759e+00, 1.78080678e+00, 2.54400969e-01, 1., 1. ]
      - [ 6., 3.22553739e-02, 2.67251525e-02, 8.24144259e-02, .Inf,
          6.57144774e-05, 0., 9.54346806e-02, 7.79240346e-03,
          9.43257046e+00, 1.91695499e+00, 2.62179756e+00, 2.03865290e+00,
          1.85763228e+00, 3.09605390e-01, 1., 1. ]
      - [ 6., 3.23046558e-02, 2.66275723e-02, 8.42054188e-02, .Inf,
          5.85676535e-05, 0., 9.48044360e-02, 7.81900808e-03,
          1.85889015e+01, 1.92123365e+00, 2.54171920e+00, 1.97354567e+00,
          1.91498172e+00, 3.19163620e-01, 1., 1. ]
      - [ 12., 3.66960987e-02, 3.13480347e-02, 1.09390058e-01,
          4.01266670e+00, 1.60275202e-03, 0., 1.74780294e-01,
          6.87888311e-03, 5.26475792e+01, 2.46669054e+00, 3.10490799e+00,
          1.50031662e+00, 1.12812257e+00, 9.40102115e-02, 1., 1. ]
      - [ 6., 5.47216944e-02, 4.38367091e-02, 1.33153826e-01, .Inf,
          3.22444132e-04, 0., 1.65784791e-01, 1.69174094e-02,
          1.03739147e+01, 1.79310226e+00, 2.83629441e+00, 2.21969318e+00,
          2.39621449e+00, 3.99369091e-01, 1., 1. ]
      - [ 6., 3.87866907e-02, 3.13496664e-02, 1.01972647e-01, .Inf,
          3.51592716e-05, 0., 1.10609062e-01, 1.00148926e-02,
          5.94116497e+00, 1.96437836e+00, 2.49288416e+00, 1.93410265e+00,
          2.13797975e+00, 3.56329948e-01, 0., 1. ]
      - [ 11., 1.30832911e-01, 1.18060328e-01, 3.12916219e-01,
          1.56508490e-01, 1.80814695e-02, 0., 4.46037740e-01,
          3.71803269e-02, 1.11042862e+01, 2.50023031e+00, 2.65022635e+00,
          1.54155254e+00, 2.50321746e+00, 2.27565229e-01, 1., 1. ]
      - [ 8., 3.33340392e-02, 2.96316948e-02, 9.00342241e-02, .Inf,
          5.78916923e-04, 0., 1.26603439e-01, 9.41554643e-03,
          3.13107166e+01, 2.19637728e+00, 2.91047454e+00, 1.81828773e+00,
          1.44316709e+00, 1.80395886e-01, 1., 1. ]
      - [ 5., 4.87436503e-02, 3.98040675e-02, 1.15687244e-01,
          7.43032480e-03, 3.44302789e-05, 0., 1.42863050e-01,
          2.01069098e-02, 8.11143589e+00, 1.60422671e+00, 2.53400302e+00,
          2.31620860e+00, 3.08897448e+00, 6.17794871e-01, 1., 1. ]
      - [ 4., 4.32517231e-02, 3.18180807e-02, 9.90115330e-02,
          4.40980075e-03, 1.21887870e-05, 0., 1.05607644e-01,
          2.25854088e-02, 4.41652775e+00, 1.39422476e+00, 1.87030816e+00,
          2.16159225e+00, 2.65653014e+00, 6.64132535e-01, 0., 1. ]
      - [ 8., 3.55607271e-02, 2.88354270e-02, 1.03022240e-01, .Inf,
          9.42725164e-05, 0., 1.10770188e-01, 6.68307068e-03,
          3.00598869e+01, 2.23844719e+00, 2.66014576e+00, 1.64873219e+00,
          1.46498621e+00, 1.83123276e-01, 1., 1. ]
      - [ 11., 9.66614410e-02, 8.96291733e-02, 2.72184998e-01,
          8.54881629e-02, 1.25930840e-02, 0., 3.80727828e-01,
          1.66427214e-02, 9.99025440e+00, 2.48879433e+00, 2.79091001e+00,
          1.50845230e+00, 3.14631224e+00, 2.86028385e-01, 1., 0. ]
      - [ 3., 2.10311227e-02, 1.40208369e-02, 4.20621112e-02,
          4.41020093e-04, 6.74094840e-14, 0., 4.20625098e-02,
          1.21424003e-02, 1.38644263e-01, 1.05010426e+00, 1.04429090e+00,
          1.80876482e+00, 2.41000009e+00, 8.03333342e-01, 1., 1. ]
      - [ 3., 4.15879525e-02, 2.77751070e-02, 8.29863399e-02,
          1.74709968e-03, 9.52451399e-12, 0., 8.33253264e-02,
          2.42512245e-02, 1.44584882e+00, 9.86876726e-01, 1.10751832e+00,
          1.91827810e+00, 3.78999996e+00, 1.26333332e+00, 1., 1. ]
      - [ 6., 7.51347765e-02, 6.43673167e-02, 1.47154257e-01, .Inf,
          1.14589580e-03, 0., 2.82840908e-01, 3.43686156e-02,
          8.30795479e+00, 1.72867012e+00, 3.24917340e+00, 2.53588939e+00,
          3.29452443e+00, 5.49087405e-01, 0., 0. ]
      - [ 5., 5.47760613e-02, 4.59987298e-02, 1.34136394e-01,
          8.20577797e-03, 1.49362558e-03, 0., 1.70035645e-01,
          2.01005302e-02, 1.30834007e+01, 1.97863317e+00, 1.86112750e+00,
          1.77546382e+00, 3.78023911e+00, 7.56047845e-01, 1., 1. ]
      - [ 4., 5.78133389e-02, 4.74393107e-02, 1.12162612e-01,
          9.91764292e-03, 1.35481311e-03, 0., 1.68800950e-01,
          2.84076873e-02, 7.47592449e+00, 1.09621632e+00, 2.25613546e+00,
          2.64154553e+00, 3.58381510e+00, 8.95953774e-01, 0., 0. ]
      - [ 10., 5.34800962e-02, 4.54060808e-02, 1.43858567e-01,
          4.19527817e+01, 3.24921770e-04, 0., 1.84921369e-01,
          9.64546390e-03, 1.32700815e+01, 2.46188688e+00, 3.20652056e+00,
          1.75271487e+00, 1.71728039e+00, 1.71728045e-01, 1., 1. ]
      - [ 5., 5.69151975e-02, 4.69971821e-02, 1.34928286e-01,
          1.06040528e-02, 8.27044350e-05, 0., 1.64842099e-01,
          1.95629578e-02, 6.99844027e+00, 1.60788310e+00, 2.50894952e+00,
          2.29467082e+00, 3.81012368e+00, 7.62024760e-01, 0., 1. ]
      - [ 4., 5.24414070e-02, 4.34088111e-02, 1.04540981e-01,
          7.27468077e-03, 1.72003143e-04, 0., 1.54626220e-01,
          2.87408344e-02, 7.30692387e+00, 1.13394046e+00, 2.29364729e+00,
          2.65448403e+00, 3.93347692e+00, 9.83369231e-01, 0., 1. ]
      - [ 9., 7.84627497e-02, 5.81372529e-02, 2.36714765e-01,
          1.53953266e+01, 1.87201513e-04, 0., 2.74538070e-01,
          3.17749791e-02, 1.39573212e+01, 2.29375744e+00, 3.16858625e+00,
          1.80368209e+00, 1.95473599e+00, 2.17192888e-01, 1., 1. ]
      - [ 6., 3.96985635e-02, 3.19316946e-02, 9.68581662e-02, .Inf,
          4.31705441e-04, 0., 1.44755840e-01, 1.51249394e-02,
          2.17444763e+01, 1.74624872e+00, 2.90119839e+00, 2.26246810e+00,
          2.19497895e+00, 3.65829825e-01, 1., 1. ]
      - [ 6., 3.80467772e-02, 3.07186227e-02, 9.86033157e-02, .Inf,
          2.12571293e-04, 0., 1.19593307e-01, 1.03635499e-02,
          2.37928791e+01, 1.83534741e+00, 2.63031387e+00, 2.05031753e+00,
          2.24497867e+00, 3.74163121e-01, 1., 0. ]
      - [ 9., 6.46024495e-02, 5.38062416e-02, 1.83731392e-01,
          2.64451317e-02, 7.29352748e-03, 0., 2.00423926e-01,
          9.67142545e-03, 1.51811733e+01, 2.36554265e+00, 2.53216743e+00,
          1.45785213e+00, 2.35999990e+00, 2.62222201e-01, 1., 1. ]
      - [ 9., 6.23920560e-02, 5.13650924e-02, 1.79105848e-01,
          2.51687374e-02, 3.27424466e-04, 0., 1.90160751e-01,
          7.97503814e-03, 9.97696114e+00, 2.40307570e+00, 2.69332838e+00,
          1.54690528e+00, 2.52999997e+00, 2.81111121e-01, 1., 1. ]
      - [ 4., 2.91666202e-02, 2.29686014e-02, 6.41385615e-02,
          1.83995022e-03, 4.83265831e-05, 0., 7.62606859e-02,
          1.29899532e-02, 1.06795158e+01, 1.27706563e+00, 2.02965474e+00,
          2.35341191e+00, 2.44046640e+00, 6.10116601e-01, 1., 1. ]
      - [ 10., 6.78416491e-02, 5.75302429e-02, 1.99297950e-01,
          2.68634272e+00, 6.72506401e-03, 0., 2.23045453e-01,
          9.05088335e-03, 1.26500797e+01, 2.52025557e+00, 2.43369150e+00,
          1.32407045e+00, 2.53936529e+00, 2.53936529e-01, 1., 1. ]
      - [ 4., 5.98109849e-02, 4.66529652e-02, 1.28485322e-01,
          6.73544453e-03, 5.85891212e-05, 0., 1.55996501e-01,
          2.92505622e-02, 7.70061111e+00, 1.20080674e+00, 2.14206195e+00,
          2.47638583e+00, 4.31141853e+00, 1.07785463e+00, 1., 0. ]
      - [ 4., 4.79329787e-02, 3.75730731e-02, 1.09439529e-01,
          4.40366566e-03, 8.49224216e-06, 0., 1.15282387e-01,
          1.93040837e-02, 5.02359724e+00, 1.37978160e+00, 1.85876274e+00,
          2.14731669e+00, 4.09496117e+00, 1.02374029e+00, 1., 0. ]
      - [ 10., 5.05422577e-02, 4.33743745e-02, 1.40257686e-01,
          4.62317772e+01, 4.06057574e-03, 0., 1.96519092e-01,
          8.81111715e-03, 2.42248402e+01, 2.36975479e+00, 2.87304330e+00,
          1.59954703e+00, 1.73498344e+00, 1.73498347e-01, 1., 1. ]
      - [ 4., 4.64562587e-02, 3.60326730e-02, 1.07380144e-01,
          4.07289201e-03, 1.91047748e-05, 0., 1.10618681e-01,
          1.86098311e-02, 3.38973689e+00, 1.44588900e+00, 1.76277924e+00,
          2.03783965e+00, 4.01996183e+00, 1.00499046e+00, 0., 0. ]
      - [ 4., 5.26066236e-02, 4.27656732e-02, 1.11579925e-01,
          6.22510258e-03, 1.56972834e-04, 0., 1.43801421e-01,
          2.45087966e-02, 7.30173922e+00, 1.19802535e+00, 2.15648150e+00,
          2.49766469e+00, 4.21217489e+00, 1.05304372e+00, 1., 0. ]
      - [ 8., 4.29837741e-02, 3.67212333e-02, 1.11832835e-01, .Inf,
          2.80817359e-04, 0., 1.45474523e-01, 8.16824753e-03,
          1.02063332e+01, 2.17221379e+00, 3.17732525e+00, 1.97467971e+00,
          1.68120980e+00, 2.10151225e-01, 1., 1. ]
      - [ 8., 1.14685759e-01, 1.02197617e-01, 2.77843922e-01, .Inf,
          3.54520208e-03, 0., 3.66786182e-01, 3.59253399e-02,
          8.44558144e+00, 2.29562283e+00, 2.89851046e+00, 1.91200280e+00,
          3.88158846e+00, 4.85198557e-01, 1., 0. ]
      - [ 8., 4.62501422e-02, 3.93766202e-02, 1.16058685e-01, .Inf,
          7.09908723e-04, 0., 1.69584513e-01, 1.07818795e-02,
          1.23289309e+01, 2.14987063e+00, 3.30726504e+00, 2.06171918e+00,
          1.67958009e+00, 2.09947512e-01, 1., 1. ]
      - [ 5., 5.43599986e-02, 4.14605923e-02, 1.27660528e-01,
          1.02921976e-02, 1.94787892e-04, 0., 1.67193949e-01,
          2.39630546e-02, 1.03220444e+01, 1.55595851e+00, 2.56911087e+00,
          2.35048985e+00, 3.51999998e+00, 7.03999996e-01, 0., 0. ]
      - [ 19., 1.12765558e-01, 1.00723110e-01, 3.10106575e-01,
          1.98288023e-01, 2.55507715e-02, 0., 5.02381802e-01,
          3.11707184e-02, 2.40957527e+01, 2.76748753e+00, 3.12072062e+00,
          1.33448577e+00, 1.65001512e+00, 8.68429020e-02, 1., 1. ]
      - [ 8., 4.47180346e-02, 3.76282707e-02, 1.11832671e-01, .Inf,
          2.35041443e-04, 0., 1.62142992e-01, 1.07451035e-02,
          1.26201706e+01, 2.10695338e+00, 3.41044259e+00, 2.11446071e+00,
          1.67079616e+00, 2.08849519e-01, 1., 1. ]
      - [ 5., 5.35797700e-02, 4.41066250e-02, 1.23254739e-01,
          7.54890312e-03, 5.19286375e-04, 0., 1.54804543e-01,
          1.89835168e-02, 1.15897579e+01, 1.66746366e+00, 2.37621570e+00,
          2.21891737e+00, 3.39802599e+00, 6.79605186e-01, 0., 0. ]
      - [ 8., 8.32420886e-02, 7.13308081e-02, 2.12270275e-01, .Inf,
          2.47784983e-03, 0., 2.90622801e-01, 2.24230494e-02,
          1.01133480e+01, 2.27355647e+00, 2.80670595e+00, 1.87028027e+00,
          3.41549706e+00, 4.26937133e-01, 0., 1. ]
      - [ 8., 4.84305620e-02, 3.98139991e-02, 1.24446392e-01, .Inf,
          5.63460926e-04, 0., 1.80460036e-01, 1.54550560e-02,
          1.94895973e+01, 2.20234394e+00, 3.31839085e+00, 2.07379007e+00,
          1.63893473e+00, 2.04866841e-01, 1., 1. ]
      - [ 6., 6.26138672e-02, 5.49605303e-02, 1.52413055e-01, .Inf,
          3.10333475e-04, 0., 2.02046603e-01, 1.82734467e-02,
          6.17462397e+00, 1.84640312e+00, 2.86489367e+00, 2.22548032e+00,
          3.36519790e+00, 5.60866296e-01, 0., 0. ]
      - [ 6., 6.18565828e-02, 5.22805192e-02, 1.53215766e-01, .Inf,
          8.02748400e-05, 0., 1.95109397e-01, 1.86485779e-02,
          7.36478710e+00, 1.82758164e+00, 2.86784840e+00, 2.22325039e+00,
          3.33496833e+00, 5.55828035e-01, 0., 0. ]
      - [ 5., 5.47028221e-02, 4.33877297e-02, 1.34335235e-01,
          9.94386524e-03, 5.23288836e-05, 0., 1.47384599e-01,
          1.87443011e-02, 5.08762693e+00, 1.70083165e+00, 2.30987549e+00,
          2.11102295e+00, 3.25000000e+00, 6.49999976e-01, 0., 1. ]
      - [ 6., 2.73697339e-02, 2.19445601e-02, 7.20318854e-02, .Inf,
          3.76655109e-04, 0., 8.45676139e-02, 7.98089243e-03,
          1.76947708e+01, 1.94144905e+00, 2.39102650e+00, 1.88394153e+00,
          1.62998450e+00, 2.71664083e-01, 1., 1. ]
      - [ 16., 6.02571517e-02, 5.06785847e-02, 1.88114494e-01, .Inf,
          5.30474447e-03, 0., 2.12114900e-01, 4.61586099e-03,
          2.12120056e+01, 2.79843378e+00, 2.68678880e+00, 1.08942306e+00,
          1.42998636e+00, 8.93741474e-02, 1., 1. ]
      - [ 8., 3.49377543e-02, 2.84899566e-02, 9.58909243e-02, .Inf,
          1.80832983e-04, 0., 1.22538298e-01, 7.61702191e-03,
          2.22818584e+01, 2.11945081e+00, 3.10979009e+00, 1.92785382e+00,
          1.55236304e+00, 1.94045380e-01, 1., 1. ]
      - [ 5., 7.01798722e-02, 5.46322390e-02, 1.49545044e-01,
          1.17345117e-02, 3.52330902e-03, 0., 2.22700775e-01,
          2.83635426e-02, 6.44178963e+00, 1.53587115e+00, 2.41004133e+00,
          2.29591966e+00, 3.59999990e+00, 7.19999969e-01, 1., 0. ]
      - [ 8., 3.91441621e-02, 3.25844996e-02, 1.07194372e-01, .Inf,
          9.73168717e-05, 0., 1.32792175e-01, 9.03248601e-03,
          1.64604683e+01, 2.22335672e+00, 3.04209399e+00, 1.89783156e+00,
          1.65965569e+00, 2.07456961e-01, 1., 1. ]
      - [ 6., 2.88391840e-02, 2.35184785e-02, 7.59763569e-02, .Inf,
          6.06651825e-04, 0., 8.95970166e-02, 8.20674933e-03,
          3.02246056e+01, 2.00067520e+00, 2.12342882e+00, 1.68344128e+00,
          1.68239999e+00, 2.80400008e-01, 1., 1. ]
      - [ 8., 3.81413065e-02, 3.16140614e-02, 1.05222732e-01, .Inf,
          1.49940170e-04, 0., 1.29139870e-01, 7.11808028e-03,
          2.48566666e+01, 2.17253590e+00, 2.95350099e+00, 1.83550894e+00,
          1.69650185e+00, 2.12062731e-01, 1., 1. ]
      - [ 8., 3.60568166e-02, 2.95672137e-02, 1.02791280e-01, .Inf,
          1.04061700e-03, 0., 1.11425072e-01, 5.83798531e-03,
          2.17021713e+01, 2.28774118e+00, 2.47166824e+00, 1.54715657e+00,
          1.66998410e+00, 2.08748013e-01, 1., 1. ]
      - [ 8., 3.68170254e-02, 3.13003659e-02, 1.02141842e-01, .Inf,
          9.70457477e-05, 0., 1.22220367e-01, 6.96130749e-03,
          2.48199100e+01, 2.24402905e+00, 2.92141294e+00, 1.82041037e+00,
          1.61498475e+00, 2.01873094e-01, 1., 1. ]
      - [ 8., 3.95215750e-02, 3.21371406e-02, 1.05663493e-01, .Inf,
          1.56785216e-04, 0., 1.41838461e-01, 9.51407757e-03,
          2.11058636e+01, 2.10836220e+00, 3.24234438e+00, 2.00650573e+00,
          1.70263982e+00, 2.12829977e-01, 1., 1. ]
      - [ 8., 3.93717326e-02, 3.19867358e-02, 1.11262687e-01, .Inf,
          3.55933153e-04, 0., 1.25594452e-01, 7.07948906e-03,
          2.70924721e+01, 2.17151928e+00, 2.74676466e+00, 1.71648014e+00,
          1.68982780e+00, 2.11228475e-01, 1., 1. ]
      - [ 8., 3.87823470e-02, 3.21181566e-02, 1.05831161e-01, .Inf,
          6.76713025e-05, 0., 1.29404202e-01, 7.13662710e-03,
          1.87680779e+01, 2.17323804e+00, 3.07654095e+00, 1.90237236e+00,
          1.70300245e+00, 2.12875307e-01, 1., 1. ]
      - [ 22., 9.56627503e-02, 8.56156871e-02, 3.02611291e-01,
          1.15924711e+01, 3.51933166e-02, 0., 4.65008199e-01,
          1.22460201e-02, 3.11977425e+01, 2.78507042e+00, 3.36882687e+00,
          1.17010200e+00, 1.62945533e+00, 7.40661547e-02, 1., 1. ]
      - [ 6., 3.44630145e-02, 2.88170353e-02, 8.71802270e-02, .Inf,
          5.25301090e-04, 0., 1.17927447e-01, 1.15013085e-02,
          3.01199055e+01, 1.83770180e+00, 2.64916587e+00, 2.08709621e+00,
          1.97571778e+00, 3.29286307e-01, 1., 1. ]
      - [ 8., 3.93156037e-02, 3.30873206e-02, 1.09541990e-01, .Inf,
          2.97580933e-04, 0., 1.35296777e-01, 9.05976538e-03,
          2.95514221e+01, 2.28977609e+00, 2.77328730e+00, 1.72982574e+00,
          1.71480370e+00, 2.14350462e-01, 1., 1. ]
      - [ 6., 3.74008790e-02, 2.94955503e-02, 1.00374535e-01, .Inf,
          1.85995988e-04, 0., 1.20698258e-01, 1.39015447e-02,
          2.72537766e+01, 1.99460816e+00, 2.48579478e+00, 1.95483708e+00,
          1.97952712e+00, 3.29921186e-01, 1., 1. ]
      - [ 8., 3.91211510e-02, 3.41109298e-02, 1.06439002e-01, .Inf,
          2.01434654e-04, 0., 1.34035438e-01, 7.81448837e-03,
          2.98595314e+01, 2.21648312e+00, 2.97022128e+00, 1.84467423e+00,
          1.72289014e+00, 2.15361267e-01, 1., 1. ]
      - [ 8., 3.85610089e-02, 3.17355208e-02, 1.08738437e-01, .Inf,
          1.42948207e-04, 0., 1.24272883e-01, 6.36395812e-03,
          3.14083710e+01, 2.21747351e+00, 2.74479437e+00, 1.70469224e+00,
          1.73873448e+00, 2.17341810e-01, 1., 1. ]
      - [ 22., 1.01252921e-01, 9.06003639e-02, 2.85457104e-01,
          1.19499559e+01, 6.80284062e-03, 0., 3.79879594e-01,
          1.68685727e-02, 4.79236794e+01, 2.81587911e+00, 3.39285111e+00,
          1.15863192e+00, 1.09708989e+00, 4.98677231e-02, 1., 1. ]
      - [ 8., 4.49758060e-02, 3.65157127e-02, 1.27264053e-01, .Inf,
          4.56675974e-04, 0., 1.50422737e-01, 9.41671245e-03,
          2.20332279e+01, 2.16802859e+00, 2.89602447e+00, 1.80037463e+00,
          2.00814629e+00, 2.51018286e-01, 1., 1. ]
      - [ 13., 6.20543472e-02, 5.26713058e-02, 1.88192561e-01,
          4.05623280e-02, 6.73061179e-04, 0., 2.05210358e-01,
          4.96313721e-03, 1.52261505e+01, 2.57725930e+00, 2.98756289e+00,
          1.34090734e+00, 1.75807846e+00, 1.35236800e-01, 1., 1. ]
      - [ 12., 3.79478186e-02, 3.19292434e-02, 1.03632838e-01, .Inf,
          7.96123117e-04, 0., 1.92592427e-01, 1.05721420e-02,
          5.40224648e+01, 2.41880560e+00, 3.70169544e+00, 1.75707686e+00,
          1.04710495e+00, 8.72587487e-02, 1., 1. ]
      - [ 4., 6.61937892e-02, 5.24903648e-02, 1.44759625e-01,
          7.67680025e-03, 2.17557303e-04, 0., 1.58624008e-01,
          3.05248965e-02, 5.63884830e+00, 1.84812951e+00, 1.19537246e+00,
          1.40400350e+00, 3.62496543e+00, 9.06241357e-01, 1., 1. ]
      - [ 8., 4.37579714e-02, 3.65316309e-02, 1.20153874e-01, .Inf,
          8.23092705e-05, 0., 1.38532788e-01, 7.51474500e-03,
          9.50106049e+00, 2.18496180e+00, 3.00709367e+00, 1.85998821e+00,
          1.87714422e+00, 2.34643027e-01, 1., 1. ]
      - [ 8., 4.78298664e-02, 3.97704169e-02, 1.28451318e-01, .Inf,
          6.21938525e-05, 0., 1.63524836e-01, 1.01553993e-02,
          1.71860847e+01, 2.12742496e+00, 3.20763922e+00, 1.98198676e+00,
          2.01391268e+00, 2.51739085e-01, 1., 1. ]
      - [ 53., 1.20324813e-01, 1.08458489e-01, 3.61011863e-01,
          1.72738171e+00, 6.80157617e-02, 0., 5.82507432e-01,
          1.30718211e-02, 8.99961929e+01, 3.03415656e+00, 2.94897699e+00,
          6.56361222e-01, 5.60105324e-01, 1.05680246e-02, 0., 1. ]
      - [ 12., 6.80655465e-02, 5.65344580e-02, 2.08070472e-01,
          4.39109020e-02, 1.31098402e-03, 0., 2.37326086e-01,
          7.63832685e-03, 1.78409863e+01, 2.49828100e+00, 3.09776568e+00,
          1.46128178e+00, 2.08340764e+00, 1.73617303e-01, 0., 1. ]
      - [ 24., 3.72229442e-02, 3.16841267e-02, 1.22976132e-01, .Inf,
          5.66095067e-03, 0., 1.63609862e-01, 3.40655190e-03,
          5.39537773e+01, 2.84053659e+00, 3.25511050e+00, 1.07776558e+00,
          5.57533085e-01, 2.32305452e-02, 1., 0. ]
      - [ 6., 3.12039703e-02, 2.54479591e-02, 8.24144110e-02, .Inf,
          7.78697286e-05, 0., 9.00172293e-02, 7.47754471e-03,
          2.44720287e+01, 2.00878358e+00, 2.36028481e+00, 1.83778834e+00,
          1.86650229e+00, 3.11083704e-01, 1., 1. ]
      - [ 38., 4.23596539e-02, 3.66479270e-02, 1.40994594e-01,
          6.27233088e-02, 5.62462304e-03, 0., 3.80807430e-01,
          5.69290249e-03, 1.00332764e+02, 2.98451304e+00, 3.36948919e+00,
          8.76766920e-01, 4.17979449e-01, 1.09994588e-02, 1., 1. ]
      - [ 34., 2.58793831e-01, 2.19161406e-01, 8.65746737e-01,
          1.98542747e+01, 2.20412463e-02, 0., 8.90331089e-01,
          8.44868645e-03, 1.40859680e+01, 2.96388245e+00, 2.93487740e+00,
          7.47013867e-01, 1.90498173e+00, 5.60288727e-02, 1., 1. ]
      - [ 8., 4.04616185e-02, 3.31908278e-02, 1.14824869e-01, .Inf,
          1.37695431e-04, 0., 1.20120816e-01, 6.19966537e-03,
          1.15747013e+01, 2.29416776e+00, 2.55495524e+00, 1.59146714e+00,
          1.87156725e+00, 2.33945906e-01, 1., 1. ]
      - [ 18., 3.52453664e-02, 3.07107642e-02, 1.01104937e-01,
          2.13994551e-02, 6.44477841e-04, 0., 1.79934770e-01,
          5.76104270e-03, 8.27275085e+01, 2.67234921e+00, 3.92249131e+00,
          1.44932103e+00, 6.46537781e-01, 3.59187648e-02, 1., 1. ]
      - [ 10., 6.12288453e-02, 5.27062304e-02, 1.72518134e-01,
          2.98700575e-02, 2.34714872e-03, 0., 1.97341979e-01,
          1.05491318e-02, 2.26230259e+01, 2.37658644e+00, 2.71167898e+00,
          1.49455559e+00, 1.88488758e+00, 1.88488752e-01, 1., 1. ]
      - [ 24., 3.67321074e-02, 3.16311978e-02, 1.18601389e-01, .Inf,
          1.95900979e-03, 0., 2.23623514e-01, 5.78365847e-03,
          6.06000061e+01, 2.78573799e+00, 3.33034348e+00, 1.08717000e+00,
          5.71575284e-01, 2.38156375e-02, 1., 1. ]
      - [ 25., 4.38740253e-02, 3.72414961e-02, 1.42251670e-01,
          1.07438068e+01, 2.61071906e-03, 0., 2.25829065e-01,
          5.91679709e-03, 6.75921478e+01, 2.84727526e+00, 3.69219279e+00,
          1.15957832e+00, 6.45876884e-01, 2.58350745e-02, 1., 1. ]
      - [ 6., 4.30817306e-02, 3.41661461e-02, 9.88648459e-02, .Inf,
          3.35948571e-04, 0., 1.48293972e-01, 1.57667026e-02,
          2.04027176e+01, 1.72866714e+00, 3.06792712e+00, 2.39382243e+00,
          1.91627073e+00, 3.19378465e-01, 1., 1. ]
      - [ 6., 4.21503931e-02, 3.42830569e-02, 9.88648012e-02, .Inf,
          2.08166064e-04, 0., 1.43905520e-01, 1.70683600e-02,
          1.58252220e+01, 1.80372739e+00, 3.03582382e+00, 2.35846066e+00,
          1.91773021e+00, 3.19621712e-01, 1., 1. ]
      - [ 8., 5.62058389e-02, 4.68350463e-02, 1.42947033e-01, .Inf,
          8.35012703e-04, 0., 2.02995315e-01, 1.39949797e-02,
          1.06099176e+01, 2.14891768e+00, 3.30647016e+00, 2.05820727e+00,
          1.89025223e+00, 2.36281529e-01, 1., 1. ]
      - [ 8., 3.27274688e-02, 2.67045945e-02, 8.34470913e-02, .Inf,
          1.52350031e-03, 0., 1.29270881e-01, 9.67059750e-03,
          3.84401588e+01, 2.07714295e+00, 3.11165118e+00, 1.97882664e+00,
          1.25998795e+00, 1.57498494e-01, 1., 1. ]
      - [ 8., 3.49324197e-02, 2.81775761e-02, 9.67571884e-02, .Inf,
          4.09744913e-04, 0., 1.28966451e-01, 1.17785418e-02,
          1.66550446e+01, 2.12674642e+00, 3.06133103e+00, 1.90380025e+00,
          1.53182447e+00, 1.91478059e-01, 1., 1. ]
      - [ 12., 5.12607470e-02, 4.43749018e-02, 1.30123883e-01, .Inf,
          2.57949741e-03, 0., 2.32964784e-01, 1.31474677e-02,
          3.46373596e+01, 2.50704217e+00, 3.58292460e+00, 1.73826110e+00,
          1.30630589e+00, 1.08858824e-01, 1., 1. ]
      - [ 8., 3.84804830e-02, 3.28562744e-02, 1.00178860e-01, .Inf,
          4.91473067e-04, 0., 1.21984109e-01, 6.83220895e-03,
          1.82698746e+01, 2.28296900e+00, 2.78182030e+00, 1.79699242e+00,
          1.54574811e+00, 1.93218514e-01, 1., 1. ]
      - [ 8., 3.64380814e-02, 3.03788707e-02, 9.67136547e-02, .Inf,
          5.33219194e-04, 0., 1.27545163e-01, 8.92772805e-03,
          2.11056118e+01, 2.14086485e+00, 3.07881212e+00, 1.93084157e+00,
          1.56031990e+00, 1.95039988e-01, 1., 1. ]
      - [ 3., 1.77733190e-02, 1.27582736e-02, 3.36420462e-02,
          5.07345656e-04, 1.04814615e-10, 0., 3.75833511e-02,
          1.20979734e-02, 1.63174038e+01, 7.24723041e-01, 1.36967218e+00,
          2.37234163e+00, 1.54278398e+00, 5.14261305e-01, 1., 1. ]
      - [ 6., 2.86823828e-02, 2.34889518e-02, 7.70686641e-02, .Inf,
          8.35766026e-04, 0., 1.06256202e-01, 1.08089279e-02,
          2.19743156e+01, 2.01659369e+00, 2.13824272e+00, 1.71803498e+00,
          1.50838768e+00, 2.51397938e-01, 1., 1. ]
      - [ 24., 1.16075195e-01, 1.06385387e-01, 3.30085754e-01, .Inf,
          2.96200421e-02, 0., 5.06836176e-01, 2.67307311e-02,
          3.13535957e+01, 2.88833880e+00, 2.96579862e+00, 1.09931839e+00,
          1.35498714e+00, 5.64577989e-02, 1., 0. ]
      - [ 19., 8.42734128e-02, 6.92603290e-02, 2.36915022e-01,
          1.27912924e-01, 3.99081968e-03, 0., 3.49566400e-01,
          1.66250430e-02, 2.26404877e+01, 2.71336937e+00, 3.95679879e+00,
          1.44868171e+00, 1.12355542e+00, 5.91344945e-02, 1., 1. ]
      - [ 6., 1.92298666e-02, 1.56132849e-02, 5.29147200e-02, .Inf,
          4.31698456e-04, 0., 7.15591982e-02, 7.47612678e-03,
          4.36324234e+01, 2.05101728e+00, 2.17191482e+00, 1.75903141e+00,
          9.73319411e-01, 1.62219897e-01, 1., 1. ]
      - [ 10., 5.26922829e-02, 4.49321270e-02, 1.38946906e-01, .Inf,
          1.22786872e-03, 0., 2.22095400e-01, 1.05915917e-02,
          2.43126640e+01, 2.30778098e+00, 3.48667717e+00, 1.86952710e+00,
          1.72449601e+00, 1.72449604e-01, 0., 1. ]
      - [ 8., 3.80051844e-02, 3.19287330e-02, 1.05223142e-01, .Inf,
          2.08133031e-04, 0., 1.29314736e-01, 7.11346976e-03,
          3.02576046e+01, 2.28910971e+00, 2.81009555e+00, 1.75574028e+00,
          1.69498396e+00, 2.11872995e-01, 1., 1. ]
      - [ 8., 2.92619839e-02, 2.39494331e-02, 8.12860206e-02, .Inf,
          5.77687577e-04, 0., 1.05652206e-01, 6.43472839e-03,
          4.59546967e+01, 2.18067884e+00, 2.47564864e+00, 1.60231173e+00,
          1.28958285e+00, 1.61197856e-01, 1., 1. ]
      - [ 8., 3.03833354e-02, 2.45616958e-02, 8.34470913e-02, .Inf,
          1.13100186e-03, 0., 1.05067126e-01, 7.37682963e-03,
          3.22073441e+01, 2.27024126e+00, 2.55474067e+00, 1.65303719e+00,
          1.26998794e+00, 1.58748493e-01, 1., 1. ]
      - [ 8., 2.87955496e-02, 2.38371249e-02, 8.06935504e-02, .Inf,
          6.18218037e-04, 0., 9.31972191e-02, 5.06963348e-03,
          3.87119446e+01, 2.17970300e+00, 2.68479657e+00, 1.68775451e+00,
          1.27494919e+00, 1.59368649e-01, 1., 1. ]
      - [ 8., 3.08758039e-02, 2.54919585e-02, 8.73399898e-02, .Inf,
          6.96289178e-04, 0., 1.01266466e-01, 5.39658917e-03,
          4.31596909e+01, 2.36273837e+00, 2.46872020e+00, 1.54196012e+00,
          1.42925191e+00, 1.78656489e-01, 1., 1. ]
      - [ 8., 3.02023161e-02, 2.44093407e-02, 8.72651264e-02, .Inf,
          1.32032219e-04, 0., 9.74878073e-02, 6.34194957e-03,
          3.47544632e+01, 2.49625444e+00, 2.00620508e+00, 1.25435019e+00,
          1.27771413e+00, 1.59714267e-01, 1., 1. ]
      - [ 8., 3.42453606e-02, 2.81882640e-02, 9.71681923e-02, .Inf,
          6.22661260e-04, 0., 1.42040238e-01, 1.18001131e-02,
          4.97999115e+01, 2.20468831e+00, 2.90788102e+00, 1.82076550e+00,
          1.43056619e+00, 1.78820774e-01, 1., 1. ]
      - [ 14., 4.73981090e-02, 3.99504676e-02, 1.46267176e-01, .Inf,
          1.27078930e-03, 0., 1.87289044e-01, 4.87313652e-03,
          4.86781349e+01, 2.59623861e+00, 3.11573672e+00, 1.33689833e+00,
          1.27551413e+00, 9.11081508e-02, 1., 1. ]
      - [ 14., 4.98572439e-02, 4.20311205e-02, 1.49434611e-01, .Inf,
          6.10175659e-04, 0., 2.06204385e-01, 7.41958013e-03,
          3.59502068e+01, 2.62349868e+00, 3.16656661e+00, 1.39867270e+00,
          1.24891579e+00, 8.92082676e-02, 0., 1. ]
      - [ 8., 3.22521739e-02, 2.67541818e-02, 9.06416029e-02, .Inf,
          3.72022623e-04, 0., 1.10675715e-01, 6.66258670e-03,
          3.27027283e+01, 2.15470695e+00, 2.88384771e+00, 1.79985905e+00,
          1.46099794e+00, 1.82624742e-01, 1., 1. ]
      - [ 6., 3.70373689e-02, 2.86110789e-02, 9.69889909e-02, .Inf,
          1.02785278e-04, 0., 1.18314937e-01, 1.74348634e-02,
          5.51550674e+00, 1.89191151e+00, 2.69069767e+00, 2.09408498e+00,
          1.87998199e+00, 3.13330323e-01, 1., 1. ]
      - [ 8., 3.25758085e-02, 2.66579650e-02, 9.31747109e-02, .Inf,
          1.87745620e-03, 0., 1.08515710e-01, 6.62232842e-03,
          2.30757828e+01, 2.32060218e+00, 2.44587779e+00, 1.58435738e+00,
          1.48828769e+00, 1.86035961e-01, 1., 1. ]
      - [ 8., 3.41578461e-02, 2.78241336e-02, 9.78504866e-02, .Inf,
          3.94921110e-04, 0., 1.02997385e-01, 5.46508050e-03,
          2.64838257e+01, 2.28258300e+00, 2.47526240e+00, 1.53559947e+00,
          1.52102268e+00, 1.90127835e-01, 1., 1. ]
      - [ 6., 3.68375368e-02, 3.02773993e-02, 9.87713858e-02, .Inf,
          1.39087671e-03, 0., 1.22050397e-01, 1.04468176e-02,
          2.22872696e+01, 2.04602575e+00, 2.15344167e+00, 1.71547985e+00,
          2.06496739e+00, 3.44161242e-01, 1., 1. ]
      - [ 6., 4.56359871e-02, 3.65079530e-02, 1.04455709e-01, .Inf,
          3.52038740e-04, 0., 1.52132139e-01, 1.76196843e-02,
          1.49221125e+01, 1.74790251e+00, 3.10772324e+00, 2.41967559e+00,
          1.91792798e+00, 3.19654673e-01, 1., 0. ]
      - [ 7., 5.14426529e-02, 4.14871760e-02, 1.29366398e-01,
          1.31244445e-02, 1.59188305e-04, 0., 1.79968759e-01,
          1.64053477e-02, 1.08025818e+01, 1.94159091e+00, 3.21770978e+00,
          2.20239592e+00, 2.30864692e+00, 3.29806715e-01, 1., 0. ]
      - [ 8., 5.38729727e-02, 4.34270762e-02, 1.36452273e-01, .Inf,
          5.83829751e-05, 0., 2.06147596e-01, 1.91918537e-02,
          1.05653172e+01, 2.06407833e+00, 3.48962736e+00, 2.15450358e+00,
          2.15302491e+00, 2.69128114e-01, 1., 1. ]
      - [ 6., 5.12092635e-02, 4.16556932e-02, 1.06174916e-01, .Inf,
          7.77694077e-05, 0., 1.88908875e-01, 2.33975425e-02,
          1.32009382e+01, 1.69693434e+00, 3.30107689e+00, 2.55804586e+00,
          2.33446789e+00, 3.89077991e-01, 0., 0. ]
      - [ 14., 1.22365676e-01, 1.09880671e-01, 3.27826440e-01,
          1.58488423e-01, 2.75116581e-02, 0., 7.10521221e-01,
          4.50687371e-02, 1.30426865e+01, 2.55650973e+00, 2.87020373e+00,
          1.45822048e+00, 2.64097404e+00, 1.88640997e-01, 1., 0. ]
      - [ 6., 4.37324494e-02, 3.66119929e-02, 1.12179637e-01, .Inf,
          1.11787056e-04, 0., 1.26198247e-01, 1.05456691e-02,
          9.61800480e+00, 1.95820093e+00, 2.54465389e+00, 1.98276293e+00,
          2.50558996e+00, 4.17598337e-01, 1., 1. ]
      - [ 6., 6.45830855e-02, 4.88375835e-02, 1.71533599e-01,
          1.93970185e-02, 1.06111074e-05, 0., 1.91321447e-01,
          2.76904050e-02, 5.89845848e+00, 1.88831711e+00, 2.64376521e+00,
          2.04822493e+00, 2.76497388e+00, 4.60828990e-01, 0., 0. ]
      - [ 7., 1.38884440e-01, 1.10386796e-01, 3.66843849e-01,
          6.77440241e-02, 1.39509677e-03, 0., 3.88821393e-01,
          4.13014255e-02, 7.96758175e+00, 2.15980148e+00, 2.60065794e+00,
          1.78928733e+00, 2.95000029e+00, 4.21428621e-01, 1., 0. ]
      - [ 6., 6.68350235e-02, 5.37964292e-02, 1.43014565e-01,
          3.00687235e-02, 8.20634479e-04, 0., 2.51934677e-01,
          3.18990834e-02, 9.24631500e+00, 1.69477260e+00, 3.22186852e+00,
          2.50258398e+00, 3.14274192e+00, 5.23790300e-01, 1., 0. ]
      - [ 11., 7.61110783e-02, 6.33530766e-02, 1.97318375e-01,
          2.68811750e+00, 9.61953832e-04, 0., 3.28938007e-01,
          2.14643702e-02, 1.41792974e+01, 2.35376859e+00, 3.89554811e+00,
          1.93156064e+00, 2.01239920e+00, 1.82945386e-01, 1., 1. ]
      - [ 8., 4.53789793e-02, 3.82194258e-02, 1.23272337e-01, .Inf,
          1.90305145e-04, 0., 1.39530435e-01, 9.70102008e-03,
          1.10744171e+01, 2.36273885e+00, 2.64833617e+00, 1.67933607e+00,
          1.81998277e+00, 2.27497846e-01, 1., 1. ]
      - [ 3., 4.13795896e-02, 2.76797935e-02, 8.19687992e-02,
          1.68481120e-03, 3.23040518e-11, 0., 8.30393806e-02,
          2.50621848e-02, 2.60973072e+00, 9.38313484e-01, 1.15608156e+00,
          2.00239205e+00, 3.19000006e+00, 1.06333339e+00, 1., 0. ]
      - [ 8., 4.39967178e-02, 3.54285613e-02, 1.23830959e-01, .Inf,
          2.25603988e-04, 0., 1.59627974e-01, 1.46321226e-02,
          3.00104885e+01, 2.13544464e+00, 3.07385397e+00, 1.90783215e+00,
          1.82359529e+00, 2.27949411e-01, 1., 1. ]
      - [ 8., 4.08633351e-02, 3.31489183e-02, 1.15428291e-01, .Inf,
          1.17162090e-04, 0., 1.28938377e-01, 7.26712681e-03,
          1.79616032e+01, 2.17991018e+00, 2.86894298e+00, 1.77767336e+00,
          1.80998266e+00, 2.26247832e-01, 1., 0. ]
      - [ 17., 1.29189640e-01, 1.20752402e-01, 3.39505076e-01,
          1.22431159e+00, 1.14635536e-02, 0., 4.52336520e-01,
          2.81935036e-02, 1.78830261e+01, 2.71600342e+00, 2.91851997e+00,
          1.31779897e+00, 1.96438479e+00, 1.15552045e-01, 1., 1. ]
      - [ 8., 4.30334136e-02, 3.52553539e-02, 1.21543311e-01, .Inf,
          1.37800141e-03, 0., 1.32342443e-01, 6.81130076e-03,
          2.01468697e+01, 2.36246848e+00, 2.28436637e+00, 1.45452046e+00,
          1.98998106e+00, 2.48747632e-01, 1., 1. ]
      - [ 8., 4.28393371e-02, 3.55379172e-02, 1.12521403e-01, .Inf,
          8.49037839e-04, 0., 1.68972656e-01, 1.11698257e-02,
          1.83090706e+01, 2.11493993e+00, 3.21394563e+00, 1.99876642e+00,
          1.81092215e+00, 2.26365268e-01, 1., 1. ]
      - [ 8., 3.98769304e-02, 3.31163220e-02, 1.12943254e-01, .Inf,
          1.60058771e-04, 0., 1.22324690e-01, 6.34180428e-03,
          1.93860741e+01, 2.29265404e+00, 2.60030246e+00, 1.61223435e+00,
          1.81121528e+00, 2.26401910e-01, 1., 1. ]
      - [ 16., 9.68523696e-02, 8.68130103e-02, 2.68376201e-01, .Inf,
          1.43470801e-02, 0., 4.17853504e-01, 2.18510665e-02,
          2.18031120e+01, 2.65848804e+00, 3.10638452e+00, 1.39696050e+00,
          1.96043217e+00, 1.22527011e-01, 1., 1. ]
      - [ 5., 7.01010451e-02, 5.67408614e-02, 1.44596979e-01,
          1.17330533e-02, 2.73626274e-03, 0., 2.19010383e-01,
          2.76482143e-02, 8.96595001e+00, 1.62658811e+00, 2.37338114e+00,
          2.29957509e+00, 3.58999991e+00, 7.17999995e-01, 1., 0. ]
      - [ 12., 1.19081892e-01, 1.08416349e-01, 3.00854474e-01, .Inf,
          8.85037985e-03, 0., 5.03567457e-01, 3.46300192e-02,
          1.85693588e+01, 2.49721003e+00, 2.43235898e+00, 1.31957519e+00,
          2.32583094e+00, 1.93819240e-01, 1., 1. ]
      - [ 6., 4.55229543e-02, 3.79533395e-02, 1.07036218e-01, .Inf,
          1.47842409e-04, 0., 1.52788982e-01, 1.45879220e-02,
          1.10474348e+01, 1.78785038e+00, 3.01447797e+00, 2.33898997e+00,
          2.31247425e+00, 3.85412365e-01, 1., 0. ]
      - [ 6., 7.88497180e-02, 5.53203970e-02, 1.99970603e-01, .Inf,
          2.24807533e-04, 0., 2.34801352e-01, 4.29584533e-02,
          1.01472979e+01, 1.79136264e+00, 2.88077259e+00, 2.24391675e+00,
          2.34111977e+00, 3.90186638e-01, 1., 0. ]
      - [ 6., 6.04066104e-02, 4.98827659e-02, 1.38225704e-01, .Inf,
          1.09548052e-03, 0., 1.92326322e-01, 1.93141047e-02,
          1.14766407e+01, 1.74311709e+00, 2.99888062e+00, 2.36217570e+00,
          2.34880400e+00, 3.91467333e-01, 1., 0. ]
      - [ 8., 3.01821269e-02, 2.50619538e-02, 8.45735073e-02, .Inf,
          1.76440444e-04, 0., 9.83689949e-02, 6.36600237e-03,
          1.95647335e+01, 2.23373795e+00, 2.79846287e+00, 1.76056266e+00,
          1.35998702e+00, 1.69998378e-01, 1., 1. ]
      - [ 3., 1.37008140e-02, 9.13393404e-03, 2.74015404e-02,
          1.87168465e-04, 7.43131143e-15, 0., 2.74018012e-02,
          7.91021809e-03, 2.12281987e-01, 1.05010581e+00, 1.04428923e+00,
          1.80876207e+00, 1.57000005e+00, 5.23333371e-01, 1., 1. ]
      - [ 10., 3.70669551e-02, 3.08521688e-02, 1.11292534e-01, .Inf,
          2.11055228e-03, 0., 1.29496992e-01, 5.77430241e-03,
          2.07475853e+01, 2.55430174e+00, 2.47068977e+00, 1.38947678e+00,
          1.35998714e+00, 1.35998711e-01, 1., 1. ]
      - [ 8., 3.74772325e-02, 3.16623598e-02, 1.07321434e-01, .Inf,
          1.50022039e-03, 0., 1.52313814e-01, 9.81922168e-03,
          2.61294136e+01, 2.34218240e+00, 2.54832125e+00, 1.70205057e+00,
          1.54263139e+00, 1.92828923e-01, 1., 1. ]
      - [ 22., 1.06135771e-01, 9.47284028e-02, 3.10933828e-01,
          9.35296631e+00, 2.90535018e-02, 0., 4.19676304e-01,
          1.82649996e-02, 3.91520920e+01, 2.80114198e+00, 3.23312092e+00,
          1.10039735e+00, 1.29551733e+00, 5.88871501e-02, 1., 1. ]
      - [ 33., 2.59487689e-01, 2.19008535e-01, 8.66985142e-01,
          3.64202547e+00, 1.98971838e-01, 0., 8.81925821e-01,
          8.69171415e-03, 9.45024109e+00, 2.96963048e+00, 2.88956046e+00,
          7.49472380e-01, 1.95000005e+00, 5.90909123e-02, 1., 1. ]
      - [ 14., 5.93054742e-02, 5.07682897e-02, 1.59869969e-01, .Inf,
          7.30114814e-04, 0., 2.96109587e-01, 1.65800359e-02,
          4.26069717e+01, 2.60011315e+00, 3.87849045e+00, 1.70329261e+00,
          1.31944847e+00, 9.42463204e-02, 0., 1. ]
      - [ 20., 4.64230776e-02, 4.00483981e-02, 1.43750384e-01, .Inf,
          9.44405620e-04, 0., 2.48790741e-01, 6.54372619e-03,
          5.23393555e+01, 2.82160401e+00, 3.44383359e+00, 1.27928925e+00,
          7.97629774e-01, 3.98814902e-02, 1., 1. ]
      - [ 6., 4.02659588e-02, 3.21940556e-02, 1.07460715e-01, .Inf,
          8.18904518e-05, 0., 1.13210417e-01, 9.78898909e-03,
          5.06729507e+00, 1.97384548e+00, 2.36962581e+00, 1.84432220e+00,
          2.40997720e+00, 4.01662856e-01, 1., 1. ]
      - [ 8., 3.20773534e-02, 2.79728249e-02, 7.79064670e-02, .Inf,
          3.85357271e-04, 0., 1.24544092e-01, 9.14605614e-03,
          2.75387249e+01, 2.17823482e+00, 3.26863050e+00, 2.04755211e+00,
          1.24273551e+00, 1.55341938e-01, 1., 1. ]
      - [ 8., 2.88891159e-02, 2.48048436e-02, 7.79065117e-02, .Inf,
          2.47171847e-04, 0., 1.07754648e-01, 6.37432002e-03,
          3.60448647e+01, 2.17823505e+00, 2.98163605e+00, 1.86697018e+00,
          1.24955297e+00, 1.56194121e-01, 1., 1. ]
      - [ 8., 3.05432547e-02, 2.64431499e-02, 7.91181028e-02, .Inf,
          1.79774870e-04, 0., 1.12407431e-01, 7.30605889e-03,
          3.06476593e+01, 2.13854337e+00, 3.23594117e+00, 2.01060247e+00,
          1.26334000e+00, 1.57917500e-01, 1., 1. ]
      - [ 8., 3.33026461e-02, 2.78851017e-02, 9.24629346e-02, .Inf,
          1.18197617e-03, 0., 1.23094738e-01, 7.51307094e-03,
          3.36241798e+01, 2.15708756e+00, 2.86753464e+00, 1.80536878e+00,
          1.49922848e+00, 1.87403560e-01, 1., 1. ]
      - [ 6., 3.01032569e-02, 2.50590984e-02, 7.63549730e-02, .Inf,
          1.31353299e-04, 0., 9.42265242e-02, 8.37414619e-03,
          1.87320004e+01, 1.94618201e+00, 2.61158657e+00, 2.05498314e+00,
          1.71806431e+00, 2.86344051e-01, 1., 1. ]
      - [ 6., 2.65712105e-02, 2.16296520e-02, 6.80141971e-02, .Inf,
          1.22964440e-04, 0., 8.90539289e-02, 7.87421502e-03,
          4.02537231e+01, 1.82441151e+00, 2.70731163e+00, 2.11179924e+00,
          1.47498584e+00, 2.45830968e-01, 1., 1. ]
      - [ 4., 1.82526410e-02, 1.45629328e-02, 4.03156914e-02,
          7.67933787e-04, 2.21159369e-10, 0., 4.67840135e-02,
          7.95700960e-03, 2.06744461e+01, 1.25452352e+00, 2.06350708e+00,
          2.38273287e+00, 1.52998555e+00, 3.82496387e-01, 1., 1. ]
      - [ 14., 6.75585717e-02, 5.54182716e-02, 2.22603664e-01, .Inf,
          8.66938324e-04, 0., 2.83448368e-01, 2.10239049e-02,
          2.98482170e+01, 2.59916878e+00, 3.35377479e+00, 1.42873597e+00,
          1.53998530e+00, 1.09998949e-01, 0., 1. ]
      - [ 4., 3.66428196e-02, 2.75615789e-02, 8.41383636e-02,
          1.23795099e-03, 6.85153937e-05, 0., 9.34252962e-02,
          1.87651683e-02, 1.15084496e+01, 1.73608708e+00, 1.27587211e+00,
          1.48903954e+00, 2.59934545e+00, 6.49836361e-01, 1., 1. ]
      - [ 5., 3.94013263e-02, 3.00157666e-02, 9.88549143e-02,
          2.14949413e-03, 4.79411508e-04, 0., 1.18302897e-01,
          1.62792318e-02, 1.41341705e+01, 2.01860380e+00, 1.58856297e+00,
          1.49864793e+00, 2.59834790e+00, 5.19669592e-01, 0., 1. ]
      - [ 8., 6.37594014e-02, 5.19760139e-02, 1.81476995e-01, .Inf,
          5.33189392e-04, 0., 2.17039794e-01, 1.39755169e-02,
          1.05160398e+01, 2.22036529e+00, 3.00084066e+00, 1.87012482e+00,
          2.55819988e+00, 3.19774985e-01, 1., 0. ]
      - [ 6., 4.57849652e-02, 3.69252898e-02, 1.16281204e-01, .Inf,
          5.28917371e-05, 0., 1.38360485e-01, 1.25792632e-02,
          1.01863871e+01, 1.82353973e+00, 2.76455879e+00, 2.14513302e+00,
          2.54898095e+00, 4.24830168e-01, 1., 1. ]
      - [ 7., 4.73841913e-02, 4.15948890e-02, 1.10467114e-01,
          1.34614380e-02, 3.02854605e-04, 0., 1.74370080e-01,
          1.54392319e-02, 1.62302094e+01, 2.08694506e+00, 3.09522438e+00,
          2.18920946e+00, 2.07997990e+00, 2.97139972e-01, 1., 1. ]
      - [ 6., 4.71694805e-02, 3.97474356e-02, 1.04180388e-01, .Inf,
          4.40651056e-04, 0., 1.50139749e-01, 1.77557338e-02,
          1.44424744e+01, 1.84545755e+00, 2.82724261e+00, 2.27582788e+00,
          2.06992793e+00, 3.44987988e-01, 1., 1. ]
      - [ 6., 4.26754244e-02, 3.65506075e-02, 1.03797838e-01, .Inf,
          5.56753541e-04, 0., 1.21400848e-01, 1.16625167e-02,
          1.38251524e+01, 1.93234849e+00, 2.51876473e+00, 2.00353456e+00,
          2.07575798e+00, 3.45959663e-01, 1., 1. ]
      - [ 16., 1.00547217e-01, 8.91547501e-02, 2.91026950e-01,
          1.24644920e-01, 3.30199138e-03, 0., 3.77193123e-01,
          1.21963723e-02, 1.82330303e+01, 2.72447610e+00, 2.35616684e+00,
          1.05890143e+00, 2.12273479e+00, 1.32670924e-01, 1., 1. ]
      - [ 8., 4.15907353e-02, 3.44607085e-02, 1.15950108e-01, .Inf,
          2.32651853e-03, 0., 1.34883195e-01, 7.40915677e-03,
          2.62257195e+01, 2.29356909e+00, 2.45670295e+00, 1.55681813e+00,
          1.86498225e+00, 2.33122781e-01, 1., 1. ]
      - [ 6., 5.83574437e-02, 4.60819751e-02, 1.04455642e-01, .Inf,
          7.03344995e-04, 0., 2.54845917e-01, 5.00458069e-02,
          1.00444431e+01, 2.34134197e+00, 9.47383881e-01, 9.06963050e-01,
          2.01579404e+00, 3.35965663e-01, 1., 1. ]
      - [ 14., 4.75182943e-02, 4.05265279e-02, 1.43999815e-01, .Inf,
          5.06444555e-03, 0., 1.90431491e-01, 5.52534265e-03,
          4.78779144e+01, 2.75256872e+00, 2.73214746e+00, 1.22722602e+00,
          1.26696634e+00, 9.04975981e-02, 1., 1. ]
      - [ 8., 3.45572010e-02, 2.82775685e-02, 9.73219573e-02, .Inf,
          9.37943842e-05, 0., 1.09880708e-01, 6.66279159e-03,
          1.63008461e+01, 2.24183679e+00, 2.81165123e+00, 1.75550640e+00,
          1.56998515e+00, 1.96248144e-01, 1., 1. ]
      - [ 6., 2.50625126e-02, 2.11189333e-02, 6.59026057e-02, .Inf,
          4.78394068e-04, 0., 8.11408609e-02, 7.60891195e-03,
          4.47796173e+01, 2.10143590e+00, 2.17610359e+00, 1.72153330e+00,
          1.34368443e+00, 2.23947406e-01, 1., 1. ]
      - [ 16., 3.70156281e-02, 3.14521044e-02, 1.02025680e-01, .Inf,
          3.42842628e-04, 0., 1.79987818e-01, 8.16223118e-03,
          3.63065186e+01, 2.59393644e+00, 4.13927221e+00, 1.62376225e+00,
          7.14875996e-01, 4.46797498e-02, 1., 1. ]
      - [ 7., 2.19060853e-02, 1.80850811e-02, 5.91600910e-02,
          2.16262252e-03, 1.95460685e-04, 0., 7.56891370e-02,
          5.16207656e-03, 5.67755432e+01, 2.13671350e+00, 2.56394053e+00,
          1.78984487e+00, 1.12232935e+00, 1.60332769e-01, 0., 1. ]
      - [ 24., 4.59838323e-02, 4.16577198e-02, 1.27840683e-01, .Inf,
          2.42027896e-03, 0., 2.48421118e-01, 5.34207840e-03,
          6.85975113e+01, 2.84222937e+00, 4.05057096e+00, 1.32383108e+00,
          5.78477859e-01, 2.41032448e-02, 1., 1. ]
      - [ 8., 2.74458844e-02, 2.13970356e-02, 8.48760381e-02, .Inf,
          6.08571980e-04, 0., 9.20911431e-02, 6.63280021e-03,
          4.39521599e+01, 2.36809850e+00, 2.38036036e+00, 1.48857260e+00,
          8.82715344e-01, 1.10339418e-01, 1., 1. ]
      - [ 24., 4.88834642e-02, 4.45736460e-02, 1.25885740e-01, .Inf,
          3.06742033e-03, 0., 2.38696918e-01, 6.13063620e-03,
          8.08167877e+01, 2.88779306e+00, 3.89404106e+00, 1.37824833e+00,
          5.68386793e-01, 2.36827824e-02, 1., 1. ]
      - [ 26., 5.70560358e-02, 5.09273261e-02, 1.35406047e-01,
          1.07129276e+00, 3.13910865e-03, 0., 2.91338503e-01,
          8.44350178e-03, 5.30118103e+01, 2.86592817e+00, 4.17603397e+00,
          1.44828081e+00, 5.40315568e-01, 2.07813680e-02, 1., 1. ]
      - [ 24., 4.35028039e-02, 3.94081175e-02, 1.24059357e-01, .Inf,
          2.03393376e-03, 0., 2.54587442e-01, 6.04398362e-03,
          6.62298050e+01, 2.79500937e+00, 4.12220240e+00, 1.30609167e+00,
          5.41810691e-01, 2.25754455e-02, 1., 1. ]
      - [ 22., 4.63266857e-02, 3.77751105e-02, 1.25494167e-01,
          4.65685315e-02, 1.19850424e-03, 0., 2.81453818e-01,
          1.20057212e-02, 4.88673553e+01, 2.73882508e+00, 4.56543684e+00,
          1.48910403e+00, 5.42784870e-01, 2.46720389e-02, 1., 1. ]
      - [ 36., 5.87648936e-02, 5.34399599e-02, 1.94368646e-01,
          1.18231550e-01, 8.86539370e-03, 0., 4.08801228e-01,
          6.85740774e-03, 8.27956390e+01, 2.97079825e+00, 3.57523513e+00,
          9.59513128e-01, 4.86159593e-01, 1.35044334e-02, 1., 1. ]
      - [ 68., 1.22735538e-01, 1.02665052e-01, 3.72115552e-01,
          9.56607401e-01, 2.81648003e-02, 0., 7.47928083e-01,
          2.09474359e-02, 7.67836609e+01, 3.05604053e+00, 3.32011962e+00,
          7.93360353e-01, 4.13956732e-01, 6.08759886e-03, 1., 1. ]
      - [ 50., 1.06137693e-01, 9.66492072e-02, 3.20573092e-01,
          5.47241032e-01, 2.90221348e-02, 0., 5.54784477e-01,
          1.28185404e-02, 7.78614883e+01, 3.02692437e+00, 3.46709442e+00,
          7.93769062e-01, 5.04378915e-01, 1.00875786e-02, 1., 1. ]
      - [ 20., 3.26707028e-02, 2.77327709e-02, 1.05129845e-01, .Inf,
          7.31642824e-04, 0., 1.65515125e-01, 5.58910845e-03,
          7.10762329e+01, 2.78061032e+00, 3.58017397e+00, 1.25421154e+00,
          5.59899688e-01, 2.79949848e-02, 1., 1. ]
      - [ 47., 1.24217771e-01, 1.16110265e-01, 3.81582141e-01,
          6.70809805e-01, 2.12169942e-02, 0., 5.67622006e-01,
          1.10856798e-02, 7.13967896e+01, 2.99707460e+00, 3.10154462e+00,
          7.90898979e-01, 7.54918039e-01, 1.60620864e-02, 1., 1. ]
      - [ 21., 4.54327166e-02, 3.98271754e-02, 1.41962409e-01,
          4.27753292e-02, 1.04664231e-03, 0., 2.28455007e-01,
          4.69608419e-03, 7.59501877e+01, 2.74650788e+00, 3.63745594e+00,
          1.23067629e+00, 7.87234783e-01, 3.74873690e-02, 1., 1. ]
      - [ 20., 4.59948368e-02, 3.95930223e-02, 1.39813393e-01, .Inf,
          2.35579952e-04, 0., 1.89021602e-01, 4.26858710e-03,
          3.34613953e+01, 2.78835320e+00, 3.75692058e+00, 1.31557250e+00,
          8.03238630e-01, 4.01619300e-02, 1., 1. ]
      - [ 10., 3.37579697e-02, 2.78695859e-02, 9.97197330e-02,
          4.00855541e+00, 5.34652499e-05, 0., 1.06845923e-01,
          4.08730144e-03, 1.69620438e+01, 2.44665051e+00, 2.84650850e+00,
          1.51452625e+00, 1.25998795e+00, 1.25998795e-01, 1., 1. ]
      - [ 8., 2.56530792e-02, 2.11069565e-02, 7.30280951e-02, .Inf,
          1.32754518e-04, 0., 8.64526629e-02, 4.83671622e-03,
          2.85893421e+01, 2.36328316e+00, 2.60898757e+00, 1.66572762e+00,
          1.13998914e+00, 1.42498642e-01, 1., 1. ]
      - [ 16., 4.26642373e-02, 3.64076868e-02, 1.19308762e-01, .Inf,
          6.23853586e-04, 0., 1.79044411e-01, 5.81483776e-03,
          4.79804268e+01, 2.64214754e+00, 3.60215378e+00, 1.48634732e+00,
          8.30703318e-01, 5.19189574e-02, 1., 1. ]
      - [ 20., 3.60974595e-02, 3.07095591e-02, 1.16659433e-01, .Inf,
          2.57044041e-04, 0., 1.41724065e-01, 3.10444087e-03,
          5.95836411e+01, 2.78423786e+00, 3.17488217e+00, 1.10342634e+00,
          6.48936987e-01, 3.24468501e-02, 1., 1. ]
      - [ 8., 3.35077196e-02, 2.66517736e-02, 9.14780647e-02, .Inf,
          3.49392387e-04, 0., 1.31441772e-01, 1.49927009e-02,
          1.72025833e+01, 2.11048913e+00, 3.19683456e+00, 1.98367596e+00,
          1.38998675e+00, 1.73748344e-01, 1., 1. ]
      - [ 8., 4.29324433e-02, 3.16344127e-02, 1.27312183e-01, .Inf,
          3.18900915e-04, 0., 1.59804851e-01, 2.51244549e-02,
          1.47614069e+01, 2.18639803e+00, 3.00974894e+00, 1.87154436e+00,
          1.44366539e+00, 1.80458173e-01, 1., 1. ]
      - [ 6., 2.79048253e-02, 2.29646135e-02, 7.37344176e-02, .Inf,
          1.88784441e-04, 0., 7.99533576e-02, 6.70320215e-03,
          2.24239044e+01, 2.10021400e+00, 1.98858213e+00, 1.55488062e+00,
          1.69498384e+00, 2.82497317e-01, 1., 1. ]
      - [ 6., 3.30747403e-02, 2.84730047e-02, 7.81902596e-02, .Inf,
          2.89723830e-04, 0., 1.05225950e-01, 9.34561994e-03,
          1.20956202e+01, 1.82959414e+00, 2.85095406e+00, 2.23559046e+00,
          1.51261163e+00, 2.52101928e-01, 1., 1. ]
      - [ 5., 3.72802243e-02, 2.76975837e-02, 8.43107179e-02,
          5.51053509e-03, 1.06463158e-05, 0., 1.15152843e-01,
          2.32885145e-02, 1.14802666e+01, 1.52319121e+00, 2.72406626e+00,
          2.48725367e+00, 1.91613448e+00, 3.83226901e-01, 0., 1. ]
      - [ 6., 3.73395868e-02, 2.99544502e-02, 9.90394950e-02,
          5.26471343e-03, 1.39150516e-05, 0., 1.03469253e-01,
          8.53162818e-03, 7.40140629e+00, 1.94408751e+00, 2.41618419e+00,
          1.87328589e+00, 2.25997829e+00, 3.76663059e-01, 1., 1. ]
      - [ 6., 5.61269075e-02, 4.73704152e-02, 1.35427549e-01, .Inf,
          3.32371827e-04, 0., 1.82734162e-01, 1.64257437e-02,
          7.46253729e+00, 1.85237062e+00, 2.86522293e+00, 2.22815728e+00,
          3.03864002e+00, 5.06439984e-01, 1., 0. ]
      - [ 3., 2.14868654e-02, 1.53417168e-02, 4.13640328e-02,
          3.45181848e-04, 5.00167630e-10, 0., 4.60245460e-02,
          1.32861407e-02, 1.27029257e+01, 1.34980571e+00, 7.44589508e-01,
          1.28966689e+00, 2.37999749e+00, 7.93332517e-01, 1., 1. ]
      - [ 11., 1.23026244e-01, 1.17483519e-01, 3.09437484e-01,
          4.29696417e+00, 1.43068815e-02, 0., 4.71157998e-01,
          3.91119793e-02, 9.16455173e+00, 2.51033306e+00, 2.43723154e+00,
          1.41075408e+00, 3.04566646e+00, 2.76878774e-01, 1., 0. ]
      - [ 5., 4.40072119e-02, 3.41337137e-02, 1.09006934e-01,
          5.50057041e-03, 1.47109711e-06, 0., 1.16995215e-01,
          1.33231999e-02, 6.82129192e+00, 1.69016623e+00, 2.28535914e+00,
          2.08642006e+00, 3.04999995e+00, 6.10000014e-01, 0., 0. ]
      - [ 6., 5.57621308e-02, 4.48624007e-02, 1.37579143e-01, .Inf,
          5.07687218e-05, 0., 1.79810211e-01, 1.78695042e-02,
          8.73052120e+00, 1.77607679e+00, 2.91691041e+00, 2.26078916e+00,
          3.10716414e+00, 5.17860711e-01, 0., 0. ]
      - [ 4., 6.54527992e-02, 4.66347970e-02, 1.33175299e-01,
          5.40896645e-03, 2.39413839e-06, 0., 1.73152223e-01,
          4.90669161e-02, 6.59573889e+00, 1.16405678e+00, 2.28866982e+00,
          2.64286971e+00, 3.30207372e+00, 8.25518429e-01, 0., 0. ]
      - [ 9., 1.02528870e-01, 8.81284177e-02, 2.75826603e-01,
          3.77536507e+01, 1.50025412e-02, 0., 3.99088204e-01,
          2.55927481e-02, 1.17911777e+01, 2.31009364e+00, 2.98768091e+00,
          1.76699495e+00, 3.88131285e+00, 4.31256980e-01, 0., 0. ]
      - [ 5., 6.24303706e-02, 4.73578088e-02, 1.57339603e-01,
          1.08346678e-02, 1.06265383e-04, 0., 1.64352387e-01,
          1.89204160e-02, 3.01907110e+00, 1.75809503e+00, 2.13135457e+00,
          1.95128739e+00, 4.40999985e+00, 8.81999969e-01, 0., 0. ]
      - [ 5., 5.80284521e-02, 4.68458012e-02, 1.40587896e-01,
          1.08974194e-02, 3.55685479e-04, 0., 1.56446666e-01,
          1.79497208e-02, 8.43464661e+00, 1.72761869e+00, 2.22387743e+00,
          2.05523252e+00, 3.92127728e+00, 7.84255445e-01, 0., 1. ]
      - [ 5., 5.87380417e-02, 4.82734479e-02, 1.39802977e-01,
          1.06908726e-02, 1.86949022e-04, 0., 1.67744428e-01,
          1.92120392e-02, 7.61560774e+00, 1.64330673e+00, 2.44338560e+00,
          2.23983049e+00, 3.96172071e+00, 7.92344153e-01, 0., 0. ]
      - [ 4., 5.81412688e-02, 4.56450656e-02, 1.29180148e-01,
          6.28586160e-03, 2.35799598e-05, 0., 1.44869000e-01,
          2.63084937e-02, 6.37488604e+00, 1.28088641e+00, 2.01152730e+00,
          2.32435441e+00, 4.33995867e+00, 1.08498967e+00, 0., 0. ]
      - [ 8., 7.65654072e-02, 6.15020022e-02, 1.84453011e-01, .Inf,
          5.37348562e-04, 0., 3.29537809e-01, 3.38857993e-02,
          1.92721024e+01, 2.04025149e+00, 3.60474443e+00, 2.22711277e+00,
          2.92980456e+00, 3.66225570e-01, 0., 0. ]
      - [ 3., 2.79632788e-02, 2.09251363e-02, 5.32195233e-02,
          1.01721671e-03, 4.01579325e-10, 0., 6.07780404e-02,
          1.77204479e-02, 1.06199999e+01, 7.09931374e-01, 1.38446379e+00,
          2.39796162e+00, 2.98754597e+00, 9.95848656e-01, 1., 0. ]
      - [ 7., 6.64157197e-02, 5.22288568e-02, 1.61057115e-01,
          2.91075911e-02, 1.67356251e-04, 0., 2.48372391e-01,
          2.91193724e-02, 1.21607037e+01, 1.92276621e+00, 3.33571982e+00,
          2.28000259e+00, 2.91044331e+00, 4.15777624e-01, 0., 0. ]
      - [ 8., 1.08686350e-01, 9.74601284e-02, 2.73366779e-01, .Inf,
          9.12093557e-03, 0., 3.57266128e-01, 2.52478104e-02,
          8.52130318e+00, 2.21322560e+00, 2.81941605e+00, 1.85184896e+00,
          4.26365376e+00, 5.32956719e-01, 0., 0. ]
      - [ 12., 1.10478610e-01, 9.81383398e-02, 2.91976810e-01,
          1.05914146e-01, 1.99293066e-02, 0., 4.30246979e-01,
          2.14226339e-02, 1.26909256e+01, 2.43552017e+00, 3.34819818e+00,
          1.67639196e+00, 2.85807323e+00, 2.38172770e-01, 0., 0. ]
      - [ 5., 7.18192160e-02, 5.71111217e-02, 1.55488491e-01,
          1.28636770e-02, 2.91458273e-04, 0., 2.24759936e-01,
          3.47144231e-02, 9.01875401e+00, 1.47013378e+00, 2.81307602e+00,
          2.57296610e+00, 3.75229287e+00, 7.50458598e-01, 0., 0. ]
      - [ 5., 6.48595989e-02, 5.14999256e-02, 1.52505100e-01,
          1.14894137e-02, 4.39430587e-05, 0., 1.91195935e-01,
          3.09015140e-02, 6.64283085e+00, 1.59267831e+00, 2.58108282e+00,
          2.35785627e+00, 3.66000009e+00, 7.31999993e-01, 0., 0. ]
      - [ 6., 6.38640970e-02, 5.33881821e-02, 1.63120344e-01, .Inf,
          1.73401451e-04, 0., 1.90279067e-01, 1.63443889e-02,
          7.14945650e+00, 1.92423558e+00, 2.64938569e+00, 2.05876827e+00,
          3.63281655e+00, 6.05469406e-01, 0., 0. ]
      - [ 10., 9.99635980e-02, 8.28450769e-02, 2.99999863e-01,
          7.39099979e-02, 7.19657913e-03, 0., 3.42021763e-01,
          1.41328303e-02, 9.76637745e+00, 2.43069029e+00, 2.81361961e+00,
          1.50313509e+00, 3.62996531e+00, 3.62996519e-01, 0., 0. ]
      - [ 6., 6.90562725e-02, 5.87176122e-02, 1.69763595e-01, .Inf,
          4.90555947e-04, 0., 2.04105094e-01, 1.91039424e-02,
          8.21379852e+00, 1.91248822e+00, 2.66795254e+00, 2.09369469e+00,
          3.59139943e+00, 5.98566592e-01, 0., 0. ]
      - [ 6., 5.57606146e-02, 4.67611961e-02, 1.38449594e-01, .Inf,
          9.90308938e-04, 0., 1.84614509e-01, 1.66483223e-02,
          1.15833263e+01, 1.99563217e+00, 2.56040359e+00, 2.02468491e+00,
          3.13744020e+00, 5.22906721e-01, 0., 0. ]
      - [ 12., 1.58433944e-01, 1.43077746e-01, 4.21399027e-01, .Inf,
          3.15574817e-02, 0., 5.64109802e-01, 3.35896015e-02,
          1.21356964e+01, 2.45856643e+00, 3.00061607e+00, 1.53572071e+00,
          2.56497574e+00, 2.13747978e-01, 1., 0. ]
      - [ 5., 5.32913916e-02, 4.24305536e-02, 1.27999783e-01,
          7.36063346e-03, 3.44995380e-04, 0., 1.45146921e-01,
          1.67939402e-02, 9.69581413e+00, 1.71324635e+00, 2.25418925e+00,
          2.08697772e+00, 3.53999996e+00, 7.08000004e-01, 0., 0. ]
      - [ 6., 5.08448556e-02, 4.07035016e-02, 1.34494349e-01, .Inf,
          5.67930038e-05, 0., 1.42895818e-01, 1.18975993e-02,
          1.02294960e+01, 1.93066239e+00, 2.44162464e+00, 1.89487267e+00,
          2.98997164e+00, 4.98328596e-01, 1., 0. ]
      - [ 13., 1.06891863e-01, 9.60186049e-02, 2.98585027e-01,
          1.18730515e-01, 6.67841220e-03, 0., 4.18614686e-01,
          1.77207738e-02, 1.33101673e+01, 2.54300833e+00, 2.68341947e+00,
          1.33254516e+00, 2.43686342e+00, 1.87451035e-01, 1., 1. ]
      - [ 4., 4.01989445e-02, 3.11914794e-02, 9.18223262e-02,
          3.18889273e-03, 2.77010568e-05, 0., 9.92714018e-02,
          1.76236555e-02, 5.55140209e+00, 1.37426782e+00, 1.88472557e+00,
          2.18034053e+00, 3.29996896e+00, 8.24992239e-01, 0., 0. ]
      - [ 5., 4.23243530e-02, 3.19510885e-02, 1.07751958e-01,
          4.85046674e-03, 2.75302329e-04, 0., 1.12057172e-01,
          1.28434356e-02, 7.23064423e+00, 1.83273697e+00, 1.99191988e+00,
          1.83272827e+00, 2.96000004e+00, 5.92000008e-01, 1., 0. ]
      - [ 12., 1.43852040e-01, 1.25712648e-01, 3.40190977e-01, .Inf,
          8.30552913e-03, 0., 4.89367545e-01, 3.71153951e-02,
          1.70429058e+01, 2.49380112e+00, 2.90762329e+00, 1.63429642e+00,
          2.20997906e+00, 1.84164926e-01, 1., 1. ]
      - [ 11., 9.89459828e-02, 8.88434276e-02, 2.68906355e-01,
          1.87293696e+00, 8.94248113e-03, 0., 3.35235924e-01,
          2.24864800e-02, 9.72108078e+00, 2.50910139e+00, 2.76649570e+00,
          1.47674263e+00, 2.88496399e+00, 2.62269467e-01, 1., 0. ]
      - [ 5., 4.60367166e-02, 3.60802487e-02, 1.10101178e-01,
          7.54541950e-03, 1.29965541e-04, 0., 1.26569092e-01,
          1.63902193e-02, 1.04024210e+01, 1.58495224e+00, 2.41484308e+00,
          2.22138381e+00, 2.41722512e+00, 4.83445019e-01, 0., 1. ]
      - [ 4., 3.33462730e-02, 2.58716736e-02, 7.72237629e-02,
          1.69782341e-03, 5.30191301e-06, 0., 7.85517395e-02,
          1.31208180e-02, 3.66901040e+00, 1.66850567e+00, 1.42254853e+00,
          1.64425969e+00, 2.92997241e+00, 7.32493103e-01, 1., 1. ]
      - [ 6., 5.08281663e-02, 3.85513119e-02, 1.30036026e-01, .Inf,
          1.57448550e-04, 0., 1.67829528e-01, 2.80995928e-02,
          1.27944193e+01, 1.88023710e+00, 2.79919505e+00, 2.17888021e+00,
          2.31669116e+00, 3.86115193e-01, 0., 1. ]
      - [ 6., 4.10173312e-02, 3.28536145e-02, 1.00752920e-01, .Inf,
          9.25778077e-05, 0., 1.29733711e-01, 1.40440706e-02,
          1.21684103e+01, 1.81966877e+00, 2.90340638e+00, 2.25331569e+00,
          1.97452676e+00, 3.29087794e-01, 1., 1. ]
      - [ 6., 6.07365109e-02, 4.42747772e-02, 1.49909616e-01, .Inf,
          2.66032934e-04, 0., 2.02313870e-01, 3.54114287e-02,
          1.21258774e+01, 1.87198675e+00, 2.93280673e+00, 2.28158188e+00,
          2.28130865e+00, 3.80218118e-01, 0., 1. ]
      - [ 3., 2.58998852e-02, 2.03297269e-02, 4.64249067e-02,
          1.06672209e-03, 2.47689980e-10, 0., 6.11482188e-02,
          1.76519696e-02, 1.41914139e+01, 5.74741781e-01, 1.51965332e+00,
          2.63211679e+00, 2.64640975e+00, 8.82136583e-01, 1., 1. ]
      - [ 10., 7.11182505e-02, 6.43293709e-02, 1.96493194e-01, .Inf,
          5.67422248e-03, 0., 2.77879089e-01, 1.69607624e-02,
          2.06004887e+01, 2.44101596e+00, 2.44059610e+00, 1.36434436e+00,
          2.24657488e+00, 2.24657491e-01, 1., 1. ]
      - [ 8., 6.74568415e-02, 5.44484034e-02, 1.79813042e-01, .Inf,
          8.93266057e-04, 0., 2.25709409e-01, 2.15211995e-02,
          1.55522547e+01, 2.08997703e+00, 3.22253799e+00, 2.02640438e+00,
          1.97441864e+00, 2.46802330e-01, 1., 1. ]
      - [ 23., 9.96730849e-02, 8.84241760e-02, 3.30872566e-01,
          1.20276344e+00, 4.38789390e-02, 0., 4.59048748e-01,
