%YAML:1.0
---
opencv_ml_svm:
   format: 3
   svmType: C_SVC
   kernel:
      type: RBF
      gamma: 1.
   C: 1.0000000000000000e-02
   term_criteria: { iterations:1000 }
   var_count: 17
   class_count: 2
   class_labels: !!opencv-matrix
      rows: 2
      cols: 1
      dt: i
      data: [ -1, 1 ]
   sv_total: 1994
   support_vectors:
      - [ 11., 9.24847722e-02, 7.94950575e-02, 2.48875216e-01, .Inf,
          3.27583076e-03, 0., 3.27641577e-01, 2.29322519e-02,
          1.63872929e+01, 2.40571809e+00, 3.20902848e+00, 1.66147995e+00,
          2.43267608e+00, 2.21152365e-01, 0., 0. ]
      - [ 10., 9.46478695e-02, 8.04178789e-02, 2.53167599e-01,
          8.04957524e-02, 2.77689588e-03, 0., 2.98137158e-01,
          1.84998829e-02, 1.59811172e+01, 2.35125089e+00, 3.07236052e+00,
          1.68220592e+00, 2.43759012e+00, 2.43759006e-01, 1., 0. ]
      - [ 10., 9.43141654e-02, 8.05753097e-02, 2.46666938e-01,
          8.02507252e-02, 3.76974070e-03, 0., 2.96800256e-01,
          2.37061270e-02, 1.30282469e+01, 2.40293455e+00, 3.00405431e+00,
          1.65957522e+00, 2.43459272e+00, 2.43459269e-01, 1., 0. ]
      - [ 10., 9.39636678e-02, 8.22313055e-02, 2.40406811e-01,
          7.99221173e-02, 3.48336087e-03, 0., 3.03593397e-01,
          2.69578472e-02, 1.39418392e+01, 2.40273952e+00, 2.95998311e+00,
          1.66199708e+00, 2.42144299e+00, 2.42144302e-01, 1., 0. ]
      - [ 11., 9.56619084e-02, 8.31244215e-02, 2.53464252e-01,
          1.00346006e-01, 3.25143524e-03, 0., 3.13839436e-01,
          1.98775399e-02, 1.57026958e+01, 2.44205046e+00, 3.15853858e+00,
          1.64533508e+00, 2.42274737e+00, 2.20249757e-01, 0., 0. ]
      - [ 14., 9.60887894e-02, 8.31508115e-02, 2.97326297e-01,
          5.61725980e+31, 1.65698640e-02, 0., 4.44518209e-01,
          1.90720018e-02, 1.03034458e+01, 2.58124828e+00, 3.27371335e+00,
          1.42484355e+00, 2.43088126e+00, 1.73634380e-01, 0., 0. ]
      - [ 14., 1.38836905e-01, 1.30530432e-01, 3.55004609e-01,
          5.62971802e+31, 1.30563704e-02, 0., 5.57241261e-01,
          3.54969166e-02, 1.36335535e+01, 2.58633304e+00, 2.97133827e+00,
          1.46976483e+00, 2.35974431e+00, 1.68553159e-01, 1., 1. ]
      - [ 6., 4.82319407e-02, 3.75174396e-02, 1.31070688e-01,
          7.99382385e-03, 7.90330887e-05, 0., 1.43264845e-01,
          1.73414089e-02, 9.98749542e+00, 1.98015881e+00, 2.46672893e+00,
          1.92000306e+00, 2.35497761e+00, 3.92496258e-01, 1., 0. ]
      - [ 8., 5.09651192e-02, 4.23596762e-02, 1.42697379e-01,
          1.60270147e-02, 1.62536817e-04, 0., 1.70091361e-01,
          1.01995906e-02, 2.20171242e+01, 2.23585749e+00, 2.92138577e+00,
          1.81018925e+00, 2.08498025e+00, 2.60622531e-01, 1., 1. ]
      - [ 9., 5.82519472e-02, 4.87905033e-02, 1.66151255e-01,
          6.29194260e+00, 2.67907337e-04, 0., 1.96630582e-01,
          1.13989841e-02, 2.20025330e+01, 2.30804300e+00, 3.01743984e+00,
          1.71995831e+00, 2.19613791e+00, 2.44015321e-01, 1., 1. ]
      - [ 11., 2.94035450e-02, 2.50177439e-02, 8.65168869e-02,
          7.19775306e-03, 6.46245142e-04, 0., 1.34547144e-01,
          5.48897777e-03, 7.53586426e+01, 2.41550756e+00, 2.96941686e+00,
          1.51759708e+00, 9.71981823e-01, 8.83619860e-02, 1., 1. ]
      - [ 20., 5.38442805e-02, 4.63629365e-02, 1.66020930e-01, .Inf,
          1.20676518e-03, 0., 2.40468591e-01, 4.77149058e-03,
          6.25791664e+01, 2.79171491e+00, 3.25667000e+00, 1.17673004e+00,
          9.60494101e-01, 4.80247065e-02, 1., 1. ]
      - [ 13., 3.97967733e-02, 3.41147929e-02, 1.19479328e-01,
          1.58815920e+00, 3.42815416e-03, 0., 1.96281642e-01,
          7.31087709e-03, 2.83859444e+01, 2.66635013e+00, 2.77714777e+00,
          1.36983311e+00, 1.09999990e+00, 8.46153796e-02, 1., 1. ]
      - [ 14., 4.36149538e-02, 3.90951559e-02, 1.26818597e-01,
          6.25698417e+31, 3.52709601e-03, 0., 2.06115991e-01,
          8.18553101e-03, 4.12558365e+01, 2.62029052e+00, 3.03876138e+00,
          1.41769385e+00, 1.10414696e+00, 7.88676366e-02, 1., 1. ]
      - [ 14., 4.33553383e-02, 3.77940610e-02, 1.26991913e-01,
          6.30381893e+31, 9.16267571e-04, 0., 2.17772126e-01,
          6.94677932e-03, 5.22317047e+01, 2.72267628e+00, 3.01933289e+00,
          1.41222239e+00, 1.09935355e+00, 7.85252526e-02, 1., 0. ]
      - [ 14., 6.74843043e-02, 4.98014577e-02, 2.45356500e-01,
          6.41239497e+31, 8.89431802e-04, 0., 3.08961034e-01,
          2.88959090e-02, 4.33605576e+01, 2.59516978e+00, 3.44092488e+00,
          1.46754134e+00, 1.20986331e+00, 8.64188075e-02, 1., 0. ]
      - [ 22., 1.05668791e-01, 9.35673267e-02, 3.00400347e-01,
          2.20124826e-01, 2.02176794e-02, 0., 4.07817811e-01,
          1.91606227e-02, 4.67431564e+01, 2.79705358e+00, 2.91523838e+00,
          1.09107161e+00, 1.23554039e+00, 5.61609268e-02, 0., 1. ]
      - [ 15., 4.06378098e-02, 3.51869017e-02, 1.15544789e-01,
          2.28037070e-02, 6.25606976e-04, 0., 1.78698450e-01,
          6.29581418e-03, 5.21421547e+01, 2.61478925e+00, 3.71916318e+00,
          1.53529406e+00, 9.01994169e-01, 6.01329431e-02, 1., 1. ]
      - [ 14., 4.50544953e-02, 3.70746218e-02, 1.50448620e-01,
          5.55289209e-01, 6.83598220e-03, 0., 1.79480612e-01,
          6.62455615e-03, 5.06130829e+01, 2.62114143e+00, 2.83699083e+00,
          1.23336387e+00, 1.13187349e+00, 8.08481053e-02, 0., 1. ]
      - [ 14., 3.94658819e-02, 3.43141071e-02, 1.07173353e-01,
          6.54346236e+31, 7.78235029e-04, 0., 1.86544582e-01,
          7.19512580e-03, 6.46909256e+01, 2.61579204e+00, 3.57999611e+00,
          1.60290611e+00, 8.85414898e-01, 6.32439181e-02, 1., 1. ]
      - [ 18., 3.91863808e-02, 3.43873724e-02, 1.20863460e-01,
          2.47449819e-02, 6.90814806e-04, 0., 2.00740039e-01,
          5.60456980e-03, 6.81643448e+01, 2.81580496e+00, 3.22204924e+00,
          1.27545261e+00, 7.89241672e-01, 4.38467599e-02, 1., 1. ]
      - [ 14., 3.58326957e-02, 3.06687020e-02, 1.04775667e-01,
          6.56574479e+31, 3.35537549e-03, 0., 1.55698612e-01,
          5.70595963e-03, 5.97142029e+01, 2.57745194e+00, 2.91861534e+00,
          1.36328530e+00, 9.06238616e-01, 6.47313297e-02, 1., 1. ]
      - [ 6., 1.66133475e-02, 1.43700726e-02, 4.01206836e-02,
          1.11446879e-03, 1.71657550e-04, 0., 6.72029406e-02,
          6.26683841e-03, 5.43302650e+01, 1.82131517e+00, 2.69605136e+00,
          2.14660764e+00, 9.13274348e-01, 1.52212396e-01, 1., 1. ]
      - [ 14., 3.89239602e-02, 3.36836092e-02, 1.16777688e-01,
          5.50285816e-01, 6.87185791e-04, 0., 1.95026085e-01,
          7.88448472e-03, 5.66234016e+01, 2.78507853e+00, 3.01701736e+00,
          1.43781483e+00, 9.30972934e-01, 6.64980635e-02, 1., 0. ]
      - [ 8., 5.35167381e-02, 4.47107032e-02, 1.40874356e-01,
          1.81695796e+31, 5.48996322e-04, 0., 1.65091380e-01,
          1.27811665e-02, 2.24246273e+01, 2.21904945e+00, 2.78077197e+00,
          1.77483451e+00, 1.75498331e+00, 2.19372913e-01, 1., 1. ]
      - [ 5., 4.02208455e-02, 3.14107835e-02, 1.02065511e-01,
          3.26845003e-03, 1.07934582e-03, 0., 1.13879651e-01,
          1.31152598e-02, 1.49942369e+01, 1.89054203e+00, 1.83629727e+00,
          1.72267354e+00, 2.79504251e+00, 5.59008479e-01, 1., 1. ]
      - [ 14., 1.37142032e-01, 1.29339665e-01, 3.76785040e-01,
          6.79095994e+31, 1.65408645e-02, 0., 5.12238979e-01,
          2.75517367e-02, 1.22731800e+01, 2.72417784e+00, 2.26680779e+00,
          1.04527473e+00, 2.79392600e+00, 1.99566141e-01, 1., 0. ]
      - [ 7., 5.39597981e-02, 4.31508459e-02, 1.47637889e-01,
          1.12490999e-02, 3.66196642e-03, 0., 1.62424475e-01,
          1.04581453e-02, 1.33974514e+01, 2.20753813e+00, 2.32269025e+00,
          1.63487720e+00, 2.81999993e+00, 4.02857125e-01, 1., 0. ]
      - [ 9., 1.32744238e-01, 1.11457244e-01, 3.26938540e-01,
          1.34596258e-01, 9.32865683e-03, 0., 3.96219254e-01,
          3.75315882e-02, 7.62381315e+00, 2.38486028e+00, 2.85554099e+00,
          1.77807343e+00, 2.74892473e+00, 3.05436075e-01, 0., 1. ]
      - [ 4., 4.25683707e-02, 3.26143578e-02, 9.05356631e-02,
          5.05390344e-03, 6.55054828e-05, 0., 1.09309211e-01,
          2.25227829e-02, 1.22929525e+01, 1.18337679e+00, 2.15066028e+00,
          2.49154806e+00, 2.56854105e+00, 6.42135262e-01, 0., 1. ]
      - [ 6., 5.57626970e-02, 4.56774421e-02, 1.25155851e-01,
          5.60685480e-03, 2.09657778e-03, 0., 2.23728359e-01,
          3.08886021e-02, 1.07710762e+01, 2.25275254e+00, 1.52511275e+00,
          1.37410223e+00, 2.80672693e+00, 4.67787832e-01, 1., 1. ]
      - [ 11., 3.63890901e-02, 3.01076248e-02, 1.14029147e-01,
          1.03557650e-02, 2.79069273e-03, 0., 1.53034925e-01,
          1.00093400e-02, 4.45186310e+01, 2.45764065e+00, 2.90212822e+00,
          1.49285865e+00, 1.16812921e+00, 1.06193565e-01, 1., 1. ]
      - [ 14., 1.00377411e-01, 8.46712440e-02, 3.00891876e-01,
          6.99911665e+31, 2.45980383e-03, 0., 3.53691399e-01,
          1.18789589e-02, 1.73853016e+01, 2.70027328e+00, 2.39215398e+00,
          1.07051539e+00, 2.38557434e+00, 1.70398161e-01, 1., 1. ]
      - [ 4., 3.11578959e-02, 2.36583725e-02, 6.73880577e-02,
          2.52880389e-03, 9.04775370e-05, 0., 8.70443583e-02,
          1.83087289e-02, 1.55091991e+01, 1.29872966e+00, 2.06228375e+00,
          2.39892888e+00, 2.29249167e+00, 5.73122919e-01, 1., 1. ]
      - [ 14., 3.44921760e-02, 2.94215102e-02, 9.68035012e-02,
          6.99911665e+31, 9.64903622e-04, 0., 1.97601244e-01,
          1.07818944e-02, 5.20583992e+01, 2.60100293e+00, 3.73870134e+00,
          1.63972819e+00, 8.19615006e-01, 5.85439280e-02, 1., 1. ]
      - [ 3., 2.22099256e-02, 1.68268885e-02, 4.09459732e-02,
          8.12105543e-04, 4.87006158e-10, 0., 5.03015853e-02,
          1.48272710e-02, 1.54500923e+01, 6.30590081e-01, 1.46380508e+00,
          2.53538465e+00, 2.26271343e+00, 7.54237831e-01, 1., 1. ]
      - [ 24., 4.81519848e-02, 4.14704420e-02, 1.52502373e-01,
          5.05344979e-02, 1.18927041e-03, 0., 2.13694423e-01,
          3.38357617e-03, 6.11850700e+01, 2.88738108e+00, 3.41093993e+00,
          1.12873352e+00, 7.31459975e-01, 3.04774996e-02, 1., 1. ]
      - [ 26., 3.14228721e-02, 2.72740163e-02, 9.79377925e-02,
          1.02194989e+00, 5.69135649e-03, 0., 2.08885983e-01,
          4.35190555e-03, 8.99741516e+01, 2.86035228e+00, 3.41315818e+00,
          1.14467728e+00, 4.36324954e-01, 1.67817287e-02, 1., 1. ]
      - [ 3., 8.04752484e-03, 5.67973824e-03, 1.50885675e-02,
          1.07266744e-04, 4.75563477e-11, 0., 1.70392152e-02,
          5.66271972e-03, 3.78530769e+01, 7.04236805e-01, 1.39015830e+00,
          2.40782499e+00, 6.54773951e-01, 2.18257979e-01, 1., 1. ]
      - [ 28., 3.48189659e-02, 3.00724376e-02, 1.10190287e-01,
          3.01242918e-02, 2.34830705e-03, 0., 2.49545529e-01,
          4.90577985e-03, 1.09116890e+02, 2.88256145e+00, 3.57456541e+00,
          1.13244760e+00, 4.34334040e-01, 1.55119300e-02, 1., 1. ]
      - [ 10., 5.90105280e-02, 5.11381403e-02, 1.64018005e-01, .Inf,
          4.28471394e-04, 0., 2.23074228e-01, 1.15298480e-02,
          2.09355602e+01, 2.35513854e+00, 3.37639737e+00, 1.79416049e+00,
          2.02937484e+00, 2.02937484e-01, 0., 1. ]
      - [ 10., 5.75793460e-02, 4.95346412e-02, 1.64890841e-01, .Inf,
          3.96117859e-04, 0., 2.09273577e-01, 9.23884381e-03,
          2.23577003e+01, 2.43663359e+00, 3.12462807e+00, 1.66820681e+00,
          2.02154899e+00, 2.02154905e-01, 1., 1. ]
      - [ 35., 4.94770445e-02, 4.20097895e-02, 1.74721524e-01,
          1.08244646e+00, 3.91501049e-03, 0., 3.27692837e-01,
          7.54083181e-03, 7.67570801e+01, 2.92865658e+00, 3.89921784e+00,
          1.02754998e+00, 4.70059752e-01, 1.34302787e-02, 1., 1. ]
      - [ 24., 3.94628160e-02, 3.42156887e-02, 1.14860728e-01,
          3.31656896e-02, 2.21499312e-03, 0., 2.20817387e-01,
          5.19710546e-03, 9.31743469e+01, 2.84035420e+00, 3.96835494e+00,
          1.29136527e+00, 5.20906150e-01, 2.17044223e-02, 1., 1. ]
      - [ 4., 2.48812102e-02, 1.95277650e-02, 5.70271946e-02,
          1.12392067e-03, 2.48797354e-04, 0., 6.75363168e-02,
          1.16527481e-02, 2.52853203e+01, 1.49250865e+00, 1.71519184e+00,
          2.02929544e+00, 2.03498054e+00, 5.08745134e-01, 0., 1. ]
      - [ 9., 4.33497168e-02, 3.56423892e-02, 1.22395493e-01,
          5.54307508e+00, 5.24594216e-05, 0., 1.45279408e-01,
          7.34141003e-03, 1.07661629e+01, 2.24425149e+00, 3.18622255e+00,
          1.81051564e+00, 1.70554638e+00, 1.89505160e-01, 1., 1. ]
      - [ 33., 9.31473300e-02, 8.73261988e-02, 2.69654810e-01,
          2.83660173e-01, 2.70880703e-02, 0., 4.75328714e-01,
          1.48770930e-02, 5.27187080e+01, 2.93104291e+00, 3.63189840e+00,
          1.16232073e+00, 8.44644010e-01, 2.55952738e-02, 0., 1. ]
      - [ 10., 6.11605421e-02, 5.14843240e-02, 1.60883248e-01,
          1.13117990e+01, 1.58639523e-04, 0., 2.48871624e-01,
          1.63744148e-02, 1.35742769e+01, 2.28790545e+00, 3.70666766e+00,
          1.95596337e+00, 1.97366250e+00, 1.97366253e-01, 0., 0. ]
      - [ 10., 3.26688960e-02, 2.70360913e-02, 9.70878601e-02,
          1.12870712e+01, 9.74634895e-04, 0., 1.10991590e-01,
          4.36612871e-03, 3.92431030e+01, 2.59628224e+00, 2.43887067e+00,
          1.31754541e+00, 1.20998847e+00, 1.20998845e-01, 1., 1. ]
      - [ 5., 4.14138995e-02, 2.91548576e-02, 1.07007928e-01,
          9.10734944e-03, 3.32225281e-05, 0., 1.12347648e-01,
          1.95408668e-02, 1.42492323e+01, 1.75208187e+00, 2.13597345e+00,
          1.95268440e+00, 2.02999997e+00, 4.05999988e-01, 0., 1. ]
      - [ 9., 3.66129652e-02, 3.05632912e-02, 1.01353616e-01,
          1.36039610e+01, 2.62748450e-04, 0., 1.39327094e-01,
          6.90429052e-03, 3.89270363e+01, 2.26320148e+00, 3.19614387e+00,
          1.82716322e+00, 1.42542148e+00, 1.58380166e-01, 1., 1. ]
      - [ 9., 3.48493941e-02, 2.95903292e-02, 9.98126268e-02,
          1.57986555e+01, 4.62681346e-04, 0., 1.20566525e-01,
          5.24181407e-03, 3.17065506e+01, 2.37499619e+00, 2.68311262e+00,
          1.55153739e+00, 1.42232990e+00, 1.58036649e-01, 1., 1. ]
      - [ 10., 4.16231081e-02, 3.62026207e-02, 1.19462952e-01,
          9.92932892e+00, 1.96494441e-03, 0., 1.80800200e-01,
          9.72097460e-03, 4.49289322e+01, 2.46959591e+00, 2.81281805e+00,
          1.59426618e+00, 1.48495901e+00, 1.48495898e-01, 1., 1. ]
      - [ 6., 8.13860297e-02, 6.64432570e-02, 2.03652844e-01,
          3.06686684e-02, 4.28741891e-03, 0., 2.36541182e-01,
          2.53690183e-02, 9.30430698e+00, 1.86394095e+00, 2.59644389e+00,
          2.07464910e+00, 2.96019793e+00, 4.93366331e-01, 0., 1. ]
      - [ 23., 1.11141384e-01, 9.85182896e-02, 3.03994417e-01,
          1.26948476e+00, 5.56245260e-03, 0., 5.29067338e-01,
          2.60684676e-02, 3.60270386e+01, 2.79129958e+00, 3.49776864e+00,
          1.29494965e+00, 1.36511934e+00, 5.93530163e-02, 1., 1. ]
      - [ 12., 5.76450080e-02, 4.87120748e-02, 1.61243036e-01, .Inf,
          8.25294410e-04, 0., 2.56650180e-01, 1.75765324e-02,
          2.62263527e+01, 2.42822480e+00, 3.81124759e+00, 1.79024744e+00,
          1.49124110e+00, 1.24270089e-01, 1., 1. ]
      - [ 14., 1.13333918e-01, 1.06202289e-01, 3.42002839e-01,
          7.35846453e+31, 1.16307698e-02, 0., 4.34372336e-01,
          1.11093298e-02, 1.15731096e+01, 2.60719395e+00, 2.80483246e+00,
          1.27230465e+00, 3.05949068e+00, 2.18535051e-01, 0., 0. ]
      - [ 5., 4.79756705e-02, 4.02114205e-02, 1.07635647e-01,
          8.78981408e-03, 1.85133002e-04, 0., 1.47496030e-01,
          1.72850750e-02, 9.53881168e+00, 1.54986763e+00, 2.65373063e+00,
          2.43079734e+00, 2.99375463e+00, 5.98750949e-01, 0., 1. ]
      - [ 5., 5.93400002e-02, 4.48455587e-02, 1.52791649e-01,
          6.50219992e-03, 5.72004472e-04, 0., 1.63676590e-01,
          2.11816076e-02, 1.00389700e+01, 1.98023272e+00, 1.73756862e+00,
          1.59767830e+00, 3.31174207e+00, 6.62348390e-01, 0., 1. ]
      - [ 6., 5.36724851e-02, 4.52102907e-02, 1.33070633e-01,
          1.20929414e-02, 1.33816662e-04, 0., 1.67404860e-01,
          1.41890859e-02, 7.67523003e+00, 1.85129392e+00, 2.81178570e+00,
          2.18356800e+00, 3.00826144e+00, 5.01376927e-01, 0., 0. ]
      - [ 10., 1.23753183e-01, 1.03098035e-01, 3.40611875e-01,
          1.31820858e-01, 5.64198382e-03, 0., 4.02479053e-01,
          2.35182252e-02, 7.60290241e+00, 2.41250968e+00, 3.08435512e+00,
          1.68976164e+00, 3.48474884e+00, 3.48474890e-01, 0., 0. ]
      - [ 6., 6.19484745e-02, 5.12824208e-02, 1.41471714e-01,
          1.91342104e-02, 3.61518847e-04, 0., 2.12242126e-01,
          2.23789345e-02, 8.36800098e+00, 1.75019503e+00, 3.06897140e+00,
          2.38604665e+00, 3.15121746e+00, 5.25202930e-01, 0., 0. ]
      - [ 7., 7.39188641e-02, 5.92820048e-02, 2.03775376e-01,
          2.68919338e-02, 6.50836300e-05, 0., 2.19268769e-01,
          1.58448685e-02, 3.50401378e+00, 2.12093973e+00, 2.67714429e+00,
          1.83119166e+00, 3.54000020e+00, 5.05714297e-01, 1., 0. ]
      - [ 6., 5.40177971e-02, 4.49564755e-02, 1.33663446e-01,
          1.35149751e-02, 3.20007908e-04, 0., 1.72540516e-01,
          1.80397909e-02, 9.27829933e+00, 1.85961390e+00, 2.77907634e+00,
          2.17325902e+00, 3.01497126e+00, 5.02495229e-01, 1., 1. ]
      - [ 10., 8.35855305e-02, 7.23544508e-02, 2.36295089e-01,
          1.69855270e+01, 3.59058753e-03, 0., 2.92221814e-01,
          1.41094672e-02, 1.22629032e+01, 2.43801260e+00, 2.95777750e+00,
          1.61891329e+00, 2.57830548e+00, 2.57830560e-01, 0., 1. ]
      - [ 6., 4.48055901e-02, 3.74253616e-02, 1.11486897e-01,
          1.33553958e-02, 2.12225510e-04, 0., 1.37391135e-01,
          1.25028417e-02, 1.18360481e+01, 1.87348557e+00, 2.71578598e+00,
          2.12670755e+00, 2.51515770e+00, 4.19192940e-01, 1., 1. ]
      - [ 3., 1.96163263e-02, 1.41480928e-02, 3.75239030e-02,
          5.30715974e-04, 3.36477013e-10, 0., 4.24442813e-02,
          1.22526074e-02, 1.46811018e+01, 7.23006546e-01, 1.37138855e+00,
          2.37531471e+00, 2.14000010e+00, 7.13333368e-01, 1., 1. ]
      - [ 8., 2.79071368e-02, 2.30503976e-02, 7.45141357e-02,
          1.81695796e+31, 8.89428047e-05, 0., 1.05544418e-01,
          7.33882887e-03, 4.22541656e+01, 2.09148359e+00, 3.25916553e+00,
          2.01686788e+00, 1.20009887e+00, 1.50012359e-01, 1., 1. ]
      - [ 17., 4.35146131e-02, 3.83761041e-02, 1.31826341e-01,
          2.83236485e-02, 1.29616749e-03, 0., 2.16051415e-01,
          6.83447113e-03, 7.27255707e+01, 2.72506571e+00, 3.38643479e+00,
          1.35613871e+00, 8.43462169e-01, 4.96154204e-02, 1., 0. ]
      - [ 10., 3.41757461e-02, 2.86556575e-02, 9.51423422e-02, .Inf,
          3.11913493e-04, 0., 1.37332320e-01, 6.42094389e-03,
          3.49873123e+01, 2.30222368e+00, 3.45043802e+00, 1.83146667e+00,
          1.18058181e+00, 1.18058182e-01, 1., 1. ]
      - [ 14., 3.06456052e-02, 2.60437224e-02, 9.11980346e-02,
          1.27578322e-02, 1.51019660e-03, 0., 1.69104785e-01,
          7.08078546e-03, 8.56994934e+01, 2.54341316e+00, 2.94480443e+00,
          1.37654769e+00, 7.97434390e-01, 5.69595993e-02, 1., 1. ]
      - [ 14., 3.86107340e-02, 3.21686678e-02, 1.16787083e-01,
          7.86519256e+31, 3.98993143e-04, 0., 1.58791780e-01,
          6.75322628e-03, 2.86117401e+01, 2.54850674e+00, 3.56856751e+00,
          1.52404273e+00, 1.00165915e+00, 7.15470836e-02, 1., 1. ]
      - [ 14., 4.18635309e-02, 3.49269435e-02, 1.30415902e-01,
          7.88211365e+31, 1.08446332e-03, 0., 2.01708660e-01,
          7.43690040e-03, 5.42878342e+01, 2.61932921e+00, 3.47096658e+00,
          1.50893939e+00, 1.03942811e+00, 7.42448643e-02, 1., 0. ]
      - [ 32., 1.21801302e-01, 1.09036781e-01, 3.26849043e-01,
          4.16736633e-01, 2.28973869e-02, 0., 5.25568008e-01,
          1.89594422e-02, 5.56669388e+01, 2.95342422e+00, 3.10266018e+00,
          1.08089495e+00, 8.73724878e-01, 2.73039024e-02, 1., 1. ]
      - [ 14., 4.41159457e-02, 3.68800946e-02, 1.32850826e-01,
          7.88211365e+31, 7.18702970e-04, 0., 2.16105476e-01,
          7.52467988e-03, 5.69932327e+01, 2.61958504e+00, 3.56510544e+00,
          1.56006253e+00, 1.05083227e+00, 7.50594512e-02, 1., 0. ]
      - [ 12., 4.87806797e-02, 4.38969284e-02, 1.35300383e-01,
          4.02114439e+00, 1.64428505e-03, 0., 1.99325383e-01,
          8.15530214e-03, 3.27730522e+01, 2.48103738e+00, 3.17672062e+00,
          1.57837558e+00, 1.33998728e+00, 1.11665606e-01, 1., 1. ]
      - [ 8., 4.05787304e-02, 3.45806554e-02, 1.10549435e-01,
          1.81695796e+31, 5.40669309e-04, 0., 1.40824929e-01,
          7.92847946e-03, 2.78734055e+01, 2.22132683e+00, 2.85774851e+00,
          1.79495895e+00, 1.78785837e+00, 2.23482296e-01, 1., 1. ]
      - [ 11., 4.72205207e-02, 4.23496626e-02, 1.28329620e-01,
          2.55249143e-02, 1.84733048e-03, 0., 1.87068611e-01,
          8.35301820e-03, 4.33270187e+01, 2.51437259e+00, 2.84741282e+00,
          1.50263870e+00, 1.33000016e+00, 1.20909102e-01, 1., 1. ]
      - [ 12., 1.21311978e-01, 1.12593383e-01, 3.00079435e-01,
          4.12558985e+00, 7.76583329e-03, 0., 4.45152462e-01,
          3.07022333e-02, 1.19097357e+01, 2.62604570e+00, 2.09139252e+00,
          1.16938138e+00, 2.38604116e+00, 1.98836759e-01, 1., 1. ]
      - [ 18., 6.01227582e-02, 5.03813997e-02, 2.01210290e-01,
          5.90529367e-02, 1.50656339e-03, 0., 2.75473297e-01,
          1.42979641e-02, 4.07965279e+01, 2.67826200e+00, 3.51820326e+00,
          1.29866970e+00, 1.17505646e+00, 6.52809143e-02, 1., 1. ]
      - [ 21., 1.23600207e-01, 1.03505179e-01, 3.34246635e-01,
          1.92373967e+00, 5.83063299e-03, 0., 4.57988560e-01,
          2.45245993e-02, 2.89526577e+01, 2.85433388e+00, 3.03663301e+00,
          1.18176174e+00, 1.26315975e+00, 6.01504631e-02, 1., 1. ]
      - [ 3., 4.43131961e-02, 2.96784267e-02, 8.78915787e-02,
          1.96328829e-03, 8.94514324e-11, 0., 8.90352800e-02,
          2.65950933e-02, 2.42050648e+00, 9.38932657e-01, 1.15546238e+00,
          2.00131965e+00, 3.67000008e+00, 1.22333336e+00, 1., 1. ]
      - [ 5., 4.77269515e-02, 3.75790969e-02, 1.15189910e-01,
          7.44024757e-03, 9.00299201e-05, 0., 1.36900082e-01,
          1.75334178e-02, 7.03662539e+00, 1.63100982e+00, 2.43930864e+00,
          2.23402047e+00, 3.22609520e+00, 6.45219028e-01, 1., 0. ]
      - [ 4., 4.67616990e-02, 3.60864587e-02, 1.07219629e-01,
          4.06579440e-03, 5.16985779e-07, 0., 1.12246662e-01,
          1.94232427e-02, 4.80914879e+00, 1.39147401e+00, 1.84605408e+00,
          2.13170791e+00, 3.78858328e+00, 9.47145820e-01, 1., 1. ]
      - [ 5., 8.33552927e-02, 6.95458204e-02, 1.24481753e-01,
          7.70355389e-03, 8.30553938e-04, 0., 3.17662895e-01,
          5.38676493e-02, 7.32164192e+00, 1.38612008e+00, 3.18460131e+00,
          2.91097426e+00, 3.44270587e+00, 6.88541174e-01, 0., 0. ]
      - [ 12., 6.27859309e-02, 5.53218536e-02, 1.73883229e-01,
          4.04249334e+00, 3.32966039e-04, 0., 2.60526448e-01,
          1.26416115e-02, 2.49646225e+01, 2.51940107e+00, 3.65356183e+00,
          1.74438643e+00, 1.70800483e+00, 1.42333731e-01, 1., 0. ]
      - [ 8., 5.29978126e-02, 4.17762473e-02, 1.53158471e-01,
          1.40986163e-02, 5.45446928e-05, 0., 1.65840462e-01,
          1.22105945e-02, 1.38771877e+01, 2.21620655e+00, 2.80124068e+00,
          1.73159897e+00, 1.87156045e+00, 2.33945057e-01, 1., 0. ]
      - [ 6., 4.43128720e-02, 3.54870446e-02, 1.17806166e-01,
          6.61320193e-03, 1.38013766e-05, 0., 1.20912671e-01,
          1.02449274e-02, 5.26188946e+00, 1.97520876e+00, 2.34192944e+00,
          1.81576586e+00, 2.43497705e+00, 4.05829519e-01, 1., 1. ]
      - [ 8., 5.40507585e-02, 4.46510836e-02, 1.52714968e-01,
          1.44338282e-02, 5.14255022e-04, 0., 1.58637345e-01,
          8.08482990e-03, 7.14917374e+00, 2.30873251e+00, 2.50271511e+00,
          1.56230927e+00, 2.48497653e+00, 3.10622066e-01, 1., 0. ]
      - [ 4., 5.98109849e-02, 4.66529652e-02, 1.28485322e-01,
          6.73544453e-03, 5.85891212e-05, 0., 1.55996501e-01,
          2.92505622e-02, 7.70061111e+00, 1.20080674e+00, 2.14206195e+00,
          2.47638583e+00, 4.31141853e+00, 1.07785463e+00, 1., 0. ]
      - [ 4., 4.79329787e-02, 3.75730731e-02, 1.09439529e-01,
          4.40366566e-03, 8.49224216e-06, 0., 1.15282387e-01,
          1.93040837e-02, 5.02359724e+00, 1.37978160e+00, 1.85876274e+00,
          2.14731669e+00, 4.09496117e+00, 1.02374029e+00, 1., 0. ]
      - [ 10., 5.05422577e-02, 4.33743745e-02, 1.40257686e-01,
          4.62317772e+01, 4.06057574e-03, 0., 1.96519092e-01,
          8.81111715e-03, 2.42248402e+01, 2.36975479e+00, 2.87304330e+00,
          1.59954703e+00, 1.73498344e+00, 1.73498347e-01, 1., 1. ]
      - [ 5., 5.76686673e-02, 4.46485318e-02, 1.44682527e-01,
          8.38602614e-03, 6.27627451e-05, 0., 1.47976637e-01,
          1.66882146e-02, 3.97175097e+00, 1.83523786e+00, 2.02741647e+00,
          1.85410893e+00, 4.03999996e+00, 8.07999969e-01, 0., 0. ]
      - [ 4., 4.64562587e-02, 3.60326730e-02, 1.07380144e-01,
          4.07289201e-03, 1.91047748e-05, 0., 1.10618681e-01,
          1.86098311e-02, 3.38973689e+00, 1.44588900e+00, 1.76277924e+00,
          2.03783965e+00, 4.01996183e+00, 1.00499046e+00, 0., 0. ]
      - [ 4., 5.26066236e-02, 4.27656732e-02, 1.11579925e-01,
          6.22510258e-03, 1.56972834e-04, 0., 1.43801421e-01,
          2.45087966e-02, 7.30173922e+00, 1.19802535e+00, 2.15648150e+00,
          2.49766469e+00, 4.21217489e+00, 1.05304372e+00, 1., 0. ]
      - [ 8., 1.14685759e-01, 1.02197617e-01, 2.77843922e-01,
          6.49919361e-02, 3.54520208e-03, 0., 3.66786182e-01,
          3.59253399e-02, 8.44558144e+00, 2.29562283e+00, 2.89851046e+00,
          1.91200280e+00, 3.88158846e+00, 4.85198557e-01, 1., 0. ]
      - [ 5., 5.43599986e-02, 4.14605923e-02, 1.27660528e-01,
          1.02921976e-02, 1.94787892e-04, 0., 1.67193949e-01,
          2.39630546e-02, 1.03220444e+01, 1.55595851e+00, 2.56911087e+00,
          2.35048985e+00, 3.51999998e+00, 7.03999996e-01, 0., 0. ]
      - [ 3., 4.25670892e-02, 2.84297075e-02, 8.49493742e-02,
          2.01518834e-03, 3.87520085e-11, 0., 8.52891207e-02,
          2.48052534e-02, 1.39746225e+00, 9.87522662e-01, 1.10687244e+00,
          1.91715932e+00, 3.92999983e+00, 1.30999994e+00, 0., 1. ]
      - [ 5., 5.35797700e-02, 4.41066250e-02, 1.23254739e-01,
          7.54890312e-03, 5.19286375e-04, 0., 1.54804543e-01,
          1.89835168e-02, 1.15897579e+01, 1.66746366e+00, 2.37621570e+00,
          2.21891737e+00, 3.39802599e+00, 6.79605186e-01, 0., 0. ]
      - [ 8., 8.32420886e-02, 7.13308081e-02, 2.12270275e-01,
          3.49363647e-02, 2.47784983e-03, 0., 2.90622801e-01,
          2.24230494e-02, 1.01133480e+01, 2.27355647e+00, 2.80670595e+00,
          1.87028027e+00, 3.41549706e+00, 4.26937133e-01, 0., 1. ]
      - [ 6., 6.26138672e-02, 5.49605303e-02, 1.52413055e-01,
          1.79941505e-02, 3.10333475e-04, 0., 2.02046603e-01,
          1.82734467e-02, 6.17462397e+00, 1.84640312e+00, 2.86489367e+00,
          2.22548032e+00, 3.36519790e+00, 5.60866296e-01, 0., 0. ]
      - [ 6., 6.18565828e-02, 5.22805192e-02, 1.53215766e-01,
          1.76509041e-02, 8.02748400e-05, 0., 1.95109397e-01,
          1.86485779e-02, 7.36478710e+00, 1.82758164e+00, 2.86784840e+00,
          2.22325039e+00, 3.33496833e+00, 5.55828035e-01, 0., 0. ]
      - [ 12., 5.24960309e-02, 4.38915677e-02, 1.44759566e-01,
          3.00826058e-02, 6.20553154e-04, 0., 2.41556913e-01,
          1.27348499e-02, 3.51878777e+01, 2.44305801e+00, 3.78481412e+00,
          1.77548230e+00, 1.39198613e+00, 1.15998842e-01, 0., 1. ]
      - [ 14., 6.07036464e-02, 5.17733432e-02, 1.87021524e-01,
          8.85286706e+31, 3.93651100e-03, 0., 2.10152715e-01,
          4.58562793e-03, 2.46187344e+01, 2.65681338e+00, 2.94812202e+00,
          1.26689041e+00, 1.63498449e+00, 1.16784610e-01, 1., 1. ]
      - [ 10., 4.63290438e-02, 3.90889868e-02, 1.34194657e-01, .Inf,
          6.28553971e-04, 0., 1.73991442e-01, 7.31555466e-03,
          2.30590076e+01, 2.33260679e+00, 3.16998672e+00, 1.68694735e+00,
          1.66459680e+00, 1.66459680e-01, 1., 1. ]
      - [ 8., 3.60568166e-02, 2.95672137e-02, 1.02791280e-01,
          1.81695796e+31, 1.04061700e-03, 0., 1.11425072e-01,
          5.83798531e-03, 2.17021713e+01, 2.28774118e+00, 2.47166824e+00,
          1.54715657e+00, 1.66998410e+00, 2.08748013e-01, 1., 1. ]
      - [ 22., 1.01252921e-01, 9.06003639e-02, 2.85457104e-01,
          1.19499559e+01, 6.80284062e-03, 0., 3.79879594e-01,
          1.68685727e-02, 4.79236794e+01, 2.81587911e+00, 3.39285111e+00,
          1.15863192e+00, 1.09708989e+00, 4.98677231e-02, 1., 1. ]
      - [ 13., 6.20543472e-02, 5.26713058e-02, 1.88192561e-01,
          8.73689279e-02, 6.73061179e-04, 0., 2.05210358e-01,
          4.96313721e-03, 1.52261505e+01, 2.57725930e+00, 2.98756289e+00,
          1.34090734e+00, 1.75807846e+00, 1.35236800e-01, 1., 1. ]
      - [ 18., 1.28618106e-01, 1.15222536e-01, 3.48725915e-01,
          2.39027292e-01, 8.84964783e-03, 0., 4.79818791e-01,
          2.54812557e-02, 2.87949028e+01, 2.72200370e+00, 3.21109939e+00,
          1.31186223e+00, 1.82883286e+00, 1.01601824e-01, 1., 0. ]
      - [ 30., 5.18465005e-02, 4.53473926e-02, 1.92803785e-01,
          7.61587694e-02, 1.83602180e-02, 0., 3.80431116e-01,
          1.34536410e-02, 7.75644836e+01, 2.98000145e+00, 2.49890900e+00,
          8.02794456e-01, 6.07182860e-01, 2.02394295e-02, 1., 1. ]
      - [ 30., 4.73418161e-02, 4.21198756e-02, 1.48939863e-01,
          6.68075383e-02, 1.51185156e-03, 0., 3.03595066e-01,
          6.08689245e-03, 8.13524246e+01, 2.94029737e+00, 3.43822312e+00,
          1.02604127e+00, 5.61902404e-01, 1.87300798e-02, 1., 1. ]
      - [ 53., 1.20324813e-01, 1.08458489e-01, 3.61011863e-01,
          1.72738171e+00, 6.80157617e-02, 0., 5.82507432e-01,
          1.30718211e-02, 8.99961929e+01, 3.03415656e+00, 2.94897699e+00,
          6.56361222e-01, 5.60105324e-01, 1.05680246e-02, 0., 1. ]
      - [ 12., 6.80655465e-02, 5.65344580e-02, 2.08070472e-01,
          4.39109020e-02, 1.31098402e-03, 0., 2.37326086e-01,
          7.63832685e-03, 1.78409863e+01, 2.49828100e+00, 3.09776568e+00,
          1.46128178e+00, 2.08340764e+00, 1.73617303e-01, 0., 1. ]
      - [ 31., 4.55257893e-02, 4.04633172e-02, 1.45912260e-01,
          6.30242452e-02, 2.42071110e-03, 0., 2.51657277e-01,
          4.35199868e-03, 8.52118378e+01, 2.91010404e+00, 3.39535975e+00,
          9.90453184e-01, 5.34182549e-01, 1.72316954e-02, 1., 0. ]
      - [ 37., 4.32414338e-02, 3.75349522e-02, 1.46909535e-01,
          2.57275867e+00, 1.86950946e-03, 0., 3.00483733e-01,
          4.96460637e-03, 9.45113602e+01, 2.91353583e+00, 3.51699305e+00,
          9.28857565e-01, 4.15982038e-01, 1.12427576e-02, 1., 1. ]
      - [ 38., 4.23596539e-02, 3.66479270e-02, 1.40994594e-01,
          6.27233088e-02, 5.62462304e-03, 0., 3.80807430e-01,
          5.69290249e-03, 1.00332764e+02, 2.98451304e+00, 3.36948919e+00,
          8.76766920e-01, 4.17979449e-01, 1.09994588e-02, 1., 1. ]
      - [ 8., 4.04616185e-02, 3.31908278e-02, 1.14824869e-01,
          8.27795919e-03, 1.37695431e-04, 0., 1.20120816e-01,
          6.19966537e-03, 1.15747013e+01, 2.29416776e+00, 2.55495524e+00,
          1.59146714e+00, 1.87156725e+00, 2.33945906e-01, 1., 1. ]
      - [ 20., 3.02324370e-02, 2.62569636e-02, 9.48067904e-02, .Inf,
          3.59778199e-03, 0., 1.89984113e-01, 6.23838929e-03,
          7.54593658e+01, 2.72221422e+00, 2.91788006e+00, 1.12357724e+00,
          5.66909671e-01, 2.83454843e-02, 1., 1. ]
      - [ 16., 3.65161709e-02, 3.15435752e-02, 1.10119075e-01,
          1.81549359e+31, 5.59350883e-04, 0., 1.68347314e-01,
          4.65154462e-03, 6.86199493e+01, 2.75680232e+00, 3.48776531e+00,
          1.42763007e+00, 7.31629848e-01, 4.57268655e-02, 0., 1. ]
      - [ 25., 4.38740253e-02, 3.72414961e-02, 1.42251670e-01,
          1.07438068e+01, 2.61071906e-03, 0., 2.25829065e-01,
          5.91679709e-03, 6.75921478e+01, 2.84727526e+00, 3.69219279e+00,
          1.15957832e+00, 6.45876884e-01, 2.58350745e-02, 1., 1. ]
      - [ 5., 2.85161361e-02, 2.16429140e-02, 7.21379742e-02,
          1.94205495e-03, 7.10237587e-13, 0., 7.21438453e-02,
          8.06633849e-03, 3.80092263e-01, 1.89180315e+00, 1.87125993e+00,
          1.70821893e+00, 1.72000003e+00, 3.44000012e-01, 0., 1. ]
      - [ 37., 1.07593365e-01, 1.03409119e-01, 3.09988111e-01,
          3.91986459e-01, 2.38444209e-02, 0., 5.41072667e-01,
          1.91410333e-02, 6.21134834e+01, 2.93047643e+00, 3.09449506e+00,
          9.78539884e-01, 8.57585907e-01, 2.31779981e-02, 1., 1. ]
      - [ 12., 4.19545844e-02, 3.46687809e-02, 1.23051576e-01,
          4.01841688e+00, 2.59021734e-04, 0., 1.61014602e-01,
          7.67758628e-03, 4.41845474e+01, 2.49205780e+00, 3.34320259e+00,
          1.58608699e+00, 1.09409666e+00, 9.11747217e-02, 1., 1. ]
      - [ 12., 5.12607470e-02, 4.43749018e-02, 1.30123883e-01, .Inf,
          2.57949741e-03, 0., 2.32964784e-01, 1.31474677e-02,
          3.46373596e+01, 2.50704217e+00, 3.58292460e+00, 1.73826110e+00,
          1.30630589e+00, 1.08858824e-01, 1., 1. ]
      - [ 12., 4.61673550e-02, 4.19563316e-02, 1.31559581e-01,
          4.02145529e+00, 9.71428817e-04, 0., 1.85419440e-01,
          7.94167444e-03, 3.99848289e+01, 2.62526679e+00, 3.00921941e+00,
          1.48076725e+00, 1.32549655e+00, 1.10458046e-01, 1., 1. ]
      - [ 10., 3.74763049e-02, 3.22596245e-02, 1.00610040e-01,
          4.01060820e+00, 2.40794267e-04, 0., 1.39026374e-01,
          8.46471731e-03, 3.00180092e+01, 2.41344380e+00, 3.26954150e+00,
          1.78722203e+00, 1.24351132e+00, 1.24351129e-01, 1., 1. ]
      - [ 10., 5.26922829e-02, 4.49321270e-02, 1.38946906e-01, .Inf,
          1.22786872e-03, 0., 2.22095400e-01, 1.05915917e-02,
          2.43126640e+01, 2.30778098e+00, 3.48667717e+00, 1.86952710e+00,
          1.72449601e+00, 1.72449604e-01, 0., 1. ]
      - [ 9., 3.64236087e-02, 2.92972121e-02, 1.07230052e-01,
          9.15253535e-03, 2.82059482e-04, 0., 1.21830337e-01,
          8.31250753e-03, 5.60339785e+00, 2.32074928e+00, 2.89886212e+00,
          1.66433835e+00, 1.45983326e+00, 1.62203699e-01, 1., 1. ]
      - [ 8., 3.42453606e-02, 2.81882640e-02, 9.71681923e-02,
          1.81695796e+31, 6.22661260e-04, 0., 1.42040238e-01,
          1.18001131e-02, 4.97999115e+01, 2.20468831e+00, 2.90788102e+00,
          1.82076550e+00, 1.43056619e+00, 1.78820774e-01, 1., 1. ]
      - [ 14., 4.98572439e-02, 4.20311205e-02, 1.49434611e-01,
          1.15006767e+32, 6.10175659e-04, 0., 2.06204385e-01,
          7.41958013e-03, 3.59502068e+01, 2.62349868e+00, 3.16656661e+00,
          1.39867270e+00, 1.24891579e+00, 8.92082676e-02, 0., 1. ]
      - [ 7., 7.96075389e-02, 6.31363913e-02, 1.97434366e-01,
          2.26929449e-02, 1.65659259e-03, 0., 2.69508809e-01,
          2.85923518e-02, 8.79477596e+00, 1.95845377e+00, 3.24245524e+00,
          2.23821855e+00, 2.59144187e+00, 3.70205969e-01, 1., 0. ]
      - [ 14., 1.22365676e-01, 1.09880671e-01, 3.27826440e-01,
          1.62240833e-01, 2.75116581e-02, 0., 7.10521221e-01,
          4.50687371e-02, 1.30426865e+01, 2.55650973e+00, 2.87020373e+00,
          1.45822048e+00, 2.64097404e+00, 1.88640997e-01, 1., 0. ]
      - [ 6., 6.45830855e-02, 4.88375835e-02, 1.71533599e-01,
          1.93970185e-02, 1.06111074e-05, 0., 1.91321447e-01,
          2.76904050e-02, 5.89845848e+00, 1.88831711e+00, 2.64376521e+00,
          2.04822493e+00, 2.76497388e+00, 4.60828990e-01, 0., 0. ]
      - [ 11., 7.61110783e-02, 6.33530766e-02, 1.97318375e-01,
          2.60114288e+00, 9.61953832e-04, 0., 3.28938007e-01,
          2.14643702e-02, 1.41792974e+01, 2.35376859e+00, 3.89554811e+00,
          1.93156064e+00, 2.01239920e+00, 1.82945386e-01, 1., 1. ]
      - [ 5., 3.22915502e-02, 2.79959440e-02, 7.36489296e-02,
          3.75641626e-03, 2.04673866e-04, 0., 1.01432636e-01,
          1.30617069e-02, 1.94693928e+01, 1.72438431e+00, 2.38489962e+00,
          2.23964095e+00, 2.09314132e+00, 4.18628275e-01, 1., 1. ]
      - [ 11., 6.32169023e-02, 5.30450605e-02, 1.89468652e-01,
          2.60384846e+00, 1.91324958e-04, 0., 2.03039944e-01,
          6.65131025e-03, 1.16086426e+01, 2.48633981e+00, 2.93851686e+00,
          1.46146035e+00, 2.08084226e+00, 1.89167485e-01, 0., 1. ]
      - [ 17., 1.29189640e-01, 1.20752402e-01, 3.39505076e-01,
          1.22431159e+00, 1.14635536e-02, 0., 4.52336520e-01,
          2.81935036e-02, 1.78830261e+01, 2.71600342e+00, 2.91851997e+00,
          1.31779897e+00, 1.96438479e+00, 1.15552045e-01, 1., 1. ]
      - [ 16., 9.68523696e-02, 8.68130103e-02, 2.68376201e-01,
          1.81549359e+31, 1.43470801e-02, 0., 4.17853504e-01,
          2.18510665e-02, 2.18031120e+01, 2.65848804e+00, 3.10638452e+00,
          1.39696050e+00, 1.96043217e+00, 1.22527011e-01, 1., 1. ]
      - [ 12., 1.19081892e-01, 1.08416349e-01, 3.00854474e-01, .Inf,
          8.85037985e-03, 0., 5.03567457e-01, 3.46300192e-02,
          1.85693588e+01, 2.49721003e+00, 2.43235898e+00, 1.31957519e+00,
          2.32583094e+00, 1.93819240e-01, 1., 1. ]
      - [ 6., 7.88497180e-02, 5.53203970e-02, 1.99970603e-01,
          1.42483031e-02, 2.24807533e-04, 0., 2.34801352e-01,
          4.29584533e-02, 1.01472979e+01, 1.79136264e+00, 2.88077259e+00,
          2.24391675e+00, 2.34111977e+00, 3.90186638e-01, 1., 0. ]
      - [ 6., 6.04066104e-02, 4.98827659e-02, 1.38225704e-01,
          1.09077562e-02, 1.09548052e-03, 0., 1.92326322e-01,
          1.93141047e-02, 1.14766407e+01, 1.74311709e+00, 2.99888062e+00,
          2.36217570e+00, 2.34880400e+00, 3.91467333e-01, 1., 0. ]
      - [ 7., 5.07552810e-02, 4.60628979e-02, 1.29942849e-01,
          1.26132863e-02, 3.28158552e-04, 0., 1.71136439e-01,
          1.23627912e-02, 1.27327423e+01, 2.00411177e+00, 3.04009891e+00,
          2.08440781e+00, 2.36450171e+00, 3.37785959e-01, 1., 0. ]
      - [ 10., 7.40646198e-02, 5.98925836e-02, 2.19136000e-01,
          4.83819470e-02, 2.24631443e-03, 0., 3.02498043e-01,
          2.98369583e-02, 1.91148205e+01, 2.33996844e+00, 3.28258944e+00,
          1.75396991e+00, 2.48997641e+00, 2.48997644e-01, 1., 0. ]
      - [ 7., 2.63704192e-02, 2.29455363e-02, 6.96305931e-02,
          3.33532318e-03, 6.55114010e-04, 0., 9.60315615e-02,
          6.96186209e-03, 5.10604820e+01, 2.24969673e+00, 2.21808362e+00,
          1.63431072e+00, 1.32247484e+00, 1.88924983e-01, 1., 1. ]
      - [ 8., 3.01821269e-02, 2.50619538e-02, 8.45735073e-02,
          5.57929976e-03, 1.76440444e-04, 0., 9.83689949e-02,
          6.36600237e-03, 1.95647335e+01, 2.23373795e+00, 2.79846287e+00,
          1.76056266e+00, 1.35998702e+00, 1.69998378e-01, 1., 1. ]
      - [ 10., 3.70669551e-02, 3.08521688e-02, 1.11292534e-01, .Inf,
          2.11055228e-03, 0., 1.29496992e-01, 5.77430241e-03,
          2.07475853e+01, 2.55430174e+00, 2.47068977e+00, 1.38947678e+00,
          1.35998714e+00, 1.35998711e-01, 1., 1. ]
      - [ 10., 3.78264487e-02, 3.17889377e-02, 1.12048872e-01,
          1.34080695e-02, 4.54945373e-04, 0., 1.25961512e-01,
          4.77298256e-03, 3.32605667e+01, 2.59009147e+00, 2.50697207e+00,
          1.35370886e+00, 1.36674428e+00, 1.36674434e-01, 1., 1. ]
      - [ 13., 4.03481647e-02, 3.42973471e-02, 1.09646335e-01,
          2.11909432e-02, 5.62419475e-04, 0., 1.93688944e-01,
          8.09441134e-03, 5.85242424e+01, 2.57675505e+00, 3.65069962e+00,
          1.69006598e+00, 9.91300285e-01, 7.62538686e-02, 1., 1. ]
      - [ 14., 5.93054742e-02, 5.07682897e-02, 1.59869969e-01,
          1.30590488e+32, 7.30114814e-04, 0., 2.96109587e-01,
          1.65800359e-02, 4.26069717e+01, 2.60011315e+00, 3.87849045e+00,
          1.70329261e+00, 1.31944847e+00, 9.42463204e-02, 0., 1. ]
      - [ 14., 4.28290144e-02, 3.67470160e-02, 1.24414615e-01,
          1.29602099e+32, 7.43448327e-04, 0., 1.92186907e-01,
          7.47103663e-03, 3.68365707e+01, 2.55058265e+00, 3.60608268e+00,
          1.55751383e+00, 1.03453839e+00, 7.38955960e-02, 1., 1. ]
      - [ 20., 4.64230776e-02, 4.00483981e-02, 1.43750384e-01, .Inf,
          9.44405620e-04, 0., 2.48790741e-01, 6.54372619e-03,
          5.23393555e+01, 2.82160401e+00, 3.44383359e+00, 1.27928925e+00,
          7.97629774e-01, 3.98814902e-02, 1., 1. ]
      - [ 14., 4.07705009e-02, 3.74340750e-02, 1.14389099e-01,
          1.31239952e+32, 9.21559054e-04, 0., 1.69797152e-01,
          7.79836206e-03, 3.92465858e+01, 2.63950086e+00, 3.35726881e+00,
          1.50682628e+00, 9.89161670e-01, 7.06544071e-02, 1., 1. ]
      - [ 14., 3.99845205e-02, 3.39067020e-02, 1.13303736e-01,
          1.31527058e+32, 6.92642236e-04, 0., 2.22966149e-01,
          9.41464771e-03, 5.06047249e+01, 2.52212095e+00, 3.91948628e+00,
          1.66699541e+00, 9.53857601e-01, 6.81326836e-02, 1., 1. ]
      - [ 14., 3.30362767e-02, 2.70565301e-02, 1.03287913e-01,
          4.11804199e-01, 1.24056090e-03, 0., 1.33075565e-01,
          5.81111666e-03, 4.03704185e+01, 2.54242682e+00, 3.32036734e+00,
          1.45705187e+00, 7.84768760e-01, 5.60549125e-02, 1., 1. ]
      - [ 14., 3.11099365e-02, 2.63905041e-02, 9.53703523e-02,
          1.32445628e+32, 8.42147449e-04, 0., 1.57659680e-01,
          6.28804835e-03, 6.77588348e+01, 2.54272437e+00, 3.32515073e+00,
          1.44566965e+00, 7.82001674e-01, 5.58572635e-02, 1., 1. ]
      - [ 8., 3.05432547e-02, 2.64431499e-02, 7.91181028e-02,
          1.81695796e+31, 1.79774870e-04, 0., 1.12407431e-01,
          7.30605889e-03, 3.06476593e+01, 2.13854337e+00, 3.23594117e+00,
          2.01060247e+00, 1.26334000e+00, 1.57917500e-01, 1., 1. ]
      - [ 14., 6.75585717e-02, 5.54182716e-02, 2.22603664e-01,
          1.37874827e+32, 8.66938324e-04, 0., 2.83448368e-01,
          2.10239049e-02, 2.98482170e+01, 2.59916878e+00, 3.35377479e+00,
          1.42873597e+00, 1.53998530e+00, 1.09998949e-01, 0., 1. ]
      - [ 3., 2.58571599e-02, 1.90321412e-02, 4.87700626e-02,
          8.78578459e-04, 1.12715126e-09, 0., 5.69024980e-02,
          1.66394040e-02, 1.21053076e+01, 6.84628010e-01, 1.40976715e+00,
          2.44178843e+00, 2.72151351e+00, 9.07171190e-01, 1., 1. ]
      - [ 8., 6.37594014e-02, 5.19760139e-02, 1.81476995e-01,
          2.17276867e-02, 5.33189392e-04, 0., 2.17039794e-01,
          1.39755169e-02, 1.05160398e+01, 2.22036529e+00, 3.00084066e+00,
          1.87012482e+00, 2.55819988e+00, 3.19774985e-01, 1., 0. ]
      - [ 12., 1.20778434e-01, 1.08583450e-01, 3.03928316e-01,
          4.13122988e+00, 1.01274513e-02, 0., 4.69655633e-01,
          3.01262643e-02, 1.71781654e+01, 2.55341196e+00, 2.22721291e+00,
          1.27063346e+00, 2.51708317e+00, 2.09756926e-01, 1., 1. ]
      - [ 14., 4.75182943e-02, 4.05265279e-02, 1.43999815e-01,
          1.45268627e+32, 5.06444555e-03, 0., 1.90431491e-01,
          5.52534265e-03, 4.78779144e+01, 2.75256872e+00, 2.73214746e+00,
          1.22722602e+00, 1.26696634e+00, 9.04975981e-02, 1., 1. ]
      - [ 7., 2.19060853e-02, 1.80850811e-02, 5.91600910e-02,
          2.16262252e-03, 1.95460685e-04, 0., 7.56891370e-02,
          5.16207656e-03, 5.67755432e+01, 2.13671350e+00, 2.56394053e+00,
          1.78984487e+00, 1.12232935e+00, 1.60332769e-01, 0., 1. ]
      - [ 22., 4.20598947e-02, 3.65257859e-02, 1.17891513e-01,
          2.68596554e+00, 1.16301526e-03, 0., 2.34138623e-01,
          6.04770565e-03, 7.68814697e+01, 2.75588465e+00, 4.28149843e+00,
          1.39800942e+00, 5.80084264e-01, 2.63674669e-02, 1., 1. ]
      - [ 49., 1.03743233e-01, 9.59884003e-02, 3.17132264e-01,
          4.92938727e-01, 4.77070436e-02, 0., 5.56778371e-01,
          8.97459872e-03, 7.15368652e+01, 2.97362041e+00, 3.44662476e+00,
          8.99967074e-01, 6.01541638e-01, 1.22763598e-02, 1., 1. ]
      - [ 29., 4.76510487e-02, 4.31605354e-02, 1.42138749e-01,
          6.15702197e-02, 2.97459494e-03, 0., 3.33509833e-01,
          6.04944071e-03, 8.77186356e+01, 2.89379692e+00, 3.24846721e+00,
          1.09674287e+00, 5.34595370e-01, 1.84343234e-02, 1., 1. ]
      - [ 26., 5.70560358e-02, 5.09273261e-02, 1.35406047e-01,
          1.07129276e+00, 3.13910865e-03, 0., 2.91338503e-01,
          8.44350178e-03, 5.30118103e+01, 2.86592817e+00, 4.17603397e+00,
          1.44828081e+00, 5.40315568e-01, 2.07813680e-02, 1., 1. ]
      - [ 24., 4.35028039e-02, 3.94081175e-02, 1.24059357e-01,
          4.02521454e-02, 2.03393376e-03, 0., 2.54587442e-01,
          6.04398362e-03, 6.62298050e+01, 2.79500937e+00, 4.12220240e+00,
          1.30609167e+00, 5.41810691e-01, 2.25754455e-02, 1., 1. ]
      - [ 22., 4.63266857e-02, 3.77751105e-02, 1.25494167e-01,
          4.65685315e-02, 1.19850424e-03, 0., 2.81453818e-01,
          1.20057212e-02, 4.88673553e+01, 2.73882508e+00, 4.56543684e+00,
          1.48910403e+00, 5.42784870e-01, 2.46720389e-02, 1., 1. ]
      - [ 36., 5.87648936e-02, 5.34399599e-02, 1.94368646e-01,
          1.18231550e-01, 8.86539370e-03, 0., 4.08801228e-01,
          6.85740774e-03, 8.27956390e+01, 2.97079825e+00, 3.57523513e+00,
          9.59513128e-01, 4.86159593e-01, 1.35044334e-02, 1., 1. ]
      - [ 68., 1.22735538e-01, 1.02665052e-01, 3.72115552e-01,
          9.56607401e-01, 2.81648003e-02, 0., 7.47928083e-01,
          2.09474359e-02, 7.67836609e+01, 3.05604053e+00, 3.32011962e+00,
          7.93360353e-01, 4.13956732e-01, 6.08759886e-03, 1., 1. ]
      - [ 50., 1.06137693e-01, 9.66492072e-02, 3.20573092e-01,
          5.47241032e-01, 2.90221348e-02, 0., 5.54784477e-01,
          1.28185404e-02, 7.78614883e+01, 3.02692437e+00, 3.46709442e+00,
          7.93769062e-01, 5.04378915e-01, 1.00875786e-02, 1., 1. ]
      - [ 20., 3.26707028e-02, 2.77327709e-02, 1.05129845e-01, .Inf,
          7.31642824e-04, 0., 1.65515125e-01, 5.58910845e-03,
          7.10762329e+01, 2.78061032e+00, 3.58017397e+00, 1.25421154e+00,
          5.59899688e-01, 2.79949848e-02, 1., 1. ]
      - [ 21., 4.42658961e-02, 3.75594683e-02, 1.41614914e-01,
          4.05027680e-02, 3.57493060e-04, 0., 2.17121169e-01,
          4.88381647e-03, 5.51020393e+01, 2.74594569e+00, 3.74228311e+00,
          1.25058877e+00, 7.70219505e-01, 3.66771184e-02, 1., 1. ]
      - [ 21., 4.60310355e-02, 3.95189337e-02, 1.43319860e-01,
          4.37982939e-02, 7.09601096e-04, 0., 2.47675896e-01,
          7.01834494e-03, 6.88717880e+01, 2.86886263e+00, 3.27226305e+00,
          1.23068452e+00, 7.88089275e-01, 3.75280604e-02, 1., 1. ]
      - [ 20., 4.59948368e-02, 3.95930223e-02, 1.39813393e-01, .Inf,
          2.35579952e-04, 0., 1.89021602e-01, 4.26858710e-03,
          3.34613953e+01, 2.78835320e+00, 3.75692058e+00, 1.31557250e+00,
          8.03238630e-01, 4.01619300e-02, 1., 1. ]
      - [ 10., 3.37579697e-02, 2.78695859e-02, 9.97197330e-02,
          4.00855541e+00, 5.34652499e-05, 0., 1.06845923e-01,
          4.08730144e-03, 1.69620438e+01, 2.44665051e+00, 2.84650850e+00,
          1.51452625e+00, 1.25998795e+00, 1.25998795e-01, 1., 1. ]
      - [ 5., 1.96895953e-02, 1.59882698e-02, 3.39741930e-02,
          1.52004266e-03, 9.04021363e-05, 0., 9.05702040e-02,
          1.46301007e-02, 4.46397743e+01, 1.46014154e+00, 2.39518809e+00,
          2.40052223e+00, 9.30169284e-01, 1.86033860e-01, 1., 1. ]
      - [ 17., 3.41915004e-02, 2.92095356e-02, 1.10057741e-01,
          2.03259028e-02, 2.51748716e-03, 0., 1.88395768e-01,
          5.16127422e-03, 7.97925415e+01, 2.70624113e+00, 3.16384959e+00,
          1.30218720e+00, 7.17946470e-01, 4.22321446e-02, 1., 1. ]
      - [ 22., 7.60356262e-02, 6.11903779e-02, 2.10987926e-01,
          3.15230989e+00, 2.85435584e-03, 0., 3.36148500e-01,
          1.79439262e-02, 4.09979973e+01, 2.80985737e+00, 3.73098922e+00,
          1.43034148e+00, 8.48338008e-01, 3.85608189e-02, 1., 0. ]
      - [ 20., 3.60974595e-02, 3.07095591e-02, 1.16659433e-01, .Inf,
          2.57044041e-04, 0., 1.41724065e-01, 3.10444087e-03,
          5.95836411e+01, 2.78423786e+00, 3.17488217e+00, 1.10342634e+00,
          6.48936987e-01, 3.24468501e-02, 1., 1. ]
      - [ 31., 8.20167884e-02, 7.42052048e-02, 2.37086892e-01,
          2.02264756e-01, 7.12580839e-03, 0., 4.58711386e-01,
          1.25546819e-02, 6.64104309e+01, 2.86590719e+00, 4.07133675e+00,
          1.16548812e+00, 7.76402831e-01, 2.50452533e-02, 1., 1. ]
      - [ 9., 4.90362085e-02, 3.69019434e-02, 1.44739807e-01,
          1.89488735e-02, 6.10439689e-04, 0., 2.14269638e-01,
          2.95559969e-02, 4.21776047e+01, 2.21568251e+00, 3.35340977e+00,
          1.91696501e+00, 1.45931482e+00, 1.62146091e-01, 0., 1. ]
      - [ 4., 2.75233258e-02, 2.14664582e-02, 6.09077699e-02,
          1.79693825e-03, 1.48084837e-06, 0., 7.04767928e-02,
          1.22624021e-02, 1.32011023e+01, 1.26250350e+00, 2.05431509e+00,
          2.37248898e+00, 2.28395414e+00, 5.70988536e-01, 1., 1. ]
      - [ 3., 2.14868654e-02, 1.53417168e-02, 4.13640328e-02,
          3.45181848e-04, 5.00167630e-10, 0., 4.60245460e-02,
          1.32861407e-02, 1.27029257e+01, 1.34980571e+00, 7.44589508e-01,
          1.28966689e+00, 2.37999749e+00, 7.93332517e-01, 1., 1. ]
      - [ 11., 1.23026244e-01, 1.17483519e-01, 3.09437484e-01,
          4.29696417e+00, 1.43068815e-02, 0., 4.71157998e-01,
          3.91119793e-02, 9.16455173e+00, 2.51033306e+00, 2.43723154e+00,
          1.41075408e+00, 3.04566646e+00, 2.76878774e-01, 1., 0. ]
      - [ 6., 5.57621308e-02, 4.48624007e-02, 1.37579143e-01,
          1.34429969e-02, 5.07687218e-05, 0., 1.79810211e-01,
          1.78695042e-02, 8.73052120e+00, 1.77607679e+00, 2.91691041e+00,
          2.26078916e+00, 3.10716414e+00, 5.17860711e-01, 0., 0. ]
      - [ 9., 1.02528870e-01, 8.81284177e-02, 2.75826603e-01,
          3.77536507e+01, 1.50025412e-02, 0., 3.99088204e-01,
          2.55927481e-02, 1.17911777e+01, 2.31009364e+00, 2.98768091e+00,
          1.76699495e+00, 3.88131285e+00, 4.31256980e-01, 0., 0. ]
      - [ 5., 5.87380417e-02, 4.82734479e-02, 1.39802977e-01,
          1.04607912e-02, 1.86949022e-04, 0., 1.67744428e-01,
          1.92120392e-02, 7.61560774e+00, 1.64330673e+00, 2.44338560e+00,
          2.23983049e+00, 3.96172071e+00, 7.92344153e-01, 0., 0. ]
      - [ 6., 6.76327497e-02, 5.15500642e-02, 1.71365753e-01,
          1.57338157e-02, 1.05847954e-04, 0., 2.15458274e-01,
          3.10859531e-02, 7.37417364e+00, 1.78314829e+00, 2.88010335e+00,
          2.23514390e+00, 3.13804460e+00, 5.23007452e-01, 0., 0. ]
      - [ 4., 5.74292019e-02, 4.52818647e-02, 1.26206815e-01,
          6.86056912e-03, 1.18552918e-04, 0., 1.48132697e-01,
          2.48133466e-02, 6.11364365e+00, 1.26166868e+00, 2.04357481e+00,
          2.36608720e+00, 4.73758364e+00, 1.18439591e+00, 0., 0. ]
      - [ 5., 6.10553399e-02, 4.64298911e-02, 1.53914526e-01,
          9.63050593e-03, 1.81030209e-05, 0., 1.54746547e-01,
          1.73124261e-02, 1.40209818e+00, 1.83850408e+00, 1.96830559e+00,
          1.79797256e+00, 4.31999969e+00, 8.63999963e-01, 0., 0. ]
      - [ 4., 4.89538312e-02, 3.80918905e-02, 1.13405146e-01,
          4.07092506e-03, 9.86906583e-04, 0., 1.14271507e-01,
          1.90552231e-02, 3.37835264e+00, 1.57515609e+00, 1.56425619e+00,
          1.80946040e+00, 4.31495857e+00, 1.07873964e+00, 0., 1. ]
      - [ 4., 4.56889197e-02, 3.57008167e-02, 1.03930935e-01,
          4.11262270e-03, 5.13610212e-05, 0., 1.11877456e-01,
          1.87391229e-02, 5.18528318e+00, 1.37366414e+00, 1.87204146e+00,
          2.16725016e+00, 3.95816374e+00, 9.89540935e-01, 0., 1. ]
      - [ 9., 1.30310848e-01, 1.08640999e-01, 3.01940143e-01,
          5.54077263e+01, 6.68240432e-03, 0., 4.10288364e-01,
          3.23844105e-02, 1.23205185e+01, 2.28247285e+00, 3.17651010e+00,
          1.98122287e+00, 2.69000006e+00, 2.98888892e-01, 1., 0. ]
      - [ 5., 5.63036725e-02, 4.49468456e-02, 1.30543232e-01,
          1.03712790e-02, 1.85351091e-04, 0., 1.71426922e-01,
          2.18818597e-02, 7.31080151e+00, 1.54201686e+00, 2.59817314e+00,
          2.37740660e+00, 3.71122932e+00, 7.42245853e-01, 0., 0. ]
      - [ 6., 7.11672306e-02, 5.66308163e-02, 1.80157036e-01,
          2.02280674e-02, 1.01269419e-04, 0., 2.27479368e-01,
          3.11930086e-02, 5.28463602e+00, 1.84511673e+00, 2.83481026e+00,
          2.19964886e+00, 3.63996553e+00, 6.06660903e-01, 0., 0. ]
      - [ 5., 6.00971133e-02, 4.70152423e-02, 1.45819575e-01,
          9.40024480e-03, 7.46660662e-05, 0., 1.61372930e-01,
          1.95969455e-02, 6.40392494e+00, 1.65008986e+00, 2.35887766e+00,
          2.15832019e+00, 3.63000011e+00, 7.26000011e-01, 0., 0. ]
      - [ 6., 6.68194517e-02, 5.59995361e-02, 1.66701868e-01,
          1.54605955e-02, 4.17180039e-04, 0., 1.94464773e-01,
          1.89496335e-02, 9.12519550e+00, 1.95543289e+00, 2.55842400e+00,
          2.01739144e+00, 3.60496545e+00, 6.00827575e-01, 0., 0. ]
      - [ 5., 4.95407097e-02, 3.91804539e-02, 1.20005354e-01,
          1.78900063e-02, 9.45640204e-05, 0., 1.41145706e-01,
          1.78542566e-02, 6.65861559e+00, 1.63764429e+00, 2.42161489e+00,
          2.21782017e+00, 3.36851811e+00, 6.73703611e-01, 0., 0. ]
      - [ 3., 5.50445989e-02, 3.65973823e-02, 1.02450289e-01,
          2.47353199e-03, 2.63791593e-11, 0., 1.09792143e-01,
          4.28093597e-02, 4.98094511e+00, 7.56617725e-01, 1.33777750e+00,
          2.31709838e+00, 2.76999998e+00, 9.23333347e-01, 1., 0. ]
      - [ 14., 1.29836738e-01, 1.16883770e-01, 3.42495143e-01,
          1.70374264e+32, 2.52523050e-02, 0., 6.38429940e-01,
          3.99521925e-02, 1.18353767e+01, 2.58670235e+00, 2.60380793e+00,
          1.33074105e+00, 2.54859567e+00, 1.82042554e-01, 1., 0. ]
      - [ 5., 5.34627326e-02, 4.35289368e-02, 1.31192744e-01,
          9.14986525e-03, 1.44390899e-04, 0., 1.47040725e-01,
          1.74637530e-02, 7.77699661e+00, 1.73447895e+00, 2.27634096e+00,
          2.08495831e+00, 3.45920014e+00, 6.91840053e-01, 0., 0. ]
      - [ 15., 1.29218265e-01, 1.18391022e-01, 3.52201223e-01,
          2.17909798e-01, 2.84647159e-02, 0., 5.60688019e-01,
          2.96194926e-02, 1.26180859e+01, 2.58778334e+00, 3.03708935e+00,
          1.41328847e+00, 2.40000010e+00, 1.60000011e-01, 0., 0. ]
      - [ 5., 4.11313623e-02, 3.14844772e-02, 1.03627317e-01,
          4.04413603e-03, 1.07385902e-04, 0., 1.04976103e-01,
          1.17650991e-02, 5.57337952e+00, 1.89019060e+00, 1.91278625e+00,
          1.75023818e+00, 2.95000005e+00, 5.90000033e-01, 1., 0. ]
      - [ 4., 3.69498692e-02, 2.84642037e-02, 8.60423222e-02,
          2.35072500e-03, 6.74788433e-04, 0., 9.88402739e-02,
          1.72028206e-02, 1.70574894e+01, 1.52548003e+00, 1.65857697e+00,
          1.95541883e+00, 2.90863419e+00, 7.27158546e-01, 0., 1. ]
      - [ 10., 1.08350828e-01, 9.69654843e-02, 2.58240849e-01, .Inf,
          7.19806040e-03, 0., 3.70496303e-01, 3.20679657e-02,
          2.11065216e+01, 2.56691599e+00, 2.62095881e+00, 1.59089375e+00,
          2.32623768e+00, 2.32623771e-01, 1., 1. ]
      - [ 8., 4.46799546e-02, 3.76610719e-02, 1.22740433e-01,
          1.81695796e+31, 1.56763053e-04, 0., 1.50276691e-01,
          9.67739895e-03, 1.64021282e+01, 2.22964168e+00, 3.01703286e+00,
          1.87751424e+00, 1.87955236e+00, 2.34944046e-01, 1., 1. ]
      - [ 24., 1.06108412e-01, 9.99234021e-02, 2.95348704e-01,
          2.49070644e-01, 2.00513005e-02, 0., 4.10312355e-01,
          2.17014123e-02, 5.49472847e+01, 2.80812025e+00, 3.47292805e+00,
          1.15155005e+00, 9.51726317e-01, 3.96552645e-02, 1., 1. ]
      - [ 22., 3.25340778e-02, 2.80836634e-02, 1.04644135e-01,
          3.93265299e-02, 5.09864977e-03, 0., 1.92816034e-01,
          4.66360245e-03, 8.40799255e+01, 2.81264448e+00, 3.04881358e+00,
          1.04894733e+00, 5.63205302e-01, 2.56002415e-02, 1., 1. ]
      - [ 4., 1.34891234e-02, 1.08468086e-02, 2.53572073e-02,
          5.45543793e-04, 8.32701588e-08, 0., 4.01946828e-02,
          8.40481929e-03, 3.98132858e+01, 1.06239259e+00, 2.42998195e+00,
          2.80593467e+00, 8.97760153e-01, 2.24440038e-01, 1., 1. ]
      - [ 34., 4.36302684e-02, 3.88993546e-02, 1.31779760e-01,
          8.75660852e-02, 2.41708755e-03, 0., 3.37722510e-01,
          6.17197342e-03, 1.01140671e+02, 2.96513486e+00, 3.44360113e+00,
          1.12030780e+00, 4.15683180e-01, 1.22259762e-02, 0., 1. ]
      - [ 30., 3.51244584e-02, 2.94573978e-02, 1.19143367e-01,
          6.23965636e-02, 1.81730755e-03, 0., 2.60364264e-01,
          6.41768565e-03, 7.16832657e+01, 2.89985752e+00, 3.66516042e+00,
          1.09588766e+00, 4.05152977e-01, 1.35050993e-02, 1., 1. ]
      - [ 13., 4.84517291e-02, 4.07774486e-02, 1.45813033e-01,
          2.96940994e+00, 3.67962010e-03, 0., 1.74886689e-01,
          5.03492961e-03, 3.42660027e+01, 2.55239391e+00, 2.93558335e+00,
          1.36102068e+00, 1.26782835e+00, 9.75252539e-02, 0., 1. ]
      - [ 13., 4.90079224e-02, 4.17314582e-02, 1.48804963e-01,
          2.40926668e-02, 1.80650991e-03, 0., 2.11093962e-01,
          7.65587762e-03, 5.41762199e+01, 2.52583981e+00, 2.81625199e+00,
          1.32430112e+00, 1.25863194e+00, 9.68178436e-02, 0., 1. ]
      - [ 13., 4.54853028e-02, 3.82072888e-02, 1.38578027e-01,
          3.05590796e+00, 8.43852176e-04, 0., 1.68834031e-01,
          5.01891691e-03, 5.10369339e+01, 2.60873270e+00, 2.64913678e+00,
          1.20234239e+00, 1.24000001e+00, 9.53846127e-02, 1., 1. ]
      - [ 20., 5.29838428e-02, 4.55541387e-02, 1.53912649e-01, .Inf,
          8.24421877e-04, 0., 2.62449712e-01, 7.82169960e-03,
          5.41434135e+01, 2.72788692e+00, 3.96142769e+00, 1.39177489e+00,
          8.63335013e-01, 4.31667492e-02, 1., 1. ]
      - [ 47., 5.45643382e-02, 4.72755134e-02, 1.88033134e-01,
          1.29761577e-01, 2.08651703e-02, 0., 4.13425565e-01,
          6.17182115e-03, 9.35782242e+01, 2.98701549e+00, 3.32021403e+00,
          7.59320319e-01, 4.37082440e-01, 9.29962657e-03, 1., 1. ]
      - [ 25., 1.18471242e-01, 1.09250642e-01, 3.31671596e-01,
          3.08068544e-01, 2.18344051e-02, 0., 4.58501816e-01,
          2.44570784e-02, 3.15525417e+01, 2.86927915e+00, 2.51889277e+00,
          9.14835453e-01, 1.26334345e+00, 5.05337380e-02, 1., 1. ]
      - [ 23., 1.07322089e-01, 9.99796987e-02, 3.08104426e-01,
          2.52553552e-01, 8.64637084e-03, 0., 4.04870778e-01,
          1.69305615e-02, 3.36454353e+01, 2.84633803e+00, 2.79932237e+00,
          9.72124398e-01, 1.20582569e+00, 5.24272025e-02, 1., 1. ]
      - [ 5., 4.47834209e-02, 3.09688337e-02, 1.08272299e-01,
          1.78123103e-03, 5.78971185e-06, 0., 1.23682305e-01,
          2.72709299e-02, 1.02661018e+01, 2.16222286e+00, 1.28362691e+00,
          1.17427170e+00, 1.75950289e+00, 3.51900578e-01, 1., 1. ]
      - [ 8., 3.24451588e-02, 2.70728525e-02, 9.03938636e-02,
          1.81695796e+31, 1.10548153e-03, 0., 1.25634700e-01,
          7.42216408e-03, 5.25739098e+01, 2.28017783e+00, 2.60813379e+00,
          1.65118587e+00, 1.47498596e+00, 1.84373245e-01, 1., 1. ]
      - [ 22., 1.07781008e-01, 9.99298841e-02, 3.04300964e-01,
          7.64230490e+00, 4.85385302e-03, 0., 3.63072038e-01,
          1.84337180e-02, 3.80176048e+01, 2.83254194e+00, 2.88448501e+00,
          1.00208092e+00, 1.19104099e+00, 5.41382283e-02, 1., 1. ]
      - [ 21., 1.10381283e-01, 1.03371494e-01, 3.04300964e-01,
          2.44551018e-01, 7.13619590e-03, 0., 3.98227513e-01,
          2.07072198e-02, 4.38435669e+01, 2.78142381e+00, 2.93716216e+00,
          1.07370222e+00, 1.19373584e+00, 5.68445623e-02, 1., 1. ]
      - [ 12., 1.02719970e-01, 9.12322477e-02, 2.79060841e-01, .Inf,
          1.20987184e-02, 0., 3.32193941e-01, 1.94418002e-02,
          2.06008968e+01, 2.56067085e+00, 2.80754948e+00, 1.35721385e+00,
          2.16433668e+00, 1.80361390e-01, 1., 1. ]
      - [ 5., 3.53711993e-02, 2.68383361e-02, 8.93937647e-02,
          3.19401245e-03, 1.47451838e-05, 0., 9.08536166e-02,
          1.02019468e-02, 3.69492626e+00, 1.80557895e+00, 2.03317571e+00,
          1.85874259e+00, 2.53999996e+00, 5.08000016e-01, 1., 1. ]
      - [ 5., 5.67427836e-02, 4.20514084e-02, 1.36683747e-01,
          1.21193603e-02, 1.70372241e-05, 0., 1.59517914e-01,
          3.09431106e-02, 7.20106983e+00, 1.63291609e+00, 2.49430728e+00,
          2.27788234e+00, 2.62916803e+00, 5.25833607e-01, 1., 1. ]
      - [ 5., 4.48772907e-02, 3.57505120e-02, 1.09765112e-01,
          6.59362273e-03, 3.90623718e-05, 0., 1.20413259e-01,
          1.38048297e-02, 6.94146919e+00, 1.68781590e+00, 2.31283641e+00,
          2.11519861e+00, 3., 6.00000024e-01, 1., 1. ]
      - [ 16., 3.85822579e-02, 3.25773545e-02, 1.16808079e-01,
          1.81549359e+31, 9.17977944e-04, 0., 1.82770833e-01,
          5.91431372e-03, 5.80903053e+01, 2.61982346e+00, 3.55690193e+00,
          1.42886329e+00, 7.83799708e-01, 4.89874817e-02, 1., 1. ]
      - [ 14., 4.47295681e-02, 3.77323329e-02, 1.37659952e-01,
          1.84823016e+32, 3.30893719e-03, 0., 1.78356931e-01,
          5.57212019e-03, 4.05585556e+01, 2.62228394e+00, 2.87220311e+00,
          1.25107789e+00, 1.17911279e+00, 8.42223391e-02, 1., 1. ]
      - [ 16., 5.72257228e-02, 4.67078164e-02, 1.66446939e-01,
          4.83892076e-02, 5.90990123e-04, 0., 2.36083359e-01,
          1.55760543e-02, 2.68218765e+01, 2.63850451e+00, 3.63875008e+00,
          1.47166991e+00, 1.10107565e+00, 6.88172281e-02, 1., 1. ]
      - [ 6., 5.58606796e-02, 4.49952222e-02, 1.41040474e-01,
          1.26789883e-02, 7.42357632e-04, 0., 1.87541857e-01,
          2.42129155e-02, 6.42776775e+00, 1.89960670e+00, 2.68828011e+00,
          2.11521840e+00, 3.06497073e+00, 5.10828435e-01, 0., 1. ]
      - [ 6., 5.55701777e-02, 4.49414551e-02, 1.45412907e-01,
          1.23130903e-02, 1.86895613e-05, 0., 1.58459485e-01,
          1.32609876e-02, 6.25656080e+00, 1.89858115e+00, 2.56665993e+00,
          1.98928154e+00, 3.29996848e+00, 5.49994767e-01, 0., 0. ]
      - [ 16., 3.53486612e-02, 3.00430376e-02, 1.09002329e-01,
          1.81549359e+31, 1.17047946e-03, 0., 1.37486503e-01,
          4.64968057e-03, 4.60396194e+01, 2.69470882e+00, 3.33405948e+00,
          1.33597362e+00, 7.24707723e-01, 4.52942327e-02, 1., 1. ]
      - [ 20., 4.61227298e-02, 4.11666445e-02, 1.28081918e-01, .Inf,
          1.47284474e-03, 0., 2.19016358e-01, 6.46224990e-03,
          6.34165421e+01, 2.73502064e+00, 3.43553996e+00, 1.35217047e+00,
          6.95954680e-01, 3.47977355e-02, 1., 1. ]
      - [ 25., 5.37413321e-02, 4.64089140e-02, 1.69809476e-01,
          6.69008270e-02, 3.23503930e-03, 0., 2.40998328e-01,
          4.73574502e-03, 7.37931747e+01, 2.84822845e+00, 3.49707055e+00,
          1.10325468e+00, 7.14226782e-01, 2.85690706e-02, 1., 1. ]
      - [ 5., 4.67642173e-02, 3.67565379e-02, 1.16908684e-01,
          6.12416305e-03, 6.48651403e-05, 0., 1.24493852e-01,
          1.41193932e-02, 8.20647144e+00, 1.76878726e+00, 2.17207980e+00,
          1.98970282e+00, 3.28000021e+00, 6.56000018e-01, 1., 1. ]
      - [ 27., 3.69802155e-02, 3.21726613e-02, 1.24482840e-01,
          3.30214426e-02, 1.00687053e-03, 0., 2.30063990e-01,
          4.33377456e-03, 9.81089935e+01, 2.87425518e+00, 3.42245889e+00,
          1.02332902e+00, 4.97408479e-01, 1.84225366e-02, 1., 0. ]
      - [ 3., 8.74456670e-03, 7.42047653e-03, 1.26484176e-02,
          1.44884078e-04, 7.84594056e-11, 0., 2.44467687e-02,
          7.05717411e-03, 4.66729469e+01, 3.62529039e-01, 1.73186600e+00,
          2.99968004e+00, 7.18502223e-01, 2.39500746e-01, 1., 1. ]
      - [ 6., 5.70516512e-02, 4.91047055e-02, 1.44977823e-01,
          1.32029848e-02, 2.70929420e-04, 0., 1.72421694e-01,
          1.46571305e-02, 8.66605568e+00, 1.94365418e+00, 2.62351632e+00,
          2.04362535e+00, 3.27496862e+00, 5.45828104e-01, 0., 0. ]
      - [ 27., 4.17440869e-02, 3.57329547e-02, 1.34739846e-01,
          4.17731740e-02, 8.64993257e-04, 0., 2.35354990e-01,
          5.67634637e-03, 7.68554382e+01, 2.91725206e+00, 3.42948413e+00,
          1.17202401e+00, 5.52993059e-01, 2.04812251e-02, 1., 1. ]
      - [ 28., 4.37461473e-02, 3.77506204e-02, 1.39000311e-01,
          5.02114296e-02, 1.04900403e-03, 0., 2.70758152e-01,
          7.15447869e-03, 7.31906891e+01, 2.84593582e+00, 3.85677457e+00,
          1.10768080e+00, 5.53283632e-01, 1.97601300e-02, 1., 1. ]
      - [ 23., 5.19558862e-02, 4.79009710e-02, 1.44669741e-01,
          1.05333853e+00, 2.52659991e-03, 0., 2.62105703e-01,
          7.25867087e-03, 5.72178993e+01, 2.78883171e+00, 3.78571391e+00,
          1.29941225e+00, 6.64325595e-01, 2.88837217e-02, 1., 1. ]
      - [ 7., 6.83374628e-02, 5.37084974e-02, 1.92758814e-01,
          1.31770317e-02, 2.04842817e-03, 0., 2.20358506e-01,
          1.93090439e-02, 6.80015850e+00, 2.36339664e+00, 1.95300269e+00,
          1.36667442e+00, 3.35999966e+00, 4.79999959e-01, 0., 1. ]
      - [ 33., 6.18165955e-02, 5.39092757e-02, 2.07982421e-01,
          1.20598607e-01, 8.89088213e-03, 0., 3.02379787e-01,
          3.23709426e-03, 6.50653534e+01, 2.92826962e+00, 3.51630807e+00,
          9.64917958e-01, 6.91399395e-01, 2.09514964e-02, 0., 1. ]
      - [ 26., 4.04846258e-02, 3.47219557e-02, 1.31627545e-01,
          4.65353914e-02, 9.78387543e-04, 0., 2.52646357e-01,
          6.76059164e-03, 8.65941544e+01, 2.86564040e+00, 3.53055668e+00,
          1.11125875e+00, 5.45190394e-01, 2.09688619e-02, 1., 1. ]
      - [ 15., 3.49655114e-02, 2.97560077e-02, 1.07155733e-01,
          1.57707781e-02, 5.50059660e-04, 0., 1.43489867e-01,
          3.59726883e-03, 7.69977264e+01, 2.60836816e+00, 3.26805258e+00,
          1.35408437e+00, 8.47117126e-01, 5.64744733e-02, 1., 1. ]
      - [ 14., 3.30332033e-02, 2.83814482e-02, 1.01076230e-01,
          1.92702892e+32, 6.34105818e-04, 0., 1.39953226e-01,
          3.56863486e-03, 5.58186264e+01, 2.57316828e+00, 3.32188272e+00,
          1.42869139e+00, 8.68905663e-01, 6.20646887e-02, 1., 1. ]
      - [ 28., 4.44797315e-02, 3.90359536e-02, 1.43743590e-01,
          5.07307127e-02, 1.06938463e-03, 0., 2.75448918e-01,
          4.01941966e-03, 1.04409668e+02, 2.84746647e+00, 3.82668161e+00,
          1.09831524e+00, 5.77108145e-01, 2.06110049e-02, 1., 1. ]
      - [ 14., 3.39309350e-02, 2.91587412e-02, 1.03143342e-01,
          1.92992047e+32, 2.00521573e-03, 0., 1.70479715e-01,
          5.60699683e-03, 5.40157318e+01, 2.53234673e+00, 3.38230062e+00,
          1.47223175e+00, 8.92786086e-01, 6.37704358e-02, 1., 1. ]
      - [ 27., 4.31371965e-02, 3.75226103e-02, 1.39121547e-01,
          4.62474115e-02, 1.61972572e-03, 0., 2.96259075e-01,
          6.60257041e-03, 8.00903473e+01, 2.92563963e+00, 3.43947315e+00,
          1.08312392e+00, 5.80448329e-01, 2.14980859e-02, 1., 1. ]
      - [ 37., 1.09670565e-01, 1.01922259e-01, 3.03354174e-01,
          4.29321796e-01, 3.01996768e-02, 0., 5.13598382e-01,
          1.53088057e-02, 5.03194008e+01, 2.95726776e+00, 3.37526894e+00,
          1.09821153e+00, 7.86571681e-01, 2.12586932e-02, 1., 1. ]
      - [ 14., 4.19391841e-02, 3.65015864e-02, 1.30643889e-01,
          1.94518698e+32, 5.84542169e-04, 0., 1.93254039e-01,
          6.09082170e-03, 5.36590805e+01, 2.61932898e+00, 3.34916043e+00,
          1.45337105e+00, 1.03591633e+00, 7.39940256e-02, 1., 0. ]
      - [ 10., 3.71579155e-02, 3.10417656e-02, 1.01391263e-01,
          1.15784016e-02, 3.26703390e-04, 0., 1.72020629e-01,
          1.06378589e-02, 5.51628418e+01, 2.28372717e+00, 3.58836222e+00,
          1.89979851e+00, 1.24806595e+00, 1.24806598e-01, 1., 1. ]
      - [ 16., 4.31125350e-02, 3.75163555e-02, 1.28364265e-01,
          1.81549359e+31, 5.23037743e-04, 0., 1.88060224e-01,
          5.24381874e-03, 5.19313812e+01, 2.70103836e+00, 3.37205863e+00,
          1.36458409e+00, 9.37229812e-01, 5.85768633e-02, 1., 1. ]
      - [ 12., 4.58712690e-02, 4.18506116e-02, 1.30625412e-01, .Inf,
          8.05961492e-04, 0., 1.86612219e-01, 6.24357909e-03,
          4.38359222e+01, 2.50610638e+00, 3.18175244e+00, 1.53652465e+00,
          1.28850996e+00, 1.07375830e-01, 1., 1. ]
      - [ 8., 3.55432406e-02, 2.92710494e-02, 9.91445258e-02,
          1.81695796e+31, 1.93464861e-04, 0., 1.17908545e-01,
          6.87169796e-03, 2.04816685e+01, 2.20809746e+00, 2.88128042e+00,
          1.78685308e+00, 1.59785092e+00, 1.99731365e-01, 1., 1. ]
      - [ 6., 4.35543507e-02, 3.51294167e-02, 1.15618892e-01,
          6.41246978e-03, 5.41309746e-05, 0., 1.19512044e-01,
          9.81160812e-03, 8.42254353e+00, 2.03207231e+00, 2.28488350e+00,
          1.77793384e+00, 2.63997507e+00, 4.39995855e-01, 0., 1. ]
      - [ 3., 5.61613142e-02, 3.96179445e-02, 1.08853593e-01,
          2.29344703e-03, 6.88200191e-11, 0., 1.18428648e-01,
          3.46434563e-02, 4.45113420e+00, 1.31840658e+00, 7.75988519e-01,
          1.34405160e+00, 2.83862472e+00, 9.46208239e-01, 0., 1. ]
      - [ 7., 4.80084829e-02, 3.82503010e-02, 1.33355886e-01,
          1.22693237e-02, 6.50457048e-04, 0., 1.55020267e-01,
          1.31137306e-02, 1.52184496e+01, 2.09546733e+00, 2.64297247e+00,
          1.82568872e+00, 2.42000008e+00, 3.45714301e-01, 1., 1. ]
      - [ 4., 3.00206114e-02, 2.35253014e-02, 6.91852048e-02,
          1.42832613e-03, 4.83129028e-04, 0., 7.05554187e-02,
          1.18006691e-02, 8.59003448e+00, 1.57516098e+00, 1.56424880e+00,
          1.81480396e+00, 2.61497521e+00, 6.53743804e-01, 1., 1. ]
      - [ 15., 1.11001521e-01, 1.14061378e-01, 3.08219492e-01,
          1.37839347e-01, 1.24843577e-02, 0., 4.04240310e-01,
          2.12344993e-02, 1.21274929e+01, 2.67788482e+00, 2.63109565e+00,
          1.23277521e+00, 2.36912012e+00, 1.57941341e-01, 1., 1. ]
      - [ 7., 4.04659994e-02, 3.23166139e-02, 1.08050510e-01,
          4.53826506e-03, 3.60244390e-04, 0., 1.30482748e-01,
          1.01983501e-02, 2.00157967e+01, 2.39735174e+00, 1.73917091e+00,
          1.24064815e+00, 2.06999993e+00, 2.95714289e-01, 1., 1. ]
      - [ 9., 4.07794788e-02, 3.30342390e-02, 1.19274996e-01,
          1.16087906e-02, 1.37514187e-04, 0., 1.40008539e-01,
          8.43692105e-03, 3.02437038e+01, 2.32451320e+00, 2.94853902e+00,
          1.68306363e+00, 1.59000003e+00, 1.76666677e-01, 1., 0. ]
      - [ 26., 9.48280171e-02, 9.26817134e-02, 2.84243047e-01,
          1.19643688e+00, 1.92257334e-02, 0., 4.39488858e-01,
          1.79738309e-02, 3.52161026e+01, 2.84930301e+00, 2.79458523e+00,
          9.73071933e-01, 1.25269949e+00, 4.81807515e-02, 1., 1. ]
      - [ 19., 4.41819169e-02, 3.79021727e-02, 1.38515279e-01,
          2.97138020e-02, 4.18764958e-03, 0., 2.09605932e-01,
          4.59259422e-03, 6.46849442e+01, 2.77179003e+00, 2.76351523e+00,
          1.05142045e+00, 8.84017110e-01, 4.65272181e-02, 1., 1. ]
      - [ 11., 3.68123502e-02, 3.07043493e-02, 1.11682184e-01,
          3.01537085e+00, 8.11954786e-04, 0., 1.70119822e-01,
          7.99313933e-03, 5.66705017e+01, 2.53643751e+00, 3.08246446e+00,
          1.58249223e+00, 1.12706077e+00, 1.02460071e-01, 1., 1. ]
      - [ 8., 3.61869223e-02, 3.08724474e-02, 9.91481021e-02,
          1.81695796e+31, 7.64772296e-04, 0., 1.35599911e-01,
          9.41380579e-03, 3.33239899e+01, 2.14176798e+00, 2.98721433e+00,
          1.88178766e+00, 1.58007348e+00, 1.97509184e-01, 1., 1. ]
      - [ 20., 4.67936806e-02, 4.01229784e-02, 1.44298568e-01, .Inf,
          2.38351431e-03, 0., 2.37783849e-01, 4.45678551e-03,
          7.62045288e+01, 2.78863549e+00, 3.16718769e+00, 1.19015372e+00,
          8.51377904e-01, 4.25688960e-02, 1., 1. ]
      - [ 11., 3.63275893e-02, 3.04273292e-02, 9.68350098e-02,
          3.01703024e+00, 3.87828477e-04, 0., 1.62969589e-01,
          8.18909146e-03, 3.76048012e+01, 2.38971424e+00, 3.70590138e+00,
          1.84702146e+00, 1.07629752e+00, 9.78452265e-02, 1., 1. ]
      - [ 21., 3.61960195e-02, 3.01315784e-02, 1.17625810e-01,
          2.39442009e-02, 1.47249794e-03, 0., 2.04367608e-01,
          5.11745317e-03, 9.72006989e+01, 2.79690337e+00, 3.17455649e+00,
          1.14097893e+00, 5.94817996e-01, 2.83246674e-02, 1., 1. ]
      - [ 29., 4.88452725e-02, 4.17258367e-02, 1.51467621e-01,
          6.94915727e-02, 1.40800013e-03, 0., 3.57880533e-01,
          7.37306150e-03, 9.23986206e+01, 2.88769603e+00, 4.08067465e+00,
          1.18113863e+00, 5.60306609e-01, 1.93209182e-02, 1., 1. ]
      - [ 18., 4.75182980e-02, 4.24316376e-02, 1.26704291e-01,
          3.78412530e-02, 5.24281571e-03, 0., 2.22446769e-01,
          7.17729097e-03, 5.01255112e+01, 2.67432427e+00, 3.59182954e+00,
          1.47814667e+00, 8.19697082e-01, 4.55387272e-02, 1., 1. ]
      - [ 25., 3.96769196e-02, 3.38968113e-02, 1.35202125e-01,
          4.28703539e-02, 2.23904080e-03, 0., 2.27773368e-01,
          6.38786564e-03, 5.84959259e+01, 2.84586215e+00, 3.37300301e+00,
          1.05040646e+00, 5.76688647e-01, 2.30675451e-02, 1., 1. ]
      - [ 27., 5.56490012e-02, 4.76044565e-02, 1.81216002e-01,
          8.48187953e-02, 7.14864535e-03, 0., 2.78999478e-01,
          4.96141519e-03, 8.33822861e+01, 2.91696239e+00, 2.93165016e+00,
          8.83343697e-01, 7.83529639e-01, 2.90196165e-02, 1., 1. ]
      - [ 24., 3.77964377e-02, 3.20673771e-02, 1.22030362e-01,
          3.12054697e-02, 7.40225194e-04, 0., 2.19215125e-01,
          5.19371545e-03, 7.64418945e+01, 2.84222889e+00, 3.57632375e+00,
          1.12516403e+00, 5.63021600e-01, 2.34592333e-02, 1., 1. ]
      - [ 23., 3.64324301e-02, 3.10125872e-02, 1.21014774e-01,
          3.46889384e-02, 7.69537059e-04, 0., 2.24372596e-01,
          5.78945177e-03, 7.87316666e+01, 2.81918573e+00, 3.58581877e+00,
          1.15460753e+00, 5.66133738e-01, 2.46145111e-02, 1., 1. ]
      - [ 16., 5.84916174e-02, 4.80670109e-02, 1.29423082e-01,
          4.11517955e-02, 2.26537581e-03, 0., 2.71000624e-01,
          1.37135917e-02, 4.33572998e+01, 2.72989798e+00, 3.99449992e+00,
          1.83809996e+00, 8.50843132e-01, 5.31776957e-02, 1., 1. ]
      - [ 23., 3.61993760e-02, 3.12264301e-02, 1.15432411e-01,
          3.47664505e-02, 1.20810303e-03, 0., 1.98912621e-01,
          4.56880452e-03, 8.86481628e+01, 2.82850885e+00, 3.52187490e+00,
          1.15587544e+00, 5.75694978e-01, 2.50302162e-02, 1., 1. ]
      - [ 32., 5.23851477e-02, 4.50521260e-02, 1.72907889e-01,
          7.81144872e-02, 9.45672672e-03, 0., 3.31110597e-01,
          5.03411097e-03, 9.43081207e+01, 2.87935662e+00, 3.27266216e+00,
          9.35098588e-01, 6.25109911e-01, 1.95346847e-02, 1., 1. ]
      - [ 4., 1.15046632e-02, 9.41729452e-03, 2.53405217e-02,
          2.61292094e-04, 4.35274487e-05, 0., 3.69837694e-02,
          6.16396172e-03, 6.26648102e+01, 1.57516146e+00, 1.56424928e+00,
          1.94475937e+00, 8.97001028e-01, 2.24250257e-01, 1., 1. ]
      - [ 30., 1.20141827e-01, 1.08651124e-01, 3.37728679e-01,
          4.13198858e-01, 1.30342599e-02, 0., 4.77875024e-01,
          2.15370823e-02, 6.74798279e+01, 2.91512346e+00, 3.45865107e+00,
          9.91995275e-01, 8.28076363e-01, 2.76025459e-02, 1., 1. ]
      - [ 16., 7.12022185e-02, 6.04170375e-02, 1.90079436e-01,
          1.81549359e+31, 9.03946068e-03, 0., 4.46229130e-01,
          2.78290845e-02, 1.76229954e+01, 2.63471246e+00, 2.79652286e+00,
          1.32603252e+00, 1.42895591e+00, 8.93097445e-02, 1., 1. ]
      - [ 6., 4.27490771e-02, 3.42316180e-02, 1.07032672e-01,
          2.85454408e+32, 4.93819243e-04, 0., 1.44320816e-01,
          1.73202008e-02, 1.25437317e+01, 1.83002818e+00, 2.75672269e+00,
          2.15503883e+00, 2.38725853e+00, 3.97876412e-01, 0., 1. ]
      - [ 8., 5.02190180e-02, 4.17131037e-02, 1.43122613e-01, .Inf,
          6.86764426e-04, 0., 1.78552181e-01, 1.16064940e-02,
          2.75308361e+01, 2.26321268e+00, 2.84691000e+00, 1.78084922e+00,
          1.97406328e+00, 2.46757910e-01, 1., 0. ]
      - [ 8., 3.96566689e-02, 3.22542302e-02, 1.11832641e-01, .Inf,
          2.46028911e-04, 0., 1.39889672e-01, 8.33865069e-03,
          2.63458862e+01, 2.32117367e+00, 2.78362083e+00, 1.75914598e+00,
          1.69254172e+00, 2.11567715e-01, 0., 1. ]
      - [ 8., 3.39629129e-02, 2.86779031e-02, 9.36774388e-02,
          2.19783894e+32, 1.09435676e-03, 0., 1.49747372e-01,
          8.66089948e-03, 4.73185806e+01, 2.15864706e+00, 2.67774963e+00,
          1.72517014e+00, 1.51715350e+00, 1.89644188e-01, 1., 1. ]
      - [ 8., 3.35053764e-02, 2.80170515e-02, 9.42844301e-02,
          3.01107502e+32, 1.45205180e-03, 0., 1.14268303e-01,
          6.75292080e-03, 3.07113533e+01, 2.20202899e+00, 2.52457452e+00,
          1.61162710e+00, 1.52916074e+00, 1.91145092e-01, 1., 0. ]
      - [ 8., 4.46032546e-02, 3.75789292e-02, 1.26210749e-01, .Inf,
          8.66273840e-05, 0., 1.38957113e-01, 7.60209141e-03,
          1.20519476e+01, 2.25514174e+00, 2.77917290e+00, 1.72109747e+00,
          1.93526578e+00, 2.41908222e-01, 1., 1. ]
      - [ 8., 3.34449671e-02, 2.76719797e-02, 9.48917344e-02, .Inf,
          1.09809719e-03, 0., 1.10983752e-01, 5.79577219e-03,
          3.71227646e+01, 2.36273885e+00, 2.27049398e+00, 1.45330930e+00,
          1.54578912e+00, 1.93223640e-01, 1., 1. ]
      - [ 8., 4.44697365e-02, 3.86214294e-02, 1.11741677e-01, .Inf,
          1.49423955e-04, 0., 1.66572094e-01, 1.18828742e-02,
          1.23624163e+01, 2.09912443e+00, 3.43087578e+00, 2.12073565e+00,
          1.74723983e+00, 2.18404979e-01, 1., 1. ]
      - [ 9., 5.27247563e-02, 4.34098095e-02, 1.43784255e-01,
          2.14704741e-02, 3.82123661e-04, 0., 1.99595943e-01,
          1.39547419e-02, 2.72440777e+01, 2.21991634e+00, 3.34567928e+00,
          1.90828776e+00, 2.00999999e+00, 2.23333329e-01, 1., 1. ]
      - [ 6., 3.35136019e-02, 2.68950518e-02, 8.76136795e-02,
          2.19783894e+32, 3.20748113e-05, 0., 9.83248353e-02,
          8.78628436e-03, 1.09519882e+01, 1.87032545e+00, 2.60702109e+00,
          2.02286339e+00, 1.97998118e+00, 3.29996854e-01, 1., 1. ]
      - [ 9., 4.82759662e-02, 3.89821567e-02, 1.40088364e-01,
          1.37534056e+01, 1.10718705e-04, 0., 1.53511405e-01,
          6.98939664e-03, 2.15823250e+01, 2.29058504e+00, 2.87998152e+00,
          1.64274621e+00, 1.85999990e+00, 2.06666648e-01, 1., 1. ]
      - [ 14., 1.02673315e-01, 9.25151110e-02, 2.63663411e-01,
          3.13386958e+32, 5.85790537e-03, 0., 3.90529037e-01,
          2.78064366e-02, 2.02228241e+01, 2.70286751e+00, 2.78780675e+00,
          1.36161983e+00, 1.78458869e+00, 1.27470627e-01, 1., 1. ]
      - [ 8., 3.36533152e-02, 2.74477527e-02, 9.61596966e-02, .Inf,
          3.67742541e-05, 0., 1.00261346e-01, 5.29175997e-03,
          5.58318520e+00, 2.28296781e+00, 2.64616919e+00, 1.63810897e+00,
          1.52998555e+00, 1.91248193e-01, 1., 1. ]
      - [ 13., 6.24144450e-02, 5.04021272e-02, 2.17015371e-01,
          2.93579549e-02, 3.44868982e-03, 0., 2.71051675e-01,
          2.05333102e-02, 3.76786766e+01, 2.57669997e+00, 3.25981903e+00,
          1.47692764e+00, 1.39194727e+00, 1.07072867e-01, 1., 0. ]
      - [ 8., 3.03926673e-02, 2.55865213e-02, 8.48425478e-02, .Inf,
          2.03385192e-04, 0., 1.08057052e-01, 6.52086362e-03,
          3.68031540e+01, 2.32113624e+00, 2.74179697e+00, 1.76578259e+00,
          1.33900547e+00, 1.67375684e-01, 1., 1. ]
      - [ 8., 3.03493831e-02, 2.47939415e-02, 8.74502063e-02,
          2.19783894e+32, 1.17042509e-03, 0., 1.11804165e-01,
          6.49935799e-03, 3.60640602e+01, 2.32159758e+00, 2.49026895e+00,
          1.62511313e+00, 1.33998728e+00, 1.67498410e-01, 1., 1. ]
      - [ 8., 3.76053229e-02, 3.19952480e-02, 8.94275382e-02, .Inf,
          1.49777552e-04, 0., 1.54237866e-01, 1.30824065e-02,
          2.77481556e+01, 2.05751991e+00, 3.58767104e+00, 2.21720815e+00,
          1.40790176e+00, 1.75987720e-01, 0., 1. ]
      - [ 6., 5.39892875e-02, 3.70715894e-02, 1.48469105e-01,
          3.77316750e-03, 2.60283792e-04, 0., 1.73103601e-01,
          3.62677872e-02, 1.34874420e+01, 2.23983669e+00, 1.65178907e+00,
          1.29404318e+00, 1.67719162e+00, 2.79531926e-01, 1., 1. ]
      - [ 6., 3.27022597e-02, 2.67202500e-02, 8.71306434e-02,
          2.19783894e+32, 1.61002608e-04, 0., 9.94047821e-02,
          8.72191694e-03, 2.16948757e+01, 2.04474044e+00, 2.37430787e+00,
          1.87526739e+00, 1.85998225e+00, 3.09997052e-01, 1., 1. ]
      - [ 3., 1.80639978e-02, 1.20427413e-02, 3.61278802e-02,
          3.25360452e-04, 2.61545512e-14, 0., 3.61282229e-02,
          1.04293209e-02, 1.60752133e-01, 1.05010653e+00, 1.04428852e+00,
          1.80876076e+00, 2.06999993e+00, 6.89999998e-01, 1., 1. ]
      - [ 4., 3.00515387e-02, 2.34966725e-02, 6.91867247e-02,
          1.75190112e-03, 6.90523166e-06, 0., 7.04659969e-02,
          1.17920088e-02, 4.58989668e+00, 1.46902430e+00, 1.72092390e+00,
          1.98925221e+00, 2.52497602e+00, 6.31244004e-01, 1., 1. ]
      - [ 3., 2.52275039e-02, 1.70148611e-02, 5.01376651e-02,
          7.02430261e-04, 1.17309315e-10, 0., 5.10445833e-02,
          1.47692151e-02, 4.90566874e+00, 9.21242535e-01, 1.17315257e+00,
          2.03195977e+00, 2.80999994e+00, 9.36666667e-01, 1., 1. ]
      - [ 6., 5.31460866e-02, 4.26756740e-02, 1.41060710e-01,
          2.19783894e+32, 3.33430828e-04, 0., 1.45723730e-01,
          1.19264014e-02, 9.62732220e+00, 2.04314756e+00, 2.20044732e+00,
          1.71560347e+00, 3.21996951e+00, 5.36661565e-01, 0., 0. ]
      - [ 5., 4.64877151e-02, 3.58004458e-02, 1.15563951e-01,
          1.12134367e-02, 1.89915700e-05, 0., 1.19322330e-01,
          1.37005048e-02, 4.57797194e+00, 1.75971794e+00, 2.13787699e+00,
          1.95425069e+00, 2.97000003e+00, 5.93999982e-01, 1., 0. ]
      - [ 6., 5.36375903e-02, 4.61245738e-02, 1.34564623e-01,
          2.19783894e+32, 5.16529719e-04, 0., 1.75748840e-01,
          1.63905639e-02, 1.40230274e+01, 1.95922947e+00, 2.63240314e+00,
          2.07063556e+00, 3.01298141e+00, 5.02163589e-01, 0., 0. ]
      - [ 6., 5.95094115e-02, 5.04844449e-02, 1.46428168e-01,
          1.38987144e-02, 1.65207879e-04, 0., 1.84020355e-01,
          1.60338935e-02, 8.01860619e+00, 1.83007920e+00, 2.83883548e+00,
          2.20623755e+00, 3.23518872e+00, 5.39198101e-01, 0., 0. ]
      - [ 9., 1.02069162e-01, 8.90646055e-02, 2.62622058e-01,
          7.90411681e-02, 8.93443916e-03, 0., 3.44870448e-01,
          2.29717642e-02, 1.23378067e+01, 2.31325006e+00, 2.74434042e+00,
          1.69705260e+00, 3.50682020e+00, 3.89646679e-01, 0., 0. ]
      - [ 5., 5.80403134e-02, 4.75345217e-02, 1.38542295e-01,
          1.04137231e-02, 3.38945210e-05, 0., 1.65403098e-01,
          1.96253657e-02, 6.99812746e+00, 1.60888040e+00, 2.49692678e+00,
          2.28039789e+00, 3.82999992e+00, 7.65999973e-01, 0., 0. ]
      - [ 8., 9.22052860e-02, 7.72664323e-02, 2.47410953e-01,
          2.19783894e+32, 1.38160284e-03, 0., 2.97355711e-01,
          1.79523826e-02, 1.18873625e+01, 2.25419593e+00, 2.82179832e+00,
          1.80039644e+00, 3.88496304e+00, 4.85620379e-01, 0., 0. ]
      - [ 6., 5.87191656e-02, 4.74003218e-02, 1.53140709e-01,
          2.13513803e-02, 1.61966047e-04, 0., 1.72128320e-01,
          1.48310000e-02, 9.58917046e+00, 1.87406623e+00, 2.59074736e+00,
          2.01272249e+00, 3.48496675e+00, 5.80827773e-01, 0., 0. ]
      - [ 7., 7.00921416e-02, 5.90997897e-02, 1.89597338e-01,
          2.17687394e-02, 3.88485671e-04, 0., 2.13150188e-01,
          1.39709106e-02, 1.30544605e+01, 2.08569980e+00, 2.66829681e+00,
          1.83356822e+00, 3.50000000e+00, 5.00000000e-01, 0., 0. ]
      - [ 5., 5.47591448e-02, 4.26153913e-02, 1.36669502e-01,
          7.32233236e-03, 6.14250137e-04, 0., 1.48411185e-01,
          1.67708099e-02, 9.90592098e+00, 1.84102225e+00, 2.02956724e+00,
          1.88372433e+00, 3.89000034e+00, 7.78000057e-01, 0., 0. ]
      - [ 5., 4.02102321e-02, 3.11623067e-02, 1.00153804e-01,
          4.76254616e-03, 1.39415361e-05, 0., 1.05161190e-01,
          1.17895398e-02, 5.84717798e+00, 1.73727465e+00, 2.19597864e+00,
          2.00699306e+00, 2.83999991e+00, 5.67999959e-01, 0., 1. ]
      - [ 4., 4.44605015e-02, 3.29451300e-02, 1.02932476e-01,
          4.43920819e-03, 8.80587468e-05, 0., 1.07020363e-01,
          2.13207789e-02, 7.79291916e+00, 1.43470597e+00, 1.76737452e+00,
          2.04852319e+00, 2.92497206e+00, 7.31243014e-01, 0., 1. ]
      - [ 5., 3.66908945e-02, 2.80331727e-02, 9.07811299e-02,
          4.19990625e-03, 1.53433903e-05, 0., 9.95651782e-02,
          1.15668988e-02, 8.87964821e+00, 1.66118884e+00, 2.31789088e+00,
          2.11768222e+00, 2.56999993e+00, 5.13999999e-01, 1., 0. ]
      - [ 5., 3.73264998e-02, 2.86472850e-02, 9.22478512e-02,
          3.94471409e-03, 7.37234950e-05, 0., 9.83028412e-02,
          1.09907910e-02, 6.75560284e+00, 1.72271109e+00, 2.17984271e+00,
          2.00082684e+00, 2.56999993e+00, 5.13999999e-01, 1., 0. ]
      - [ 8., 7.08796903e-02, 5.67997731e-02, 1.82365358e-01,
          3.96790228e+32, 2.75829271e-03, 0., 2.88577855e-01,
          2.24158838e-02, 2.08155193e+01, 2.04448938e+00, 3.27616644e+00,
          2.07712340e+00, 2.03508902e+00, 2.54386127e-01, 1., 0. ]
      - [ 6., 3.37501578e-02, 2.71817055e-02, 9.08273831e-02,
          1.81237662e+31, 1.34218752e-03, 0., 1.06835470e-01,
          9.67387762e-03, 2.21485481e+01, 2.10063243e+00, 2.07850099e+00,
          1.68613005e+00, 1.96498144e+00, 3.27496916e-01, 1., 1. ]
      - [ 6., 2.98519470e-02, 2.57270634e-02, 7.37342313e-02,
          1.81237662e+31, 1.26839877e-04, 0., 9.56599340e-02,
          8.29990860e-03, 1.37467604e+01, 1.90113831e+00, 2.73899531e+00,
          2.13424063e+00, 1.66742909e+00, 2.77904838e-01, 1., 1. ]
      - [ 8., 3.39829959e-02, 2.75436509e-02, 9.37712193e-02, .Inf,
          3.84402636e-04, 0., 1.26477078e-01, 1.17872935e-02,
          2.27121410e+01, 2.20567846e+00, 2.98122311e+00, 1.87189603e+00,
          1.47998595e+00, 1.84998244e-01, 1., 1. ]
      - [ 8., 3.31985839e-02, 2.85758451e-02, 8.91724899e-02,
          1.81237662e+31, 1.31242385e-04, 0., 1.17257625e-01,
          7.49598164e-03, 4.09890327e+01, 2.23690295e+00, 2.99355507e+00,
          1.88771510e+00, 1.43498635e+00, 1.79373294e-01, 1., 1. ]
      - [ 8., 6.12246171e-02, 5.13918623e-02, 1.61064848e-01, .Inf,
          7.08983978e-04, 0., 1.86822295e-01, 1.43624470e-02,
          1.99092064e+01, 2.32391572e+00, 2.79396224e+00, 1.75995183e+00,
          1.72590637e+00, 2.15738297e-01, 1., 1. ]
      - [ 8., 3.54424454e-02, 2.87979767e-02, 9.61564109e-02, .Inf,
          2.76279869e-04, 0., 1.40841484e-01, 1.16395298e-02,
          3.61514702e+01, 2.11259294e+00, 3.22254324e+00, 2.00345445e+00,
          1.31112182e+00, 1.63890228e-01, 1., 1. ]
      - [ 14., 4.23805788e-02, 3.47319134e-02, 1.28574282e-01,
          4.23460292e+32, 4.30696411e-04, 0., 1.89533636e-01,
          6.53838133e-03, 5.15391769e+01, 2.53646684e+00, 3.59976315e+00,
          1.54372871e+00, 1.00997102e+00, 7.21407905e-02, 1., 1. ]
      - [ 12., 3.29742357e-02, 2.76056807e-02, 9.79063660e-02,
          1.02605224e-02, 8.28902121e-04, 0., 1.52320504e-01,
          5.60426945e-03, 6.54819336e+01, 2.45805550e+00, 3.29636216e+00,
          1.57811999e+00, 9.99760807e-01, 8.33133981e-02, 1., 1. ]
      - [ 15., 7.61373192e-02, 6.11891337e-02, 1.94971278e-01,
          6.58087954e-02, 6.65835396e-04, 0., 3.08603764e-01,
          2.36990340e-02, 1.81757469e+01, 2.77781343e+00, 3.17443871e+00,
          1.60204136e+00, 1.20843327e+00, 8.05622190e-02, 1., 1. ]
      - [ 32., 1.21446557e-01, 1.09732494e-01, 3.44681710e-01,
          4.12489623e-01, 2.87421942e-02, 0., 5.54082632e-01,
          1.59786362e-02, 4.18177147e+01, 2.92714167e+00, 3.19193053e+00,
          1.06857264e+00, 1.06347144e+00, 3.32334824e-02, 1., 1. ]
      - [ 3., 1.22326352e-02, 8.50764196e-03, 2.37609576e-02,
          1.07626445e-04, 1.79372159e-11, 0., 2.55229287e-02,
          7.61909317e-03, 1.92627068e+01, 1.29944229e+00, 7.94952810e-01,
          1.37689865e+00, 1.24000001e+00, 4.13333327e-01, 1., 1. ]
      - [ 8., 5.02507053e-02, 4.12992947e-02, 1.38265714e-01, .Inf,
          1.09968730e-03, 0., 1.64351121e-01, 9.71762836e-03,
          1.15712309e+01, 2.17894173e+00, 2.83272839e+00, 1.78199089e+00,
          2.22497892e+00, 2.78122365e-01, 1., 1. ]
      - [ 16., 1.15942664e-01, 1.12387791e-01, 3.12709987e-01,
          1.92175627e-01, 1.72820985e-02, 0., 5.49357295e-01,
          2.96354070e-02, 1.28834114e+01, 2.66417217e+00, 3.06171513e+00,
          1.40634120e+00, 2.23077154e+00, 1.39423221e-01, 1., 1. ]
      - [ 14., 5.59215844e-02, 4.80893292e-02, 1.67868704e-01,
          4.56837206e+32, 6.99789554e-04, 0., 2.10288554e-01,
          6.15326408e-03, 2.25287437e+01, 2.55690455e+00, 3.48478556e+00,
          1.48829877e+00, 1.43930078e+00, 1.02807201e-01, 0., 1. ]
      - [ 10., 4.15536799e-02, 3.46294008e-02, 1.13900073e-01,
          1.51271159e-02, 1.84668592e-04, 0., 1.67521209e-01,
          8.58859811e-03, 3.78700714e+01, 2.30149031e+00, 3.52112579e+00,
          1.86192024e+00, 1.41030669e+00, 1.41030669e-01, 1., 1. ]
      - [ 16., 4.64044437e-02, 4.01665159e-02, 1.37386307e-01,
          2.88876053e-02, 6.32902258e-04, 0., 2.15836078e-01,
          6.08952669e-03, 5.60073624e+01, 2.68452597e+00, 3.55566764e+00,
          1.42387831e+00, 9.76665258e-01, 6.10415787e-02, 1., 1. ]
      - [ 12., 4.51525450e-02, 3.85159068e-02, 1.36235669e-01,
          1.86288189e-02, 2.37339642e-03, 0., 1.65664405e-01,
          6.06894493e-03, 1.94120102e+01, 2.53979826e+00, 2.81342721e+00,
          1.34588373e+00, 1.37154984e+00, 1.14295818e-01, 1., 1. ]
      - [ 13., 3.51926312e-02, 2.99147945e-02, 1.05492301e-01,
          4.81031513e+00, 5.96418919e-04, 0., 1.63386077e-01,
          4.38071787e-03, 7.22608948e+01, 2.66813064e+00, 2.92632437e+00,
          1.36894512e+00, 9.54777241e-01, 7.34444037e-02, 1., 1. ]
      - [ 8., 3.41641679e-02, 2.70757191e-02, 1.02437228e-01,
          1.81237662e+31, 2.59414752e-04, 0., 1.31928563e-01,
          1.48564233e-02, 3.05161266e+01, 2.44046998e+00, 1.91965330e+00,
          1.21952367e+00, 1.24498820e+00, 1.55623525e-01, 1., 1. ]
      - [ 14., 3.82668301e-02, 3.29676382e-02, 1.16105780e-01,
          4.75404063e+32, 8.19848792e-04, 0., 1.89806387e-01,
          6.39500329e-03, 6.73046112e+01, 2.55379581e+00, 3.28771710e+00,
          1.42755628e+00, 9.42411661e-01, 6.73151165e-02, 1., 0. ]
      - [ 14., 3.74437161e-02, 3.13996710e-02, 1.15371905e-01,
          4.97684817e+32, 2.89116259e-04, 0., 1.50346592e-01,
          4.97502135e-03, 4.72093086e+01, 2.63896632e+00, 3.23390913e+00,
          1.38493347e+00, 9.32658911e-01, 6.66184947e-02, 1., 1. ]
      - [ 24., 6.10286817e-02, 5.18161766e-02, 1.97956800e-01,
          7.78050721e-02, 8.25119764e-03, 0., 3.39757711e-01,
          5.81592182e-03, 6.88073730e+01, 2.79187727e+00, 3.41890717e+00,
          1.11181545e+00, 9.58183229e-01, 3.99243012e-02, 1., 1. ]
      - [ 17., 5.07988557e-02, 4.36582379e-02, 1.47791684e-01,
          4.17416394e-02, 9.97149618e-04, 0., 2.51954973e-01,
          7.27863656e-03, 5.87011566e+01, 2.66686034e+00, 3.71287513e+00,
          1.44108391e+00, 9.79452729e-01, 5.76148666e-02, 0., 1. ]
      - [ 21., 1.13436051e-01, 1.03921875e-01, 3.17982912e-01,
          2.39592001e-01, 1.43067446e-02, 0., 4.01543885e-01,
          2.15847753e-02, 4.09619980e+01, 2.78316736e+00, 3.17937803e+00,
          1.08652151e+00, 1.23000002e+00, 5.85714281e-02, 1., 1. ]
      - [ 8., 3.56089771e-02, 3.08088996e-02, 9.73547772e-02, .Inf,
          2.76135979e-04, 0., 1.27581149e-01, 9.51941311e-03,
          2.85352230e+01, 2.21948838e+00, 2.95938873e+00, 1.86618841e+00,
          1.53192341e+00, 1.91490427e-01, 1., 1. ]
      - [ 11., 4.30355817e-02, 3.60796787e-02, 1.25969574e-01,
          1.46160414e-02, 4.34932415e-04, 0., 1.60561472e-01,
          6.76737679e-03, 5.12174644e+01, 2.51168013e+00, 3.00849676e+00,
          1.50644827e+00, 1.25680530e+00, 1.14255026e-01, 1., 1. ]
      - [ 8., 3.71369608e-02, 3.18892486e-02, 1.04006983e-01,
          1.81237662e+31, 6.14301360e-04, 0., 1.28711745e-01,
          7.10110413e-03, 3.38863258e+01, 2.36273861e+00, 2.47612143e+00,
          1.58244336e+00, 1.68060482e+00, 2.10075602e-01, 1., 1. ]
      - [ 15., 9.46857035e-02, 8.52780342e-02, 2.55747259e-01,
          1.02030292e-01, 1.53103378e-02, 0., 3.38987291e-01,
          1.98722668e-02, 2.00650444e+01, 2.76684928e+00, 2.61944699e+00,
          1.24526966e+00, 1.79249346e+00, 1.19499564e-01, 1., 1. ]
      - [ 8., 4.14840318e-02, 3.49308960e-02, 1.14249356e-01, .Inf,
          3.24465218e-04, 0., 1.54734850e-01, 1.19536109e-02,
          3.30984230e+01, 2.14182687e+00, 3.06807995e+00, 1.91311646e+00,
          1.77199364e+00, 2.21499205e-01, 1., 1. ]
      - [ 6., 3.98886092e-02, 3.29242684e-02, 1.04536176e-01,
          5.27069374e+32, 7.86181015e-04, 0., 1.18709035e-01,
          1.00637227e-02, 2.18498650e+01, 1.95063889e+00, 2.33354568e+00,
          1.83044863e+00, 2.37997723e+00, 3.96662861e-01, 1., 1. ]
      - [ 6., 3.79761048e-02, 3.09750345e-02, 1.01037793e-01,
          5.35394173e+32, 1.96921406e-04, 0., 1.08735777e-01,
          8.92637577e-03, 1.42172527e+01, 2.10050941e+00, 1.94744778e+00,
          1.53477430e+00, 2.27997804e+00, 3.79996330e-01, 1., 1. ]
      - [ 6., 3.63727994e-02, 2.95474101e-02, 9.54197869e-02,
          5.37080982e+32, 2.53579696e-04, 0., 1.06292546e-01,
          9.28997714e-03, 1.35948687e+01, 2.23527861e+00, 1.76276207e+00,
          1.39865005e+00, 2.18497944e+00, 3.64163250e-01, 1., 1. ]
      - [ 4., 3.48314382e-02, 2.56176442e-02, 8.14206377e-02,
          1.74571935e-03, 9.10163726e-06, 0., 8.30164701e-02,
          1.65021420e-02, 5.34337473e+00, 1.46134174e+00, 1.73763227e+00,
          2.00840020e+00, 2.30997801e+00, 5.77494502e-01, 1., 0. ]
      - [ 8., 5.60313389e-02, 4.84365337e-02, 1.40425712e-01, .Inf,
          1.61979778e-03, 0., 1.78659752e-01, 1.23250792e-02,
          1.09381037e+01, 2.14176846e+00, 3.06302643e+00, 1.95650172e+00,
          1.85937417e+00, 2.32421771e-01, 1., 0. ]
      - [ 8., 3.81537341e-02, 3.22792456e-02, 1.04006983e-01,
          5.49750525e+32, 4.94229782e-04, 0., 1.47536650e-01,
          9.81778651e-03, 3.57308502e+01, 2.10607743e+00, 3.09740257e+00,
          1.92890191e+00, 1.66998398e+00, 2.08747998e-01, 1., 1. ]
      - [ 8., 3.65891866e-02, 3.02314535e-02, 1.03339851e-01, .Inf,
          1.78672664e-03, 0., 1.34112120e-01, 7.68207805e-03,
          3.70207253e+01, 2.36309195e+00, 2.48407006e+00, 1.58832335e+00,
          1.65810418e+00, 2.07263023e-01, 1., 1. ]
      - [ 8., 4.91839834e-02, 3.92896160e-02, 1.33951649e-01, .Inf,
          6.72861759e-04, 0., 1.88661695e-01, 1.41789531e-02,
          2.90607262e+01, 2.20958138e+00, 3.07122564e+00, 1.91961300e+00,
          1.59167147e+00, 1.98958933e-01, 1., 1. ]
      - [ 14., 9.36041176e-02, 7.34480545e-02, 2.24404529e-01,
          5.65859258e+32, 3.34797194e-03, 0., 3.31552655e-01,
          2.52526551e-02, 2.88936863e+01, 2.61380744e+00, 3.70158076e+00,
          1.79981005e+00, 1.29357958e+00, 9.23985392e-02, 1., 1. ]
      - [ 15., 6.08918704e-02, 5.15826419e-02, 1.87446922e-01,
          1.76883221e-01, 5.73506346e-04, 0., 2.62573153e-01,
          9.57358722e-03, 3.68237686e+01, 2.57994246e+00, 3.57128882e+00,
          1.45952344e+00, 1.45710993e+00, 9.71406624e-02, 0., 1. ]
      - [ 14., 5.58536015e-02, 4.68988828e-02, 1.67868525e-01,
          5.68032230e+32, 3.58369638e-04, 0., 2.12384969e-01,
          7.08788680e-03, 2.40489902e+01, 2.69956684e+00, 3.21229553e+00,
          1.43271160e+00, 1.43955576e+00, 1.02825411e-01, 0., 1. ]
      - [ 8., 3.54474559e-02, 3.10865976e-02, 9.10049602e-02,
          1.93998829e+31, 8.30296718e-04, 0., 1.36444837e-01,
          1.08845374e-02, 3.58070526e+01, 2.21705365e+00, 2.99129009e+00,
          1.92370343e+00, 1.48030806e+00, 1.85038507e-01, 1., 1. ]
      - [ 8., 4.72308695e-02, 3.69693823e-02, 1.27022728e-01,
          1.93998829e+31, 4.92018124e-04, 0., 1.48771346e-01,
          1.51216909e-02, 2.12188606e+01, 2.45628285e+00, 2.47104359e+00,
          1.60368156e+00, 1.25949800e+00, 1.57437250e-01, 1., 0. ]
      - [ 8., 3.90965939e-02, 3.21087986e-02, 9.95960459e-02, .Inf,
          5.42611582e-04, 0., 1.75533086e-01, 1.54978614e-02,
          3.17845535e+01, 2.05515480e+00, 3.45067978e+00, 2.14276624e+00,
          1.51667345e+00, 1.89584181e-01, 1., 1. ]
      - [ 8., 3.39161865e-02, 2.81210765e-02, 9.06408578e-02,
          6.23767473e+31, 3.13752622e-04, 0., 1.17334023e-01,
          6.67707482e-03, 2.30898819e+01, 2.15473056e+00, 3.07927942e+00,
          1.92230666e+00, 1.45852673e+00, 1.82315841e-01, 1., 1. ]
      - [ 8., 2.87962444e-02, 2.37966776e-02, 7.94003606e-02, .Inf,
          1.33079744e-03, 0., 9.45250541e-02, 5.12759853e-03,
          4.00018768e+01, 2.36226225e+00, 2.33442116e+00, 1.54620576e+00,
          1.29998767e+00, 1.62498459e-01, 1., 1. ]
      - [ 7., 3.41200978e-02, 2.64642294e-02, 8.67585391e-02,
          6.23843679e-03, 3.40822124e-04, 0., 1.35741502e-01,
          1.60008557e-02, 3.30042152e+01, 1.92314827e+00, 3.17801213e+00,
          2.18534184e+00, 1.52999997e+00, 2.18571424e-01, 1., 1. ]
      - [ 15., 1.09952465e-01, 1.01443298e-01, 2.91203707e-01,
          1.46467939e-01, 1.51870865e-03, 0., 3.47757816e-01,
          2.74915956e-02, 3.47136803e+01, 2.62392235e+00, 2.78375888e+00,
          1.19022346e+00, 1.47420442e+00, 9.82802957e-02, 1., 1. ]
      - [ 8., 4.13605012e-02, 3.37085761e-02, 1.12974271e-01, .Inf,
          1.92376217e-04, 0., 1.40557408e-01, 8.36062990e-03,
          2.69562607e+01, 2.13098812e+00, 3.04510093e+00, 1.89616513e+00,
          1.70849347e+00, 2.13561684e-01, 1., 1. ]
      - [ 8., 3.86544280e-02, 3.21529582e-02, 1.06438778e-01, .Inf,
          1.03490055e-03, 0., 1.24600783e-01, 7.07977125e-03,
          2.11539841e+01, 2.24686718e+00, 2.62587452e+00, 1.67894149e+00,
          1.72527516e+00, 2.15659395e-01, 1., 1. ]
      - [ 8., 3.57635170e-02, 3.05760354e-02, 9.28369090e-02, .Inf,
          1.40044256e-04, 0., 1.26698673e-01, 7.47011043e-03,
          2.74884739e+01, 2.20084763e+00, 3.17360282e+00, 1.97337615e+00,
          1.49901915e+00, 1.87377393e-01, 1., 1. ]
      - [ 6., 3.30919847e-02, 2.68750880e-02, 8.50858763e-02,
          1.81355979e+31, 2.40035995e-04, 0., 1.08993173e-01,
          1.39005361e-02, 1.69461555e+01, 1.90140963e+00, 2.65636778e+00,
          2.08502293e+00, 1.81306970e+00, 3.02178293e-01, 1., 1. ]
      - [ 8., 4.44633029e-02, 3.69726978e-02, 1.18357338e-01, .Inf,
          6.21447398e-04, 0., 1.71172485e-01, 1.08717065e-02,
          2.06470909e+01, 2.11949325e+00, 3.17504454e+00, 1.97641945e+00,
          1.88500237e+00, 2.35625297e-01, 0., 1. ]
      - [ 4., 3.32343057e-02, 2.57433597e-02, 7.72288591e-02,
          1.81379635e-03, 6.59923301e-14, 0., 7.72308186e-02,
          1.28718028e-02, 1.69771209e-01, 1.57515931e+00, 1.56425178e+00,
          1.80624247e+00, 2.94997191e+00, 7.37492979e-01, 1., 1. ]
      - [ 6., 5.89681529e-02, 4.89948541e-02, 1.39615238e-01,
          1.81237662e+31, 1.22659520e-04, 0., 1.95390061e-01,
          1.91799141e-02, 8.58800030e+00, 1.78549314e+00, 2.99306607e+00,
          2.32305193e+00, 3.15800929e+00, 5.26334882e-01, 1., 0. ]
      - [ 6., 5.95789962e-02, 4.96754162e-02, 1.42669186e-01,
          1.64540894e-02, 1.36533141e-04, 0., 1.93984956e-01,
          1.73539016e-02, 8.33213997e+00, 1.80575848e+00, 2.95068622e+00,
          2.28937459e+00, 3.22750306e+00, 5.37917197e-01, 1., 0. ]
      - [ 12., 1.36956617e-01, 1.24754608e-01, 3.30518901e-01,
          1.60992399e-01, 2.34673209e-02, 0., 6.60978794e-01,
          4.17532139e-02, 1.03137999e+01, 2.45036364e+00, 3.21615624e+00,
          1.72607577e+00, 3.18473101e+00, 2.65394241e-01, 0., 0. ]
      - [ 5., 5.05283400e-02, 3.87537442e-02, 1.21272236e-01,
          7.37150013e-03, 5.45802977e-05, 0., 1.44035444e-01,
          1.79103576e-02, 8.66934681e+00, 1.57741833e+00, 2.48809433e+00,
          2.27478933e+00, 3.25000000e+00, 6.49999976e-01, 0., 0. ]
      - [ 5., 7.82455876e-02, 5.51653095e-02, 1.85562626e-01,
          5.26664127e-03, 8.25678289e-05, 0., 2.25919649e-01,
          4.63788994e-02, 8.76550102e+00, 2.21697736e+00, 1.19080520e+00,
          1.09464371e+00, 3.54999995e+00, 7.09999979e-01, 0., 1. ]
