%YAML:1.0
---
opencv_ml_svm:
   format: 3
   svmType: C_SVC
   kernel:
      type: RBF
      gamma: 1.
   C: 1.0000000000000000e-02
   term_criteria: { iterations:1000 }
   var_count: 17
   class_count: 2
   class_labels: !!opencv-matrix
      rows: 2
      cols: 1
      dt: i
      data: [ -1, 1 ]
   sv_total: 1994
   support_vectors:
      - [ 11., 9.24847722e-02, 7.94950575e-02, 2.48875216e-01, .Inf,
          3.27583076e-03, 0., 3.27641577e-01, 2.29322519e-02,
          1.63872929e+01, 2.40571809e+00, 3.20902848e+00, 1.66147995e+00,
          2.43267608e+00, 2.21152365e-01, 0., 0. ]
      - [ 12., 1.19744353e-01, 1.01874106e-01, 3.57473940e-01,
          1.17953353e-01, 6.89633982e-03, 0., 4.46219593e-01,
          3.80815342e-02, 1.22819557e+01, 2.47332883e+00, 3.42109895e+00,
          1.62626028e+00, 2.42660189e+00, 2.02216819e-01, 0., 0. ]
      - [ 10., 9.51141492e-02, 8.16796646e-02, 2.58703738e-01,
          8.11763704e-02, 3.64307105e-03, 0., 2.98177987e-01,
          2.70227399e-02, 1.15788107e+01, 2.47155595e+00, 2.77145314e+00,
          1.50192761e+00, 2.43058753e+00, 2.43058756e-01, 1., 0. ]
      - [ 11., 9.59741175e-02, 8.29694569e-02, 2.59092659e-01,
          1.00925818e-01, 3.16501944e-03, 0., 3.25391680e-01,
          2.27713659e-02, 1.82402706e+01, 2.42391205e+00, 3.19155216e+00,
          1.63891244e+00, 2.42274737e+00, 2.20249757e-01, 0., 0. ]
      - [ 11., 9.56619084e-02, 8.31244215e-02, 2.53464252e-01,
          1.00346006e-01, 3.25143524e-03, 0., 3.13839436e-01,
          1.98775399e-02, 1.57026958e+01, 2.44205046e+00, 3.15853858e+00,
          1.64533508e+00, 2.42274737e+00, 2.20249757e-01, 0., 0. ]
      - [ 12., 9.17472914e-02, 7.80720040e-02, 2.70672232e-01,
          7.44671151e-02, 2.96062557e-03, 0., 3.41905862e-01,
          1.63525455e-02, 2.60443783e+01, 2.46530747e+00, 3.19697642e+00,
          1.52353203e+00, 2.42163610e+00, 2.01803014e-01, 1., 0. ]
      - [ 14., 9.60887894e-02, 8.31508115e-02, 2.97326297e-01,
          1.05959341e-01, 1.65698640e-02, 0., 4.44518209e-01,
          1.90720018e-02, 1.03034458e+01, 2.58124828e+00, 3.27371335e+00,
          1.42484355e+00, 2.43088126e+00, 1.73634380e-01, 0., 0. ]
      - [ 14., 1.38836905e-01, 1.30530432e-01, 3.55004609e-01,
          2.38203406e-01, 1.30563704e-02, 0., 5.57241261e-01,
          3.54969166e-02, 1.36335535e+01, 2.58633304e+00, 2.97133827e+00,
          1.46976483e+00, 2.35974431e+00, 1.68553159e-01, 1., 1. ]
      - [ 6., 4.65766042e-02, 3.67223062e-02, 1.14300124e-01,
          7.62369856e-03, 1.95564004e-04, 0., 1.56624883e-01,
          2.07416285e-02, 2.11334400e+01, 1.75600100e+00, 2.96092033e+00,
          2.30239677e+00, 2.19304967e+00, 3.65508288e-01, 1., 0. ]
      - [ 6., 4.08075787e-02, 3.32197100e-02, 1.08293325e-01,
          5.39783482e-03, 1.53419003e-03, 0., 1.22533448e-01,
          1.06502455e-02, 2.06345596e+01, 2.22796679e+00, 1.97433960e+00,
          1.56337464e+00, 2.37997746e+00, 3.96662921e-01, 1., 0. ]
      - [ 5., 3.69816907e-02, 2.83900611e-02, 8.59626830e-02,
          3.51742585e-03, 7.06341758e-04, 0., 1.17312789e-01,
          1.47931231e-02, 2.39204597e+01, 1.52580643e+00, 2.44804502e+00,
          2.27744508e+00, 2.16999984e+00, 4.33999956e-01, 1., 1. ]
      - [ 6., 4.82319407e-02, 3.75174396e-02, 1.31070688e-01,
          7.99382385e-03, 7.90330887e-05, 0., 1.43264845e-01,
          1.73414089e-02, 9.98749542e+00, 1.98015881e+00, 2.46672893e+00,
          1.92000306e+00, 2.35497761e+00, 3.92496258e-01, 1., 0. ]
      - [ 4., 3.15329544e-02, 2.39952002e-02, 6.94765598e-02,
          1.78345363e-03, 1.51186387e-05, 0., 8.17802697e-02,
          1.81715377e-02, 8.28620434e+00, 1.29300189e+00, 2.04957962e+00,
          2.37016320e+00, 2.14997959e+00, 5.37494898e-01, 1., 1. ]
      - [ 6., 3.22781093e-02, 2.58974638e-02, 8.50135162e-02,
          2.91856867e-03, 1.42517267e-04, 0., 9.28841531e-02,
          7.70235294e-03, 1.83427029e+01, 2.27805901e+00, 1.77368546e+00,
          1.39087331e+00, 1.93998158e+00, 3.23330253e-01, 1., 1. ]
      - [ 12., 6.99742436e-02, 6.00552112e-02, 2.07995892e-01, .Inf,
          1.59990008e-03, 0., 2.54015446e-01, 8.17483012e-03,
          2.75143433e+01, 2.62461972e+00, 2.80905914e+00, 1.36314034e+00,
          2.13367438e+00, 1.77806199e-01, 0., 1. ]
      - [ 11., 8.80970582e-02, 7.58517236e-02, 2.30993241e-01,
          2.70740724e+00, 2.74687842e-03, 0., 3.03146541e-01,
          1.82874296e-02, 2.72099762e+01, 2.48324299e+00, 3.06483746e+00,
          1.60565281e+00, 1.95021665e+00, 1.77292421e-01, 1., 1. ]
      - [ 8., 6.31480739e-02, 4.77419756e-02, 1.64058626e-01,
          2.78621037e-02, 2.83034286e-04, 0., 2.50312686e-01,
          3.38963941e-02, 2.37538986e+01, 2.05853319e+00, 3.54076338e+00,
          2.19077134e+00, 2.06236959e+00, 2.57796198e-01, 0., 0. ]
      - [ 5., 2.70159822e-02, 2.21684538e-02, 6.73663691e-02,
          1.63595029e-03, 1.07995569e-04, 0., 7.29347691e-02,
          8.27219710e-03, 2.18654346e+01, 1.89019001e+00, 1.75933611e+00,
          1.62315595e+00, 1.93022335e+00, 3.86044681e-01, 1., 1. ]
      - [ 9., 5.82519472e-02, 4.87905033e-02, 1.66151255e-01,
          6.29194260e+00, 2.67907337e-04, 0., 1.96630582e-01,
          1.13989841e-02, 2.20025330e+01, 2.30804300e+00, 3.01743984e+00,
          1.71995831e+00, 2.19613791e+00, 2.44015321e-01, 1., 1. ]
      - [ 11., 1.19027138e-01, 1.01661593e-01, 2.48690128e-01,
          1.13911323e-01, 1.86613016e-03, 0., 5.29160082e-01,
          5.47026955e-02, 1.04799976e+01, 2.41550970e+00, 2.91441417e+00,
          1.88384688e+00, 2.20124292e+00, 2.00112998e-01, 1., 0. ]
      - [ 12., 1.07507624e-01, 9.17923450e-02, 2.50304729e-01,
          9.83519405e-02, 4.24268702e-03, 0., 4.94972497e-01,
          3.29504162e-02, 1.22010365e+01, 2.45062613e+00, 3.49829459e+00,
          1.87386119e+00, 2.18469214e+00, 1.82057679e-01, 1., 0. ]
      - [ 10., 1.07970245e-01, 8.80584940e-02, 2.45936930e-01,
          9.41268802e-02, 1.27081259e-03, 0., 4.42561477e-01,
          5.15360609e-02, 1.50377035e+01, 2.37435055e+00, 3.10612369e+00,
          1.90737689e+00, 2.19197202e+00, 2.19197199e-01, 1., 0. ]
      - [ 10., 9.46762860e-02, 7.50283748e-02, 2.67115623e-01,
          4.07732868e+00, 8.29399331e-04, 0., 3.08636636e-01,
          1.84263792e-02, 1.09416790e+01, 2.30830312e+00, 3.24335146e+00,
          1.75807929e+00, 2.03172350e+00, 2.03172356e-01, 0., 1. ]
      - [ 9., 4.15946953e-02, 3.40894386e-02, 1.09691747e-01,
          1.25801126e-02, 1.19060511e-04, 0., 1.61543489e-01,
          1.23765888e-02, 1.14870892e+01, 2.18439674e+00, 3.54807091e+00,
          2.01516199e+00, 1.52570367e+00, 1.69522628e-01, 1., 1. ]
      - [ 10., 5.20474203e-02, 4.55867127e-02, 1.23417556e-01,
          4.02434826e+00, 1.93371961e-03, 0., 1.84117973e-01,
          9.47295781e-03, 1.59274063e+01, 2.34180307e+00, 3.40767336e+00,
          1.91417110e+00, 1.25942612e+00, 1.25942618e-01, 0., 1. ]
      - [ 10., 3.92675176e-02, 3.27633098e-02, 1.16367579e-01, .Inf,
          3.38193495e-03, 0., 1.44349560e-01, 7.90044293e-03,
          1.98983517e+01, 2.40321469e+00, 2.78888273e+00, 1.51220810e+00,
          1.45498621e+00, 1.45498618e-01, 1., 1. ]
      - [ 12., 3.75045538e-02, 3.13475281e-02, 1.02680400e-01,
          4.01327181e+00, 9.52717150e-04, 0., 1.66322604e-01,
          9.95731074e-03, 5.84407082e+01, 2.41816092e+00, 3.70105577e+00,
          1.75457418e+00, 1.02987993e+00, 8.58233273e-02, 1., 1. ]
      - [ 12., 4.52756993e-02, 3.89628895e-02, 1.35816038e-01,
          1.69685539e-02, 6.50471891e-04, 0., 1.67504162e-01,
          5.38288150e-03, 4.29239578e+01, 2.62526560e+00, 2.37515783e+00,
          1.13495421e+00, 1.41498649e+00, 1.17915541e-01, 1., 1. ]
      - [ 14., 5.17440736e-02, 4.18199971e-02, 1.25688285e-01,
          3.24276865e-01, 8.46844283e-04, 0., 2.76303887e-01,
          1.68670360e-02, 3.50119286e+01, 2.50884032e+00, 4.31354237e+00,
          1.83266234e+00, 1.02059364e+00, 7.28995427e-02, 1., 1. ]
      - [ 12., 3.71546820e-02, 3.16209607e-02, 1.02715530e-01, .Inf,
          4.62110300e-04, 0., 1.83682039e-01, 1.22430101e-02,
          6.10358543e+01, 2.43957567e+00, 3.74122405e+00, 1.76724052e+00,
          1.00689423e+00, 8.39078501e-02, 1., 1. ]
      - [ 24., 1.34360164e-01, 1.27690211e-01, 3.49701196e-01,
          4.00183290e-01, 1.80157684e-02, 0., 5.23796678e-01,
          2.66969111e-02, 5.60596504e+01, 2.84321451e+00, 3.24431920e+00,
          1.21578097e+00, 1.11933291e+00, 4.66388725e-02, 1., 1. ]
      - [ 11., 3.25028934e-02, 2.71068085e-02, 8.98559242e-02,
          3.55997419e+00, 4.34791436e-04, 0., 1.46084845e-01,
          7.93087855e-03, 6.40087204e+01, 2.53699970e+00, 3.18826675e+00,
          1.71105599e+00, 1.00999999e+00, 9.18181837e-02, 1., 1. ]
      - [ 16., 5.04028015e-02, 4.44850363e-02, 1.49152249e-01,
          3.63473445e-02, 2.47122953e-03, 0., 2.22392768e-01,
          6.94439467e-03, 3.40365257e+01, 2.70658755e+00, 3.21944594e+00,
          1.33989418e+00, 1.10065722e+00, 6.87910765e-02, 1., 1. ]
      - [ 11., 2.94035450e-02, 2.50177439e-02, 8.65168869e-02,
          3.55771017e+00, 6.46245142e-04, 0., 1.34547144e-01,
          5.48897777e-03, 7.53586426e+01, 2.41550756e+00, 2.96941686e+00,
          1.51759708e+00, 9.71981823e-01, 8.83619860e-02, 1., 1. ]
      - [ 14., 4.11817208e-02, 3.52124609e-02, 1.26312211e-01,
          1.37887704e+00, 1.66645506e-03, 0., 1.70709506e-01,
          4.80130641e-03, 5.17431946e+01, 2.64287567e+00, 2.91616511e+00,
          1.28004384e+00, 1.08747911e+00, 7.76770785e-02, 1., 1. ]
      - [ 34., 2.63630420e-01, 2.22855449e-01, 8.77922893e-01,
          3.69108534e+00, 3.90102454e-02, 0., 8.93183351e-01,
          8.78807064e-03, 9.18628693e+00, 2.95394349e+00, 2.94663525e+00,
          7.49311507e-01, 1.92498147e+00, 5.66171035e-02, 1., 1. ]
      - [ 23., 1.96440384e-01, 1.65867299e-01, 6.35324657e-01,
          7.90727258e-01, 2.25301739e-02, 0., 6.47192955e-01,
          8.94920435e-03, 9.51426315e+00, 2.88142276e+00, 2.85082698e+00,
          9.01619434e-01, 2.01999998e+00, 8.78260881e-02, 1., 1. ]
      - [ 14., 4.36149538e-02, 3.90951559e-02, 1.26818597e-01,
          1.99772175e-02, 3.52709601e-03, 0., 2.06115991e-01,
          8.18553101e-03, 4.12558365e+01, 2.62029052e+00, 3.03876138e+00,
          1.41769385e+00, 1.10414696e+00, 7.88676366e-02, 1., 1. ]
      - [ 28., 2.19896346e-01, 1.85382575e-01, 7.19901145e-01,
          1.19232810e+00, 1.59644727e-02, 0., 7.37012804e-01,
          9.26113687e-03, 1.00198517e+01, 2.92951107e+00, 2.86591148e+00,
          8.16641569e-01, 1.95498145e+00, 6.98207691e-02, 1., 1. ]
      - [ 21., 1.81390300e-01, 1.52159899e-01, 5.92714190e-01,
          6.84229493e-01, 3.63274440e-02, 0., 6.05304003e-01,
          9.83524509e-03, 9.10651302e+00, 2.83997059e+00, 2.86288738e+00,
          9.53126431e-01, 2.04999995e+00, 9.76190418e-02, 1., 1. ]
      - [ 15., 4.57069315e-02, 4.03678492e-02, 1.36748746e-01,
          5.06172991e+00, 1.45927456e-03, 0., 1.98501825e-01,
          5.84585033e-03, 5.19660149e+01, 2.73027706e+00, 3.07004285e+00,
          1.29828703e+00, 1.09921074e+00, 7.32807145e-02, 1., 1. ]
      - [ 9., 9.38356817e-02, 7.67989531e-02, 2.69385576e-01,
          5.35417385e-02, 1.28595496e-03, 0., 2.71872818e-01,
          1.32719819e-02, 5.90143919e+00, 2.43311882e+00, 2.44322538e+00,
          1.38671684e+00, 2.23000002e+00, 2.47777775e-01, 1., 1. ]
      - [ 13., 4.08505276e-02, 3.59724909e-02, 1.18178703e-01,
          1.59150124e+00, 8.62618966e-04, 0., 2.17442870e-01,
          8.05197097e-03, 5.25074997e+01, 2.57979035e+00, 3.31042051e+00,
          1.52704406e+00, 1.09725821e+00, 8.44044760e-02, 1., 1. ]
      - [ 14., 4.33553383e-02, 3.77940610e-02, 1.26991913e-01,
          2.07142234e-02, 9.16267571e-04, 0., 2.17772126e-01,
          6.94677932e-03, 5.22317047e+01, 2.72267628e+00, 3.01933289e+00,
          1.41222239e+00, 1.09935355e+00, 7.85252526e-02, 1., 0. ]
      - [ 10., 4.02037390e-02, 3.62647772e-02, 1.10712729e-01,
          4.01231575e+00, 1.00762292e-03, 0., 1.64836347e-01,
          1.06343543e-02, 3.85306625e+01, 2.45183706e+00, 2.98795104e+00,
          1.64563918e+00, 1.38247120e+00, 1.38247117e-01, 1., 1. ]
      - [ 11., 3.43156643e-02, 2.86878888e-02, 9.95187461e-02,
          3.62287831e+00, 3.64704116e-04, 0., 1.43639997e-01,
          6.14056597e-03, 5.51837044e+01, 2.50569963e+00, 3.21687937e+00,
          1.62168026e+00, 1.11618567e+00, 1.01471424e-01, 1., 1. ]
      - [ 10., 4.28351015e-02, 3.76224667e-02, 1.18445434e-01,
          1.53527865e-02, 8.61395616e-04, 0., 1.59586549e-01,
          8.21543485e-03, 4.41846809e+01, 2.38410234e+00, 3.00800490e+00,
          1.63212097e+00, 1.39141870e+00, 1.39141873e-01, 1., 1. ]
      - [ 11., 3.61246914e-02, 3.12351882e-02, 1.06797360e-01,
          3.61739564e+00, 3.38688988e-04, 0., 1.42397255e-01,
          5.34638437e-03, 5.04785423e+01, 2.50765705e+00, 3.04729605e+00,
          1.52140582e+00, 1.15504456e+00, 1.05004050e-01, 1., 1. ]
      - [ 13., 4.43909094e-02, 3.73969711e-02, 1.31804883e-01,
          1.92713011e-02, 3.76716634e-04, 0., 1.58124655e-01,
          4.08381969e-03, 3.31504097e+01, 2.54803920e+00, 2.59348273e+00,
          1.24137104e+00, 1.20601654e+00, 9.27705020e-02, 1., 1. ]
      - [ 22., 1.05668791e-01, 9.35673267e-02, 3.00400347e-01,
          2.20124826e-01, 2.02176794e-02, 0., 4.07817811e-01,
          1.91606227e-02, 4.67431564e+01, 2.79705358e+00, 2.91523838e+00,
          1.09107161e+00, 1.23554039e+00, 5.61609268e-02, 0., 1. ]
      - [ 26., 1.16843283e-01, 1.07180186e-01, 3.54492217e-01,
          3.26170832e-01, 2.99821105e-02, 0., 4.85509336e-01,
          1.89022068e-02, 3.68513451e+01, 2.83994675e+00, 3.22907138e+00,
          1.01414323e+00, 1.25054753e+00, 4.80979830e-02, 1., 1. ]
      - [ 13., 4.37987037e-02, 3.70385572e-02, 1.28620818e-01,
          1.91463288e-02, 8.48379743e-04, 0., 1.77741215e-01,
          5.63761778e-03, 5.62027397e+01, 2.54772139e+00, 2.61518979e+00,
          1.27701914e+00, 1.20000005e+00, 9.23076943e-02, 1., 1. ]
      - [ 16., 5.19491471e-02, 4.53853160e-02, 1.55659407e-01,
          3.64686176e-02, 5.95689379e-03, 0., 2.33662531e-01,
          7.31952861e-03, 4.22308922e+01, 2.80430651e+00, 2.69068408e+00,
          1.18969631e+00, 1.19205368e+00, 7.45033547e-02, 0., 1. ]
      - [ 14., 4.50544953e-02, 3.70746218e-02, 1.50448620e-01,
          5.55289209e-01, 6.83598220e-03, 0., 1.79480612e-01,
          6.62455615e-03, 5.06130829e+01, 2.62114143e+00, 2.83699083e+00,
          1.23336387e+00, 1.13187349e+00, 8.08481053e-02, 0., 1. ]
      - [ 22., 6.71899989e-02, 5.89877144e-02, 2.04413518e-01,
          8.98055211e-02, 4.21860488e-03, 0., 2.88862258e-01,
          6.09167153e-03, 3.40273743e+01, 2.90065837e+00, 3.19581151e+00,
          1.15999770e+00, 1.07195902e+00, 4.87254113e-02, 1., 1. ]
      - [ 4., 1.40399355e-02, 1.04995146e-02, 3.32584120e-02,
          3.28618626e-04, 1.44265054e-04, 0., 3.58084813e-02,
          6.38737343e-03, 3.84496078e+01, 1.58474326e+00, 1.54606211e+00,
          1.80698156e+00, 1.00007856e+00, 2.50019640e-01, 1., 1. ]
      - [ 17., 3.65303159e-02, 3.12632471e-02, 1.13361768e-01,
          2.58319769e-02, 2.81355489e-04, 0., 1.57108068e-01,
          3.50899901e-03, 7.29378738e+01, 2.66757774e+00, 3.48147631e+00,
          1.31975234e+00, 7.89445996e-01, 4.64380011e-02, 1., 1. ]
      - [ 14., 3.58326957e-02, 3.06687020e-02, 1.04775667e-01,
          1.52377058e-02, 3.35537549e-03, 0., 1.55698612e-01,
          5.70595963e-03, 5.97142029e+01, 2.57745194e+00, 2.91861534e+00,
          1.36328530e+00, 9.06238616e-01, 6.47313297e-02, 1., 1. ]
      - [ 28., 5.45075908e-02, 4.65648510e-02, 1.80857003e-01,
          7.34220147e-02, 1.90756586e-03, 0., 2.49801040e-01,
          3.15214111e-03, 7.64989853e+01, 2.85516644e+00, 3.29102397e+00,
          9.63678598e-01, 7.46978879e-01, 2.66778171e-02, 1., 1. ]
      - [ 6., 1.66133475e-02, 1.43700726e-02, 4.01206836e-02,
          1.11446879e-03, 1.71657550e-04, 0., 6.72029406e-02,
          6.26683841e-03, 5.43302650e+01, 1.82131517e+00, 2.69605136e+00,
          2.14660764e+00, 9.13274348e-01, 1.52212396e-01, 1., 1. ]
      - [ 23., 4.84257191e-02, 4.19069901e-02, 1.53080150e-01,
          4.99844179e-02, 1.03724818e-03, 0., 2.12780759e-01,
          4.92459070e-03, 6.64140549e+01, 2.83353949e+00, 3.34301949e+00,
          1.08639157e+00, 6.83311522e-01, 2.97091957e-02, 1., 1. ]
      - [ 31., 2.43596017e-01, 2.06155837e-01, 8.14920783e-01,
          1.65027130e+00, 3.34968953e-03, 0., 8.30868483e-01,
          1.01046041e-02, 1.03282824e+01, 2.94148755e+00, 2.94120598e+00,
          7.86784828e-01, 1.92999983e+00, 6.22580573e-02, 1., 1. ]
      - [ 28., 1.04890667e-01, 1.00964680e-01, 2.94745207e-01,
          2.80648351e-01, 1.09445723e-02, 0., 4.02935386e-01,
          1.68704763e-02, 4.56766510e+01, 2.89642739e+00, 3.06382871e+00,
          9.71654892e-01, 9.10656810e-01, 3.25234570e-02, 1., 1. ]
      - [ 12., 4.74167056e-02, 3.99642549e-02, 1.30662024e-01,
          2.47276090e-02, 5.19868569e-04, 0., 1.95526838e-01,
          1.02114100e-02, 2.31203384e+01, 2.42447948e+00, 3.85680485e+00,
          1.81454968e+00, 1.14766383e+00, 9.56386551e-02, 1., 1. ]
      - [ 12., 3.07918303e-02, 2.67473180e-02, 9.00831074e-02,
          9.24385898e-03, 2.49426288e-04, 0., 1.16825223e-01,
          3.62878293e-03, 5.79231682e+01, 2.55287600e+00, 3.20708585e+00,
          1.52229083e+00, 9.16612625e-01, 7.63843879e-02, 1., 1. ]
      - [ 14., 3.89239602e-02, 3.36836092e-02, 1.16777688e-01,
          2.57087052e-02, 6.87185791e-04, 0., 1.95026085e-01,
          7.88448472e-03, 5.66234016e+01, 2.78507853e+00, 3.01701736e+00,
          1.43781483e+00, 9.30972934e-01, 6.64980635e-02, 1., 0. ]
      - [ 10., 4.00759391e-02, 3.41239981e-02, 1.15078092e-01,
          4.01223230e+00, 4.06041800e-04, 0., 1.46273866e-01,
          5.84074901e-03, 2.72625160e+01, 2.52094626e+00, 2.90440869e+00,
          1.58610749e+00, 1.39460742e+00, 1.39460742e-01, 1., 1. ]
      - [ 15., 4.04668227e-02, 3.43553647e-02, 1.22118577e-01,
          2.15522014e-02, 7.40965479e-04, 0., 2.01893419e-01,
          6.04270538e-03, 6.37279282e+01, 2.61172342e+00, 3.53561616e+00,
          1.45076311e+00, 9.72241521e-01, 6.48161024e-02, 1., 1. ]
      - [ 10., 4.25271280e-02, 3.57859060e-02, 1.19924761e-01,
          4.01287270e+00, 4.35414608e-04, 0., 1.55195966e-01,
          6.49855193e-03, 3.37515984e+01, 2.38547325e+00, 3.09060597e+00,
          1.65278256e+00, 1.42183697e+00, 1.42183691e-01, 1., 1. ]
      - [ 11., 5.68487383e-02, 4.12381627e-02, 1.45039037e-01,
          3.51448560e+00, 6.48742891e-04, 0., 2.38911092e-01,
          3.05141248e-02, 3.85394821e+01, 2.35875297e+00, 3.90972972e+00,
          1.97766793e+00, 1.00657427e+00, 9.15067494e-02, 1., 1. ]
      - [ 10., 5.24420738e-02, 4.61730920e-02, 1.42078683e-01, .Inf,
          3.62570630e-03, 0., 1.84684247e-01, 9.33975447e-03,
          2.44776878e+01, 2.52025580e+00, 2.55709147e+00, 1.43297148e+00,
          1.57498503e+00, 1.57498509e-01, 1., 1. ]
      - [ 7., 5.36543950e-02, 4.29231189e-02, 1.48986071e-01,
          1.22320745e-02, 4.27684106e-04, 0., 1.58322468e-01,
          1.02926558e-02, 1.12644882e+01, 2.15274048e+00, 2.42631555e+00,
          1.66828978e+00, 2.81216669e+00, 4.01738107e-01, 1., 0. ]
      - [ 7., 5.33127710e-02, 4.28003035e-02, 1.47714689e-01,
          1.12242503e-02, 1.30639772e-03, 0., 1.53220966e-01,
          9.70228016e-03, 1.06963758e+01, 2.19499993e+00, 2.27285957e+00,
          1.56509864e+00, 2.81999993e+00, 4.02857125e-01, 1., 0. ]
      - [ 8., 6.79033920e-02, 5.39732389e-02, 2.02011988e-01,
          2.64971983e-02, 1.02174497e-04, 0., 2.11560935e-01,
          1.44873895e-02, 7.21925068e+00, 2.26838923e+00, 2.67825198e+00,
          1.65568042e+00, 2.85950708e+00, 3.57438385e-01, 0., 0. ]
      - [ 7., 5.22760786e-02, 4.22786251e-02, 1.42491832e-01,
          2.69973222e-02, 5.49750985e-04, 0., 1.62442669e-01,
          1.06123444e-02, 1.95263290e+01, 2.19298363e+00, 2.48791099e+00,
          1.72061098e+00, 2.71000004e+00, 3.87142867e-01, 1., 1. ]
      - [ 3., 3.57879400e-02, 2.39129122e-02, 7.13317022e-02,
          1.27254496e-03, 2.54654926e-11, 0., 7.17387348e-02,
          2.09876895e-02, 1.98592591e+00, 1.11857200e+00, 9.75823104e-01,
          1.69017518e+00, 2.92000008e+00, 9.73333359e-01, 1., 1. ]
      - [ 7., 5.43234423e-02, 4.34948094e-02, 1.46294713e-01,
          1.50947385e-02, 6.17812111e-05, 0., 1.70669764e-01,
          1.34936599e-02, 7.05221319e+00, 2.04551339e+00, 2.88669944e+00,
          1.97578442e+00, 2.70000005e+00, 3.85714293e-01, 0., 0. ]
      - [ 4., 4.47416306e-02, 3.40786353e-02, 1.01195745e-01,
          2.89431005e-03, 5.46044961e-04, 0., 1.15437433e-01,
          2.12791208e-02, 1.25902004e+01, 1.35877597e+00, 1.87435937e+00,
          2.19242430e+00, 2.87123156e+00, 7.17807889e-01, 1., 0. ]
      - [ 6., 4.51916233e-02, 3.70004959e-02, 1.18672997e-01,
          7.74311274e-03, 1.69917348e-05, 0., 1.26267672e-01,
          1.03444196e-02, 5.40787077e+00, 1.96708488e+00, 2.47294736e+00,
          1.91704988e+00, 2.69997454e+00, 4.49995756e-01, 0., 1. ]
      - [ 6., 5.86559139e-02, 4.75777090e-02, 1.53967947e-01,
          9.97761823e-03, 1.14067853e-03, 0., 1.77237898e-01,
          1.82155073e-02, 1.02971687e+01, 2.00350070e+00, 2.46611381e+00,
          1.94345975e+00, 2.80595732e+00, 4.67659563e-01, 1., 0. ]
      - [ 6., 4.54271287e-02, 3.71606536e-02, 1.17364250e-01,
          8.46296921e-03, 5.71499550e-05, 0., 1.35476038e-01,
          1.14854462e-02, 1.39200211e+01, 1.86438632e+00, 2.66213489e+00,
          2.06456327e+00, 2.66497469e+00, 4.44162458e-01, 0., 1. ]
      - [ 3., 2.76480801e-02, 2.22984459e-02, 4.72337641e-02,
          1.42424903e-03, 1.13725007e-09, 0., 6.82409257e-02,
          2.00399011e-02, 1.40935459e+01, 5.05565584e-01, 1.58882952e+00,
          2.75193357e+00, 2.63111973e+00, 8.77039909e-01, 1., 1. ]
      - [ 5., 8.06993097e-02, 5.97040430e-02, 1.92111954e-01,
          2.35087480e-02, 2.41022426e-04, 0., 2.07932979e-01,
          3.67333330e-02, 7.82129049e+00, 1.62551439e+00, 2.37152243e+00,
          2.18120885e+00, 2.50696087e+00, 5.01392186e-01, 0., 1. ]
      - [ 16., 3.77407558e-02, 3.25840227e-02, 1.17718890e-01,
          1.83396377e-02, 2.76890444e-03, 0., 1.86262488e-01,
          5.49733313e-03, 7.08057632e+01, 2.62710619e+00, 3.12207580e+00,
          1.27186453e+00, 8.85067701e-01, 5.53167313e-02, 1., 1. ]
      - [ 11., 2.54852679e-02, 2.11200695e-02, 7.63093382e-02,
          2.67152143e+00, 8.77474318e-04, 0., 1.03283897e-01,
          3.98705201e-03, 5.72032089e+01, 2.40727186e+00, 3.03489375e+00,
          1.54606402e+00, 8.34199965e-01, 7.58363605e-02, 1., 1. ]
      - [ 4., 3.76041457e-02, 2.88257003e-02, 7.87676349e-02,
          4.06350708e-03, 1.49969183e-05, 0., 9.87301618e-02,
          2.21879277e-02, 1.44115009e+01, 1.16305828e+00, 2.22063398e+00,
          2.56627846e+00, 2.30465126e+00, 5.76162815e-01, 1., 1. ]
      - [ 8., 2.32502148e-02, 1.97661519e-02, 6.41078278e-02,
          3.18193668e-03, 6.18944876e-04, 0., 9.46601480e-02,
          6.49165409e-03, 6.48593521e+01, 2.25159621e+00, 2.72939491e+00,
          1.72412062e+00, 9.80776012e-01, 1.22597001e-01, 1., 1. ]
      - [ 9., 1.19971387e-01, 1.01898074e-01, 3.05483311e-01,
          1.00307092e-01, 1.02047101e-02, 0., 3.46010298e-01,
          2.56523136e-02, 1.12769833e+01, 2.37429190e+00, 2.50716662e+00,
          1.57647717e+00, 2.36999989e+00, 2.63333321e-01, 0., 1. ]
      - [ 28., 8.85488093e-02, 8.20503458e-02, 2.47846678e-01,
          1.92871332e-01, 1.30947288e-02, 0., 4.17209685e-01,
          1.57217011e-02, 6.78350830e+01, 2.89395332e+00, 3.48672605e+00,
          1.10482228e+00, 7.46088982e-01, 2.66460348e-02, 1., 1. ]
      - [ 27., 4.15743068e-02, 3.63053530e-02, 1.34277388e-01,
          6.33269399e-02, 1.30234088e-03, 0., 2.10193083e-01,
          4.47424268e-03, 9.48413925e+01, 2.91712379e+00, 3.39706373e+00,
          1.06570435e+00, 4.95862663e-01, 1.83652844e-02, 1., 0. ]
      - [ 10., 5.93471453e-02, 4.92957607e-02, 1.69602558e-01,
          8.30077171e+00, 1.87712212e-04, 0., 2.05144525e-01,
          8.80625751e-03, 1.40351467e+01, 2.37008953e+00, 3.25068593e+00,
          1.72293472e+00, 2.11997986e+00, 2.11997986e-01, 1., 1. ]
      - [ 27., 3.36210504e-02, 2.88760215e-02, 1.11988179e-01,
          4.94329706e-02, 3.02983564e-03, 0., 3.03307354e-01,
          7.44819501e-03, 1.13683289e+02, 2.90676260e+00, 3.63389850e+00,
          1.18518019e+00, 4.48972970e-01, 1.66286286e-02, 1., 1. ]
      - [ 14., 3.28784585e-02, 2.76836511e-02, 9.55289751e-02,
          1.58651620e-02, 3.84347135e-04, 0., 1.49634987e-01,
          5.59015805e-03, 7.97476501e+01, 2.54532790e+00, 3.59897208e+00,
          1.55523133e+00, 8.01199615e-01, 5.72285429e-02, 1., 1. ]
      - [ 10., 6.03298619e-02, 5.12290075e-02, 1.83909014e-01,
          2.48751435e-02, 5.42921305e-04, 0., 2.03987867e-01,
          9.07969940e-03, 1.41255236e+01, 2.47063994e+00, 2.87898922e+00,
          1.53466821e+00, 2.06998014e+00, 2.06998020e-01, 0., 0. ]
      - [ 27., 3.24565731e-02, 2.79951803e-02, 1.03582099e-01,
          2.48124246e-02, 2.51593371e-03, 0., 2.39256620e-01,
          5.68788406e-03, 9.56930161e+01, 2.91029406e+00, 3.41958904e+00,
          1.16529846e+00, 4.37459975e-01, 1.62022207e-02, 1., 1. ]
      - [ 21., 4.50085029e-02, 3.83533649e-02, 1.44728959e-01,
          1.04317541e+01, 1.25570386e-03, 0., 2.32891262e-01,
          7.12831970e-03, 5.46997147e+01, 2.89552784e+00, 3.10148263e+00,
          1.18109143e+00, 7.64337599e-01, 3.63970287e-02, 1., 1. ]
      - [ 28., 3.42012085e-02, 2.96599884e-02, 1.10190183e-01,
          2.91406419e-02, 3.90032586e-03, 0., 2.57276744e-01,
          6.30839169e-03, 8.56309052e+01, 2.87595415e+00, 3.72184825e+00,
          1.14295244e+00, 4.32071060e-01, 1.54311089e-02, 1., 1. ]
      - [ 26., 4.61773798e-02, 3.95865366e-02, 1.52415603e-01,
          5.52162491e-02, 5.17515047e-03, 0., 2.78217465e-01,
          6.69543399e-03, 7.55436096e+01, 2.85522676e+00, 3.35473633e+00,
          1.05483341e+00, 6.74549937e-01, 2.59442292e-02, 1., 1. ]
      - [ 20., 4.02643941e-02, 3.45630199e-02, 1.24452390e-01,
          2.78167259e-02, 8.01796385e-04, 0., 2.26728380e-01,
          4.95898863e-03, 7.70988083e+01, 2.78398347e+00, 3.61798811e+00,
          1.26584983e+00, 6.57616198e-01, 3.28808092e-02, 1., 1. ]
      - [ 27., 3.27720977e-02, 2.86551490e-02, 1.03581980e-01,
          3.37273851e-02, 2.67903903e-03, 0., 2.57555962e-01,
          4.95170988e-03, 8.76898880e+01, 2.82615757e+00, 3.66136718e+00,
          1.15238714e+00, 4.32300091e-01, 1.60111152e-02, 1., 1. ]
      - [ 3., 2.75515597e-02, 1.94680113e-02, 5.38987257e-02,
          7.36132090e-04, 1.35795264e-10, 0., 5.55736274e-02,
          1.76065601e-02, 6.04186106e+00, 8.77084255e-01, 1.21731079e+00,
          2.10844421e+00, 2.06322670e+00, 6.87742233e-01, 1., 1. ]
      - [ 9., 5.37347086e-02, 4.45929207e-02, 1.32735893e-01,
          2.14233510e-02, 1.38270276e-04, 0., 2.21276566e-01,
          1.72703248e-02, 1.82644482e+01, 2.17076325e+00, 3.73125792e+00,
          2.11738181e+00, 1.81381059e+00, 2.01534510e-01, 1., 0. ]
      - [ 10., 6.41335100e-02, 5.35951070e-02, 1.70429617e-01, .Inf,
          1.35716313e-04, 0., 2.62706757e-01, 1.93497427e-02,
          1.65375729e+01, 2.27406168e+00, 3.73377037e+00, 1.96876049e+00,
          2.02835035e+00, 2.02835038e-01, 0., 1. ]
      - [ 33., 4.71108817e-02, 4.21911478e-02, 1.39543399e-01,
          7.54497424e-02, 2.47753505e-03, 0., 3.09316397e-01,
          7.03464914e-03, 8.69325714e+01, 2.91597176e+00, 4.20174503e+00,
          1.16606474e+00, 4.33328599e-01, 1.31311696e-02, 1., 1. ]
      - [ 39., 5.10071367e-02, 4.40760814e-02, 1.67055830e-01,
          9.11755115e-02, 5.93510410e-03, 0., 3.15002143e-01,
          4.23912378e-03, 1.07816818e+02, 2.95808291e+00, 3.29102468e+00,
          8.58098626e-01, 4.70787883e-01, 1.20714838e-02, 1., 1. ]
      - [ 24., 4.70126159e-02, 4.33448069e-02, 1.48160324e-01,
          4.82410491e-02, 9.64128412e-04, 0., 2.24013492e-01,
          4.92726313e-03, 6.36486359e+01, 2.87466669e+00, 3.78505492e+00,
          1.22845185e+00, 6.07785642e-01, 2.53244024e-02, 0., 1. ]
      - [ 13., 8.37749839e-02, 7.18521550e-02, 2.36991778e-01,
          2.38369167e-01, 1.10459176e-03, 0., 3.36571455e-01,
          2.15388965e-02, 1.95765972e+01, 2.58847475e+00, 3.55289555e+00,
          1.61728561e+00, 2.00036168e+00, 1.53873980e-01, 0., 1. ]
      - [ 10., 5.50416969e-02, 4.35262248e-02, 1.58969998e-01,
          2.49354839e-02, 3.91078152e-04, 0., 2.29527503e-01,
          1.86201781e-02, 3.23042831e+01, 2.29145670e+00, 3.52492285e+00,
          1.86544263e+00, 1.69998395e+00, 1.69998392e-01, 1., 0. ]
      - [ 14., 3.94670703e-02, 3.27972509e-02, 1.17426313e-01,
          2.69631833e-01, 4.91623010e-04, 0., 1.98636785e-01,
          1.00322859e-02, 4.89513359e+01, 2.60686350e+00, 3.63755441e+00,
          1.58383512e+00, 9.30956006e-01, 6.64968565e-02, 1., 1. ]
      - [ 9., 4.28386629e-02, 3.54960337e-02, 1.22904360e-01,
          2.07811389e-02, 2.38685706e-03, 0., 1.46889344e-01,
          6.74913218e-03, 1.93128891e+01, 2.38597727e+00, 2.66779232e+00,
          1.55234408e+00, 1.75082707e+00, 1.94536343e-01, 1., 1. ]
      - [ 13., 6.49666861e-02, 5.53711578e-02, 1.89719975e-01,
          5.91459796e-02, 1.11336913e-02, 0., 2.34931618e-01,
          7.08547654e-03, 1.83614368e+01, 2.57354069e+00, 3.04850602e+00,
          1.41195202e+00, 1.67445207e+00, 1.28803998e-01, 1., 1. ]
      - [ 9., 4.19721454e-02, 3.37690786e-02, 1.20236754e-01,
          2.01942865e-02, 4.62408818e-04, 0., 1.68317631e-01,
          9.40357149e-03, 3.39643669e+01, 2.32205081e+00, 3.21568298e+00,
          1.85560381e+00, 1.48000002e+00, 1.64444447e-01, 1., 0. ]
      - [ 11., 5.71155436e-02, 5.12554161e-02, 1.56124040e-01,
          3.74105237e-02, 2.05176813e-03, 0., 3.12416852e-01,
          2.28170101e-02, 2.60880699e+01, 2.65036249e+00, 2.56524682e+00,
          1.44694400e+00, 1.73513258e+00, 1.57739326e-01, 1., 1. ]
      - [ 6., 3.35971266e-02, 2.73112282e-02, 8.93476605e-02,
          3.73321446e-03, 1.15794071e-03, 0., 9.65719372e-02,
          7.99244735e-03, 2.04964466e+01, 2.01473713e+00, 2.18863511e+00,
          1.70969498e+00, 2.03498054e+00, 3.39163423e-01, 0., 1. ]
      - [ 15., 8.36120099e-02, 7.22328201e-02, 2.51051664e-01,
          7.10294321e-02, 4.20984859e-03, 0., 3.32486182e-01,
          8.13623238e-03, 2.09785652e+01, 2.70851707e+00, 2.31656218e+00,
          1.03943431e+00, 2.06352019e+00, 1.37568012e-01, 0., 1. ]
      - [ 8., 4.71560396e-02, 3.87563743e-02, 1.29206493e-01,
          1.29365735e-02, 4.50042280e-04, 0., 1.72467604e-01,
          1.04180109e-02, 2.07079144e+01, 2.13007665e+00, 3.04487085e+00,
          1.89551497e+00, 2.06034732e+00, 2.57543415e-01, 0., 0. ]
      - [ 5., 2.93119233e-02, 2.29259469e-02, 7.29511455e-02,
          2.37171515e-03, 2.93544581e-04, 0., 8.30475837e-02,
          9.28500481e-03, 2.77644081e+01, 1.68918014e+00, 2.14796686e+00,
          1.98058379e+00, 2.08917546e+00, 4.17835087e-01, 1., 1. ]
      - [ 9., 3.54118049e-02, 2.98886728e-02, 1.01794392e-01,
          8.55220295e-03, 4.95454937e-04, 0., 1.13814138e-01,
          5.05443383e-03, 2.44886894e+01, 2.52549982e+00, 2.41666508e+00,
          1.40418899e+00, 1.42049456e+00, 1.57832727e-01, 1., 1. ]
      - [ 12., 5.45964874e-02, 4.65093851e-02, 1.51226744e-01, .Inf,
          7.95023283e-04, 0., 2.33322620e-01, 1.00142155e-02,
          3.28871460e+01, 2.47490764e+00, 3.57461286e+00, 1.70104063e+00,
          1.47666812e+00, 1.23055674e-01, 1., 1. ]
      - [ 11., 4.61617894e-02, 4.24629338e-02, 1.32543787e-01,
          1.01836848e+00, 1.06127665e-03, 0., 1.74340844e-01,
          7.95801915e-03, 1.80000610e+01, 2.42853832e+00, 3.25600505e+00,
          1.63552058e+00, 1.47438085e+00, 1.34034619e-01, 1., 0. ]
      - [ 3., 2.78908368e-02, 1.90873891e-02, 5.54939993e-02,
          9.13652824e-04, 4.94786226e-11, 0., 5.60877174e-02,
          1.64194722e-02, 3.46584868e+00, 9.49643612e-01, 1.14475143e+00,
          1.98276770e+00, 2.67137027e+00, 8.90456736e-01, 1., 1. ]
      - [ 12., 4.70917076e-02, 3.97634245e-02, 1.38315767e-01, .Inf,
          3.03463108e-04, 0., 1.60424128e-01, 4.50914726e-03,
          3.47920570e+01, 2.56676650e+00, 2.95904160e+00, 1.42605054e+00,
          1.35998702e+00, 1.13332249e-01, 1., 1. ]
      - [ 7., 5.52708469e-02, 4.56877537e-02, 1.44317597e-01,
          1.64409783e-02, 3.41133185e-04, 0., 1.98847756e-01,
          1.67037454e-02, 2.21317787e+01, 1.95988452e+00, 3.05615878e+00,
          2.09584308e+00, 2.68600655e+00, 3.83715212e-01, 0., 1. ]
      - [ 3., 2.81880591e-02, 2.16993447e-02, 5.14869690e-02,
          1.22379081e-03, 3.77698539e-10, 0., 6.50613904e-02,
          1.87816061e-02, 1.25286980e+01, 6.08686626e-01, 1.48570836e+00,
          2.57332253e+00, 2.93124938e+00, 9.77083147e-01, 1., 1. ]
      - [ 12., 1.18766487e-01, 1.07480049e-01, 2.74330765e-01, .Inf,
          6.57797791e-03, 0., 3.31705242e-01, 3.54774185e-02,
          2.54491367e+01, 2.57103610e+00, 2.58396029e+00, 1.44583845e+00,
          1.34757388e+00, 1.12297826e-01, 1., 1. ]
      - [ 6., 4.59399745e-02, 3.69582139e-02, 1.21206239e-01,
          7.50120590e-03, 3.60178587e-04, 0., 1.35516658e-01,
          1.24328388e-02, 9.97289276e+00, 1.95042050e+00, 2.44348884e+00,
          1.91497695e+00, 2.72656131e+00, 4.54426885e-01, 1., 0. ]
      - [ 6., 5.41355833e-02, 4.55723703e-02, 1.31923214e-01,
          1.31578306e-02, 1.47717888e-04, 0., 1.75984919e-01,
          1.62877217e-02, 9.30966091e+00, 1.82627559e+00, 2.88917160e+00,
          2.24355531e+00, 2.96870732e+00, 4.94784564e-01, 0., 0. ]
      - [ 12., 5.28021604e-02, 4.45075780e-02, 1.49116665e-01, .Inf,
          1.00378285e-03, 0., 2.20776692e-01, 1.21215479e-02,
          2.29181156e+01, 2.43394566e+00, 3.64937711e+00, 1.72321093e+00,
          1.49024725e+00, 1.24187268e-01, 1., 0. ]
      - [ 4., 3.38667817e-02, 2.72232369e-02, 7.61863962e-02,
          2.39340705e-03, 3.60175880e-04, 0., 8.43481570e-02,
          1.43588362e-02, 1.42308788e+01, 1.48033583e+00, 1.70473480e+00,
          2.00661755e+00, 2.87997246e+00, 7.19993114e-01, 1., 1. ]
      - [ 8., 1.11812957e-01, 9.71890688e-02, 2.48308077e-01,
          6.09309748e-02, 4.88538621e-03, 0., 3.56832206e-01,
          3.56511138e-02, 9.30116081e+00, 2.23842525e+00, 2.98534083e+00,
          2.01910162e+00, 3.03207397e+00, 3.79009247e-01, 0., 0. ]
      - [ 6., 5.27344719e-02, 4.44987118e-02, 1.33701667e-01,
          1.20901018e-02, 3.09203228e-04, 0., 1.55337319e-01,
          1.29059777e-02, 8.45650673e+00, 1.93158484e+00, 2.58100152e+00,
          2.02044201e+00, 3.00033641e+00, 5.00056088e-01, 0., 0. ]
      - [ 7., 6.19006567e-02, 5.46891168e-02, 1.60776258e-01,
          1.97262857e-02, 5.20494767e-04, 0., 2.02518016e-01,
          1.44994482e-02, 1.04486837e+01, 2.15839577e+00, 2.79743767e+00,
          1.94536865e+00, 3.01647663e+00, 4.30925220e-01, 0., 0. ]
      - [ 9., 7.99848884e-02, 6.63564056e-02, 2.22097769e-01,
          4.75588553e-02, 7.79690803e-04, 0., 2.62572318e-01,
          1.31131690e-02, 8.20333672e+00, 2.27156591e+00, 3.08875108e+00,
          1.77360666e+00, 3.07999992e+00, 3.42222214e-01, 0., 0. ]
      - [ 6., 6.47119954e-02, 5.07891625e-02, 1.60281777e-01,
          2.01326814e-02, 1.24266269e-04, 0., 2.10190445e-01,
          2.44573429e-02, 1.18004951e+01, 1.76810300e+00, 2.92751217e+00,
          2.27171040e+00, 3.25941539e+00, 5.43235898e-01, 0., 1. ]
      - [ 6., 6.34117275e-02, 5.45244478e-02, 1.54990196e-01,
          1.66536327e-02, 2.74019199e-04, 0., 2.02916622e-01,
          1.74697172e-02, 7.05602360e+00, 1.81898880e+00, 2.87174416e+00,
          2.23090100e+00, 3.48996687e+00, 5.81661165e-01, 0., 1. ]
      - [ 6., 7.62750581e-02, 5.93044721e-02, 1.86186522e-01,
          2.87011433e-02, 9.24670967e-05, 0., 2.47713313e-01,
          3.45125683e-02, 7.72941685e+00, 1.76057172e+00, 3.00358129e+00,
          2.32903552e+00, 3.53776860e+00, 5.89628100e-01, 0., 0. ]
      - [ 6., 5.58665954e-02, 4.51648720e-02, 1.43672019e-01,
          1.26823597e-02, 2.11854989e-04, 0., 1.74323827e-01,
          1.60269532e-02, 1.36506615e+01, 1.83980775e+00, 2.69832730e+00,
          2.09626126e+00, 3.25496912e+00, 5.42494833e-01, 1., 1. ]
      - [ 6., 5.56362495e-02, 4.86905128e-02, 1.36708960e-01,
          1.35604367e-02, 2.08069425e-04, 0., 1.76714465e-01,
          1.51180113e-02, 6.94577456e+00, 1.85526347e+00, 2.82967210e+00,
          2.19798541e+00, 3.07497072e+00, 5.12495100e-01, 0., 0. ]
      - [ 9., 9.03215334e-02, 8.06910843e-02, 2.43734717e-01,
          4.97137122e-02, 5.51751954e-03, 0., 3.28263462e-01,
          2.27571856e-02, 1.65299740e+01, 2.41411829e+00, 2.88476562e+00,
          1.70297372e+00, 2.98546863e+00, 3.31718743e-01, 1., 0. ]
      - [ 4., 2.93095130e-02, 2.27224231e-02, 6.78898022e-02,
          1.58606702e-03, 5.20685398e-06, 0., 6.91960230e-02,
          1.15781901e-02, 4.45670986e+00, 1.47012138e+00, 1.72423100e+00,
          1.99265051e+00, 2.55997539e+00, 6.39993846e-01, 1., 1. ]
      - [ 7., 7.51248002e-02, 6.21030964e-02, 1.92373142e-01,
          2.87020020e-02, 9.40842147e-04, 0., 2.09066421e-01,
          1.62528865e-02, 8.00211334e+00, 2.25022817e+00, 2.37450528e+00,
          1.68535101e+00, 2.99570203e+00, 4.27957445e-01, 0., 1. ]
      - [ 10., 6.09741770e-02, 5.11043668e-02, 1.75455481e-01,
          2.52004378e-02, 2.02206685e-03, 0., 2.16276258e-01,
          1.29841212e-02, 1.11951361e+01, 2.47232914e+00, 2.40728641e+00,
          1.33388603e+00, 2.22771311e+00, 2.22771317e-01, 1., 1. ]
      - [ 5., 4.25982401e-02, 3.22066136e-02, 1.09748714e-01,
          3.94507824e-03, 7.80054543e-05, 0., 1.14584312e-01,
          1.58868954e-02, 1.19775620e+01, 1.84609365e+00, 2.04406238e+00,
          1.87193084e+00, 2.49000001e+00, 4.97999996e-01, 1., 0. ]
      - [ 12., 1.06073856e-01, 9.08412710e-02, 2.88676053e-01,
          4.11278582e+00, 2.07084324e-03, 0., 3.59269828e-01,
          2.27326136e-02, 1.74016552e+01, 2.49329734e+00, 3.29512691e+00,
          1.54852700e+00, 2.15497971e+00, 1.79581642e-01, 1., 1. ]
      - [ 7., 3.30800340e-02, 2.78824084e-02, 8.91774520e-02,
          4.17866092e-03, 4.51512227e-04, 0., 9.72129405e-02,
          7.20650284e-03, 1.34023428e+01, 2.25022745e+00, 2.16368341e+00,
          1.50682163e+00, 1.66999996e+00, 2.38571420e-01, 1., 1. ]
      - [ 9., 4.87986058e-02, 4.26977612e-02, 1.21909097e-01,
          1.90310553e-02, 1.56825059e-03, 0., 2.00207263e-01,
          1.08001838e-02, 1.74597130e+01, 2.25732565e+00, 3.44676256e+00,
          1.97982419e+00, 1.61714053e+00, 1.79682285e-01, 0., 1. ]
      - [ 10., 1.02195054e-01, 8.41052309e-02, 3.03493589e-01,
          7.28838891e-02, 7.66358385e-03, 0., 3.11554432e-01,
          1.51983155e-02, 1.02504759e+01, 2.50562143e+00, 2.52319479e+00,
          1.33179724e+00, 2.17997932e+00, 2.17997938e-01, 1., 1. ]
      - [ 9., 3.47277299e-02, 2.87082065e-02, 8.95090476e-02,
          3.45119089e-02, 2.81489745e-04, 0., 1.43194914e-01,
          1.01652807e-02, 4.08738136e+01, 2.17782402e+00, 3.59327531e+00,
          2.04665327e+00, 1.21962762e+00, 1.35514185e-01, 1., 1. ]
      - [ 16., 1.47299618e-01, 1.24335058e-01, 4.62144941e-01,
          2.78758109e-01, 4.78073442e-03, 0., 4.72849309e-01,
          1.16220675e-02, 1.05326939e+01, 2.74925756e+00, 2.76337457e+00,
          1.08019078e+00, 2.10997963e+00, 1.31873727e-01, 1., 1. ]
      - [ 10., 4.74852733e-02, 4.08976749e-02, 1.26435637e-01,
          1.57808736e-02, 1.44599937e-03, 0., 1.67972222e-01,
          7.19422288e-03, 1.64685745e+01, 2.42323661e+00, 3.13579512e+00,
          1.74095225e+00, 1.56556249e+00, 1.56556249e-01, 1., 1. ]
      - [ 18., 1.53872386e-01, 1.29648834e-01, 4.86653268e-01,
          3.54066551e-01, 5.72488923e-03, 0., 4.98759925e-01,
          1.07928589e-02, 1.13894567e+01, 2.76864934e+00, 2.84557748e+00,
          1.03822386e+00, 2.02498078e+00, 1.12498932e-01, 1., 1. ]
      - [ 21., 1.09505385e-01, 9.61945057e-02, 3.18668604e-01,
          6.17335081e+00, 9.06663109e-03, 0., 3.95610720e-01,
          1.87919308e-02, 2.51225872e+01, 2.74401712e+00, 3.39119649e+00,
          1.16827381e+00, 1.22106183e+00, 5.81458025e-02, 1., 1. ]
      - [ 15., 4.11933884e-02, 3.64867486e-02, 1.25047714e-01,
          1.86862163e-02, 2.35715997e-03, 0., 2.16377109e-01,
          9.26510151e-03, 4.29107742e+01, 2.68961525e+00, 3.17977047e+00,
          1.41605961e+00, 9.42470074e-01, 6.28313348e-02, 1., 0. ]
      - [ 19., 4.52482477e-02, 4.03734557e-02, 1.33962467e-01,
          3.77228968e-02, 1.26046524e-03, 0., 2.00749993e-01,
          3.26464558e-03, 5.94940033e+01, 2.86641335e+00, 3.01961732e+00,
          1.23305929e+00, 8.28460515e-01, 4.36031856e-02, 1., 0. ]
      - [ 11., 3.71571854e-02, 3.12879346e-02, 1.04727931e-01,
          4.06826687e+00, 7.49497965e-04, 0., 1.59766674e-01,
          6.59899879e-03, 5.30704193e+01, 2.47795892e+00, 3.22110271e+00,
          1.65516806e+00, 1.17999995e+00, 1.07272722e-01, 1., 1. ]
      - [ 23., 1.97664455e-01, 1.66938975e-01, 6.43740892e-01,
          1.77375412e+00, 5.51626878e-03, 0., 6.53651118e-01,
          9.76723246e-03, 8.15001202e+00, 2.87287784e+00, 2.87926126e+00,
          9.09413457e-01, 2.01999998e+00, 8.78260881e-02, 1., 1. ]
      - [ 15., 3.52771357e-02, 3.03459521e-02, 1.04331277e-01,
          1.71697959e-02, 4.47184400e-04, 0., 1.84477180e-01,
          9.47789755e-03, 6.67619705e+01, 2.63741302e+00, 3.69763017e+00,
          1.55204546e+00, 7.80296087e-01, 5.20197377e-02, 1., 1. ]
      - [ 12., 3.75390723e-02, 3.13978903e-02, 1.16458178e-01, .Inf,
          3.82803287e-03, 0., 1.38770700e-01, 5.14233392e-03,
          3.49692764e+01, 2.71799183e+00, 2.40325189e+00, 1.17318654e+00,
          1.14043927e+00, 9.50366035e-02, 1., 1. ]
      - [ 26., 2.13187277e-01, 1.81056261e-01, 6.88402414e-01,
          2.03779411e+00, 8.14780872e-03, 0., 7.00719237e-01,
          9.63571575e-03, 8.57986546e+00, 2.91278124e+00, 2.87939882e+00,
          8.50600421e-01, 1.98998094e+00, 7.65377283e-02, 1., 1. ]
      - [ 15., 3.24167311e-02, 2.81582754e-02, 9.82318819e-02,
          1.35204662e-02, 2.45555211e-03, 0., 1.52510196e-01,
          4.63112444e-03, 8.59149551e+01, 2.58432531e+00, 3.03871369e+00,
          1.34458220e+00, 8.04539144e-01, 5.36359437e-02, 1., 1. ]
      - [ 14., 3.04533895e-02, 2.60166414e-02, 9.00843218e-02,
          8.17047298e-01, 6.11798489e-04, 0., 1.64885342e-01,
          5.26824128e-03, 8.35621643e+01, 2.54196024e+00, 2.62638664e+00,
          1.27377570e+00, 7.96211243e-01, 5.68722300e-02, 1., 1. ]
      - [ 21., 4.86793965e-02, 4.37101796e-02, 1.46764711e-01,
          4.75055501e-02, 7.46231410e-04, 0., 2.44275928e-01,
          5.91017772e-03, 6.07498398e+01, 2.89504242e+00, 3.59615064e+00,
          1.32003522e+00, 7.84665108e-01, 3.73650044e-02, 1., 1. ]
      - [ 24., 7.81420097e-02, 6.48188964e-02, 2.41992608e-01,
          1.39443770e-01, 2.18297704e-03, 0., 3.63035351e-01,
          1.56012401e-02, 4.66815338e+01, 2.83486032e+00, 3.78996062e+00,
          1.21494198e+00, 9.38337147e-01, 3.90973799e-02, 1., 0. ]
      - [ 11., 3.48087996e-02, 2.95090675e-02, 1.02123000e-01,
          3.10454226e+00, 2.22171511e-04, 0., 1.25449270e-01,
          5.33265714e-03, 4.36085663e+01, 2.57753348e+00, 2.93853068e+00,
          1.48950732e+00, 1.15017211e+00, 1.04561098e-01, 1., 1. ]
      - [ 11., 4.83204871e-02, 4.39132676e-02, 1.32374808e-01,
          3.11489964e+00, 1.21420017e-03, 0., 1.96258098e-01,
          9.67104267e-03, 2.23302612e+01, 2.38135314e+00, 3.54236579e+00,
          1.77075326e+00, 1.45022595e+00, 1.31838724e-01, 0., 1. ]
      - [ 12., 4.55047414e-02, 3.87330502e-02, 1.35299787e-01,
          4.01847172e+00, 3.97298671e-03, 0., 1.67728096e-01,
          5.32894582e-03, 3.24919434e+01, 2.48103356e+00, 3.04828358e+00,
          1.47062826e+00, 1.36498702e+00, 1.13748915e-01, 1., 1. ]
      - [ 11., 4.55690399e-02, 3.91161367e-02, 1.20315403e-01,
          2.15197559e-02, 3.07783298e-03, 0., 1.83624238e-01,
          8.52677505e-03, 3.20978775e+01, 2.46841025e+00, 2.82025170e+00,
          1.60520649e+00, 1.35000014e+00, 1.22727282e-01, 1., 1. ]
      - [ 3., 1.57203153e-02, 1.04803331e-02, 3.14404108e-02,
          2.45767704e-04, 2.50255139e-14, 0., 3.14410031e-02,
          9.07629728e-03, 2.59487659e-01, 1.05128515e+00, 1.04310989e+00,
          1.80671942e+00, 1.38999999e+00, 4.63333338e-01, 1., 1. ]
      - [ 25., 9.42875147e-02, 8.59592631e-02, 2.84839034e-01,
          1.96105734e-01, 2.36809012e-02, 0., 5.04896283e-01,
          1.85561888e-02, 3.44632912e+01, 2.82851148e+00, 2.96474004e+00,
          1.09024119e+00, 1.34881866e+00, 5.39527461e-02, 1., 1. ]
      - [ 12., 4.88236882e-02, 4.38101292e-02, 1.32317960e-01,
          4.02087927e+00, 1.25279487e-03, 0., 1.86786875e-01,
          6.97444426e-03, 2.93709316e+01, 2.59659767e+00, 3.07961583e+00,
          1.61947227e+00, 1.34156120e+00, 1.11796767e-01, 1., 1. ]
      - [ 26., 1.29359156e-01, 1.17264897e-01, 3.73550445e-01,
          1.38013911e+00, 9.87309497e-03, 0., 5.21183133e-01,
          1.99367460e-02, 5.12226639e+01, 2.88341570e+00, 3.41103983e+00,
          1.07326031e+00, 1.24998808e+00, 4.80764657e-02, 1., 1. ]
      - [ 12., 3.67076807e-02, 3.14190947e-02, 1.12032510e-01,
          4.01247501e+00, 7.71019724e-04, 0., 1.44437015e-01,
          6.01416454e-03, 3.45500259e+01, 2.53253865e+00, 3.06195164e+00,
          1.45786655e+00, 1.11414194e+00, 9.28451642e-02, 1., 1. ]
      - [ 12., 3.65882404e-02, 3.09342071e-02, 1.12957671e-01,
          4.01218367e+00, 5.20479749e-04, 0., 1.32969573e-01,
          5.10626333e-03, 3.56964417e+01, 2.53283143e+00, 2.98336768e+00,
          1.41252840e+00, 1.12051976e+00, 9.33766440e-02, 1., 1. ]
      - [ 15., 5.22760414e-02, 4.38253842e-02, 1.62388861e-01,
          3.36720161e-02, 3.01445049e-04, 0., 1.87353998e-01,
          4.68715467e-03, 2.98128872e+01, 2.68274021e+00, 3.07163024e+00,
          1.26626945e+00, 1.31254792e+00, 8.75031948e-02, 1., 1. ]
      - [ 25., 1.19623825e-01, 1.19487762e-01, 3.18261325e-01,
          9.39381123e+00, 1.84429735e-02, 0., 4.35727596e-01,
          2.23967507e-02, 3.13143272e+01, 2.86651015e+00, 2.95232606e+00,
          1.15762067e+00, 1.27999997e+00, 5.11999987e-02, 1., 1. ]
      - [ 12., 3.66960987e-02, 3.13480347e-02, 1.09390058e-01,
          4.01266670e+00, 1.60275202e-03, 0., 1.74780294e-01,
          6.87888311e-03, 5.26475792e+01, 2.46669054e+00, 3.10490799e+00,
          1.50031662e+00, 1.12812257e+00, 9.40102115e-02, 1., 1. ]
      - [ 13., 4.03004214e-02, 3.47571336e-02, 1.20264500e-01,
          3.14601398e+00, 8.06842465e-04, 0., 1.68639645e-01,
          6.38214033e-03, 4.29051170e+01, 2.66565418e+00, 2.95759916e+00,
          1.35893655e+00, 1.13257694e+00, 8.71213004e-02, 1., 1. ]
      - [ 11., 1.30832911e-01, 1.18060328e-01, 3.12916219e-01,
          1.56508490e-01, 1.80814695e-02, 0., 4.46037740e-01,
          3.71803269e-02, 1.11042862e+01, 2.50023031e+00, 2.65022635e+00,
          1.54155254e+00, 2.50321746e+00, 2.27565229e-01, 1., 1. ]
      - [ 4., 2.84774955e-02, 2.24432219e-02, 6.51862472e-02,
          1.61995005e-03, 1.05909305e-04, 0., 6.94897771e-02,
          1.16259381e-02, 1.34775562e+01, 1.46714139e+00, 1.72891951e+00,
          2.01441264e+00, 2.48497653e+00, 6.21244133e-01, 0., 1. ]
      - [ 5., 3.39956768e-02, 2.57060938e-02, 8.64647925e-02,
          2.64085387e-03, 1.02302956e-03, 0., 8.86372775e-02,
          9.97401029e-03, 8.02805996e+00, 1.89051151e+00, 1.87384820e+00,
          1.72254884e+00, 2.41000009e+00, 4.82000023e-01, 1., 1. ]
      - [ 17., 8.96351486e-02, 7.76820853e-02, 2.60250568e-01,
          1.22805439e-01, 5.76539617e-03, 0., 3.25403005e-01,
          1.50247123e-02, 3.04984837e+01, 2.72120380e+00, 3.17226267e+00,
          1.24000955e+00, 1.34991074e+00, 7.94065148e-02, 1., 1. ]
      - [ 4., 4.32517231e-02, 3.18180807e-02, 9.90115330e-02,
          4.40980075e-03, 1.21887870e-05, 0., 1.05607644e-01,
          2.25854088e-02, 4.41652775e+00, 1.39422476e+00, 1.87030816e+00,
          2.16159225e+00, 2.65653014e+00, 6.64132535e-01, 0., 1. ]
      - [ 11., 9.66614410e-02, 8.96291733e-02, 2.72184998e-01,
          8.54881629e-02, 1.25930840e-02, 0., 3.80727828e-01,
          1.66427214e-02, 9.99025440e+00, 2.48879433e+00, 2.79091001e+00,
          1.50845230e+00, 3.14631224e+00, 2.86028385e-01, 1., 0. ]
      - [ 10., 6.55944422e-02, 5.44474199e-02, 1.92755416e-01,
          4.49936502e-02, 1.38484733e-03, 0., 2.09035158e-01,
          7.71146733e-03, 2.06887817e+01, 2.43180656e+00, 2.69867635e+00,
          1.44026744e+00, 2.41497707e+00, 2.41497710e-01, 1., 1. ]
      - [ 5., 5.88667206e-02, 4.39997278e-02, 1.51871532e-01,
          8.16441141e-03, 4.76939575e-04, 0., 1.62608564e-01,
          2.10514367e-02, 7.75749588e+00, 1.98014700e+00, 1.71317708e+00,
          1.57832694e+00, 3.51071811e+00, 7.02143610e-01, 1., 1. ]
      - [ 5., 4.59116139e-02, 3.52220461e-02, 1.15484476e-01,
          6.11985195e-03, 3.44619824e-04, 0., 1.27783298e-01,
          1.52216228e-02, 1.15688705e+01, 1.79486978e+00, 2.11538434e+00,
          1.95985556e+00, 3.18000007e+00, 6.36000037e-01, 1., 0. ]
      - [ 3., 4.15879525e-02, 2.77751070e-02, 8.29863399e-02,
          1.74709968e-03, 9.52451399e-12, 0., 8.33253264e-02,
          2.42512245e-02, 1.44584882e+00, 9.86876726e-01, 1.10751832e+00,
          1.91827810e+00, 3.78999996e+00, 1.26333332e+00, 1., 1. ]
      - [ 6., 7.51347765e-02, 6.43673167e-02, 1.47154257e-01,
          2.43287459e-02, 1.14589580e-03, 0., 2.82840908e-01,
          3.43686156e-02, 8.30795479e+00, 1.72867012e+00, 3.24917340e+00,
          2.53588939e+00, 3.29452443e+00, 5.49087405e-01, 0., 0. ]
      - [ 5., 5.47760613e-02, 4.59987298e-02, 1.34136394e-01,
          8.20577797e-03, 1.49362558e-03, 0., 1.70035645e-01,
          2.01005302e-02, 1.30834007e+01, 1.97863317e+00, 1.86112750e+00,
          1.77546382e+00, 3.78023911e+00, 7.56047845e-01, 1., 1. ]
      - [ 4., 5.78133389e-02, 4.74393107e-02, 1.12162612e-01,
          9.91764292e-03, 1.35481311e-03, 0., 1.68800950e-01,
          2.84076873e-02, 7.47592449e+00, 1.09621632e+00, 2.25613546e+00,
          2.64154553e+00, 3.58381510e+00, 8.95953774e-01, 0., 0. ]
      - [ 10., 5.34800962e-02, 4.54060808e-02, 1.43858567e-01,
          4.19527817e+01, 3.24921770e-04, 0., 1.84921369e-01,
          9.64546390e-03, 1.32700815e+01, 2.46188688e+00, 3.20652056e+00,
          1.75271487e+00, 1.71728039e+00, 1.71728045e-01, 1., 1. ]
      - [ 5., 5.69151975e-02, 4.69971821e-02, 1.34928286e-01,
          1.06040528e-02, 8.27044350e-05, 0., 1.64842099e-01,
          1.95629578e-02, 6.99844027e+00, 1.60788310e+00, 2.50894952e+00,
          2.29467082e+00, 3.81012368e+00, 7.62024760e-01, 0., 1. ]
      - [ 10., 5.19185849e-02, 4.37339544e-02, 1.42559558e-01,
          5.97391367e+00, 4.87419486e-04, 0., 1.84141055e-01,
          1.06759360e-02, 2.09818192e+01, 2.51922822e+00, 2.94050407e+00,
          1.65326524e+00, 1.74497128e+00, 1.74497128e-01, 1., 1. ]
      - [ 5., 6.51855692e-02, 5.14412448e-02, 1.49080068e-01,
          1.23204337e-02, 4.84909979e-05, 0., 1.95765078e-01,
          2.78271660e-02, 8.35202122e+00, 1.52125001e+00, 2.67616296e+00,
          2.44439530e+00, 3.86459303e+00, 7.72918582e-01, 0., 1. ]
      - [ 13., 6.87402710e-02, 5.88523522e-02, 1.95670247e-01,
          4.51917419e+01, 1.02092121e-02, 0., 2.53722072e-01,
          9.34579223e-03, 2.58402691e+01, 2.53071117e+00, 3.07911801e+00,
          1.47692800e+00, 1.81000006e+00, 1.39230773e-01, 1., 1. ]
      - [ 4., 5.24414070e-02, 4.34088111e-02, 1.04540981e-01,
          7.27468077e-03, 1.72003143e-04, 0., 1.54626220e-01,
          2.87408344e-02, 7.30692387e+00, 1.13394046e+00, 2.29364729e+00,
          2.65448403e+00, 3.93347692e+00, 9.83369231e-01, 0., 1. ]
      - [ 9., 7.84627497e-02, 5.81372529e-02, 2.36714765e-01,
          1.53953266e+01, 1.87201513e-04, 0., 2.74538070e-01,
          3.17749791e-02, 1.39573212e+01, 2.29375744e+00, 3.16858625e+00,
          1.80368209e+00, 1.95473599e+00, 2.17192888e-01, 1., 1. ]
      - [ 6., 3.80467772e-02, 3.07186227e-02, 9.86033157e-02,
          5.72833791e-03, 2.12571293e-04, 0., 1.19593307e-01,
          1.03635499e-02, 2.37928791e+01, 1.83534741e+00, 2.63031387e+00,
          2.05031753e+00, 2.24497867e+00, 3.74163121e-01, 1., 0. ]
      - [ 9., 6.46024495e-02, 5.38062416e-02, 1.83731392e-01,
          2.64451317e-02, 7.29352748e-03, 0., 2.00423926e-01,
          9.67142545e-03, 1.51811733e+01, 2.36554265e+00, 2.53216743e+00,
          1.45785213e+00, 2.35999990e+00, 2.62222201e-01, 1., 1. ]
      - [ 9., 6.23920560e-02, 5.13650924e-02, 1.79105848e-01,
          2.51687374e-02, 3.27424466e-04, 0., 1.90160751e-01,
          7.97503814e-03, 9.97696114e+00, 2.40307570e+00, 2.69332838e+00,
          1.54690528e+00, 2.52999997e+00, 2.81111121e-01, 1., 1. ]
      - [ 10., 6.78416491e-02, 5.75302429e-02, 1.99297950e-01,
          2.68634272e+00, 6.72506401e-03, 0., 2.23045453e-01,
          9.05088335e-03, 1.26500797e+01, 2.52025557e+00, 2.43369150e+00,
          1.32407045e+00, 2.53936529e+00, 2.53936529e-01, 1., 1. ]
      - [ 4., 5.98109849e-02, 4.66529652e-02, 1.28485322e-01,
          6.73544453e-03, 5.85891212e-05, 0., 1.55996501e-01,
          2.92505622e-02, 7.70061111e+00, 1.20080674e+00, 2.14206195e+00,
          2.47638583e+00, 4.31141853e+00, 1.07785463e+00, 1., 0. ]
      - [ 4., 4.79329787e-02, 3.75730731e-02, 1.09439529e-01,
          4.40366566e-03, 8.49224216e-06, 0., 1.15282387e-01,
          1.93040837e-02, 5.02359724e+00, 1.37978160e+00, 1.85876274e+00,
          2.14731669e+00, 4.09496117e+00, 1.02374029e+00, 1., 0. ]
      - [ 10., 5.05422577e-02, 4.33743745e-02, 1.40257686e-01,
          4.62317772e+01, 4.06057574e-03, 0., 1.96519092e-01,
          8.81111715e-03, 2.42248402e+01, 2.36975479e+00, 2.87304330e+00,
          1.59954703e+00, 1.73498344e+00, 1.73498347e-01, 1., 1. ]
      - [ 4., 4.64562587e-02, 3.60326730e-02, 1.07380144e-01,
          4.07289201e-03, 1.91047748e-05, 0., 1.10618681e-01,
          1.86098311e-02, 3.38973689e+00, 1.44588900e+00, 1.76277924e+00,
          2.03783965e+00, 4.01996183e+00, 1.00499046e+00, 0., 0. ]
      - [ 4., 5.26066236e-02, 4.27656732e-02, 1.11579925e-01,
          6.22510258e-03, 1.56972834e-04, 0., 1.43801421e-01,
          2.45087966e-02, 7.30173922e+00, 1.19802535e+00, 2.15648150e+00,
          2.49766469e+00, 4.21217489e+00, 1.05304372e+00, 1., 0. ]
      - [ 8., 1.14685759e-01, 1.02197617e-01, 2.77843922e-01,
          6.49919361e-02, 3.54520208e-03, 0., 3.66786182e-01,
          3.59253399e-02, 8.44558144e+00, 2.29562283e+00, 2.89851046e+00,
          1.91200280e+00, 3.88158846e+00, 4.85198557e-01, 1., 0. ]
      - [ 19., 1.12765558e-01, 1.00723110e-01, 3.10106575e-01,
          1.98288023e-01, 2.55507715e-02, 0., 5.02381802e-01,
          3.11707184e-02, 2.40957527e+01, 2.76748753e+00, 3.12072062e+00,
          1.33448577e+00, 1.65001512e+00, 8.68429020e-02, 1., 1. ]
      - [ 3., 4.25670892e-02, 2.84297075e-02, 8.49493742e-02,
          2.01518834e-03, 3.87520085e-11, 0., 8.52891207e-02,
          2.48052534e-02, 1.39746225e+00, 9.87522662e-01, 1.10687244e+00,
          1.91715932e+00, 3.92999983e+00, 1.30999994e+00, 0., 1. ]
      - [ 11., 4.57385294e-02, 3.99437808e-02, 1.36407673e-01,
          3.75453329e+00, 2.81993183e-04, 0., 1.82508618e-01,
          1.01074688e-02, 4.05642471e+01, 2.40119648e+00, 3.37395120e+00,
          1.67382526e+00, 1.41154552e+00, 1.28322318e-01, 0., 1. ]
      - [ 5., 5.35797700e-02, 4.41066250e-02, 1.23254739e-01,
          7.54890312e-03, 5.19286375e-04, 0., 1.54804543e-01,
          1.89835168e-02, 1.15897579e+01, 1.66746366e+00, 2.37621570e+00,
          2.21891737e+00, 3.39802599e+00, 6.79605186e-01, 0., 0. ]
      - [ 8., 8.32420886e-02, 7.13308081e-02, 2.12270275e-01,
          3.49363647e-02, 2.47784983e-03, 0., 2.90622801e-01,
          2.24230494e-02, 1.01133480e+01, 2.27355647e+00, 2.80670595e+00,
          1.87028027e+00, 3.41549706e+00, 4.26937133e-01, 0., 1. ]
      - [ 6., 6.26138672e-02, 5.49605303e-02, 1.52413055e-01,
          1.79941505e-02, 3.10333475e-04, 0., 2.02046603e-01,
          1.82734467e-02, 6.17462397e+00, 1.84640312e+00, 2.86489367e+00,
          2.22548032e+00, 3.36519790e+00, 5.60866296e-01, 0., 0. ]
      - [ 6., 6.18565828e-02, 5.22805192e-02, 1.53215766e-01,
          1.76509041e-02, 8.02748400e-05, 0., 1.95109397e-01,
          1.86485779e-02, 7.36478710e+00, 1.82758164e+00, 2.86784840e+00,
          2.22325039e+00, 3.33496833e+00, 5.55828035e-01, 0., 0. ]
      - [ 12., 5.24960309e-02, 4.38915677e-02, 1.44759566e-01,
          3.00826058e-02, 6.20553154e-04, 0., 2.41556913e-01,
          1.27348499e-02, 3.51878777e+01, 2.44305801e+00, 3.78481412e+00,
          1.77548230e+00, 1.39198613e+00, 1.15998842e-01, 0., 1. ]
      - [ 3., 2.58048847e-02, 1.98949408e-02, 4.61018346e-02,
          4.62338241e-04, 1.96571620e-10, 0., 5.96816316e-02,
          1.84753127e-02, 1.42950258e+01, 1.52028465e+00, 5.74110448e-01,
          9.94388402e-01, 2.39943910e+00, 7.99813032e-01, 0., 1. ]
      - [ 16., 6.02571517e-02, 5.06785847e-02, 1.88114494e-01,
          4.48837727e-02, 5.30474447e-03, 0., 2.12114900e-01,
          4.61586099e-03, 2.12120056e+01, 2.79843378e+00, 2.68678880e+00,
          1.08942306e+00, 1.42998636e+00, 8.93741474e-02, 1., 1. ]
      - [ 18., 9.99047384e-02, 7.94073194e-02, 3.00660640e-01,
          1.43595070e-01, 2.20858236e-03, 0., 4.22219425e-01,
          2.36835666e-02, 2.92366695e+01, 2.74784303e+00, 3.53396130e+00,
          1.33370125e+00, 1.47316861e+00, 8.18426982e-02, 1., 1. ]
      - [ 5., 7.01798722e-02, 5.46322390e-02, 1.49545044e-01,
          1.17345117e-02, 3.52330902e-03, 0., 2.22700775e-01,
          2.83635426e-02, 6.44178963e+00, 1.53587115e+00, 2.41004133e+00,
          2.29591966e+00, 3.59999990e+00, 7.19999969e-01, 1., 0. ]
      - [ 10., 4.63290438e-02, 3.90889868e-02, 1.34194657e-01,
          4.01685524e+00, 6.28553971e-04, 0., 1.73991442e-01,
          7.31555466e-03, 2.30590076e+01, 2.33260679e+00, 3.16998672e+00,
          1.68694735e+00, 1.66459680e+00, 1.66459680e-01, 1., 1. ]
      - [ 3., 4.50895540e-02, 3.08211166e-02, 8.71290192e-02,
          2.03034305e-03, 4.14210916e-10, 0., 9.24633518e-02,
          2.96404958e-02, 4.99953032e+00, 1.28455603e+00, 8.09839070e-01,
          1.40268242e+00, 3.64000010e+00, 1.21333337e+00, 1., 0. ]
      - [ 22., 9.56627503e-02, 8.56156871e-02, 3.02611291e-01,
          1.15924711e+01, 3.51933166e-02, 0., 4.65008199e-01,
          1.22460201e-02, 3.11977425e+01, 2.78507042e+00, 3.36882687e+00,
          1.17010200e+00, 1.62945533e+00, 7.40661547e-02, 1., 1. ]
      - [ 11., 5.50856814e-02, 4.56993468e-02, 1.57292143e-01,
          2.76548433e+00, 5.02562383e-04, 0., 2.07601488e-01,
          1.04494086e-02, 2.86982975e+01, 2.43401837e+00, 3.31994605e+00,
          1.65986061e+00, 1.57671380e+00, 1.43337622e-01, 1., 1. ]
      - [ 10., 4.16245311e-02, 3.28499675e-02, 1.26737341e-01,
          2.03824993e-02, 6.25275643e-05, 0., 1.52447060e-01,
          1.21431202e-02, 2.31091881e+01, 2.34048271e+00, 3.32076645e+00,
          1.75516987e+00, 1.24754930e+00, 1.24754928e-01, 1., 0. ]
      - [ 22., 1.01252921e-01, 9.06003639e-02, 2.85457104e-01,
          1.19499559e+01, 6.80284062e-03, 0., 3.79879594e-01,
          1.68685727e-02, 4.79236794e+01, 2.81587911e+00, 3.39285111e+00,
          1.15863192e+00, 1.09708989e+00, 4.98677231e-02, 1., 1. ]
      - [ 13., 6.20543472e-02, 5.26713058e-02, 1.88192561e-01,
          8.73689279e-02, 6.73061179e-04, 0., 2.05210358e-01,
          4.96313721e-03, 1.52261505e+01, 2.57725930e+00, 2.98756289e+00,
          1.34090734e+00, 1.75807846e+00, 1.35236800e-01, 1., 1. ]
      - [ 21., 3.93423066e-02, 3.40139978e-02, 1.25549331e-01,
          2.85254084e-02, 5.78065822e-03, 0., 2.00492591e-01,
          4.34959121e-03, 6.58320618e+01, 2.89940166e+00, 2.65463567e+00,
          9.96459186e-01, 6.96057379e-01, 3.31455879e-02, 1., 1. ]
      - [ 12., 3.79478186e-02, 3.19292434e-02, 1.03632838e-01, .Inf,
          7.96123117e-04, 0., 1.92592427e-01, 1.05721420e-02,
          5.40224648e+01, 2.41880560e+00, 3.70169544e+00, 1.75707686e+00,
          1.04710495e+00, 8.72587487e-02, 1., 1. ]
      - [ 30., 5.18465005e-02, 4.53473926e-02, 1.92803785e-01,
          7.61587694e-02, 1.83602180e-02, 0., 3.80431116e-01,
          1.34536410e-02, 7.75644836e+01, 2.98000145e+00, 2.49890900e+00,
          8.02794456e-01, 6.07182860e-01, 2.02394295e-02, 1., 1. ]
      - [ 4., 6.61937892e-02, 5.24903648e-02, 1.44759625e-01,
          7.67680025e-03, 2.17557303e-04, 0., 1.58624008e-01,
          3.05248965e-02, 5.63884830e+00, 1.84812951e+00, 1.19537246e+00,
          1.40400350e+00, 3.62496543e+00, 9.06241357e-01, 1., 1. ]
      - [ 30., 4.77314740e-02, 4.27239202e-02, 1.51468351e-01,
          6.78285360e-02, 9.71559668e-04, 0., 2.25470915e-01,
          4.24936600e-03, 4.63421593e+01, 2.94029856e+00, 3.51161194e+00,
          1.02459025e+00, 5.71560025e-01, 1.90520007e-02, 1., 1. ]
      - [ 7., 2.46257577e-02, 1.95283741e-02, 5.92453182e-02,
          8.74088798e-03, 1.80454008e-04, 0., 8.13358128e-02,
          9.23197344e-03, 4.39457817e+01, 2.37817049e+00, 2.15186691e+00,
          1.68469417e+00, 8.43153119e-01, 1.20450445e-01, 1., 1. ]
      - [ 30., 4.73418161e-02, 4.21198756e-02, 1.48939863e-01,
          6.68075383e-02, 1.51185156e-03, 0., 3.03595066e-01,
          6.08689245e-03, 8.13524246e+01, 2.94029737e+00, 3.43822312e+00,
          1.02604127e+00, 5.61902404e-01, 1.87300798e-02, 1., 1. ]
      - [ 53., 1.20324813e-01, 1.08458489e-01, 3.61011863e-01,
          1.72738171e+00, 6.80157617e-02, 0., 5.82507432e-01,
          1.30718211e-02, 8.99961929e+01, 3.03415656e+00, 2.94897699e+00,
          6.56361222e-01, 5.60105324e-01, 1.05680246e-02, 0., 1. ]
      - [ 12., 6.80655465e-02, 5.65344580e-02, 2.08070472e-01,
          4.39109020e-02, 1.31098402e-03, 0., 2.37326086e-01,
          7.63832685e-03, 1.78409863e+01, 2.49828100e+00, 3.09776568e+00,
          1.46128178e+00, 2.08340764e+00, 1.73617303e-01, 0., 1. ]
      - [ 31., 4.55257893e-02, 4.04633172e-02, 1.45912260e-01,
          6.30242452e-02, 2.42071110e-03, 0., 2.51657277e-01,
          4.35199868e-03, 8.52118378e+01, 2.91010404e+00, 3.39535975e+00,
          9.90453184e-01, 5.34182549e-01, 1.72316954e-02, 1., 0. ]
      - [ 27., 4.36908938e-02, 3.78986113e-02, 1.36931896e-01,
          5.20098098e-02, 1.09401636e-03, 0., 2.27431968e-01,
          6.83003198e-03, 6.02135849e+01, 2.91696215e+00, 3.52356553e+00,
          1.08185875e+00, 5.53309023e-01, 2.04929262e-02, 1., 1. ]
      - [ 30., 4.04844917e-02, 3.48173603e-02, 1.30860776e-01,
          5.39209880e-02, 3.58612812e-03, 0., 2.65258402e-01,
          5.40351402e-03, 9.39836273e+01, 2.89499354e+00, 3.26203132e+00,
          1.00604761e+00, 5.03639758e-01, 1.67879928e-02, 1., 1. ]
      - [ 24., 3.72229442e-02, 3.16841267e-02, 1.22976132e-01,
          2.76481528e-02, 5.66095067e-03, 0., 1.63609862e-01,
          3.40655190e-03, 5.39537773e+01, 2.84053659e+00, 3.25511050e+00,
          1.07776558e+00, 5.57533085e-01, 2.32305452e-02, 1., 0. ]
      - [ 9., 6.02725782e-02, 5.32413013e-02, 1.63300693e-01,
          2.46717855e-02, 2.24596704e-03, 0., 2.13221416e-01,
          1.13568883e-02, 1.36982927e+01, 2.35733533e+00, 2.92003727e+00,
          1.68961251e+00, 2.02047420e+00, 2.24497139e-01, 1., 1. ]
      - [ 37., 4.32414338e-02, 3.75349522e-02, 1.46909535e-01,
          6.42355904e-02, 1.86950946e-03, 0., 3.00483733e-01,
          4.96460637e-03, 9.45113602e+01, 2.91353583e+00, 3.51699305e+00,
          9.28857565e-01, 4.15982038e-01, 1.12427576e-02, 1., 1. ]
      - [ 21., 3.19400579e-02, 2.73310393e-02, 9.97250006e-02,
          1.94668360e-02, 1.40787859e-03, 0., 1.49063572e-01,
          4.59235068e-03, 5.09121361e+01, 2.84971023e+00, 2.74971247e+00,
          1.07891858e+00, 5.70002973e-01, 2.71429978e-02, 1., 1. ]
      - [ 38., 4.23596539e-02, 3.66479270e-02, 1.40994594e-01,
          6.27233088e-02, 5.62462304e-03, 0., 3.80807430e-01,
          5.69290249e-03, 1.00332764e+02, 2.98451304e+00, 3.36948919e+00,
          8.76766920e-01, 4.17979449e-01, 1.09994588e-02, 1., 1. ]
      - [ 34., 2.58793831e-01, 2.19161406e-01, 8.65746737e-01,
          1.98542747e+01, 2.20412463e-02, 0., 8.90331089e-01,
          8.44868645e-03, 1.40859680e+01, 2.96388245e+00, 2.93487740e+00,
          7.47013867e-01, 1.90498173e+00, 5.60288727e-02, 1., 1. ]
      - [ 20., 3.02324370e-02, 2.62569636e-02, 9.48067904e-02,
          1.50412163e-02, 3.59778199e-03, 0., 1.89984113e-01,
          6.23838929e-03, 7.54593658e+01, 2.72221422e+00, 2.91788006e+00,
          1.12357724e+00, 5.66909671e-01, 2.83454843e-02, 1., 1. ]
      - [ 18., 3.52453664e-02, 3.07107642e-02, 1.01104937e-01,
          2.13994551e-02, 6.44477841e-04, 0., 1.79934770e-01,
          5.76104270e-03, 8.27275085e+01, 2.67234921e+00, 3.92249131e+00,
          1.44932103e+00, 6.46537781e-01, 3.59187648e-02, 1., 1. ]
      - [ 10., 6.12288453e-02, 5.27062304e-02, 1.72518134e-01,
          2.98700575e-02, 2.34714872e-03, 0., 1.97341979e-01,
          1.05491318e-02, 2.26230259e+01, 2.37658644e+00, 2.71167898e+00,
          1.49455559e+00, 1.88488758e+00, 1.88488752e-01, 1., 1. ]
      - [ 16., 3.65161709e-02, 3.15435752e-02, 1.10119075e-01,
          1.94619484e-02, 5.59350883e-04, 0., 1.68347314e-01,
          4.65154462e-03, 6.86199493e+01, 2.75680232e+00, 3.48776531e+00,
          1.42763007e+00, 7.31629848e-01, 4.57268655e-02, 0., 1. ]
      - [ 19., 1.17959976e-01, 1.08621106e-01, 3.31187755e-01,
          2.23731577e-01, 1.66967418e-02, 0., 5.20717204e-01,
          2.31449697e-02, 1.96257858e+01, 2.71705437e+00, 3.54561210e+00,
          1.34844327e+00, 1.84263039e+00, 9.69805494e-02, 1., 1. ]
      - [ 25., 4.38740253e-02, 3.72414961e-02, 1.42251670e-01,
          1.07438068e+01, 2.61071906e-03, 0., 2.25829065e-01,
          5.91679709e-03, 6.75921478e+01, 2.84727526e+00, 3.69219279e+00,
          1.15957832e+00, 6.45876884e-01, 2.58350745e-02, 1., 1. ]
      - [ 5., 2.85161361e-02, 2.16429140e-02, 7.21379742e-02,
          1.94205495e-03, 7.10237587e-13, 0., 7.21438453e-02,
          8.06633849e-03, 3.80092263e-01, 1.89180315e+00, 1.87125993e+00,
          1.70821893e+00, 1.72000003e+00, 3.44000012e-01, 0., 1. ]
      - [ 37., 1.07593365e-01, 1.03409119e-01, 3.09988111e-01,
          3.91986459e-01, 2.38444209e-02, 0., 5.41072667e-01,
          1.91410333e-02, 6.21134834e+01, 2.93047643e+00, 3.09449506e+00,
          9.78539884e-01, 8.57585907e-01, 2.31779981e-02, 1., 1. ]
      - [ 15., 3.75164486e-02, 3.45103405e-02, 1.00525588e-01,
          1.92444567e-02, 1.14239624e-03, 0., 2.04826847e-01,
          7.38254795e-03, 6.15573540e+01, 2.58524609e+00, 3.84280133e+00,
          1.59166682e+00, 7.77841747e-01, 5.18561155e-02, 1., 1. ]
      - [ 12., 4.47878502e-02, 3.74633074e-02, 1.23696737e-01,
          4.02098131e+00, 8.83438974e-04, 0., 2.39733517e-01,
          1.11821257e-02, 5.15890808e+01, 2.43190217e+00, 3.74772286e+00,
          1.76660860e+00, 1.17597461e+00, 9.79978815e-02, 1., 1. ]
      - [ 19., 4.59852442e-02, 3.88746001e-02, 1.41469508e-01,
          4.11573648e-02, 1.25678745e-03, 0., 2.55904704e-01,
          9.34427604e-03, 6.55118256e+01, 2.76982903e+00, 3.75538993e+00,
          1.37106764e+00, 8.08874786e-01, 4.25723568e-02, 1., 0. ]
      - [ 11., 3.60459574e-02, 3.06250807e-02, 1.05596364e-01,
          3.24106479e+00, 2.34111957e-03, 0., 1.33321688e-01,
          6.22236915e-03, 2.02317696e+01, 2.57753396e+00, 2.59265733e+00,
          1.32142699e+00, 1.20501304e+00, 1.09546639e-01, 1., 1. ]
      - [ 21., 8.33571404e-02, 6.87156394e-02, 2.21984357e-01,
          1.20760478e-01, 1.78391475e-03, 0., 3.99895817e-01,
          2.13435721e-02, 4.49061775e+01, 2.78448081e+00, 3.94696116e+00,
          1.48947024e+00, 1.08012557e+00, 5.14345504e-02, 1., 1. ]
      - [ 12., 4.63190936e-02, 4.00238037e-02, 1.29484490e-01,
          4.02185059e+00, 4.30369517e-04, 0., 1.70787126e-01,
          7.02995621e-03, 3.95011520e+01, 2.68627548e+00, 2.86839747e+00,
          1.47435415e+00, 1.21824312e+00, 1.01520263e-01, 1., 1. ]
      - [ 11., 3.60672176e-02, 3.06970552e-02, 1.06465079e-01,
          2.69546342e+00, 1.64891337e-03, 0., 1.45820603e-01,
          5.38729737e-03, 5.08367348e+01, 2.50879478e+00, 2.61386514e+00,
          1.35265875e+00, 1.22000015e+00, 1.10909104e-01, 1., 1. ]
      - [ 10., 4.13251221e-02, 3.32457870e-02, 1.13294162e-01,
          1.83286704e-02, 2.44833209e-04, 0., 1.85590923e-01,
          1.30605856e-02, 5.00251999e+01, 2.27859211e+00, 3.68386650e+00,
          1.94776392e+00, 1.24852097e+00, 1.24852099e-01, 1., 1. ]
      - [ 12., 4.44375426e-02, 3.69173996e-02, 1.37397304e-01,
          1.74048003e-02, 2.55678082e-03, 0., 1.56698868e-01,
          5.30383363e-03, 2.82594547e+01, 2.53953242e+00, 2.84448338e+00,
          1.35154259e+00, 1.36219084e+00, 1.13515906e-01, 1., 1. ]
      - [ 11., 6.42115176e-02, 5.33202328e-02, 1.93551868e-01,
          2.13732195e+00, 6.52872259e-04, 0., 2.44176731e-01,
          1.56476274e-02, 3.02979240e+01, 2.45652008e+00, 3.21609139e+00,
          1.59997225e+00, 1.59074807e+00, 1.44613460e-01, 1., 1. ]
      - [ 12., 5.12607470e-02, 4.43749018e-02, 1.30123883e-01, .Inf,
          2.57949741e-03, 0., 2.32964784e-01, 1.31474677e-02,
          3.46373596e+01, 2.50704217e+00, 3.58292460e+00, 1.73826110e+00,
          1.30630589e+00, 1.08858824e-01, 1., 1. ]
      - [ 3., 1.77733190e-02, 1.27582736e-02, 3.36420462e-02,
          5.07345656e-04, 1.04814615e-10, 0., 3.75833511e-02,
          1.20979734e-02, 1.63174038e+01, 7.24723041e-01, 1.36967218e+00,
          2.37234163e+00, 1.54278398e+00, 5.14261305e-01, 1., 1. ]
      - [ 13., 5.12004606e-02, 4.35082093e-02, 1.59061030e-01,
          2.90161576e-02, 5.71351789e-04, 0., 2.11103424e-01,
          9.57355928e-03, 3.92217407e+01, 2.51246953e+00, 3.37860584e+00,
          1.51551712e+00, 1.33469200e+00, 1.02668613e-01, 1., 1. ]
      - [ 13., 5.13502806e-02, 4.32322174e-02, 1.59291476e-01,
          2.88167838e-02, 6.82939019e-04, 0., 2.28753775e-01,
          8.17338284e-03, 4.67788353e+01, 2.57423449e+00, 3.39306283e+00,
          1.52568209e+00, 1.32619047e+00, 1.02014653e-01, 0., 0. ]
      - [ 13., 4.83012982e-02, 4.14793417e-02, 1.45837381e-01,
          2.38474347e-02, 7.88282952e-04, 0., 2.07431391e-01,
          6.45969203e-03, 4.79360390e+01, 2.69203830e+00, 2.93167472e+00,
          1.37751663e+00, 1.32573152e+00, 1.01979345e-01, 0., 1. ]
      - [ 13., 4.81821410e-02, 4.19376157e-02, 1.43935919e-01,
          2.52060145e-02, 7.13603513e-04, 0., 1.89173743e-01,
          6.78665144e-03, 4.19111099e+01, 2.55680585e+00, 3.22250152e+00,
          1.44871855e+00, 1.32597375e+00, 1.01997979e-01, 0., 1. ]
      - [ 24., 1.16075195e-01, 1.06385387e-01, 3.30085754e-01,
          2.96306014e-01, 2.96200421e-02, 0., 5.06836176e-01,
          2.67307311e-02, 3.13535957e+01, 2.88833880e+00, 2.96579862e+00,
          1.09931839e+00, 1.35498714e+00, 5.64577989e-02, 1., 0. ]
      - [ 11., 4.25238982e-02, 3.95285226e-02, 1.17735408e-01,
          3.08703995e+00, 1.16602867e-03, 0., 1.70987964e-01,
          9.25824512e-03, 3.29180679e+01, 2.51236963e+00, 3.05599356e+00,
          1.58492279e+00, 1.32263935e+00, 1.20239943e-01, 1., 1. ]
      - [ 10., 3.74763049e-02, 3.22596245e-02, 1.00610040e-01,
          4.01060820e+00, 2.40794267e-04, 0., 1.39026374e-01,
          8.46471731e-03, 3.00180092e+01, 2.41344380e+00, 3.26954150e+00,
          1.78722203e+00, 1.24351132e+00, 1.24351129e-01, 1., 1. ]
      - [ 19., 8.42734128e-02, 6.92603290e-02, 2.36915022e-01,
          1.27912924e-01, 3.99081968e-03, 0., 3.49566400e-01,
          1.66250430e-02, 2.26404877e+01, 2.71336937e+00, 3.95679879e+00,
          1.44868171e+00, 1.12355542e+00, 5.91344945e-02, 1., 1. ]
      - [ 10., 5.39776236e-02, 4.59389761e-02, 1.47407517e-01,
          2.68482640e-02, 4.41670971e-04, 0., 2.19996810e-01,
          1.06719071e-02, 2.16744881e+01, 2.31210518e+00, 3.54662967e+00,
          1.87371790e+00, 1.80596280e+00, 1.80596277e-01, 0., 0. ]
      - [ 10., 5.26922829e-02, 4.49321270e-02, 1.38946906e-01, .Inf,
          1.22786872e-03, 0., 2.22095400e-01, 1.05915917e-02,
          2.43126640e+01, 2.30778098e+00, 3.48667717e+00, 1.86952710e+00,
          1.72449601e+00, 1.72449604e-01, 0., 1. ]
      - [ 9., 3.64236087e-02, 2.92972121e-02, 1.07230052e-01,
          9.15253535e-03, 2.82059482e-04, 0., 1.21830337e-01,
          8.31250753e-03, 5.60339785e+00, 2.32074928e+00, 2.89886212e+00,
          1.66433835e+00, 1.45983326e+00, 1.62203699e-01, 1., 1. ]
      - [ 8., 3.08758039e-02, 2.54919585e-02, 8.73399898e-02,
          4.94669145e-03, 6.96289178e-04, 0., 1.01266466e-01,
          5.39658917e-03, 4.31596909e+01, 2.36273837e+00, 2.46872020e+00,
          1.54196012e+00, 1.42925191e+00, 1.78656489e-01, 1., 1. ]
      - [ 8., 3.02023161e-02, 2.44093407e-02, 8.72651264e-02,
          3.43363709e-03, 1.32032219e-04, 0., 9.74878073e-02,
          6.34194957e-03, 3.47544632e+01, 2.49625444e+00, 2.00620508e+00,
          1.25435019e+00, 1.27771413e+00, 1.59714267e-01, 1., 1. ]
      - [ 8., 3.42453606e-02, 2.81882640e-02, 9.71681923e-02,
          6.98926952e-03, 6.22661260e-04, 0., 1.42040238e-01,
          1.18001131e-02, 4.97999115e+01, 2.20468831e+00, 2.90788102e+00,
          1.82076550e+00, 1.43056619e+00, 1.78820774e-01, 1., 1. ]
      - [ 6., 4.56359871e-02, 3.65079530e-02, 1.04455709e-01,
          1.04124211e-02, 3.52038740e-04, 0., 1.52132139e-01,
          1.76196843e-02, 1.49221125e+01, 1.74790251e+00, 3.10772324e+00,
          2.41967559e+00, 1.91792798e+00, 3.19654673e-01, 1., 0. ]
      - [ 14., 1.22365676e-01, 1.09880671e-01, 3.27826440e-01,
          1.62240833e-01, 2.75116581e-02, 0., 7.10521221e-01,
          4.50687371e-02, 1.30426865e+01, 2.55650973e+00, 2.87020373e+00,
          1.45822048e+00, 2.64097404e+00, 1.88640997e-01, 1., 0. ]
      - [ 6., 6.45830855e-02, 4.88375835e-02, 1.71533599e-01,
          1.93970185e-02, 1.06111074e-05, 0., 1.91321447e-01,
          2.76904050e-02, 5.89845848e+00, 1.88831711e+00, 2.64376521e+00,
          2.04822493e+00, 2.76497388e+00, 4.60828990e-01, 0., 0. ]
      - [ 7., 1.38884440e-01, 1.10386796e-01, 3.66843849e-01,
          6.77440241e-02, 1.39509677e-03, 0., 3.88821393e-01,
          4.13014255e-02, 7.96758175e+00, 2.15980148e+00, 2.60065794e+00,
          1.78928733e+00, 2.95000029e+00, 4.21428621e-01, 1., 0. ]
      - [ 5., 5.31561263e-02, 4.19261567e-02, 1.14811182e-01,
          1.24578085e-02, 4.12235269e-04, 0., 1.77027956e-01,
          2.36286037e-02, 1.13823681e+01, 1.46294415e+00, 2.76887393e+00,
          2.53669167e+00, 3.13792562e+00, 6.27585113e-01, 0., 0. ]
      - [ 11., 7.61110783e-02, 6.33530766e-02, 1.97318375e-01,
          2.68811750e+00, 9.61953832e-04, 0., 3.28938007e-01,
          2.14643702e-02, 1.41792974e+01, 2.35376859e+00, 3.89554811e+00,
          1.93156064e+00, 2.01239920e+00, 1.82945386e-01, 1., 1. ]
      - [ 5., 5.30787297e-02, 4.04336117e-02, 1.21576995e-01,
          8.50193668e-03, 3.53995165e-05, 0., 1.63804084e-01,
          2.71079969e-02, 8.21566391e+00, 1.52509546e+00, 2.67811847e+00,
          2.44561839e+00, 3.13201833e+00, 6.26403689e-01, 1., 0. ]
      - [ 3., 4.13795896e-02, 2.76797935e-02, 8.19687992e-02,
          1.68481120e-03, 3.23040518e-11, 0., 8.30393806e-02,
          2.50621848e-02, 2.60973072e+00, 9.38313484e-01, 1.15608156e+00,
          2.00239205e+00, 3.19000006e+00, 1.06333339e+00, 1., 0. ]
      - [ 11., 6.32169023e-02, 5.30450605e-02, 1.89468652e-01,
          2.60384846e+00, 1.91324958e-04, 0., 2.03039944e-01,
          6.65131025e-03, 1.16086426e+01, 2.48633981e+00, 2.93851686e+00,
          1.46146035e+00, 2.08084226e+00, 1.89167485e-01, 0., 1. ]
      - [ 17., 1.29189640e-01, 1.20752402e-01, 3.39505076e-01,
          1.22431159e+00, 1.14635536e-02, 0., 4.52336520e-01,
          2.81935036e-02, 1.78830261e+01, 2.71600342e+00, 2.91851997e+00,
          1.31779897e+00, 1.96438479e+00, 1.15552045e-01, 1., 1. ]
      - [ 7., 3.85017507e-02, 3.12417652e-02, 1.07366294e-01,
          6.87008444e-03, 4.22246609e-04, 0., 1.39914870e-01,
          1.28141344e-02, 3.66132927e+01, 2.07982445e+00, 2.67386413e+00,
          1.84487760e+00, 1.79578161e+00, 2.56540239e-01, 1., 1. ]
      - [ 7., 3.53118926e-02, 2.85993181e-02, 9.52842012e-02,
          5.93709806e-03, 2.06191151e-04, 0., 1.15897439e-01,
          7.87962042e-03, 2.70254421e+01, 2.04087257e+00, 2.79611945e+00,
          1.92287552e+00, 1.80644345e+00, 2.58063346e-01, 1., 0. ]
      - [ 16., 9.68523696e-02, 8.68130103e-02, 2.68376201e-01,
          1.15330100e-01, 1.43470801e-02, 0., 4.17853504e-01,
          2.18510665e-02, 2.18031120e+01, 2.65848804e+00, 3.10638452e+00,
          1.39696050e+00, 1.96043217e+00, 1.22527011e-01, 1., 1. ]
      - [ 3., 5.38574532e-02, 3.67355086e-02, 1.01937659e-01,
          3.15524731e-03, 1.21412602e-10, 0., 1.10206529e-01,
          3.84965613e-02, 4.92325306e+00, 1.33129764e+00, 7.63097465e-01,
          1.32172358e+00, 3.64999986e+00, 1.21666658e+00, 1., 0. ]
      - [ 5., 7.01010451e-02, 5.67408614e-02, 1.44596979e-01,
          1.17330533e-02, 2.73626274e-03, 0., 2.19010383e-01,
          2.76482143e-02, 8.96595001e+00, 1.62658811e+00, 2.37338114e+00,
          2.29957509e+00, 3.58999991e+00, 7.17999995e-01, 1., 0. ]
      - [ 11., 6.89730570e-02, 5.66024557e-02, 2.06822276e-01,
          3.56243587e+00, 7.71252322e-04, 0., 2.48136550e-01,
          1.03720520e-02, 2.12600517e+01, 2.39896727e+00, 3.18808055e+00,
          1.59509313e+00, 2.10046792e+00, 1.90951630e-01, 1., 1. ]
      - [ 12., 1.19081892e-01, 1.08416349e-01, 3.00854474e-01, .Inf,
          8.85037985e-03, 0., 5.03567457e-01, 3.46300192e-02,
          1.85693588e+01, 2.49721003e+00, 2.43235898e+00, 1.31957519e+00,
          2.32583094e+00, 1.93819240e-01, 1., 1. ]
      - [ 6., 4.55229543e-02, 3.79533395e-02, 1.07036218e-01,
          8.50645266e-03, 1.47842409e-04, 0., 1.52788982e-01,
          1.45879220e-02, 1.10474348e+01, 1.78785038e+00, 3.01447797e+00,
          2.33898997e+00, 2.31247425e+00, 3.85412365e-01, 1., 0. ]
      - [ 6., 6.04066104e-02, 4.98827659e-02, 1.38225704e-01,
          1.09077562e-02, 1.09548052e-03, 0., 1.92326322e-01,
          1.93141047e-02, 1.14766407e+01, 1.74311709e+00, 2.99888062e+00,
          2.36217570e+00, 2.34880400e+00, 3.91467333e-01, 1., 0. ]
      - [ 7., 5.07552810e-02, 4.60628979e-02, 1.29942849e-01,
          1.26132863e-02, 3.28158552e-04, 0., 1.71136439e-01,
          1.23627912e-02, 1.27327423e+01, 2.00411177e+00, 3.04009891e+00,
          2.08440781e+00, 2.36450171e+00, 3.37785959e-01, 1., 0. ]
      - [ 7., 2.63704192e-02, 2.29455363e-02, 6.96305931e-02,
          3.33532318e-03, 6.55114010e-04, 0., 9.60315615e-02,
          6.96186209e-03, 5.10604820e+01, 2.24969673e+00, 2.21808362e+00,
          1.63431072e+00, 1.32247484e+00, 1.88924983e-01, 1., 1. ]
      - [ 10., 4.49244864e-02, 3.79038230e-02, 1.19376235e-01,
          2.27649957e-02, 9.31539689e-04, 0., 1.98544160e-01,
          9.76530463e-03, 3.68400726e+01, 2.30531430e+00, 3.56735802e+00,
          1.89380991e+00, 1.47251260e+00, 1.47251263e-01, 0., 1. ]
      - [ 12., 4.47825901e-02, 3.84712294e-02, 1.35300070e-01,
          1.94055978e-02, 3.02463328e-03, 0., 1.83271736e-01,
          6.47944119e-03, 3.75085983e+01, 2.56766486e+00, 2.89180946e+00,
          1.40678048e+00, 1.36743808e+00, 1.13953173e-01, 0., 1. ]
      - [ 13., 5.32502979e-02, 4.38021421e-02, 1.64374694e-01,
          3.90038759e-01, 3.70551075e-04, 0., 2.04756543e-01,
          8.03008210e-03, 2.97359123e+01, 2.61254644e+00, 3.29899454e+00,
          1.48127949e+00, 1.31601167e+00, 1.01231664e-01, 0., 1. ]
      - [ 10., 3.70669551e-02, 3.08521688e-02, 1.11292534e-01, .Inf,
          2.11055228e-03, 0., 1.29496992e-01, 5.77430241e-03,
          2.07475853e+01, 2.55430174e+00, 2.47068977e+00, 1.38947678e+00,
          1.35998714e+00, 1.35998711e-01, 1., 1. ]
      - [ 22., 1.06135771e-01, 9.47284028e-02, 3.10933828e-01,
          9.35296631e+00, 2.90535018e-02, 0., 4.19676304e-01,
          1.82649996e-02, 3.91520920e+01, 2.80114198e+00, 3.23312092e+00,
          1.10039735e+00, 1.29551733e+00, 5.88871501e-02, 1., 1. ]
      - [ 33., 2.59487689e-01, 2.19008535e-01, 8.66985142e-01,
          3.64202547e+00, 1.98971838e-01, 0., 8.81925821e-01,
          8.69171415e-03, 9.45024109e+00, 2.96963048e+00, 2.88956046e+00,
          7.49472380e-01, 1.95000005e+00, 5.90909123e-02, 1., 1. ]
      - [ 11., 4.25773337e-02, 3.56993899e-02, 1.27676889e-01,
          3.68375707e+00, 3.69144516e-04, 0., 1.69262201e-01,
          7.89156556e-03, 3.69174156e+01, 2.46977806e+00, 3.19426513e+00,
          1.59737599e+00, 1.36228478e+00, 1.23844072e-01, 1., 1. ]
      - [ 13., 3.96164991e-02, 3.37488614e-02, 1.12401389e-01,
          1.61898807e-02, 3.68540699e-04, 0., 1.65275663e-01,
          5.62590966e-03, 5.31663208e+01, 2.51305270e+00, 3.58578825e+00,
          1.61735094e+00, 1.00108719e+00, 7.70067051e-02, 1., 1. ]
      - [ 19., 7.37378821e-02, 6.36976808e-02, 2.22151339e-01,
          8.58667716e-02, 1.43389637e-02, 0., 3.11893344e-01,
          9.10925120e-03, 2.79024448e+01, 2.76472759e+00, 3.35877419e+00,
          1.28312540e+00, 1.37983310e+00, 7.26227984e-02, 1., 1. ]
      - [ 14., 5.93054742e-02, 5.07682897e-02, 1.59869969e-01,
          4.24234979e-02, 7.30114814e-04, 0., 2.96109587e-01,
          1.65800359e-02, 4.26069717e+01, 2.60011315e+00, 3.87849045e+00,
          1.70329261e+00, 1.31944847e+00, 9.42463204e-02, 0., 1. ]
      - [ 4., 1.83383245e-02, 1.46129625e-02, 4.16646115e-02,
          5.03056333e-04, 1.61224583e-04, 0., 5.03588691e-02,
          8.39314517e-03, 3.54878235e+01, 1.57516241e+00, 1.56424773e+00,
          1.87989151e+00, 1.54498518e+00, 3.86246294e-01, 1., 1. ]
      - [ 12., 3.53504084e-02, 3.03711239e-02, 9.88609567e-02,
          1.29269371e-02, 2.80013250e-04, 0., 1.56958058e-01,
          5.94689138e-03, 5.44286346e+01, 2.45876884e+00, 3.66027069e+00,
          1.71670973e+00, 9.97324705e-01, 8.31103921e-02, 1., 1. ]
      - [ 10., 3.56020331e-02, 3.01353820e-02, 1.04504272e-01,
          1.25497114e-02, 5.25045441e-04, 0., 1.47192508e-01,
          8.31677578e-03, 5.29855766e+01, 2.39869165e+00, 3.04395580e+00,
          1.62838709e+00, 1.25904810e+00, 1.25904813e-01, 1., 1. ]
      - [ 27., 6.96725845e-02, 5.88702112e-02, 2.10726917e-01,
          1.22699521e-01, 2.28885207e-02, 0., 3.71798158e-01,
          1.03237024e-02, 7.39069443e+01, 2.95344043e+00, 2.84440947e+00,
          9.71935809e-01, 7.62822509e-01, 2.82526854e-02, 1., 1. ]
      - [ 14., 3.99845205e-02, 3.39067020e-02, 1.13303736e-01,
          2.01394502e-02, 6.92642236e-04, 0., 2.22966149e-01,
          9.41464771e-03, 5.06047249e+01, 2.52212095e+00, 3.91948628e+00,
          1.66699541e+00, 9.53857601e-01, 6.81326836e-02, 1., 1. ]
      - [ 19., 4.92849350e-02, 3.99196260e-02, 1.43597409e-01,
          4.34869714e-02, 1.71338452e-03, 0., 2.70183831e-01,
          1.31499162e-02, 4.92625084e+01, 2.74798250e+00, 3.67844462e+00,
          1.43288422e+00, 7.96325624e-01, 4.19118740e-02, 1., 1. ]
      - [ 13., 5.30278273e-02, 4.40179445e-02, 1.62411928e-01,
          2.69362982e-02, 4.89580305e-03, 0., 1.76154330e-01,
          4.38068854e-03, 2.21291828e+01, 2.61559653e+00, 2.72942638e+00,
          1.23976111e+00, 1.52115560e+00, 1.17011972e-01, 1., 1. ]
      - [ 21., 5.52956983e-02, 4.91861328e-02, 1.73863575e-01,
          5.56980669e-02, 9.92922229e-04, 0., 2.24688843e-01,
          4.06631781e-03, 4.80482025e+01, 2.84958458e+00, 3.27937865e+00,
          1.14378440e+00, 9.31031823e-01, 4.43348475e-02, 1., 1. ]
      - [ 5., 2.17600819e-02, 1.66639276e-02, 5.31320423e-02,
          1.30161131e-03, 8.04000665e-05, 0., 6.21780902e-02,
          7.10497703e-03, 3.23486862e+01, 1.62795210e+00, 2.30466676e+00,
          2.12152767e+00, 1.49000001e+00, 2.98000008e-01, 1., 1. ]
      - [ 3., 5.56954481e-02, 3.71848494e-02, 1.10009894e-01,
          3.23013379e-03, 1.54531127e-11, 0., 1.11554548e-01,
          3.43626440e-02, 2.02817369e+00, 1.16095245e+00, 9.33442593e-01,
          1.61677003e+00, 3.64000010e+00, 1.21333337e+00, 1., 0. ]
      - [ 14., 3.11099365e-02, 2.63905041e-02, 9.53703523e-02,
          1.15484539e-02, 8.42147449e-04, 0., 1.57659680e-01,
          6.28804835e-03, 6.77588348e+01, 2.54272437e+00, 3.32515073e+00,
          1.44566965e+00, 7.82001674e-01, 5.58572635e-02, 1., 1. ]
      - [ 15., 3.34156528e-02, 3.00321989e-02, 9.81255770e-02,
          4.76620585e-01, 2.59715272e-03, 0., 1.75033867e-01,
          5.94477495e-03, 7.73752975e+01, 2.56538272e+00, 3.35781574e+00,
          1.46615148e+00, 7.96036363e-01, 5.30690923e-02, 1., 1. ]
      - [ 23., 9.76867527e-02, 7.94101283e-02, 3.05575877e-01,
          1.96465343e-01, 1.93045363e-02, 0., 3.90902042e-01,
          1.77012011e-02, 4.48716164e+01, 2.80927730e+00, 2.90168929e+00,
          1.03862846e+00, 1.10999990e+00, 4.82608639e-02, 1., 1. ]
      - [ 18., 6.15801662e-02, 5.46151362e-02, 1.89717710e-01,
          5.80222383e-02, 9.07380134e-03, 0., 2.57233500e-01,
          5.80471149e-03, 4.27086563e+01, 2.71693587e+00, 3.02694607e+00,
          1.16163325e+00, 1.23787618e+00, 6.87709004e-02, 1., 1. ]
      - [ 11., 4.19941358e-02, 3.49533781e-02, 1.27676979e-01,
          1.86293628e-02, 4.16581798e-03, 0., 1.62908301e-01,
          8.01162329e-03, 3.38638840e+01, 2.46977901e+00, 2.83532381e+00,
          1.43244421e+00, 1.38085842e+00, 1.25532582e-01, 1., 1. ]
      - [ 19., 4.23306115e-02, 3.60311754e-02, 1.35025620e-01,
          2.97701657e-02, 1.02580467e-03, 0., 2.12130830e-01,
          4.80023259e-03, 8.36844101e+01, 2.76959944e+00, 3.41595745e+00,
          1.22974324e+00, 8.14417720e-01, 4.28640917e-02, 1., 1. ]
      - [ 12., 3.45960334e-02, 2.92581450e-02, 1.03632681e-01,
          9.79815237e-03, 1.27048651e-03, 0., 1.38411894e-01,
          4.10692394e-03, 6.36787033e+01, 2.69299030e+00, 2.44714928e+00,
          1.20115662e+00, 1.08317327e+00, 9.02644396e-02, 1., 1. ]
      - [ 21., 5.44727892e-02, 4.52241525e-02, 1.89009011e-01,
          5.55389412e-02, 7.99001253e-04, 0., 2.61169046e-01,
          6.49555586e-03, 4.51061745e+01, 2.81811905e+00, 3.37295270e+00,
          1.13754475e+00, 9.03019071e-01, 4.30009067e-02, 0., 1. ]
      - [ 11., 4.13206443e-02, 3.71032618e-02, 1.21262051e-01,
          2.33514595e+00, 1.17151393e-03, 0., 1.62528753e-01,
          6.91695744e-03, 3.98966522e+01, 2.57753372e+00, 2.42776585e+00,
          1.24401391e+00, 1.40724397e+00, 1.27931267e-01, 1., 1. ]
      - [ 12., 4.17619050e-02, 3.55199240e-02, 1.27335370e-01,
          4.01681519e+00, 6.41161518e-04, 0., 1.70455143e-01,
          6.54098624e-03, 4.34839249e+01, 2.47420144e+00, 3.20230603e+00,
          1.51805210e+00, 1.23270774e+00, 1.02725647e-01, 1., 1. ]
      - [ 11., 3.87732424e-02, 3.28414515e-02, 1.07180633e-01,
          1.96792800e-02, 2.08225625e-04, 0., 1.61226436e-01,
          1.07945139e-02, 2.72120399e+01, 2.38425183e+00, 3.69559765e+00,
          1.83461440e+00, 1.10406184e+00, 1.00369260e-01, 1., 1. ]
      - [ 12., 4.45761718e-02, 3.83538231e-02, 1.34230956e-01,
          4.01612902e+00, 1.11149251e-03, 0., 1.70302719e-01,
          5.35460794e-03, 5.04706001e+01, 2.59710526e+00, 2.57752538e+00,
          1.28719246e+00, 1.40471745e+00, 1.17059790e-01, 1., 1. ]
      - [ 12., 4.59148251e-02, 3.95154916e-02, 1.36765212e-01,
          4.01917362e+00, 2.51379469e-03, 0., 1.95821851e-01,
          8.71646032e-03, 3.75209885e+01, 2.56854081e+00, 3.03238845e+00,
          1.46347737e+00, 1.39474499e+00, 1.16228752e-01, 1., 1. ]
      - [ 15., 5.20280004e-02, 4.51068133e-02, 1.60689458e-01,
          3.49714123e-02, 2.20965873e-03, 0., 2.10216492e-01,
          6.06418401e-03, 3.62456512e+01, 2.73056793e+00, 2.99970007e+00,
          1.27672863e+00, 1.11686444e+00, 7.44576305e-02, 0., 1. ]
      - [ 12., 4.03661765e-02, 3.42551693e-02, 1.19882308e-01,
          4.01655245e+00, 3.61881393e-04, 0., 1.61347404e-01,
          5.95089886e-03, 4.11239128e+01, 2.47341585e+00, 3.31189609e+00,
          1.56138349e+00, 1.22456479e+00, 1.02047063e-01, 1., 1. ]
      - [ 10., 3.82842831e-02, 3.42939422e-02, 1.09207787e-01,
          1.42754512e-02, 7.74952176e-04, 0., 1.46967024e-01,
          8.40565842e-03, 3.62397690e+01, 2.52025604e+00, 2.83375788e+00,
          1.53083134e+00, 1.36329842e+00, 1.36329845e-01, 1., 1. ]
      - [ 6., 2.65712105e-02, 2.16296520e-02, 6.80141971e-02,
          2.77668308e-03, 1.22964440e-04, 0., 8.90539289e-02,
          7.87421502e-03, 4.02537231e+01, 1.82441151e+00, 2.70731163e+00,
          2.11179924e+00, 1.47498584e+00, 2.45830968e-01, 1., 1. ]
      - [ 5., 3.19587812e-02, 2.53301598e-02, 6.88352361e-02,
          4.07342520e-03, 2.79013111e-05, 0., 1.04011118e-01,
          1.91737395e-02, 1.33743582e+01, 1.52011156e+00, 2.78896570e+00,
          2.55016017e+00, 1.74482238e+00, 3.48964483e-01, 1., 1. ]
      - [ 17., 5.83774298e-02, 5.05365431e-02, 1.82761550e-01,
          4.94065247e-02, 6.08093687e-04, 0., 2.37129629e-01,
          4.41731513e-03, 4.83368225e+01, 2.69491935e+00, 3.32714128e+00,
          1.26295400e+00, 1.27441597e+00, 7.49656484e-02, 1., 1. ]
      - [ 4., 1.82526410e-02, 1.45629328e-02, 4.03156914e-02,
          7.67933787e-04, 2.21159369e-10, 0., 4.67840135e-02,
          7.95700960e-03, 2.06744461e+01, 1.25452352e+00, 2.06350708e+00,
          2.38273287e+00, 1.52998555e+00, 3.82496387e-01, 1., 1. ]
      - [ 15., 1.01725742e-01, 8.25325623e-02, 2.66014397e-01,
          1.42511368e-01, 2.66695209e-03, 0., 3.92906219e-01,
          2.79979017e-02, 3.96256981e+01, 2.61786246e+00, 3.38732243e+00,
          1.58355117e+00, 1.35901189e+00, 9.06007960e-02, 1., 1. ]
      - [ 3., 2.38266326e-02, 1.65551007e-02, 4.62591276e-02,
          8.08347308e-04, 2.42137473e-11, 0., 4.96653020e-02,
          1.49018327e-02, 9.88348198e+00, 7.95296013e-01, 1.29909909e+00,
          2.25010562e+00, 2.38000011e+00, 7.93333352e-01, 0., 1. ]
      - [ 3., 4.72381189e-02, 3.39465141e-02, 9.05362293e-02,
          1.57942332e-03, 2.93777259e-11, 0., 1.01575419e-01,
          2.96027139e-02, 5.96540356e+00, 1.36198771e+00, 7.32407391e-01,
          1.26856685e+00, 2.60869813e+00, 8.69566023e-01, 0., 1. ]
      - [ 4., 3.85218188e-02, 2.89882515e-02, 9.07326043e-02,
          1.93205278e-03, 9.59267432e-04, 0., 1.08471811e-01,
          2.00567674e-02, 1.89100742e+01, 1.60915160e+00, 1.48663592e+00,
          1.76242971e+00, 2.60497499e+00, 6.51243746e-01, 1., 1. ]
      - [ 4., 3.66428196e-02, 2.75615789e-02, 8.41383636e-02,
          1.23795099e-03, 6.85153937e-05, 0., 9.34252962e-02,
          1.87651683e-02, 1.15084496e+01, 1.73608708e+00, 1.27587211e+00,
          1.48903954e+00, 2.59934545e+00, 6.49836361e-01, 1., 1. ]
      - [ 5., 3.94013263e-02, 3.00157666e-02, 9.88549143e-02,
          2.14949413e-03, 4.79411508e-04, 0., 1.18302897e-01,
          1.62792318e-02, 1.41341705e+01, 2.01860380e+00, 1.58856297e+00,
          1.49864793e+00, 2.59834790e+00, 5.19669592e-01, 0., 1. ]
      - [ 12., 1.20778434e-01, 1.08583450e-01, 3.03928316e-01,
          4.13122988e+00, 1.01274513e-02, 0., 4.69655633e-01,
          3.01262643e-02, 1.71781654e+01, 2.55341196e+00, 2.22721291e+00,
          1.27063346e+00, 2.51708317e+00, 2.09756926e-01, 1., 1. ]
      - [ 7., 4.73841913e-02, 4.15948890e-02, 1.10467114e-01,
          1.34614380e-02, 3.02854605e-04, 0., 1.74370080e-01,
          1.54392319e-02, 1.62302094e+01, 2.08694506e+00, 3.09522438e+00,
          2.18920946e+00, 2.07997990e+00, 2.97139972e-01, 1., 1. ]
      - [ 16., 1.00547217e-01, 8.91547501e-02, 2.91026950e-01,
          1.24644920e-01, 3.30199138e-03, 0., 3.77193123e-01,
          1.21963723e-02, 1.82330303e+01, 2.72447610e+00, 2.35616684e+00,
          1.05890143e+00, 2.12273479e+00, 1.32670924e-01, 1., 1. ]
      - [ 6., 5.83574437e-02, 4.60819751e-02, 1.04455642e-01,
          1.62412170e-02, 7.03344995e-04, 0., 2.54845917e-01,
          5.00458069e-02, 1.00444431e+01, 2.34134197e+00, 9.47383881e-01,
          9.06963050e-01, 2.01579404e+00, 3.35965663e-01, 1., 1. ]
      - [ 5., 2.63052210e-02, 2.15986595e-02, 6.37916401e-02,
          1.48669910e-03, 6.10446499e-04, 0., 8.15317631e-02,
          9.57975071e-03, 3.55818138e+01, 2.11595631e+00, 1.63031697e+00,
          1.55755210e+00, 1.80257642e+00, 3.60515296e-01, 1., 1. ]
      - [ 14., 4.75182943e-02, 4.05265279e-02, 1.43999815e-01,
          2.55891625e-02, 5.06444555e-03, 0., 1.90431491e-01,
          5.52534265e-03, 4.78779144e+01, 2.75256872e+00, 2.73214746e+00,
          1.22722602e+00, 1.26696634e+00, 9.04975981e-02, 1., 1. ]
      - [ 16., 4.92532700e-02, 4.19130437e-02, 1.52715608e-01,
          2.88326927e-02, 4.24560858e-03, 0., 2.14206114e-01,
          5.12037147e-03, 6.41834030e+01, 2.87350655e+00, 2.48112440e+00,
          1.05027378e+00, 1.16275954e+00, 7.26724714e-02, 1., 1. ]
      - [ 6., 2.50625126e-02, 2.11189333e-02, 6.59026057e-02,
          2.19329214e-03, 4.78394068e-04, 0., 8.11408609e-02,
          7.60891195e-03, 4.47796173e+01, 2.10143590e+00, 2.17610359e+00,
          1.72153330e+00, 1.34368443e+00, 2.23947406e-01, 1., 1. ]
      - [ 26., 1.02090500e-01, 9.46745425e-02, 2.79362082e-01,
          1.23065972e+00, 2.68038716e-02, 0., 4.20048863e-01,
          1.22333271e-02, 3.42887306e+01, 2.86545920e+00, 2.95545554e+00,
          1.12234688e+00, 1.07079089e+00, 4.11842652e-02, 1., 1. ]
      - [ 16., 3.70156281e-02, 3.14521044e-02, 1.02025680e-01,
          2.05499958e-02, 3.42842628e-04, 0., 1.79987818e-01,
          8.16223118e-03, 3.63065186e+01, 2.59393644e+00, 4.13927221e+00,
          1.62376225e+00, 7.14875996e-01, 4.46797498e-02, 1., 1. ]
      - [ 7., 2.19060853e-02, 1.80850811e-02, 5.91600910e-02,
          2.16262252e-03, 1.95460685e-04, 0., 7.56891370e-02,
          5.16207656e-03, 5.67755432e+01, 2.13671350e+00, 2.56394053e+00,
          1.78984487e+00, 1.12232935e+00, 1.60332769e-01, 0., 1. ]
      - [ 15., 4.61318083e-02, 3.96562442e-02, 1.38200268e-01,
          3.48036855e-01, 1.89912284e-03, 0., 2.06695274e-01,
          4.99727018e-03, 5.61692047e+01, 2.60164499e+00, 2.82796121e+00,
          1.25931740e+00, 1.10789251e+00, 7.38594979e-02, 1., 1. ]
      - [ 22., 4.20598947e-02, 3.65257859e-02, 1.17891513e-01,
          2.68596554e+00, 1.16301526e-03, 0., 2.34138623e-01,
          6.04770565e-03, 7.68814697e+01, 2.75588465e+00, 4.28149843e+00,
          1.39800942e+00, 5.80084264e-01, 2.63674669e-02, 1., 1. ]
      - [ 19., 6.96002841e-02, 5.55534475e-02, 2.11481169e-01,
          8.98792371e-02, 1.70112774e-03, 0., 3.24299932e-01,
          1.72663201e-02, 5.44839973e+01, 2.70616889e+00, 3.73198652e+00,
          1.35526896e+00, 9.97154951e-01, 5.24818413e-02, 1., 1. ]
      - [ 24., 4.59838323e-02, 4.16577198e-02, 1.27840683e-01,
          4.49801832e-02, 2.42027896e-03, 0., 2.48421118e-01,
          5.34207840e-03, 6.85975113e+01, 2.84222937e+00, 4.05057096e+00,
          1.32383108e+00, 5.78477859e-01, 2.41032448e-02, 1., 1. ]
      - [ 49., 1.03743233e-01, 9.59884003e-02, 3.17132264e-01,
          4.92938727e-01, 4.77070436e-02, 0., 5.56778371e-01,
          8.97459872e-03, 7.15368652e+01, 2.97362041e+00, 3.44662476e+00,
          8.99967074e-01, 6.01541638e-01, 1.22763598e-02, 1., 1. ]
      - [ 29., 4.76510487e-02, 4.31605354e-02, 1.42138749e-01,
          1.05756664e+00, 2.97459494e-03, 0., 3.33509833e-01,
          6.04944071e-03, 8.77186356e+01, 2.89379692e+00, 3.24846721e+00,
          1.09674287e+00, 5.34595370e-01, 1.84343234e-02, 1., 1. ]
      - [ 24., 4.88834642e-02, 4.45736460e-02, 1.25885740e-01,
          4.89848703e-02, 3.06742033e-03, 0., 2.38696918e-01,
          6.13063620e-03, 8.08167877e+01, 2.88779306e+00, 3.89404106e+00,
          1.37824833e+00, 5.68386793e-01, 2.36827824e-02, 1., 1. ]
      - [ 26., 5.70560358e-02, 5.09273261e-02, 1.35406047e-01,
          1.07129276e+00, 3.13910865e-03, 0., 2.91338503e-01,
          8.44350178e-03, 5.30118103e+01, 2.86592817e+00, 4.17603397e+00,
          1.44828081e+00, 5.40315568e-01, 2.07813680e-02, 1., 1. ]
      - [ 24., 4.35028039e-02, 3.94081175e-02, 1.24059357e-01,
          4.02521454e-02, 2.03393376e-03, 0., 2.54587442e-01,
          6.04398362e-03, 6.62298050e+01, 2.79500937e+00, 4.12220240e+00,
          1.30609167e+00, 5.41810691e-01, 2.25754455e-02, 1., 1. ]
      - [ 30., 2.37443298e-01, 1.99800402e-01, 7.90461421e-01,
          1.51292157e+00, 1.79109140e-03, 0., 8.04746389e-01,
          8.97547044e-03, 1.02669401e+01, 2.92726135e+00, 2.95836782e+00,
          8.05490792e-01, 1.94498146e+00, 6.48327172e-02, 1., 1. ]
      - [ 22., 4.63266857e-02, 3.77751105e-02, 1.25494167e-01,
          4.65685315e-02, 1.19850424e-03, 0., 2.81453818e-01,
          1.20057212e-02, 4.88673553e+01, 2.73882508e+00, 4.56543684e+00,
          1.48910403e+00, 5.42784870e-01, 2.46720389e-02, 1., 1. ]
      - [ 36., 5.87648936e-02, 5.34399599e-02, 1.94368646e-01,
          1.18231550e-01, 8.86539370e-03, 0., 4.08801228e-01,
          6.85740774e-03, 8.27956390e+01, 2.97079825e+00, 3.57523513e+00,
          9.59513128e-01, 4.86159593e-01, 1.35044334e-02, 1., 1. ]
      - [ 68., 1.22735538e-01, 1.02665052e-01, 3.72115552e-01,
          9.56607401e-01, 2.81648003e-02, 0., 7.47928083e-01,
          2.09474359e-02, 7.67836609e+01, 3.05604053e+00, 3.32011962e+00,
          7.93360353e-01, 4.13956732e-01, 6.08759886e-03, 1., 1. ]
      - [ 50., 1.06137693e-01, 9.66492072e-02, 3.20573092e-01,
          5.47241032e-01, 2.90221348e-02, 0., 5.54784477e-01,
          1.28185404e-02, 7.78614883e+01, 3.02692437e+00, 3.46709442e+00,
          7.93769062e-01, 5.04378915e-01, 1.00875786e-02, 1., 1. ]
      - [ 22., 4.20767479e-02, 3.58988196e-02, 1.35153994e-01,
          3.94039601e-02, 8.82399443e-04, 0., 2.35266939e-01,
          5.13125025e-03, 9.07032928e+01, 2.77063775e+00, 3.54943919e+00,
          1.17991936e+00, 6.78341866e-01, 3.08337212e-02, 1., 1. ]
      - [ 20., 3.26707028e-02, 2.77327709e-02, 1.05129845e-01,
          1.93309914e-02, 7.31642824e-04, 0., 1.65515125e-01,
          5.58910845e-03, 7.10762329e+01, 2.78061032e+00, 3.58017397e+00,
          1.25421154e+00, 5.59899688e-01, 2.79949848e-02, 1., 1. ]
      - [ 23., 4.79080379e-02, 4.13783416e-02, 1.49805650e-01,
          5.32540306e-02, 6.46411208e-04, 0., 2.31970221e-01,
          4.74091340e-03, 6.77370148e+01, 2.86377716e+00, 3.48983026e+00,
          1.21172345e+00, 7.51320481e-01, 3.26661095e-02, 1., 1. ]
      - [ 21., 4.42658961e-02, 3.75594683e-02, 1.41614914e-01,
          4.05027680e-02, 3.57493060e-04, 0., 2.17121169e-01,
          4.88381647e-03, 5.51020393e+01, 2.74594569e+00, 3.74228311e+00,
          1.25058877e+00, 7.70219505e-01, 3.66771184e-02, 1., 1. ]
      - [ 34., 5.72269894e-02, 4.96983901e-02, 2.00752676e-01,
          1.12873569e-01, 2.31659506e-02, 0., 3.11548054e-01,
          5.71330311e-03, 7.79972382e+01, 2.95942521e+00, 3.26011920e+00,
          9.08923626e-01, 6.28454447e-01, 1.84839536e-02, 1., 1. ]
      - [ 47., 1.24217771e-01, 1.16110265e-01, 3.81582141e-01,
          6.70809805e-01, 2.12169942e-02, 0., 5.67622006e-01,
          1.10856798e-02, 7.13967896e+01, 2.99707460e+00, 3.10154462e+00,
