%YAML:1.0
---
opencv_ml_svm:
   format: 3
   svmType: C_SVC
   kernel:
      type: RBF
      gamma: 1.
   C: 1.0000000000000000e-02
   term_criteria: { iterations:1000 }
   var_count: 17
   class_count: 2
   class_labels: !!opencv-matrix
      rows: 2
      cols: 1
      dt: i
      data: [ -1, 1 ]
   sv_total: 1996
   support_vectors:
      - [ 12., 1.19744353e-01, 1.01874106e-01, 3.57473940e-01, .Inf,
          6.89633982e-03, 0., 4.46219593e-01, 3.80815342e-02,
          1.22819557e+01, 2.47332883e+00, 3.42109895e+00, 1.62626028e+00,
          2.42660189e+00, 2.02216819e-01, 0., 0. ]
      - [ 10., 9.46478695e-02, 8.04178789e-02, 2.53167599e-01,
          8.04957524e-02, 2.77689588e-03, 0., 2.98137158e-01,
          1.84998829e-02, 1.59811172e+01, 2.35125089e+00, 3.07236052e+00,
          1.68220592e+00, 2.43759012e+00, 2.43759006e-01, 1., 0. ]
      - [ 10., 9.43141654e-02, 8.05753097e-02, 2.46666938e-01,
          8.02507252e-02, 3.76974070e-03, 0., 2.96800256e-01,
          2.37061270e-02, 1.30282469e+01, 2.40293455e+00, 3.00405431e+00,
          1.65957522e+00, 2.43459272e+00, 2.43459269e-01, 1., 0. ]
      - [ 10., 9.39636678e-02, 8.22313055e-02, 2.40406811e-01,
          7.99221173e-02, 3.48336087e-03, 0., 3.03593397e-01,
          2.69578472e-02, 1.39418392e+01, 2.40273952e+00, 2.95998311e+00,
          1.66199708e+00, 2.42144299e+00, 2.42144302e-01, 1., 0. ]
      - [ 11., 9.56619084e-02, 8.31244215e-02, 2.53464252e-01,
          1.00346006e-01, 3.25143524e-03, 0., 3.13839436e-01,
          1.98775399e-02, 1.57026958e+01, 2.44205046e+00, 3.15853858e+00,
          1.64533508e+00, 2.42274737e+00, 2.20249757e-01, 0., 0. ]
      - [ 12., 1.02747396e-01, 8.58459771e-02, 3.24502021e-01, .Inf,
          1.71457953e-03, 0., 4.02117193e-01, 2.51704305e-02,
          1.32347078e+01, 2.47606039e+00, 3.40195584e+00, 1.59869659e+00,
          2.42497706e+00, 2.02081427e-01, 0., 0. ]
      - [ 12., 9.17472914e-02, 7.80720040e-02, 2.70672232e-01, .Inf,
          2.96062557e-03, 0., 3.41905862e-01, 1.63525455e-02,
          2.60443783e+01, 2.46530747e+00, 3.19697642e+00, 1.52353203e+00,
          2.42163610e+00, 2.01803014e-01, 1., 0. ]
      - [ 14., 9.60887894e-02, 8.31508115e-02, 2.97326297e-01, .Inf,
          1.65698640e-02, 0., 4.44518209e-01, 1.90720018e-02,
          1.03034458e+01, 2.58124828e+00, 3.27371335e+00, 1.42484355e+00,
          2.43088126e+00, 1.73634380e-01, 0., 0. ]
      - [ 14., 1.38836905e-01, 1.30530432e-01, 3.55004609e-01, .Inf,
          1.30563704e-02, 0., 5.57241261e-01, 3.54969166e-02,
          1.36335535e+01, 2.58633304e+00, 2.97133827e+00, 1.46976483e+00,
          2.35974431e+00, 1.68553159e-01, 1., 1. ]
      - [ 12., 6.99742436e-02, 6.00552112e-02, 2.07995892e-01, .Inf,
          1.59990008e-03, 0., 2.54015446e-01, 8.17483012e-03,
          2.75143433e+01, 2.62461972e+00, 2.80905914e+00, 1.36314034e+00,
          2.13367438e+00, 1.77806199e-01, 0., 1. ]
      - [ 7., 3.99191715e-02, 3.22286300e-02, 1.07008062e-01,
          7.63080828e-03, 1.02251198e-03, 0., 1.19530797e-01,
          7.59955775e-03, 1.45761957e+01, 2.24962759e+00, 2.31125855e+00,
          1.64928710e+00, 2.02999997e+00, 2.89999992e-01, 1., 1. ]
      - [ 10., 9.46762860e-02, 7.50283748e-02, 2.67115623e-01, .Inf,
          8.29399331e-04, 0., 3.08636636e-01, 1.84263792e-02,
          1.09416790e+01, 2.30830312e+00, 3.24335146e+00, 1.75807929e+00,
          2.03172350e+00, 2.03172356e-01, 0., 1. ]
      - [ 8., 7.14222640e-02, 5.18639311e-02, 1.90236330e-01,
          2.08274592e-02, 6.91445312e-04, 0., 2.72423953e-01,
          3.45212184e-02, 1.87865925e+01, 2.08152866e+00, 3.47764087e+00,
          2.15753365e+00, 2.02989006e+00, 2.53736258e-01, 1., 1. ]
      - [ 10., 3.92675176e-02, 3.27633098e-02, 1.16367579e-01, .Inf,
          3.38193495e-03, 0., 1.44349560e-01, 7.90044293e-03,
          1.98983517e+01, 2.40321469e+00, 2.78888273e+00, 1.51220810e+00,
          1.45498621e+00, 1.45498618e-01, 1., 1. ]
      - [ 12., 3.71546820e-02, 3.16209607e-02, 1.02715530e-01, .Inf,
          4.62110300e-04, 0., 1.83682039e-01, 1.22430101e-02,
          6.10358543e+01, 2.43957567e+00, 3.74122405e+00, 1.76724052e+00,
          1.00689423e+00, 8.39078501e-02, 1., 1. ]
      - [ 16., 5.04028015e-02, 4.44850363e-02, 1.49152249e-01, .Inf,
          2.47122953e-03, 0., 2.22392768e-01, 6.94439467e-03,
          3.40365257e+01, 2.70658755e+00, 3.21944594e+00, 1.33989418e+00,
          1.10065722e+00, 6.87910765e-02, 1., 1. ]
      - [ 14., 4.36149538e-02, 3.90951559e-02, 1.26818597e-01, .Inf,
          3.52709601e-03, 0., 2.06115991e-01, 8.18553101e-03,
          4.12558365e+01, 2.62029052e+00, 3.03876138e+00, 1.41769385e+00,
          1.10414696e+00, 7.88676366e-02, 1., 1. ]
      - [ 16., 5.34524992e-02, 4.77569029e-02, 1.50448650e-01, .Inf,
          2.01491942e-03, 0., 2.28521466e-01, 8.05420801e-03,
          4.82990761e+01, 2.75570655e+00, 3.17789125e+00, 1.42440450e+00,
          1.11058080e+00, 6.94113001e-02, 1., 1. ]
      - [ 14., 4.33553383e-02, 3.77940610e-02, 1.26991913e-01, .Inf,
          9.16267571e-04, 0., 2.17772126e-01, 6.94677932e-03,
          5.22317047e+01, 2.72267628e+00, 3.01933289e+00, 1.41222239e+00,
          1.09935355e+00, 7.85252526e-02, 1., 0. ]
      - [ 14., 6.74843043e-02, 4.98014577e-02, 2.45356500e-01, .Inf,
          8.89431802e-04, 0., 3.08961034e-01, 2.88959090e-02,
          4.33605576e+01, 2.59516978e+00, 3.44092488e+00, 1.46754134e+00,
          1.20986331e+00, 8.64188075e-02, 1., 0. ]
      - [ 4., 1.40399355e-02, 1.04995146e-02, 3.32584120e-02,
          3.28618626e-04, 1.44265054e-04, 0., 3.58084813e-02,
          6.38737343e-03, 3.84496078e+01, 1.58474326e+00, 1.54606211e+00,
          1.80698156e+00, 1.00007856e+00, 2.50019640e-01, 1., 1. ]
      - [ 14., 3.94658819e-02, 3.43141071e-02, 1.07173353e-01, .Inf,
          7.78235029e-04, 0., 1.86544582e-01, 7.19512580e-03,
          6.46909256e+01, 2.61579204e+00, 3.57999611e+00, 1.60290611e+00,
          8.85414898e-01, 6.32439181e-02, 1., 1. ]
      - [ 14., 3.58326957e-02, 3.06687020e-02, 1.04775667e-01, .Inf,
          3.35537549e-03, 0., 1.55698612e-01, 5.70595963e-03,
          5.97142029e+01, 2.57745194e+00, 2.91861534e+00, 1.36328530e+00,
          9.06238616e-01, 6.47313297e-02, 1., 1. ]
      - [ 6., 1.66133475e-02, 1.43700726e-02, 4.01206836e-02,
          1.11446879e-03, 1.71657550e-04, 0., 6.72029406e-02,
          6.26683841e-03, 5.43302650e+01, 1.82131517e+00, 2.69605136e+00,
          2.14660764e+00, 9.13274348e-01, 1.52212396e-01, 1., 1. ]
      - [ 5., 3.87131162e-02, 2.94026081e-02, 9.77228507e-02,
          3.15989950e-03, 1.40521297e-05, 0., 9.93223265e-02,
          1.11360997e-02, 3.27560043e+00, 1.96825862e+00, 1.72857976e+00,
          1.58071673e+00, 2.78999996e+00, 5.57999969e-01, 1., 1. ]
      - [ 5., 4.02208455e-02, 3.14107835e-02, 1.02065511e-01,
          3.26845003e-03, 1.07934582e-03, 0., 1.13879651e-01,
          1.31152598e-02, 1.49942369e+01, 1.89054203e+00, 1.83629727e+00,
          1.72267354e+00, 2.79504251e+00, 5.59008479e-01, 1., 1. ]
      - [ 14., 1.37142032e-01, 1.29339665e-01, 3.76785040e-01, .Inf,
          1.65408645e-02, 0., 5.12238979e-01, 2.75517367e-02,
          1.22731800e+01, 2.72417784e+00, 2.26680779e+00, 1.04527473e+00,
          2.79392600e+00, 1.99566141e-01, 1., 0. ]
      - [ 7., 5.39597981e-02, 4.31508459e-02, 1.47637889e-01,
          1.12490999e-02, 3.66196642e-03, 0., 1.62424475e-01,
          1.04581453e-02, 1.33974514e+01, 2.20753813e+00, 2.32269025e+00,
          1.63487720e+00, 2.81999993e+00, 4.02857125e-01, 1., 0. ]
      - [ 7., 5.35809882e-02, 4.25267741e-02, 1.45782202e-01,
          1.41456146e-02, 1.92793028e-04, 0., 1.67502910e-01,
          1.17833717e-02, 1.07310934e+01, 2.06433487e+00, 2.78344536e+00,
          1.90678835e+00, 2.70000005e+00, 3.85714293e-01, 0., 1. ]
      - [ 9., 1.32744238e-01, 1.11457244e-01, 3.26938540e-01,
          1.34596258e-01, 9.32865683e-03, 0., 3.96219254e-01,
          3.75315882e-02, 7.62381315e+00, 2.38486028e+00, 2.85554099e+00,
          1.77807343e+00, 2.74892473e+00, 3.05436075e-01, 0., 1. ]
      - [ 6., 4.89841178e-02, 3.97741683e-02, 1.28972426e-01,
          8.31313245e-03, 1.86159559e-05, 0., 1.34971321e-01,
          1.15452567e-02, 4.47081184e+00, 1.98411870e+00, 2.42040086e+00,
          1.87630856e+00, 2.70497441e+00, 4.50829059e-01, 1., 1. ]
      - [ 4., 4.25683707e-02, 3.26143578e-02, 9.05356631e-02,
          5.05390344e-03, 6.55054828e-05, 0., 1.09309211e-01,
          2.25227829e-02, 1.22929525e+01, 1.18337679e+00, 2.15066028e+00,
          2.49154806e+00, 2.56854105e+00, 6.42135262e-01, 0., 1. ]
      - [ 14., 1.00377411e-01, 8.46712440e-02, 3.00891876e-01, .Inf,
          2.45980383e-03, 0., 3.53691399e-01, 1.18789589e-02,
          1.73853016e+01, 2.70027328e+00, 2.39215398e+00, 1.07051539e+00,
          2.38557434e+00, 1.70398161e-01, 1., 1. ]
      - [ 4., 3.11578959e-02, 2.36583725e-02, 6.73880577e-02,
          2.52880389e-03, 9.04775370e-05, 0., 8.70443583e-02,
          1.83087289e-02, 1.55091991e+01, 1.29872966e+00, 2.06228375e+00,
          2.39892888e+00, 2.29249167e+00, 5.73122919e-01, 1., 1. ]
      - [ 14., 3.44921760e-02, 2.94215102e-02, 9.68035012e-02, .Inf,
          9.64903622e-04, 0., 1.97601244e-01, 1.07818944e-02,
          5.20583992e+01, 2.60100293e+00, 3.73870134e+00, 1.63972819e+00,
          8.19615006e-01, 5.85439280e-02, 1., 1. ]
      - [ 3., 2.22099256e-02, 1.68268885e-02, 4.09459732e-02,
          8.12105543e-04, 4.87006158e-10, 0., 5.03015853e-02,
          1.48272710e-02, 1.54500923e+01, 6.30590081e-01, 1.46380508e+00,
          2.53538465e+00, 2.26271343e+00, 7.54237831e-01, 1., 1. ]
      - [ 24., 4.81519848e-02, 4.14704420e-02, 1.52502373e-01, .Inf,
          1.18927041e-03, 0., 2.13694423e-01, 3.38357617e-03,
          6.11850700e+01, 2.88738108e+00, 3.41093993e+00, 1.12873352e+00,
          7.31459975e-01, 3.04774996e-02, 1., 1. ]
      - [ 6., 5.21381348e-02, 4.36061472e-02, 1.31088331e-01,
          8.54931120e-03, 4.66383150e-04, 0., 1.44918710e-01,
          1.54362051e-02, 8.02220058e+00, 1.93380904e+00, 2.49652815e+00,
          1.95422602e+00, 2.16436791e+00, 3.60727996e-01, 1., 1. ]
      - [ 10., 5.90105280e-02, 5.11381403e-02, 1.64018005e-01, .Inf,
          4.28471394e-04, 0., 2.23074228e-01, 1.15298480e-02,
          2.09355602e+01, 2.35513854e+00, 3.37639737e+00, 1.79416049e+00,
          2.02937484e+00, 2.02937484e-01, 0., 1. ]
      - [ 16., 4.09540720e-02, 3.39842401e-02, 1.21595465e-01, .Inf,
          4.47599450e-04, 0., 2.10014760e-01, 6.79502077e-03,
          5.12058716e+01, 2.61048412e+00, 3.84143734e+00, 1.51097012e+00,
          8.65562916e-01, 5.40976822e-02, 1., 1. ]
      - [ 10., 5.75793460e-02, 4.95346412e-02, 1.64890841e-01, .Inf,
          3.96117859e-04, 0., 2.09273577e-01, 9.23884381e-03,
          2.23577003e+01, 2.43663359e+00, 3.12462807e+00, 1.66820681e+00,
          2.02154899e+00, 2.02154905e-01, 1., 1. ]
      - [ 24., 3.94628160e-02, 3.42156887e-02, 1.14860728e-01, .Inf,
          2.21499312e-03, 0., 2.20817387e-01, 5.19710546e-03,
          9.31743469e+01, 2.84035420e+00, 3.96835494e+00, 1.29136527e+00,
          5.20906150e-01, 2.17044223e-02, 1., 1. ]
      - [ 10., 6.11605421e-02, 5.14843240e-02, 1.60883248e-01,
          1.13117990e+01, 1.58639523e-04, 0., 2.48871624e-01,
          1.63744148e-02, 1.35742769e+01, 2.28790545e+00, 3.70666766e+00,
          1.95596337e+00, 1.97366250e+00, 1.97366253e-01, 0., 0. ]
      - [ 10., 3.26688960e-02, 2.70360913e-02, 9.70878601e-02,
          1.12870712e+01, 9.74634895e-04, 0., 1.10991590e-01,
          4.36612871e-03, 3.92431030e+01, 2.59628224e+00, 2.43887067e+00,
          1.31754541e+00, 1.20998847e+00, 1.20998845e-01, 1., 1. ]
      - [ 5., 4.14138995e-02, 2.91548576e-02, 1.07007928e-01,
          9.10734944e-03, 3.32225281e-05, 0., 1.12347648e-01,
          1.95408668e-02, 1.42492323e+01, 1.75208187e+00, 2.13597345e+00,
          1.95268440e+00, 2.02999997e+00, 4.05999988e-01, 0., 1. ]
      - [ 9., 3.48493941e-02, 2.95903292e-02, 9.98126268e-02,
          1.57986555e+01, 4.62681346e-04, 0., 1.20566525e-01,
          5.24181407e-03, 3.17065506e+01, 2.37499619e+00, 2.68311262e+00,
          1.55153739e+00, 1.42232990e+00, 1.58036649e-01, 1., 1. ]
      - [ 10., 4.16231081e-02, 3.62026207e-02, 1.19462952e-01,
          9.92932892e+00, 1.96494441e-03, 0., 1.80800200e-01,
          9.72097460e-03, 4.49289322e+01, 2.46959591e+00, 2.81281805e+00,
          1.59426618e+00, 1.48495901e+00, 1.48495898e-01, 1., 1. ]
      - [ 6., 8.13860297e-02, 6.64432570e-02, 2.03652844e-01,
          3.06686684e-02, 4.28741891e-03, 0., 2.36541182e-01,
          2.53690183e-02, 9.30430698e+00, 1.86394095e+00, 2.59644389e+00,
          2.07464910e+00, 2.96019793e+00, 4.93366331e-01, 0., 1. ]
      - [ 23., 1.11141384e-01, 9.85182896e-02, 3.03994417e-01,
          1.26948476e+00, 5.56245260e-03, 0., 5.29067338e-01,
          2.60684676e-02, 3.60270386e+01, 2.79129958e+00, 3.49776864e+00,
          1.29494965e+00, 1.36511934e+00, 5.93530163e-02, 1., 1. ]
      - [ 12., 5.76450080e-02, 4.87120748e-02, 1.61243036e-01, .Inf,
          8.25294410e-04, 0., 2.56650180e-01, 1.75765324e-02,
          2.62263527e+01, 2.42822480e+00, 3.81124759e+00, 1.79024744e+00,
          1.49124110e+00, 1.24270089e-01, 1., 1. ]
      - [ 14., 1.13333918e-01, 1.06202289e-01, 3.42002839e-01, .Inf,
          1.16307698e-02, 0., 4.34372336e-01, 1.11093298e-02,
          1.15731096e+01, 2.60719395e+00, 2.80483246e+00, 1.27230465e+00,
          3.05949068e+00, 2.18535051e-01, 0., 0. ]
      - [ 5., 4.79756705e-02, 4.02114205e-02, 1.07635647e-01,
          8.78981408e-03, 1.85133002e-04, 0., 1.47496030e-01,
          1.72850750e-02, 9.53881168e+00, 1.54986763e+00, 2.65373063e+00,
          2.43079734e+00, 2.99375463e+00, 5.98750949e-01, 0., 1. ]
      - [ 5., 5.93400002e-02, 4.48455587e-02, 1.52791649e-01,
          6.50219992e-03, 5.72004472e-04, 0., 1.63676590e-01,
          2.11816076e-02, 1.00389700e+01, 1.98023272e+00, 1.73756862e+00,
          1.59767830e+00, 3.31174207e+00, 6.62348390e-01, 0., 1. ]
      - [ 6., 5.36724851e-02, 4.52102907e-02, 1.33070633e-01,
          1.20929414e-02, 1.33816662e-04, 0., 1.67404860e-01,
          1.41890859e-02, 7.67523003e+00, 1.85129392e+00, 2.81178570e+00,
          2.18356800e+00, 3.00826144e+00, 5.01376927e-01, 0., 0. ]
      - [ 6., 6.19484745e-02, 5.12824208e-02, 1.41471714e-01,
          1.91342104e-02, 3.61518847e-04, 0., 2.12242126e-01,
          2.23789345e-02, 8.36800098e+00, 1.75019503e+00, 3.06897140e+00,
          2.38604665e+00, 3.15121746e+00, 5.25202930e-01, 0., 0. ]
      - [ 6., 6.20944351e-02, 4.95321900e-02, 1.59543470e-01,
          1.60647985e-02, 4.14646609e-04, 0., 1.98930472e-01,
          2.14269571e-02, 1.24734049e+01, 1.82106447e+00, 2.73536897e+00,
          2.12749624e+00, 3.50496674e+00, 5.84161103e-01, 0., 0. ]
      - [ 7., 7.39188641e-02, 5.92820048e-02, 2.03775376e-01,
          2.68919338e-02, 6.50836300e-05, 0., 2.19268769e-01,
          1.58448685e-02, 3.50401378e+00, 2.12093973e+00, 2.67714429e+00,
          1.83119166e+00, 3.54000020e+00, 5.05714297e-01, 1., 0. ]
      - [ 9., 6.88969940e-02, 5.76504543e-02, 2.02857271e-01,
          2.64543332e-02, 6.41388586e-03, 0., 2.65016794e-01,
          1.51190702e-02, 2.36977024e+01, 2.34837866e+00, 2.48181057e+00,
          1.46170759e+00, 2.59716320e+00, 2.88573682e-01, 1., 0. ]
      - [ 4., 3.40286642e-02, 2.65541039e-02, 7.85096362e-02,
          2.19945097e-03, 6.74164858e-06, 0., 7.96426460e-02,
          1.33069707e-02, 3.58507371e+00, 1.48123169e+00, 1.70340824e+00,
          1.96855271e+00, 2.89497256e+00, 7.23743141e-01, 1., 1. ]
      - [ 10., 8.35855305e-02, 7.23544508e-02, 2.36295089e-01,
          1.69855270e+01, 3.59058753e-03, 0., 2.92221814e-01,
          1.41094672e-02, 1.22629032e+01, 2.43801260e+00, 2.95777750e+00,
          1.61891329e+00, 2.57830548e+00, 2.57830560e-01, 0., 1. ]
      - [ 3., 1.96163263e-02, 1.41480928e-02, 3.75239030e-02,
          5.30715974e-04, 3.36477013e-10, 0., 4.24442813e-02,
          1.22526074e-02, 1.46811018e+01, 7.23006546e-01, 1.37138855e+00,
          2.37531471e+00, 2.14000010e+00, 7.13333368e-01, 1., 1. ]
      - [ 8., 2.79071368e-02, 2.30503976e-02, 7.45141357e-02,
          4.96652769e-03, 8.89428047e-05, 0., 1.05544418e-01,
          7.33882887e-03, 4.22541656e+01, 2.09148359e+00, 3.25916553e+00,
          2.01686788e+00, 1.20009887e+00, 1.50012359e-01, 1., 1. ]
      - [ 10., 3.41757461e-02, 2.86556575e-02, 9.51423422e-02, .Inf,
          3.11913493e-04, 0., 1.37332320e-01, 6.42094389e-03,
          3.49873123e+01, 2.30222368e+00, 3.45043802e+00, 1.83146667e+00,
          1.18058181e+00, 1.18058182e-01, 1., 1. ]
      - [ 14., 3.86107340e-02, 3.21686678e-02, 1.16787083e-01, .Inf,
          3.98993143e-04, 0., 1.58791780e-01, 6.75322628e-03,
          2.86117401e+01, 2.54850674e+00, 3.56856751e+00, 1.52404273e+00,
          1.00165915e+00, 7.15470836e-02, 1., 1. ]
      - [ 14., 4.18635309e-02, 3.49269435e-02, 1.30415902e-01, .Inf,
          1.08446332e-03, 0., 2.01708660e-01, 7.43690040e-03,
          5.42878342e+01, 2.61932921e+00, 3.47096658e+00, 1.50893939e+00,
          1.03942811e+00, 7.42448643e-02, 1., 0. ]
      - [ 32., 1.21801302e-01, 1.09036781e-01, 3.26849043e-01, .Inf,
          2.28973869e-02, 0., 5.25568008e-01, 1.89594422e-02,
          5.56669388e+01, 2.95342422e+00, 3.10266018e+00, 1.08089495e+00,
          8.73724878e-01, 2.73039024e-02, 1., 1. ]
      - [ 11., 4.72205207e-02, 4.23496626e-02, 1.28329620e-01,
          2.55249143e-02, 1.84733048e-03, 0., 1.87068611e-01,
          8.35301820e-03, 4.33270187e+01, 2.51437259e+00, 2.84741282e+00,
          1.50263870e+00, 1.33000016e+00, 1.20909102e-01, 1., 1. ]
      - [ 7., 5.46672083e-02, 4.37081382e-02, 1.49282366e-01,
          1.45457182e-02, 3.69909481e-04, 0., 1.61225572e-01,
          1.04289083e-02, 9.70849228e+00, 2.09828568e+00, 2.59328532e+00,
          1.78660023e+00, 2.82999992e+00, 4.04285699e-01, 1., 1. ]
      - [ 5., 4.61799912e-02, 3.64739299e-02, 1.11067280e-01,
          7.00925617e-03, 8.60123473e-05, 0., 1.33286566e-01,
          1.72714796e-02, 7.38604832e+00, 1.62505960e+00, 2.45538759e+00,
          2.24872255e+00, 3.10699797e+00, 6.21399581e-01, 1., 1. ]
      - [ 5., 4.47731391e-02, 3.57334316e-02, 1.10230200e-01,
          1.14311157e-02, 2.31634149e-05, 0., 1.21145286e-01,
          1.37063535e-02, 6.46344090e+00, 1.69400537e+00, 2.31313848e+00,
          2.11368704e+00, 3.11999989e+00, 6.23999953e-01, 1., 0. ]
      - [ 3., 4.43131961e-02, 2.96784267e-02, 8.78915787e-02,
          1.96328829e-03, 8.94514324e-11, 0., 8.90352800e-02,
          2.65950933e-02, 2.42050648e+00, 9.38932657e-01, 1.15546238e+00,
          2.00131965e+00, 3.67000008e+00, 1.22333336e+00, 1., 1. ]
      - [ 4., 4.67616990e-02, 3.60864587e-02, 1.07219629e-01,
          4.06579440e-03, 5.16985779e-07, 0., 1.12246662e-01,
          1.94232427e-02, 4.80914879e+00, 1.39147401e+00, 1.84605408e+00,
          2.13170791e+00, 3.78858328e+00, 9.47145820e-01, 1., 1. ]
      - [ 5., 8.33552927e-02, 6.95458204e-02, 1.24481753e-01,
          7.70355389e-03, 8.30553938e-04, 0., 3.17662895e-01,
          5.38676493e-02, 7.32164192e+00, 1.38612008e+00, 3.18460131e+00,
          2.91097426e+00, 3.44270587e+00, 6.88541174e-01, 0., 0. ]
      - [ 8., 5.29978126e-02, 4.17762473e-02, 1.53158471e-01,
          1.40986163e-02, 5.45446928e-05, 0., 1.65840462e-01,
          1.22105945e-02, 1.38771877e+01, 2.21620655e+00, 2.80124068e+00,
          1.73159897e+00, 1.87156045e+00, 2.33945057e-01, 1., 0. ]
      - [ 8., 9.61388424e-02, 7.59939253e-02, 2.37564385e-01,
          6.31961375e-02, 1.70205359e-03, 0., 2.97936201e-01,
          2.72655524e-02, 1.20878201e+01, 2.15341425e+00, 3.13520026e+00,
          2.00675941e+00, 2.46489859e+00, 3.08112323e-01, 1., 1. ]
      - [ 4., 2.86970530e-02, 2.25990731e-02, 6.47840276e-02,
          1.83078973e-03, 2.78412681e-05, 0., 7.05328807e-02,
          1.17555391e-02, 9.09055424e+00, 1.35562456e+00, 1.89355183e+00,
          2.19387317e+00, 2.43716574e+00, 6.09291434e-01, 1., 1. ]
      - [ 8., 5.40507585e-02, 4.46510836e-02, 1.52714968e-01,
          1.44338282e-02, 5.14255022e-04, 0., 1.58637345e-01,
          8.08482990e-03, 7.14917374e+00, 2.30873251e+00, 2.50271511e+00,
          1.56230927e+00, 2.48497653e+00, 3.10622066e-01, 1., 0. ]
      - [ 4., 5.98109849e-02, 4.66529652e-02, 1.28485322e-01,
          6.73544453e-03, 5.85891212e-05, 0., 1.55996501e-01,
          2.92505622e-02, 7.70061111e+00, 1.20080674e+00, 2.14206195e+00,
          2.47638583e+00, 4.31141853e+00, 1.07785463e+00, 1., 0. ]
      - [ 4., 4.79329787e-02, 3.75730731e-02, 1.09439529e-01,
          4.40366566e-03, 8.49224216e-06, 0., 1.15282387e-01,
          1.93040837e-02, 5.02359724e+00, 1.37978160e+00, 1.85876274e+00,
          2.14731669e+00, 4.09496117e+00, 1.02374029e+00, 1., 0. ]
      - [ 10., 5.05422577e-02, 4.33743745e-02, 1.40257686e-01,
          4.62317772e+01, 4.06057574e-03, 0., 1.96519092e-01,
          8.81111715e-03, 2.42248402e+01, 2.36975479e+00, 2.87304330e+00,
          1.59954703e+00, 1.73498344e+00, 1.73498347e-01, 1., 1. ]
      - [ 4., 4.64562587e-02, 3.60326730e-02, 1.07380144e-01,
          4.07289201e-03, 1.91047748e-05, 0., 1.10618681e-01,
          1.86098311e-02, 3.38973689e+00, 1.44588900e+00, 1.76277924e+00,
          2.03783965e+00, 4.01996183e+00, 1.00499046e+00, 0., 0. ]
      - [ 4., 5.26066236e-02, 4.27656732e-02, 1.11579925e-01,
          6.22510258e-03, 1.56972834e-04, 0., 1.43801421e-01,
          2.45087966e-02, 7.30173922e+00, 1.19802535e+00, 2.15648150e+00,
          2.49766469e+00, 4.21217489e+00, 1.05304372e+00, 1., 0. ]
      - [ 8., 1.14685759e-01, 1.02197617e-01, 2.77843922e-01,
          6.49919361e-02, 3.54520208e-03, 0., 3.66786182e-01,
          3.59253399e-02, 8.44558144e+00, 2.29562283e+00, 2.89851046e+00,
          1.91200280e+00, 3.88158846e+00, 4.85198557e-01, 1., 0. ]
      - [ 5., 5.43599986e-02, 4.14605923e-02, 1.27660528e-01,
          1.02921976e-02, 1.94787892e-04, 0., 1.67193949e-01,
          2.39630546e-02, 1.03220444e+01, 1.55595851e+00, 2.56911087e+00,
          2.35048985e+00, 3.51999998e+00, 7.03999996e-01, 0., 0. ]
      - [ 3., 4.25670892e-02, 2.84297075e-02, 8.49493742e-02,
          2.01518834e-03, 3.87520085e-11, 0., 8.52891207e-02,
          2.48052534e-02, 1.39746225e+00, 9.87522662e-01, 1.10687244e+00,
          1.91715932e+00, 3.92999983e+00, 1.30999994e+00, 0., 1. ]
      - [ 5., 5.35797700e-02, 4.41066250e-02, 1.23254739e-01,
          7.54890312e-03, 5.19286375e-04, 0., 1.54804543e-01,
          1.89835168e-02, 1.15897579e+01, 1.66746366e+00, 2.37621570e+00,
          2.21891737e+00, 3.39802599e+00, 6.79605186e-01, 0., 0. ]
      - [ 8., 8.32420886e-02, 7.13308081e-02, 2.12270275e-01,
          3.49363647e-02, 2.47784983e-03, 0., 2.90622801e-01,
          2.24230494e-02, 1.01133480e+01, 2.27355647e+00, 2.80670595e+00,
          1.87028027e+00, 3.41549706e+00, 4.26937133e-01, 0., 1. ]
      - [ 6., 6.18565828e-02, 5.22805192e-02, 1.53215766e-01,
          1.76509041e-02, 8.02748400e-05, 0., 1.95109397e-01,
          1.86485779e-02, 7.36478710e+00, 1.82758164e+00, 2.86784840e+00,
          2.22325039e+00, 3.33496833e+00, 5.55828035e-01, 0., 0. ]
      - [ 14., 6.07036464e-02, 5.17733432e-02, 1.87021524e-01, .Inf,
          3.93651100e-03, 0., 2.10152715e-01, 4.58562793e-03,
          2.46187344e+01, 2.65681338e+00, 2.94812202e+00, 1.26689041e+00,
          1.63498449e+00, 1.16784610e-01, 1., 1. ]
      - [ 16., 6.02571517e-02, 5.06785847e-02, 1.88114494e-01, .Inf,
          5.30474447e-03, 0., 2.12114900e-01, 4.61586099e-03,
          2.12120056e+01, 2.79843378e+00, 2.68678880e+00, 1.08942306e+00,
          1.42998636e+00, 8.93741474e-02, 1., 1. ]
      - [ 10., 4.63290438e-02, 3.90889868e-02, 1.34194657e-01, .Inf,
          6.28553971e-04, 0., 1.73991442e-01, 7.31555466e-03,
          2.30590076e+01, 2.33260679e+00, 3.16998672e+00, 1.68694735e+00,
          1.66459680e+00, 1.66459680e-01, 1., 1. ]
      - [ 22., 1.01252921e-01, 9.06003639e-02, 2.85457104e-01,
          1.19499559e+01, 6.80284062e-03, 0., 3.79879594e-01,
          1.68685727e-02, 4.79236794e+01, 2.81587911e+00, 3.39285111e+00,
          1.15863192e+00, 1.09708989e+00, 4.98677231e-02, 1., 1. ]
      - [ 13., 6.20543472e-02, 5.26713058e-02, 1.88192561e-01,
          8.73689279e-02, 6.73061179e-04, 0., 2.05210358e-01,
          4.96313721e-03, 1.52261505e+01, 2.57725930e+00, 2.98756289e+00,
          1.34090734e+00, 1.75807846e+00, 1.35236800e-01, 1., 1. ]
      - [ 53., 1.20324813e-01, 1.08458489e-01, 3.61011863e-01,
          1.72738171e+00, 6.80157617e-02, 0., 5.82507432e-01,
          1.30718211e-02, 8.99961929e+01, 3.03415656e+00, 2.94897699e+00,
          6.56361222e-01, 5.60105324e-01, 1.05680246e-02, 0., 1. ]
      - [ 12., 6.80655465e-02, 5.65344580e-02, 2.08070472e-01,
          4.39109020e-02, 1.31098402e-03, 0., 2.37326086e-01,
          7.63832685e-03, 1.78409863e+01, 2.49828100e+00, 3.09776568e+00,
          1.46128178e+00, 2.08340764e+00, 1.73617303e-01, 0., 1. ]
      - [ 24., 3.72229442e-02, 3.16841267e-02, 1.22976132e-01, .Inf,
          5.66095067e-03, 0., 1.63609862e-01, 3.40655190e-03,
          5.39537773e+01, 2.84053659e+00, 3.25511050e+00, 1.07776558e+00,
          5.57533085e-01, 2.32305452e-02, 1., 0. ]
      - [ 38., 4.23596539e-02, 3.66479270e-02, 1.40994594e-01, .Inf,
          5.62462304e-03, 0., 3.80807430e-01, 5.69290249e-03,
          1.00332764e+02, 2.98451304e+00, 3.36948919e+00, 8.76766920e-01,
          4.17979449e-01, 1.09994588e-02, 1., 1. ]
      - [ 24., 3.67321074e-02, 3.16311978e-02, 1.18601389e-01, .Inf,
          1.95900979e-03, 0., 2.23623514e-01, 5.78365847e-03,
          6.06000061e+01, 2.78573799e+00, 3.33034348e+00, 1.08717000e+00,
          5.71575284e-01, 2.38156375e-02, 1., 1. ]
      - [ 25., 4.38740253e-02, 3.72414961e-02, 1.42251670e-01,
          1.07438068e+01, 2.61071906e-03, 0., 2.25829065e-01,
          5.91679709e-03, 6.75921478e+01, 2.84727526e+00, 3.69219279e+00,
          1.15957832e+00, 6.45876884e-01, 2.58350745e-02, 1., 1. ]
      - [ 5., 2.85161361e-02, 2.16429140e-02, 7.21379742e-02,
          1.94205495e-03, 7.10237587e-13, 0., 7.21438453e-02,
          8.06633849e-03, 3.80092263e-01, 1.89180315e+00, 1.87125993e+00,
          1.70821893e+00, 1.72000003e+00, 3.44000012e-01, 0., 1. ]
      - [ 16., 5.61529957e-02, 4.76880409e-02, 1.85488820e-01, .Inf,
          1.51911413e-03, 0., 2.45150328e-01, 8.33558198e-03,
          4.09090652e+01, 2.72212553e+00, 3.18657947e+00, 1.30131590e+00,
          1.24254012e+00, 7.76587576e-02, 1., 1. ]
      - [ 12., 5.12607470e-02, 4.43749018e-02, 1.30123883e-01, .Inf,
          2.57949741e-03, 0., 2.32964784e-01, 1.31474677e-02,
          3.46373596e+01, 2.50704217e+00, 3.58292460e+00, 1.73826110e+00,
          1.30630589e+00, 1.08858824e-01, 1., 1. ]
      - [ 24., 1.16075195e-01, 1.06385387e-01, 3.30085754e-01, .Inf,
          2.96200421e-02, 0., 5.06836176e-01, 2.67307311e-02,
          3.13535957e+01, 2.88833880e+00, 2.96579862e+00, 1.09931839e+00,
          1.35498714e+00, 5.64577989e-02, 1., 0. ]
      - [ 10., 5.26922829e-02, 4.49321270e-02, 1.38946906e-01, .Inf,
          1.22786872e-03, 0., 2.22095400e-01, 1.05915917e-02,
          2.43126640e+01, 2.30778098e+00, 3.48667717e+00, 1.86952710e+00,
          1.72449601e+00, 1.72449604e-01, 0., 1. ]
      - [ 9., 3.64236087e-02, 2.92972121e-02, 1.07230052e-01,
          9.15253535e-03, 2.82059482e-04, 0., 1.21830337e-01,
          8.31250753e-03, 5.60339785e+00, 2.32074928e+00, 2.89886212e+00,
          1.66433835e+00, 1.45983326e+00, 1.62203699e-01, 1., 1. ]
      - [ 14., 4.98572439e-02, 4.20311205e-02, 1.49434611e-01, .Inf,
          6.10175659e-04, 0., 2.06204385e-01, 7.41958013e-03,
          3.59502068e+01, 2.62349868e+00, 3.16656661e+00, 1.39867270e+00,
          1.24891579e+00, 8.92082676e-02, 0., 1. ]
      - [ 6., 6.45830855e-02, 4.88375835e-02, 1.71533599e-01,
          1.93970185e-02, 1.06111074e-05, 0., 1.91321447e-01,
          2.76904050e-02, 5.89845848e+00, 1.88831711e+00, 2.64376521e+00,
          2.04822493e+00, 2.76497388e+00, 4.60828990e-01, 0., 0. ]
      - [ 5., 3.22915502e-02, 2.79959440e-02, 7.36489296e-02,
          3.75641626e-03, 2.04673866e-04, 0., 1.01432636e-01,
          1.30617069e-02, 1.94693928e+01, 1.72438431e+00, 2.38489962e+00,
          2.23964095e+00, 2.09314132e+00, 4.18628275e-01, 1., 1. ]
      - [ 11., 6.32169023e-02, 5.30450605e-02, 1.89468652e-01,
          2.60384846e+00, 1.91324958e-04, 0., 2.03039944e-01,
          6.65131025e-03, 1.16086426e+01, 2.48633981e+00, 2.93851686e+00,
          1.46146035e+00, 2.08084226e+00, 1.89167485e-01, 0., 1. ]
      - [ 17., 1.29189640e-01, 1.20752402e-01, 3.39505076e-01,
          1.22431159e+00, 1.14635536e-02, 0., 4.52336520e-01,
          2.81935036e-02, 1.78830261e+01, 2.71600342e+00, 2.91851997e+00,
          1.31779897e+00, 1.96438479e+00, 1.15552045e-01, 1., 1. ]
      - [ 8., 4.30334136e-02, 3.52553539e-02, 1.21543311e-01,
          8.40202346e-03, 1.37800141e-03, 0., 1.32342443e-01,
          6.81130076e-03, 2.01468697e+01, 2.36246848e+00, 2.28436637e+00,
          1.45452046e+00, 1.98998106e+00, 2.48747632e-01, 1., 1. ]
      - [ 16., 9.68523696e-02, 8.68130103e-02, 2.68376201e-01, .Inf,
          1.43470801e-02, 0., 4.17853504e-01, 2.18510665e-02,
          2.18031120e+01, 2.65848804e+00, 3.10638452e+00, 1.39696050e+00,
          1.96043217e+00, 1.22527011e-01, 1., 1. ]
      - [ 12., 1.19081892e-01, 1.08416349e-01, 3.00854474e-01, .Inf,
          8.85037985e-03, 0., 5.03567457e-01, 3.46300192e-02,
          1.85693588e+01, 2.49721003e+00, 2.43235898e+00, 1.31957519e+00,
          2.32583094e+00, 1.93819240e-01, 1., 1. ]
      - [ 6., 7.88497180e-02, 5.53203970e-02, 1.99970603e-01,
          1.42483031e-02, 2.24807533e-04, 0., 2.34801352e-01,
          4.29584533e-02, 1.01472979e+01, 1.79136264e+00, 2.88077259e+00,
          2.24391675e+00, 2.34111977e+00, 3.90186638e-01, 1., 0. ]
      - [ 6., 6.04066104e-02, 4.98827659e-02, 1.38225704e-01,
          1.09077562e-02, 1.09548052e-03, 0., 1.92326322e-01,
          1.93141047e-02, 1.14766407e+01, 1.74311709e+00, 2.99888062e+00,
          2.36217570e+00, 2.34880400e+00, 3.91467333e-01, 1., 0. ]
      - [ 7., 5.07552810e-02, 4.60628979e-02, 1.29942849e-01,
          1.26132863e-02, 3.28158552e-04, 0., 1.71136439e-01,
          1.23627912e-02, 1.27327423e+01, 2.00411177e+00, 3.04009891e+00,
          2.08440781e+00, 2.36450171e+00, 3.37785959e-01, 1., 0. ]
      - [ 10., 7.40646198e-02, 5.98925836e-02, 2.19136000e-01,
          4.83819470e-02, 2.24631443e-03, 0., 3.02498043e-01,
          2.98369583e-02, 1.91148205e+01, 2.33996844e+00, 3.28258944e+00,
          1.75396991e+00, 2.48997641e+00, 2.48997644e-01, 1., 0. ]
      - [ 10., 3.70669551e-02, 3.08521688e-02, 1.11292534e-01, .Inf,
          2.11055228e-03, 0., 1.29496992e-01, 5.77430241e-03,
          2.07475853e+01, 2.55430174e+00, 2.47068977e+00, 1.38947678e+00,
          1.35998714e+00, 1.35998711e-01, 1., 1. ]
      - [ 14., 5.93054742e-02, 5.07682897e-02, 1.59869969e-01, .Inf,
          7.30114814e-04, 0., 2.96109587e-01, 1.65800359e-02,
          4.26069717e+01, 2.60011315e+00, 3.87849045e+00, 1.70329261e+00,
          1.31944847e+00, 9.42463204e-02, 0., 1. ]
      - [ 14., 4.28290144e-02, 3.67470160e-02, 1.24414615e-01, .Inf,
          7.43448327e-04, 0., 1.92186907e-01, 7.47103663e-03,
          3.68365707e+01, 2.55058265e+00, 3.60608268e+00, 1.55751383e+00,
          1.03453839e+00, 7.38955960e-02, 1., 1. ]
      - [ 14., 4.07705009e-02, 3.74340750e-02, 1.14389099e-01, .Inf,
          9.21559054e-04, 0., 1.69797152e-01, 7.79836206e-03,
          3.92465858e+01, 2.63950086e+00, 3.35726881e+00, 1.50682628e+00,
          9.89161670e-01, 7.06544071e-02, 1., 1. ]
      - [ 14., 3.99845205e-02, 3.39067020e-02, 1.13303736e-01, .Inf,
          6.92642236e-04, 0., 2.22966149e-01, 9.41464771e-03,
          5.06047249e+01, 2.52212095e+00, 3.91948628e+00, 1.66699541e+00,
          9.53857601e-01, 6.81326836e-02, 1., 1. ]
      - [ 14., 3.11099365e-02, 2.63905041e-02, 9.53703523e-02, .Inf,
          8.42147449e-04, 0., 1.57659680e-01, 6.28804835e-03,
          6.77588348e+01, 2.54272437e+00, 3.32515073e+00, 1.44566965e+00,
          7.82001674e-01, 5.58572635e-02, 1., 1. ]
      - [ 11., 3.20743620e-02, 2.69143283e-02, 9.51798335e-02,
          1.28294276e-02, 1.88094703e-03, 0., 1.33126885e-01,
          4.21805773e-03, 4.49828415e+01, 2.50365353e+00, 2.76318574e+00,
          1.42620516e+00, 1.08000004e+00, 9.81818214e-02, 1., 1. ]
      - [ 14., 6.75585717e-02, 5.54182716e-02, 2.22603664e-01, .Inf,
          8.66938324e-04, 0., 2.83448368e-01, 2.10239049e-02,
          2.98482170e+01, 2.59916878e+00, 3.35377479e+00, 1.42873597e+00,
          1.53998530e+00, 1.09998949e-01, 0., 1. ]
      - [ 3., 2.58571599e-02, 1.90321412e-02, 4.87700626e-02,
          8.78578459e-04, 1.12715126e-09, 0., 5.69024980e-02,
          1.66394040e-02, 1.21053076e+01, 6.84628010e-01, 1.40976715e+00,
          2.44178843e+00, 2.72151351e+00, 9.07171190e-01, 1., 1. ]
      - [ 8., 6.37594014e-02, 5.19760139e-02, 1.81476995e-01,
          2.17276867e-02, 5.33189392e-04, 0., 2.17039794e-01,
          1.39755169e-02, 1.05160398e+01, 2.22036529e+00, 3.00084066e+00,
          1.87012482e+00, 2.55819988e+00, 3.19774985e-01, 1., 0. ]
      - [ 16., 1.00547217e-01, 8.91547501e-02, 2.91026950e-01, .Inf,
          3.30199138e-03, 0., 3.77193123e-01, 1.21963723e-02,
          1.82330303e+01, 2.72447610e+00, 2.35616684e+00, 1.05890143e+00,
          2.12273479e+00, 1.32670924e-01, 1., 1. ]
      - [ 6., 5.83574437e-02, 4.60819751e-02, 1.04455642e-01,
          1.62412170e-02, 7.03344995e-04, 0., 2.54845917e-01,
          5.00458069e-02, 1.00444431e+01, 2.34134197e+00, 9.47383881e-01,
          9.06963050e-01, 2.01579404e+00, 3.35965663e-01, 1., 1. ]
      - [ 14., 4.75182943e-02, 4.05265279e-02, 1.43999815e-01, .Inf,
          5.06444555e-03, 0., 1.90431491e-01, 5.52534265e-03,
          4.78779144e+01, 2.75256872e+00, 2.73214746e+00, 1.22722602e+00,
          1.26696634e+00, 9.04975981e-02, 1., 1. ]
      - [ 24., 4.59838323e-02, 4.16577198e-02, 1.27840683e-01, .Inf,
          2.42027896e-03, 0., 2.48421118e-01, 5.34207840e-03,
          6.85975113e+01, 2.84222937e+00, 4.05057096e+00, 1.32383108e+00,
          5.78477859e-01, 2.41032448e-02, 1., 1. ]
      - [ 49., 1.03743233e-01, 9.59884003e-02, 3.17132264e-01,
          4.92938727e-01, 4.77070436e-02, 0., 5.56778371e-01,
          8.97459872e-03, 7.15368652e+01, 2.97362041e+00, 3.44662476e+00,
          8.99967074e-01, 6.01541638e-01, 1.22763598e-02, 1., 1. ]
      - [ 24., 4.88834642e-02, 4.45736460e-02, 1.25885740e-01, .Inf,
          3.06742033e-03, 0., 2.38696918e-01, 6.13063620e-03,
          8.08167877e+01, 2.88779306e+00, 3.89404106e+00, 1.37824833e+00,
          5.68386793e-01, 2.36827824e-02, 1., 1. ]
      - [ 24., 4.35028039e-02, 3.94081175e-02, 1.24059357e-01, .Inf,
          2.03393376e-03, 0., 2.54587442e-01, 6.04398362e-03,
          6.62298050e+01, 2.79500937e+00, 4.12220240e+00, 1.30609167e+00,
          5.41810691e-01, 2.25754455e-02, 1., 1. ]
      - [ 68., 1.22735538e-01, 1.02665052e-01, 3.72115552e-01,
          9.56607401e-01, 2.81648003e-02, 0., 7.47928083e-01,
          2.09474359e-02, 7.67836609e+01, 3.05604053e+00, 3.32011962e+00,
          7.93360353e-01, 4.13956732e-01, 6.08759886e-03, 1., 1. ]
      - [ 50., 1.06137693e-01, 9.66492072e-02, 3.20573092e-01,
          5.47241032e-01, 2.90221348e-02, 0., 5.54784477e-01,
          1.28185404e-02, 7.78614883e+01, 3.02692437e+00, 3.46709442e+00,
          7.93769062e-01, 5.04378915e-01, 1.00875786e-02, 1., 1. ]
      - [ 16., 4.26642373e-02, 3.64076868e-02, 1.19308762e-01, .Inf,
          6.23853586e-04, 0., 1.79044411e-01, 5.81483776e-03,
          4.79804268e+01, 2.64214754e+00, 3.60215378e+00, 1.48634732e+00,
          8.30703318e-01, 5.19189574e-02, 1., 1. ]
      - [ 9., 4.90362085e-02, 3.69019434e-02, 1.44739807e-01,
          1.89488735e-02, 6.10439689e-04, 0., 2.14269638e-01,
          2.95559969e-02, 4.21776047e+01, 2.21568251e+00, 3.35340977e+00,
          1.91696501e+00, 1.45931482e+00, 1.62146091e-01, 0., 1. ]
      - [ 4., 2.75233258e-02, 2.14664582e-02, 6.09077699e-02,
          1.79693825e-03, 1.48084837e-06, 0., 7.04767928e-02,
          1.22624021e-02, 1.32011023e+01, 1.26250350e+00, 2.05431509e+00,
          2.37248898e+00, 2.28395414e+00, 5.70988536e-01, 1., 1. ]
      - [ 6., 5.61269075e-02, 4.73704152e-02, 1.35427549e-01,
          1.44624794e-02, 3.32371827e-04, 0., 1.82734162e-01,
          1.64257437e-02, 7.46253729e+00, 1.85237062e+00, 2.86522293e+00,
          2.22815728e+00, 3.03864002e+00, 5.06439984e-01, 1., 0. ]
      - [ 11., 1.23026244e-01, 1.17483519e-01, 3.09437484e-01,
          4.29696417e+00, 1.43068815e-02, 0., 4.71157998e-01,
          3.91119793e-02, 9.16455173e+00, 2.51033306e+00, 2.43723154e+00,
          1.41075408e+00, 3.04566646e+00, 2.76878774e-01, 1., 0. ]
      - [ 6., 5.57621308e-02, 4.48624007e-02, 1.37579143e-01,
          1.34429969e-02, 5.07687218e-05, 0., 1.79810211e-01,
          1.78695042e-02, 8.73052120e+00, 1.77607679e+00, 2.91691041e+00,
          2.26078916e+00, 3.10716414e+00, 5.17860711e-01, 0., 0. ]
      - [ 9., 1.02528870e-01, 8.81284177e-02, 2.75826603e-01,
          3.77536507e+01, 1.50025412e-02, 0., 3.99088204e-01,
          2.55927481e-02, 1.17911777e+01, 2.31009364e+00, 2.98768091e+00,
          1.76699495e+00, 3.88131285e+00, 4.31256980e-01, 0., 0. ]
      - [ 5., 5.80284521e-02, 4.68458012e-02, 1.40587896e-01,
          1.08974194e-02, 3.55685479e-04, 0., 1.56446666e-01,
          1.79497208e-02, 8.43464661e+00, 1.72761869e+00, 2.22387743e+00,
          2.05523252e+00, 3.92127728e+00, 7.84255445e-01, 0., 1. ]
      - [ 5., 5.87380417e-02, 4.82734479e-02, 1.39802977e-01,
          1.04607912e-02, 1.86949022e-04, 0., 1.67744428e-01,
          1.92120392e-02, 7.61560774e+00, 1.64330673e+00, 2.44338560e+00,
          2.23983049e+00, 3.96172071e+00, 7.92344153e-01, 0., 0. ]
      - [ 6., 6.76327497e-02, 5.15500642e-02, 1.71365753e-01,
          1.57338157e-02, 1.05847954e-04, 0., 2.15458274e-01,
          3.10859531e-02, 7.37417364e+00, 1.78314829e+00, 2.88010335e+00,
          2.23514390e+00, 3.13804460e+00, 5.23007452e-01, 0., 0. ]
      - [ 4., 5.74292019e-02, 4.52818647e-02, 1.26206815e-01,
          6.86056912e-03, 1.18552918e-04, 0., 1.48132697e-01,
          2.48133466e-02, 6.11364365e+00, 1.26166868e+00, 2.04357481e+00,
          2.36608720e+00, 4.73758364e+00, 1.18439591e+00, 0., 0. ]
      - [ 6., 9.43860933e-02, 7.16507956e-02, 2.69291639e-01,
          2.85467803e-02, 6.58810278e-03, 0., 3.10140252e-01,
          3.89968455e-02, 7.07425642e+00, 2.14057136e+00, 1.96254981e+00,
          1.55984664e+00, 4.38495827e+00, 7.30826378e-01, 0., 0. ]
      - [ 4., 4.89538312e-02, 3.80918905e-02, 1.13405146e-01,
          4.07092506e-03, 9.86906583e-04, 0., 1.14271507e-01,
          1.90552231e-02, 3.37835264e+00, 1.57515609e+00, 1.56425619e+00,
          1.80946040e+00, 4.31495857e+00, 1.07873964e+00, 0., 1. ]
      - [ 4., 4.56889197e-02, 3.57008167e-02, 1.03930935e-01,
          4.11262270e-03, 5.13610212e-05, 0., 1.11877456e-01,
          1.87391229e-02, 5.18528318e+00, 1.37366414e+00, 1.87204146e+00,
          2.16725016e+00, 3.95816374e+00, 9.89540935e-01, 0., 1. ]
      - [ 9., 1.30310848e-01, 1.08640999e-01, 3.01940143e-01,
          5.54077263e+01, 6.68240432e-03, 0., 4.10288364e-01,
          3.23844105e-02, 1.23205185e+01, 2.28247285e+00, 3.17651010e+00,
          1.98122287e+00, 2.69000006e+00, 2.98888892e-01, 1., 0. ]
      - [ 5., 5.63036725e-02, 4.49468456e-02, 1.30543232e-01,
          1.03712790e-02, 1.85351091e-04, 0., 1.71426922e-01,
          2.18818597e-02, 7.31080151e+00, 1.54201686e+00, 2.59817314e+00,
          2.37740660e+00, 3.71122932e+00, 7.42245853e-01, 0., 0. ]
      - [ 6., 7.11672306e-02, 5.66308163e-02, 1.80157036e-01,
          2.02280674e-02, 1.01269419e-04, 0., 2.27479368e-01,
          3.11930086e-02, 5.28463602e+00, 1.84511673e+00, 2.83481026e+00,
          2.19964886e+00, 3.63996553e+00, 6.06660903e-01, 0., 0. ]
      - [ 5., 6.00971133e-02, 4.70152423e-02, 1.45819575e-01,
          9.40024480e-03, 7.46660662e-05, 0., 1.61372930e-01,
          1.95969455e-02, 6.40392494e+00, 1.65008986e+00, 2.35887766e+00,
          2.15832019e+00, 3.63000011e+00, 7.26000011e-01, 0., 0. ]
      - [ 6., 6.68194517e-02, 5.59995361e-02, 1.66701868e-01,
          1.54605955e-02, 4.17180039e-04, 0., 1.94464773e-01,
          1.89496335e-02, 9.12519550e+00, 1.95543289e+00, 2.55842400e+00,
          2.01739144e+00, 3.60496545e+00, 6.00827575e-01, 0., 0. ]
      - [ 5., 4.95407097e-02, 3.91804539e-02, 1.20005354e-01,
          1.78900063e-02, 9.45640204e-05, 0., 1.41145706e-01,
          1.78542566e-02, 6.65861559e+00, 1.63764429e+00, 2.42161489e+00,
          2.21782017e+00, 3.36851811e+00, 6.73703611e-01, 0., 0. ]
      - [ 3., 5.50445989e-02, 3.65973823e-02, 1.02450289e-01,
          2.47353199e-03, 2.63791593e-11, 0., 1.09792143e-01,
          4.28093597e-02, 4.98094511e+00, 7.56617725e-01, 1.33777750e+00,
          2.31709838e+00, 2.76999998e+00, 9.23333347e-01, 1., 0. ]
      - [ 6., 6.82759136e-02, 5.76596856e-02, 1.65869594e-01,
          1.60348322e-02, 6.30498456e-04, 0., 2.04056144e-01,
          1.94547679e-02, 9.97187328e+00, 1.92204368e+00, 2.63701653e+00,
          2.09317636e+00, 3.58143091e+00, 5.96905172e-01, 0., 0. ]
      - [ 14., 1.29836738e-01, 1.16883770e-01, 3.42495143e-01, .Inf,
          2.52523050e-02, 0., 6.38429940e-01, 3.99521925e-02,
          1.18353767e+01, 2.58670235e+00, 2.60380793e+00, 1.33074105e+00,
          2.54859567e+00, 1.82042554e-01, 1., 0. ]
      - [ 5., 5.34627326e-02, 4.35289368e-02, 1.31192744e-01,
          9.14986525e-03, 1.44390899e-04, 0., 1.47040725e-01,
          1.74637530e-02, 7.77699661e+00, 1.73447895e+00, 2.27634096e+00,
          2.08495831e+00, 3.45920014e+00, 6.91840053e-01, 0., 0. ]
      - [ 15., 1.29218265e-01, 1.18391022e-01, 3.52201223e-01,
          2.17909798e-01, 2.84647159e-02, 0., 5.60688019e-01,
          2.96194926e-02, 1.26180859e+01, 2.58778334e+00, 3.03708935e+00,
          1.41328847e+00, 2.40000010e+00, 1.60000011e-01, 0., 0. ]
      - [ 5., 4.11313623e-02, 3.14844772e-02, 1.03627317e-01,
          4.04413603e-03, 1.07385902e-04, 0., 1.04976103e-01,
          1.17650991e-02, 5.57337952e+00, 1.89019060e+00, 1.91278625e+00,
          1.75023818e+00, 2.95000005e+00, 5.90000033e-01, 1., 0. ]
      - [ 4., 3.69498692e-02, 2.84642037e-02, 8.60423222e-02,
          2.35072500e-03, 6.74788433e-04, 0., 9.88402739e-02,
          1.72028206e-02, 1.70574894e+01, 1.52548003e+00, 1.65857697e+00,
          1.95541883e+00, 2.90863419e+00, 7.27158546e-01, 0., 1. ]
      - [ 10., 1.08350828e-01, 9.69654843e-02, 2.58240849e-01, .Inf,
          7.19806040e-03, 0., 3.70496303e-01, 3.20679657e-02,
          2.11065216e+01, 2.56691599e+00, 2.62095881e+00, 1.59089375e+00,
          2.32623768e+00, 2.32623771e-01, 1., 1. ]
      - [ 24., 1.06108412e-01, 9.99234021e-02, 2.95348704e-01, .Inf,
          2.00513005e-02, 0., 4.10312355e-01, 2.17014123e-02,
          5.49472847e+01, 2.80812025e+00, 3.47292805e+00, 1.15155005e+00,
          9.51726317e-01, 3.96552645e-02, 1., 1. ]
      - [ 19., 4.19428572e-02, 3.47729549e-02, 1.18982494e-01,
          2.82366890e-02, 2.33112296e-04, 0., 1.95434645e-01,
          1.05906567e-02, 5.70071602e+01, 2.71009135e+00, 3.89526963e+00,
          1.45299792e+00, 6.40809238e-01, 3.37268002e-02, 1., 1. ]
      - [ 47., 5.45643382e-02, 4.72755134e-02, 1.88033134e-01,
          1.29761577e-01, 2.08651703e-02, 0., 4.13425565e-01,
          6.17182115e-03, 9.35782242e+01, 2.98701549e+00, 3.32021403e+00,
          7.59320319e-01, 4.37082440e-01, 9.29962657e-03, 1., 1. ]
      - [ 16., 4.17985693e-02, 3.58371884e-02, 1.20438881e-01, .Inf,
          4.39879863e-04, 0., 2.05256596e-01, 6.07784558e-03,
          4.89608574e+01, 2.68459702e+00, 3.76239634e+00, 1.50782466e+00,
          8.72139335e-01, 5.45087084e-02, 1., 1. ]
      - [ 22., 1.07781008e-01, 9.99298841e-02, 3.04300964e-01,
          7.64230490e+00, 4.85385302e-03, 0., 3.63072038e-01,
          1.84337180e-02, 3.80176048e+01, 2.83254194e+00, 2.88448501e+00,
          1.00208092e+00, 1.19104099e+00, 5.41382283e-02, 1., 1. ]
      - [ 12., 1.02719970e-01, 9.12322477e-02, 2.79060841e-01, .Inf,
          1.20987184e-02, 0., 3.32193941e-01, 1.94418002e-02,
          2.06008968e+01, 2.56067085e+00, 2.80754948e+00, 1.35721385e+00,
          2.16433668e+00, 1.80361390e-01, 1., 1. ]
      - [ 5., 5.67427836e-02, 4.20514084e-02, 1.36683747e-01,
          1.21193603e-02, 1.70372241e-05, 0., 1.59517914e-01,
          3.09431106e-02, 7.20106983e+00, 1.63291609e+00, 2.49430728e+00,
          2.27788234e+00, 2.62916803e+00, 5.25833607e-01, 1., 1. ]
      - [ 24., 1.08298838e-01, 1.00849234e-01, 3.02131534e-01, .Inf,
          2.26907595e-03, 0., 4.09969181e-01, 1.42334122e-02,
          2.90086040e+01, 2.81161308e+00, 2.44190812e+00, 9.10464048e-01,
          1.20145655e+00, 5.00606894e-02, 1., 1. ]
      - [ 16., 4.84675877e-02, 4.59979549e-02, 1.20032445e-01, .Inf,
          2.95995036e-03, 0., 2.19706357e-01, 7.55786849e-03,
          3.92675514e+01, 2.68351483e+00, 3.71432090e+00, 1.58959103e+00,
          8.91219437e-01, 5.57012148e-02, 1., 1. ]
      - [ 4., 3.04759331e-02, 2.39672605e-02, 6.98986575e-02,
          1.83208252e-03, 1.08780689e-04, 0., 7.39307478e-02,
          1.23583339e-02, 1.19583206e+01, 1.47363687e+00, 1.71871519e+00,
          2.00056648e+00, 2.66497469e+00, 6.66243672e-01, 0., 1. ]
      - [ 5., 4.48772907e-02, 3.57505120e-02, 1.09765112e-01,
          6.59362273e-03, 3.90623718e-05, 0., 1.20413259e-01,
          1.38048297e-02, 6.94146919e+00, 1.68781590e+00, 2.31283641e+00,
          2.11519861e+00, 3., 6.00000024e-01, 1., 1. ]
      - [ 16., 3.85822579e-02, 3.25773545e-02, 1.16808079e-01, .Inf,
          9.17977944e-04, 0., 1.82770833e-01, 5.91431372e-03,
          5.80903053e+01, 2.61982346e+00, 3.55690193e+00, 1.42886329e+00,
          7.83799708e-01, 4.89874817e-02, 1., 1. ]
      - [ 14., 4.47295681e-02, 3.77323329e-02, 1.37659952e-01, .Inf,
          3.30893719e-03, 0., 1.78356931e-01, 5.57212019e-03,
          4.05585556e+01, 2.62228394e+00, 2.87220311e+00, 1.25107789e+00,
          1.17911279e+00, 8.42223391e-02, 1., 1. ]
      - [ 6., 5.58606796e-02, 4.49952222e-02, 1.41040474e-01,
          1.26789883e-02, 7.42357632e-04, 0., 1.87541857e-01,
          2.42129155e-02, 6.42776775e+00, 1.89960670e+00, 2.68828011e+00,
          2.11521840e+00, 3.06497073e+00, 5.10828435e-01, 0., 1. ]
      - [ 6., 5.55701777e-02, 4.49414551e-02, 1.45412907e-01,
          1.23130903e-02, 1.86895613e-05, 0., 1.58459485e-01,
          1.32609876e-02, 6.25656080e+00, 1.89858115e+00, 2.56665993e+00,
          1.98928154e+00, 3.29996848e+00, 5.49994767e-01, 0., 0. ]
      - [ 16., 3.53486612e-02, 3.00430376e-02, 1.09002329e-01, .Inf,
          1.17047946e-03, 0., 1.37486503e-01, 4.64968057e-03,
          4.60396194e+01, 2.69470882e+00, 3.33405948e+00, 1.33597362e+00,
          7.24707723e-01, 4.52942327e-02, 1., 1. ]
      - [ 5., 4.67642173e-02, 3.67565379e-02, 1.16908684e-01,
          6.12416305e-03, 6.48651403e-05, 0., 1.24493852e-01,
          1.41193932e-02, 8.20647144e+00, 1.76878726e+00, 2.17207980e+00,
          1.98970282e+00, 3.28000021e+00, 6.56000018e-01, 1., 1. ]
      - [ 27., 3.69802155e-02, 3.21726613e-02, 1.24482840e-01,
          3.30214426e-02, 1.00687053e-03, 0., 2.30063990e-01,
          4.33377456e-03, 9.81089935e+01, 2.87425518e+00, 3.42245889e+00,
          1.02332902e+00, 4.97408479e-01, 1.84225366e-02, 1., 0. ]
      - [ 6., 5.70516512e-02, 4.91047055e-02, 1.44977823e-01,
          1.32029848e-02, 2.70929420e-04, 0., 1.72421694e-01,
          1.46571305e-02, 8.66605568e+00, 1.94365418e+00, 2.62351632e+00,
          2.04362535e+00, 3.27496862e+00, 5.45828104e-01, 0., 0. ]
      - [ 8., 9.94194970e-02, 7.81205073e-02, 2.73614585e-01,
          2.98692826e-02, 2.21932842e-03, 0., 3.47840071e-01,
          3.68481576e-02, 9.60856819e+00, 2.46363640e+00, 1.77212346e+00,
          1.13183379e+00, 3.29229355e+00, 4.11536694e-01, 0., 1. ]
      - [ 7., 6.83374628e-02, 5.37084974e-02, 1.92758814e-01,
          1.31770317e-02, 2.04842817e-03, 0., 2.20358506e-01,
          1.93090439e-02, 6.80015850e+00, 2.36339664e+00, 1.95300269e+00,
          1.36667442e+00, 3.35999966e+00, 4.79999959e-01, 0., 1. ]
      - [ 28., 5.01605719e-02, 4.22197618e-02, 1.51902273e-01,
          6.75488710e-02, 1.09991489e-03, 0., 2.67936051e-01,
          5.33939060e-03, 7.68762436e+01, 2.88525701e+00, 3.85749245e+00,
          1.18885362e+00, 5.60835361e-01, 2.00298335e-02, 1., 1. ]
      - [ 14., 3.30332033e-02, 2.83814482e-02, 1.01076230e-01, .Inf,
          6.34105818e-04, 0., 1.39953226e-01, 3.56863486e-03,
          5.58186264e+01, 2.57316828e+00, 3.32188272e+00, 1.42869139e+00,
          8.68905663e-01, 6.20646887e-02, 1., 1. ]
      - [ 28., 4.44797315e-02, 3.90359536e-02, 1.43743590e-01,
          5.07307127e-02, 1.06938463e-03, 0., 2.75448918e-01,
          4.01941966e-03, 1.04409668e+02, 2.84746647e+00, 3.82668161e+00,
          1.09831524e+00, 5.77108145e-01, 2.06110049e-02, 1., 1. ]
      - [ 14., 3.39309350e-02, 2.91587412e-02, 1.03143342e-01, .Inf,
          2.00521573e-03, 0., 1.70479715e-01, 5.60699683e-03,
          5.40157318e+01, 2.53234673e+00, 3.38230062e+00, 1.47223175e+00,
          8.92786086e-01, 6.37704358e-02, 1., 1. ]
      - [ 37., 1.09670565e-01, 1.01922259e-01, 3.03354174e-01,
          4.29321796e-01, 3.01996768e-02, 0., 5.13598382e-01,
          1.53088057e-02, 5.03194008e+01, 2.95726776e+00, 3.37526894e+00,
          1.09821153e+00, 7.86571681e-01, 2.12586932e-02, 1., 1. ]
      - [ 14., 4.19391841e-02, 3.65015864e-02, 1.30643889e-01, .Inf,
          5.84542169e-04, 0., 1.93254039e-01, 6.09082170e-03,
          5.36590805e+01, 2.61932898e+00, 3.34916043e+00, 1.45337105e+00,
          1.03591633e+00, 7.39940256e-02, 1., 0. ]
      - [ 16., 4.31125350e-02, 3.75163555e-02, 1.28364265e-01, .Inf,
          5.23037743e-04, 0., 1.88060224e-01, 5.24381874e-03,
          5.19313812e+01, 2.70103836e+00, 3.37205863e+00, 1.36458409e+00,
          9.37229812e-01, 5.85768633e-02, 1., 1. ]
      - [ 12., 4.58712690e-02, 4.18506116e-02, 1.30625412e-01, .Inf,
          8.05961492e-04, 0., 1.86612219e-01, 6.24357909e-03,
          4.38359222e+01, 2.50610638e+00, 3.18175244e+00, 1.53652465e+00,
          1.28850996e+00, 1.07375830e-01, 1., 1. ]
      - [ 3., 5.61613142e-02, 3.96179445e-02, 1.08853593e-01,
          2.29344703e-03, 6.88200191e-11, 0., 1.18428648e-01,
          3.46434563e-02, 4.45113420e+00, 1.31840658e+00, 7.75988519e-01,
          1.34405160e+00, 2.83862472e+00, 9.46208239e-01, 0., 1. ]
      - [ 15., 1.11001521e-01, 1.14061378e-01, 3.08219492e-01,
          1.37839347e-01, 1.24843577e-02, 0., 4.04240310e-01,
          2.12344993e-02, 1.21274929e+01, 2.67788482e+00, 2.63109565e+00,
          1.23277521e+00, 2.36912012e+00, 1.57941341e-01, 1., 1. ]
      - [ 16., 4.41272631e-02, 3.77643518e-02, 1.34906664e-01,
          2.44401228e-02, 6.85562473e-03, 0., 1.82114214e-01,
          4.57394170e-03, 4.86173172e+01, 2.65078831e+00, 3.13324165e+00,
          1.28893471e+00, 1.01079023e+00, 6.31743893e-02, 1., 1. ]
      - [ 19., 4.41819169e-02, 3.79021727e-02, 1.38515279e-01,
          2.97138020e-02, 4.18764958e-03, 0., 2.09605932e-01,
          4.59259422e-03, 6.46849442e+01, 2.77179003e+00, 2.76351523e+00,
          1.05142045e+00, 8.84017110e-01, 4.65272181e-02, 1., 1. ]
      - [ 20., 4.67936806e-02, 4.01229784e-02, 1.44298568e-01,
          3.58421840e-02, 2.38351431e-03, 0., 2.37783849e-01,
          4.45678551e-03, 7.62045288e+01, 2.78863549e+00, 3.16718769e+00,
          1.19015372e+00, 8.51377904e-01, 4.25688960e-02, 1., 1. ]
      - [ 34., 1.22862712e-01, 1.12548620e-01, 3.52271736e-01,
          7.42477417e-01, 8.51541385e-03, 0., 5.35457611e-01,
          1.84710212e-02, 4.15718918e+01, 2.99526000e+00, 3.25017595e+00,
          1.00443006e+00, 8.22469771e-01, 2.41902880e-02, 1., 1. ]
      - [ 21., 3.61960195e-02, 3.01315784e-02, 1.17625810e-01,
          2.39442009e-02, 1.47249794e-03, 0., 2.04367608e-01,
          5.11745317e-03, 9.72006989e+01, 2.79690337e+00, 3.17455649e+00,
          1.14097893e+00, 5.94817996e-01, 2.83246674e-02, 1., 1. ]
      - [ 29., 4.88452725e-02, 4.17258367e-02, 1.51467621e-01,
          6.94915727e-02, 1.40800013e-03, 0., 3.57880533e-01,
          7.37306150e-03, 9.23986206e+01, 2.88769603e+00, 4.08067465e+00,
          1.18113863e+00, 5.60306609e-01, 1.93209182e-02, 1., 1. ]
      - [ 25., 3.96769196e-02, 3.38968113e-02, 1.35202125e-01,
          4.28703539e-02, 2.23904080e-03, 0., 2.27773368e-01,
          6.38786564e-03, 5.84959259e+01, 2.84586215e+00, 3.37300301e+00,
          1.05040646e+00, 5.76688647e-01, 2.30675451e-02, 1., 1. ]
      - [ 24., 3.80867384e-02, 3.26437131e-02, 1.28661126e-01, .Inf,
          1.78141857e-03, 0., 2.28972390e-01, 6.84919767e-03,
          6.71405716e+01, 2.83298278e+00, 3.43881512e+00, 1.09074295e+00,
          5.65554619e-01, 2.35647764e-02, 1., 1. ]
      - [ 27., 5.56490012e-02, 4.76044565e-02, 1.81216002e-01,
          8.48187953e-02, 7.14864535e-03, 0., 2.78999478e-01,
          4.96141519e-03, 8.33822861e+01, 2.91696239e+00, 2.93165016e+00,
          8.83343697e-01, 7.83529639e-01, 2.90196165e-02, 1., 1. ]
      - [ 24., 3.77964377e-02, 3.20673771e-02, 1.22030362e-01, .Inf,
          7.40225194e-04, 0., 2.19215125e-01, 5.19371545e-03,
          7.64418945e+01, 2.84222889e+00, 3.57632375e+00, 1.12516403e+00,
          5.63021600e-01, 2.34592333e-02, 1., 1. ]
      - [ 23., 3.61993760e-02, 3.12264301e-02, 1.15432411e-01,
          3.47664505e-02, 1.20810303e-03, 0., 1.98912621e-01,
          4.56880452e-03, 8.86481628e+01, 2.82850885e+00, 3.52187490e+00,
          1.15587544e+00, 5.75694978e-01, 2.50302162e-02, 1., 1. ]
      - [ 32., 5.23851477e-02, 4.50521260e-02, 1.72907889e-01, .Inf,
          9.45672672e-03, 0., 3.31110597e-01, 5.03411097e-03,
          9.43081207e+01, 2.87935662e+00, 3.27266216e+00, 9.35098588e-01,
          6.25109911e-01, 1.95346847e-02, 1., 1. ]
      - [ 4., 1.15046632e-02, 9.41729452e-03, 2.53405217e-02,
          2.61292094e-04, 4.35274487e-05, 0., 3.69837694e-02,
          6.16396172e-03, 6.26648102e+01, 1.57516146e+00, 1.56424928e+00,
          1.94475937e+00, 8.97001028e-01, 2.24250257e-01, 1., 1. ]
      - [ 8., 3.34399864e-02, 2.75642779e-02, 9.48921368e-02,
          4.90643596e-03, 6.52260671e-04, 0., 1.04376867e-01,
          5.51640568e-03, 2.08736153e+01, 2.36274123e+00, 2.28007507e+00,
          1.46346736e+00, 1.54608119e+00, 1.93260148e-01, 1., 1. ]
      - [ 30., 1.20141827e-01, 1.08651124e-01, 3.37728679e-01,
          4.13198858e-01, 1.30342599e-02, 0., 4.77875024e-01,
          2.15370823e-02, 6.74798279e+01, 2.91512346e+00, 3.45865107e+00,
          9.91995275e-01, 8.28076363e-01, 2.76025459e-02, 1., 1. ]
      - [ 6., 4.85524349e-02, 3.87207381e-02, 1.18202075e-01, .Inf,
          5.05062868e-04, 0., 1.76097423e-01, 2.08186805e-02,
          2.11924515e+01, 1.73573244e+00, 2.94535518e+00, 2.29738760e+00,
          2.41997695e+00, 4.03329492e-01, 1., 0. ]
      - [ 6., 4.55407649e-02, 3.80590893e-02, 1.07031509e-01, .Inf,
          3.11661715e-04, 0., 1.54220909e-01, 1.54692605e-02,
          1.63613358e+01, 1.79152012e+00, 2.92911553e+00, 2.28913689e+00,
          2.37026286e+00, 3.95043820e-01, 0., 1. ]
      - [ 8., 5.02190180e-02, 4.17131037e-02, 1.43122613e-01, .Inf,
          6.86764426e-04, 0., 1.78552181e-01, 1.16064940e-02,
          2.75308361e+01, 2.26321268e+00, 2.84691000e+00, 1.78084922e+00,
          1.97406328e+00, 2.46757910e-01, 1., 0. ]
      - [ 6., 3.90475504e-02, 3.06269675e-02, 9.32186544e-02, .Inf,
          4.27446248e-05, 0., 1.34006709e-01, 2.08882019e-02,
          9.76398373e+00, 1.79354143e+00, 3.01858401e+00, 2.34187698e+00,
          1.89444029e+00, 3.15740049e-01, 1., 0. ]
      - [ 6., 3.90970111e-02, 3.06471661e-02, 1.05148107e-01, .Inf,
          8.17402906e-04, 0., 1.13045312e-01, 1.11786453e-02,
          1.05709944e+01, 1.96270406e+00, 2.34106326e+00, 1.84372699e+00,
          1.91498172e+00, 3.19163620e-01, 0., 1. ]
      - [ 16., 9.10389200e-02, 8.58531743e-02, 2.31347159e-01, .Inf,
          4.99410834e-03, 0., 3.74654472e-01, 2.07775142e-02,
          3.09940262e+01, 2.75494432e+00, 3.13153267e+00, 1.50766504e+00,
          1.59511590e+00, 9.96947438e-02, 1., 1. ]
      - [ 10., 5.00268526e-02, 4.03003432e-02, 1.21785961e-01, .Inf,
          5.24841307e-04, 0., 2.61918187e-01, 1.83144044e-02,
          3.77757301e+01, 2.25323915e+00, 3.93968844e+00, 2.07936263e+00,
          1.46530914e+00, 1.46530911e-01, 1., 1. ]
      - [ 8., 3.96566689e-02, 3.22542302e-02, 1.11832641e-01, .Inf,
          2.46028911e-04, 0., 1.39889672e-01, 8.33865069e-03,
          2.63458862e+01, 2.32117367e+00, 2.78362083e+00, 1.75914598e+00,
          1.69254172e+00, 2.11567715e-01, 0., 1. ]
      - [ 8., 4.46032546e-02, 3.75789292e-02, 1.26210749e-01, .Inf,
          8.66273840e-05, 0., 1.38957113e-01, 7.60209141e-03,
          1.20519476e+01, 2.25514174e+00, 2.77917290e+00, 1.72109747e+00,
          1.93526578e+00, 2.41908222e-01, 1., 1. ]
      - [ 8., 3.34449671e-02, 2.76719797e-02, 9.48917344e-02, .Inf,
          1.09809719e-03, 0., 1.10983752e-01, 5.79577219e-03,
          3.71227646e+01, 2.36273885e+00, 2.27049398e+00, 1.45330930e+00,
          1.54578912e+00, 1.93223640e-01, 1., 1. ]
      - [ 8., 4.44697365e-02, 3.86214294e-02, 1.11741677e-01, .Inf,
          1.49423955e-04, 0., 1.66572094e-01, 1.18828742e-02,
          1.23624163e+01, 2.09912443e+00, 3.43087578e+00, 2.12073565e+00,
          1.74723983e+00, 2.18404979e-01, 1., 1. ]
      - [ 6., 4.56601381e-02, 3.83793451e-02, 1.10129192e-01, .Inf,
          8.67578492e-04, 0., 1.48307666e-01, 1.57800876e-02,
          1.68774242e+01, 1.86798453e+00, 2.82665420e+00, 2.23867464e+00,
          1.93720758e+00, 3.22867930e-01, 0., 1. ]
      - [ 9., 4.82759662e-02, 3.89821567e-02, 1.40088364e-01,
          1.37534056e+01, 1.10718705e-04, 0., 1.53511405e-01,
          6.98939664e-03, 2.15823250e+01, 2.29058504e+00, 2.87998152e+00,
          1.64274621e+00, 1.85999990e+00, 2.06666648e-01, 1., 1. ]
      - [ 14., 1.02673315e-01, 9.25151110e-02, 2.63663411e-01, .Inf,
          5.85790537e-03, 0., 3.90529037e-01, 2.78064366e-02,
          2.02228241e+01, 2.70286751e+00, 2.78780675e+00, 1.36161983e+00,
          1.78458869e+00, 1.27470627e-01, 1., 1. ]
      - [ 8., 3.36533152e-02, 2.74477527e-02, 9.61596966e-02, .Inf,
          3.67742541e-05, 0., 1.00261346e-01, 5.29175997e-03,
          5.58318520e+00, 2.28296781e+00, 2.64616919e+00, 1.63810897e+00,
          1.52998555e+00, 1.91248193e-01, 1., 1. ]
      - [ 8., 3.03926673e-02, 2.55865213e-02, 8.48425478e-02, .Inf,
          2.03385192e-04, 0., 1.08057052e-01, 6.52086362e-03,
          3.68031540e+01, 2.32113624e+00, 2.74179697e+00, 1.76578259e+00,
          1.33900547e+00, 1.67375684e-01, 1., 1. ]
      - [ 12., 3.91988494e-02, 3.28434445e-02, 1.16092801e-01, .Inf,
          1.50307617e-03, 0., 1.68366849e-01, 7.40358187e-03,
          3.89148903e+01, 2.56028843e+00, 3.23104358e+00, 1.61793756e+00,
          1.07987189e+00, 8.99893269e-02, 1., 0. ]
      - [ 8., 3.76053229e-02, 3.19952480e-02, 8.94275382e-02, .Inf,
          1.49777552e-04, 0., 1.54237866e-01, 1.30824065e-02,
          2.77481556e+01, 2.05751991e+00, 3.58767104e+00, 2.21720815e+00,
          1.40790176e+00, 1.75987720e-01, 0., 1. ]
      - [ 3., 1.80639978e-02, 1.20427413e-02, 3.61278802e-02,
          3.25360452e-04, 2.61545512e-14, 0., 3.61282229e-02,
          1.04293209e-02, 1.60752133e-01, 1.05010653e+00, 1.04428852e+00,
          1.80876076e+00, 2.06999993e+00, 6.89999998e-01, 1., 1. ]
      - [ 3., 2.52275039e-02, 1.70148611e-02, 5.01376651e-02,
          7.02430261e-04, 1.17309315e-10, 0., 5.10445833e-02,
          1.47692151e-02, 4.90566874e+00, 9.21242535e-01, 1.17315257e+00,
          2.03195977e+00, 2.80999994e+00, 9.36666667e-01, 1., 1. ]
      - [ 6., 5.79576679e-02, 4.60020937e-02, 1.56595513e-01, .Inf,
          3.69769376e-04, 0., 1.75606474e-01, 1.74916182e-02,
          7.50408030e+00, 1.92632473e+00, 2.56851435e+00, 2.00243354e+00,
          2.95497203e+00, 4.92495328e-01, 0., 1. ]
      - [ 5., 4.64877151e-02, 3.58004458e-02, 1.15563951e-01,
          1.12134367e-02, 1.89915700e-05, 0., 1.19322330e-01,
          1.37005048e-02, 4.57797194e+00, 1.75971794e+00, 2.13787699e+00,
          1.95425069e+00, 2.97000003e+00, 5.93999982e-01, 1., 0. ]
      - [ 6., 5.81328943e-02, 4.85858470e-02, 1.49765819e-01, .Inf,
          8.11046339e-04, 0., 1.76780403e-01, 1.49778249e-02,
          1.08553715e+01, 2.02257085e+00, 2.40228939e+00, 1.91742313e+00,
          3.39996767e+00, 5.66661298e-01, 0., 0. ]
      - [ 6., 5.36375903e-02, 4.61245738e-02, 1.34564623e-01,
          1.19558778e-02, 5.16529719e-04, 0., 1.75748840e-01,
          1.63905639e-02, 1.40230274e+01, 1.95922947e+00, 2.63240314e+00,
          2.07063556e+00, 3.01298141e+00, 5.02163589e-01, 0., 0. ]
      - [ 6., 5.95094115e-02, 5.04844449e-02, 1.46428168e-01, .Inf,
          1.65207879e-04, 0., 1.84020355e-01, 1.60338935e-02,
          8.01860619e+00, 1.83007920e+00, 2.83883548e+00, 2.20623755e+00,
          3.23518872e+00, 5.39198101e-01, 0., 0. ]
      - [ 5., 5.80403134e-02, 4.75345217e-02, 1.38542295e-01,
          1.04137231e-02, 3.38945210e-05, 0., 1.65403098e-01,
          1.96253657e-02, 6.99812746e+00, 1.60888040e+00, 2.49692678e+00,
          2.28039789e+00, 3.82999992e+00, 7.65999973e-01, 0., 0. ]
      - [ 6., 5.89654967e-02, 4.79132682e-02, 1.53248891e-01, .Inf,
          8.65746333e-05, 0., 1.73447579e-01, 1.48674976e-02,
          9.77430820e+00, 1.87384856e+00, 2.62897444e+00, 2.03909779e+00,
          3.47496700e+00, 5.79161167e-01, 0., 0. ]
      - [ 8., 9.22052860e-02, 7.72664323e-02, 2.47410953e-01,
          4.37711589e-02, 1.38160284e-03, 0., 2.97355711e-01,
          1.79523826e-02, 1.18873625e+01, 2.25419593e+00, 2.82179832e+00,
          1.80039644e+00, 3.88496304e+00, 4.85620379e-01, 0., 0. ]
      - [ 7., 7.00921416e-02, 5.90997897e-02, 1.89597338e-01,
          2.17687394e-02, 3.88485671e-04, 0., 2.13150188e-01,
          1.39709106e-02, 1.30544605e+01, 2.08569980e+00, 2.66829681e+00,
          1.83356822e+00, 3.50000000e+00, 5.00000000e-01, 0., 0. ]
      - [ 5., 5.47591448e-02, 4.26153913e-02, 1.36669502e-01,
          7.32233236e-03, 6.14250137e-04, 0., 1.48411185e-01,
          1.67708099e-02, 9.90592098e+00, 1.84102225e+00, 2.02956724e+00,
          1.88372433e+00, 3.89000034e+00, 7.78000057e-01, 0., 0. ]
      - [ 6., 6.52782172e-02, 5.28981090e-02, 1.73423782e-01, .Inf,
          5.48361917e-04, 0., 1.87356338e-01, 1.58113614e-02,
          7.08262253e+00, 2.02768970e+00, 2.32866502e+00, 1.82894027e+00,
          3.89496303e+00, 6.49160504e-01, 0., 0. ]
      - [ 6., 8.74272734e-02, 6.56572357e-02, 2.15722263e-01, .Inf,
          8.28494318e-04, 0., 2.69297183e-01, 3.74461561e-02,
          1.37053833e+01, 1.77209592e+00, 2.88667083e+00, 2.25887370e+00,
          2.97708273e+00, 4.96180445e-01, 0., 1. ]
      - [ 5., 4.02102321e-02, 3.11623067e-02, 1.00153804e-01,
          4.76254616e-03, 1.39415361e-05, 0., 1.05161190e-01,
          1.17895398e-02, 5.84717798e+00, 1.73727465e+00, 2.19597864e+00,
          2.00699306e+00, 2.83999991e+00, 5.67999959e-01, 0., 1. ]
      - [ 4., 4.44605015e-02, 3.29451300e-02, 1.02932476e-01,
          4.43920819e-03, 8.80587468e-05, 0., 1.07020363e-01,
          2.13207789e-02, 7.79291916e+00, 1.43470597e+00, 1.76737452e+00,
          2.04852319e+00, 2.92497206e+00, 7.31243014e-01, 0., 1. ]
      - [ 3., 2.48251595e-02, 1.72097441e-02, 4.83151786e-02,
          6.94987713e-04, 7.39400763e-10, 0., 5.16292304e-02,
          1.54085811e-02, 9.19439411e+00, 8.04099977e-01, 1.29029512e+00,
          2.23485661e+00, 2.50999999e+00, 8.36666644e-01, 1., 1. ]
      - [ 6., 3.65396701e-02, 2.92357970e-02, 9.88648087e-02, .Inf,
          3.64773623e-05, 0., 1.02402858e-01, 8.92985892e-03,
          1.20108528e+01, 2.04586387e+00, 2.27266049e+00, 1.76727366e+00,
          1.94498146e+00, 3.24163586e-01, 1., 1. ]
      - [ 8., 3.39829959e-02, 2.75436509e-02, 9.37712193e-02, .Inf,
          3.84402636e-04, 0., 1.26477078e-01, 1.17872935e-02,
          2.27121410e+01, 2.20567846e+00, 2.98122311e+00, 1.87189603e+00,
          1.47998595e+00, 1.84998244e-01, 1., 1. ]
      - [ 8., 6.12246171e-02, 5.13918623e-02, 1.61064848e-01, .Inf,
          7.08983978e-04, 0., 1.86822295e-01, 1.43624470e-02,
          1.99092064e+01, 2.32391572e+00, 2.79396224e+00, 1.75995183e+00,
          1.72590637e+00, 2.15738297e-01, 1., 1. ]
      - [ 8., 3.54424454e-02, 2.87979767e-02, 9.61564109e-02, .Inf,
          2.76279869e-04, 0., 1.40841484e-01, 1.16395298e-02,
          3.61514702e+01, 2.11259294e+00, 3.22254324e+00, 2.00345445e+00,
          1.31112182e+00, 1.63890228e-01, 1., 1. ]
      - [ 14., 4.23805788e-02, 3.47319134e-02, 1.28574282e-01, .Inf,
          4.30696411e-04, 0., 1.89533636e-01, 6.53838133e-03,
          5.15391769e+01, 2.53646684e+00, 3.59976315e+00, 1.54372871e+00,
          1.00997102e+00, 7.21407905e-02, 1., 1. ]
      - [ 12., 3.29742357e-02, 2.76056807e-02, 9.79063660e-02,
          1.02605224e-02, 8.28902121e-04, 0., 1.52320504e-01,
          5.60426945e-03, 6.54819336e+01, 2.45805550e+00, 3.29636216e+00,
          1.57811999e+00, 9.99760807e-01, 8.33133981e-02, 1., 1. ]
      - [ 15., 7.61373192e-02, 6.11891337e-02, 1.94971278e-01,
          6.58087954e-02, 6.65835396e-04, 0., 3.08603764e-01,
          2.36990340e-02, 1.81757469e+01, 2.77781343e+00, 3.17443871e+00,
          1.60204136e+00, 1.20843327e+00, 8.05622190e-02, 1., 1. ]
      - [ 32., 1.21446557e-01, 1.09732494e-01, 3.44681710e-01, .Inf,
          2.87421942e-02, 0., 5.54082632e-01, 1.59786362e-02,
          4.18177147e+01, 2.92714167e+00, 3.19193053e+00, 1.06857264e+00,
          1.06347144e+00, 3.32334824e-02, 1., 1. ]
      - [ 3., 1.22326352e-02, 8.50764196e-03, 2.37609576e-02,
          1.07626445e-04, 1.79372159e-11, 0., 2.55229287e-02,
          7.61909317e-03, 1.92627068e+01, 1.29944229e+00, 7.94952810e-01,
          1.37689865e+00, 1.24000001e+00, 4.13333327e-01, 1., 1. ]
      - [ 6., 4.42314520e-02, 3.54865678e-02, 1.17411353e-01, .Inf,
          1.82663513e-04, 0., 1.33584172e-01, 1.23100625e-02,
          1.74803486e+01, 1.94144917e+00, 2.48728561e+00, 1.93515337e+00,
          2.41497707e+00, 4.02496189e-01, 1., 1. ]
      - [ 8., 5.02507053e-02, 4.12992947e-02, 1.38265714e-01, .Inf,
          1.09968730e-03, 0., 1.64351121e-01, 9.71762836e-03,
          1.15712309e+01, 2.17894173e+00, 2.83272839e+00, 1.78199089e+00,
          2.22497892e+00, 2.78122365e-01, 1., 1. ]
      - [ 6., 3.68110314e-02, 2.95161735e-02, 9.78591815e-02, .Inf,
          2.06670702e-05, 0., 1.03933088e-01, 9.15511046e-03,
          6.37744379e+00, 1.96360493e+00, 2.45297217e+00, 1.90351665e+00,
          2.12519646e+00, 3.54199409e-01, 1., 1. ]
      - [ 6., 2.88102794e-02, 2.35398021e-02, 7.59224892e-02, .Inf,
          7.70424376e-05, 0., 8.40907916e-02, 7.02299085e-03,
          2.78478470e+01, 2.00248599e+00, 2.38184571e+00, 1.85583639e+00,
          1.71689415e+00, 2.86149025e-01, 1., 1. ]
      - [ 14., 5.59215844e-02, 4.80893292e-02, 1.67868704e-01, .Inf,
          6.99789554e-04, 0., 2.10288554e-01, 6.15326408e-03,
          2.25287437e+01, 2.55690455e+00, 3.48478556e+00, 1.48829877e+00,
          1.43930078e+00, 1.02807201e-01, 0., 1. ]
      - [ 10., 4.15536799e-02, 3.46294008e-02, 1.13900073e-01,
          1.51271159e-02, 1.84668592e-04, 0., 1.67521209e-01,
          8.58859811e-03, 3.78700714e+01, 2.30149031e+00, 3.52112579e+00,
          1.86192024e+00, 1.41030669e+00, 1.41030669e-01, 1., 1. ]
      - [ 10., 4.06646207e-02, 3.51198874e-02, 1.15078084e-01, .Inf,
          4.76839545e-04, 0., 1.70352504e-01, 8.96496419e-03,
          4.33588791e+01, 2.29966283e+00, 3.34483790e+00, 1.77973270e+00,
          1.39430499e+00, 1.39430493e-01, 1., 1. ]
      - [ 16., 4.64044437e-02, 4.01665159e-02, 1.37386307e-01, .Inf,
          6.32902258e-04, 0., 2.15836078e-01, 6.08952669e-03,
          5.60073624e+01, 2.68452597e+00, 3.55566764e+00, 1.42387831e+00,
          9.76665258e-01, 6.10415787e-02, 1., 1. ]
      - [ 12., 4.51525450e-02, 3.85159068e-02, 1.36235669e-01,
          1.86288189e-02, 2.37339642e-03, 0., 1.65664405e-01,
          6.06894493e-03, 1.94120102e+01, 2.53979826e+00, 2.81342721e+00,
          1.34588373e+00, 1.37154984e+00, 1.14295818e-01, 1., 1. ]
      - [ 13., 3.51926312e-02, 2.99147945e-02, 1.05492301e-01,
          4.81031513e+00, 5.96418919e-04, 0., 1.63386077e-01,
          4.38071787e-03, 7.22608948e+01, 2.66813064e+00, 2.92632437e+00,
          1.36894512e+00, 9.54777241e-01, 7.34444037e-02, 1., 1. ]
      - [ 14., 3.82668301e-02, 3.29676382e-02, 1.16105780e-01, .Inf,
          8.19848792e-04, 0., 1.89806387e-01, 6.39500329e-03,
          6.73046112e+01, 2.55379581e+00, 3.28771710e+00, 1.42755628e+00,
          9.42411661e-01, 6.73151165e-02, 1., 0. ]
      - [ 13., 3.50338332e-02, 2.98038535e-02, 1.04748189e-01,
          1.27006900e-02, 7.80917995e-04, 0., 1.50958538e-01,
          5.88741666e-03, 5.80995369e+01, 2.57604599e+00, 3.29574966e+00,
          1.49126589e+00, 9.41663861e-01, 7.24356845e-02, 1., 1. ]
      - [ 14., 3.74437161e-02, 3.13996710e-02, 1.15371905e-01, .Inf,
          2.89116259e-04, 0., 1.50346592e-01, 4.97502135e-03,
          4.72093086e+01, 2.63896632e+00, 3.23390913e+00, 1.38493347e+00,
          9.32658911e-01, 6.66184947e-02, 1., 1. ]
      - [ 24., 6.10286817e-02, 5.18161766e-02, 1.97956800e-01,
          7.78050721e-02, 8.25119764e-03, 0., 3.39757711e-01,
          5.81592182e-03, 6.88073730e+01, 2.79187727e+00, 3.41890717e+00,
          1.11181545e+00, 9.58183229e-01, 3.99243012e-02, 1., 1. ]
      - [ 21., 1.13436051e-01, 1.03921875e-01, 3.17982912e-01,
          2.39592001e-01, 1.43067446e-02, 0., 4.01543885e-01,
          2.15847753e-02, 4.09619980e+01, 2.78316736e+00, 3.17937803e+00,
          1.08652151e+00, 1.23000002e+00, 5.85714281e-02, 1., 1. ]
      - [ 8., 3.56089771e-02, 3.08088996e-02, 9.73547772e-02, .Inf,
          2.76135979e-04, 0., 1.27581149e-01, 9.51941311e-03,
          2.85352230e+01, 2.21948838e+00, 2.95938873e+00, 1.86618841e+00,
          1.53192341e+00, 1.91490427e-01, 1., 1. ]
      - [ 11., 4.30355817e-02, 3.60796787e-02, 1.25969574e-01,
          3.65856862e+00, 4.34932415e-04, 0., 1.60561472e-01,
          6.76737679e-03, 5.12174644e+01, 2.51168013e+00, 3.00849676e+00,
          1.50644827e+00, 1.25680530e+00, 1.14255026e-01, 1., 1. ]
      - [ 15., 9.46857035e-02, 8.52780342e-02, 2.55747259e-01,
          1.02030292e-01, 1.53103378e-02, 0., 3.38987291e-01,
          1.98722668e-02, 2.00650444e+01, 2.76684928e+00, 2.61944699e+00,
          1.24526966e+00, 1.79249346e+00, 1.19499564e-01, 1., 1. ]
      - [ 8., 4.14840318e-02, 3.49308960e-02, 1.14249356e-01, .Inf,
          3.24465218e-04, 0., 1.54734850e-01, 1.19536109e-02,
          3.30984230e+01, 2.14182687e+00, 3.06807995e+00, 1.91311646e+00,
          1.77199364e+00, 2.21499205e-01, 1., 1. ]
      - [ 10., 6.73138946e-02, 5.47418483e-02, 2.03943640e-01, .Inf,
          1.83972495e-03, 0., 2.60164857e-01, 2.15599444e-02,
          2.36988811e+01, 2.29358840e+00, 3.16151476e+00, 1.70985711e+00,
          1.85998249e+00, 1.85998246e-01, 1., 1. ]
      - [ 6., 4.29641269e-02, 3.45201381e-02, 1.01132058e-01, .Inf,
          1.02783821e-03, 0., 1.48008838e-01, 1.38886888e-02,
          2.20177879e+01, 1.78434050e+00, 2.75650859e+00, 2.19003749e+00,
          1.98973632e+00, 3.31622720e-01, 1., 1. ]
      - [ 6., 3.83870080e-02, 3.32807228e-02, 9.71919596e-02, .Inf,
          2.15414300e-04, 0., 1.17636427e-01, 1.02292085e-02,
          1.79997292e+01, 2.18102980e+00, 1.65656853e+00, 1.31925464e+00,
          2.20389581e+00, 3.67315978e-01, 1., 1. ]
      - [ 6., 3.65014039e-02, 3.06319166e-02, 9.49859694e-02, .Inf,
          1.65679681e-04, 0., 1.05806336e-01, 9.26105585e-03,
          1.92182217e+01, 2.10021114e+00, 1.87056506e+00, 1.47837043e+00,
          2.17997932e+00, 3.63329887e-01, 1., 1. ]
      - [ 4., 3.48314382e-02, 2.56176442e-02, 8.14206377e-02,
          1.74571935e-03, 9.10163726e-06, 0., 8.30164701e-02,
          1.65021420e-02, 5.34337473e+00, 1.46134174e+00, 1.73763227e+00,
          2.00840020e+00, 2.30997801e+00, 5.77494502e-01, 1., 0. ]
      - [ 8., 5.60313389e-02, 4.84365337e-02, 1.40425712e-01, .Inf,
          1.61979778e-03, 0., 1.78659752e-01, 1.23250792e-02,
          1.09381037e+01, 2.14176846e+00, 3.06302643e+00, 1.95650172e+00,
          1.85937417e+00, 2.32421771e-01, 1., 0. ]
      - [ 16., 9.77361053e-02, 8.75515193e-02, 2.69289792e-01,
          1.18271425e-01, 9.80029628e-03, 0., 3.60536665e-01,
          1.52440136e-02, 1.62964993e+01, 2.66297436e+00, 3.29952765e+00,
          1.40053999e+00, 1.70411897e+00, 1.06507435e-01, 1., 1. ]
      - [ 8., 3.65891866e-02, 3.02314535e-02, 1.03339851e-01, .Inf,
          1.78672664e-03, 0., 1.34112120e-01, 7.68207805e-03,
          3.70207253e+01, 2.36309195e+00, 2.48407006e+00, 1.58832335e+00,
          1.65810418e+00, 2.07263023e-01, 1., 1. ]
      - [ 10., 4.93687317e-02, 4.24000621e-02, 1.37084156e-01,
          4.02132654e+00, 6.20586099e-04, 0., 1.94754496e-01,
          1.07787810e-02, 3.29479294e+01, 2.29583025e+00, 3.41913867e+00,
          1.82054985e+00, 1.62337554e+00, 1.62337556e-01, 1., 1. ]
      - [ 10., 5.53186275e-02, 4.44274098e-02, 1.69735715e-01, .Inf,
          1.68982078e-03, 0., 2.17386857e-01, 1.64027289e-02,
          3.63031960e+01, 2.38548708e+00, 3.04417944e+00, 1.63200808e+00,
          1.50919855e+00, 1.50919855e-01, 1., 0. ]
      - [ 8., 4.91839834e-02, 3.92896160e-02, 1.33951649e-01, .Inf,
          6.72861759e-04, 0., 1.88661695e-01, 1.41789531e-02,
          2.90607262e+01, 2.20958138e+00, 3.07122564e+00, 1.91961300e+00,
          1.59167147e+00, 1.98958933e-01, 1., 1. ]
      - [ 14., 9.36041176e-02, 7.34480545e-02, 2.24404529e-01, .Inf,
          3.34797194e-03, 0., 3.31552655e-01, 2.52526551e-02,
          2.88936863e+01, 2.61380744e+00, 3.70158076e+00, 1.79981005e+00,
          1.29357958e+00, 9.23985392e-02, 1., 1. ]
      - [ 12., 4.26982753e-02, 3.62936147e-02, 1.26892596e-01, .Inf,
          5.17047942e-04, 0., 1.87802330e-01, 6.72554411e-03,
          4.92413597e+01, 2.53708935e+00, 3.28971934e+00, 1.55707240e+00,
          1.26230001e+00, 1.05191670e-01, 1., 1. ]
      - [ 12., 4.14764956e-02, 3.57172377e-02, 1.23490892e-01, .Inf,
          8.49128934e-04, 0., 1.84433803e-01, 7.86222424e-03,
          4.79043388e+01, 2.53653407e+00, 3.16138625e+00, 1.51604795e+00,
          1.25323844e+00, 1.04436539e-01, 1., 1. ]
      - [ 14., 5.58536015e-02, 4.68988828e-02, 1.67868525e-01, .Inf,
          3.58369638e-04, 0., 2.12384969e-01, 7.08788680e-03,
          2.40489902e+01, 2.69956684e+00, 3.21229553e+00, 1.43271160e+00,
          1.43955576e+00, 1.02825411e-01, 0., 1. ]
      - [ 12., 4.23930362e-02, 3.59635614e-02, 1.26892731e-01, .Inf,
          3.63431987e-04, 0., 1.76880226e-01, 7.54149770e-03,
          4.05783539e+01, 2.46283984e+00, 3.36150718e+00, 1.58874166e+00,
          1.26075625e+00, 1.05063021e-01, 1., 1. ]
      - [ 8., 3.90965939e-02, 3.21087986e-02, 9.95960459e-02, .Inf,
          5.42611582e-04, 0., 1.75533086e-01, 1.54978614e-02,
          3.17845535e+01, 2.05515480e+00, 3.45067978e+00, 2.14276624e+00,
          1.51667345e+00, 1.89584181e-01, 1., 1. ]
      - [ 12., 4.32620049e-02, 3.62647511e-02, 1.30625620e-01, .Inf,
          2.22866351e-04, 0., 1.56084523e-01, 5.29531809e-03,
          3.73708420e+01, 2.56615615e+00, 3.07989717e+00, 1.44901264e+00,
          1.30843043e+00, 1.09035872e-01, 1., 1. ]
      - [ 8., 2.87962444e-02, 2.37966776e-02, 7.94003606e-02, .Inf,
          1.33079744e-03, 0., 9.45250541e-02, 5.12759853e-03,
          4.00018768e+01, 2.36226225e+00, 2.33442116e+00, 1.54620576e+00,
          1.29998767e+00, 1.62498459e-01, 1., 1. ]
      - [ 15., 1.09952465e-01, 1.01443298e-01, 2.91203707e-01,
          1.46467939e-01, 1.51870865e-03, 0., 3.47757816e-01,
          2.74915956e-02, 3.47136803e+01, 2.62392235e+00, 2.78375888e+00,
          1.19022346e+00, 1.47420442e+00, 9.82802957e-02, 1., 1. ]
      - [ 8., 4.13605012e-02, 3.37085761e-02, 1.12974271e-01, .Inf,
          1.92376217e-04, 0., 1.40557408e-01, 8.36062990e-03,
          2.69562607e+01, 2.13098812e+00, 3.04510093e+00, 1.89616513e+00,
          1.70849347e+00, 2.13561684e-01, 1., 1. ]
      - [ 8., 3.86544280e-02, 3.21529582e-02, 1.06438778e-01, .Inf,
          1.03490055e-03, 0., 1.24600783e-01, 7.07977125e-03,
          2.11539841e+01, 2.24686718e+00, 2.62587452e+00, 1.67894149e+00,
          1.72527516e+00, 2.15659395e-01, 1., 1. ]
      - [ 8., 3.57635170e-02, 3.05760354e-02, 9.28369090e-02, .Inf,
          1.40044256e-04, 0., 1.26698673e-01, 7.47011043e-03,
          2.74884739e+01, 2.20084763e+00, 3.17360282e+00, 1.97337615e+00,
          1.49901915e+00, 1.87377393e-01, 1., 1. ]
      - [ 12., 5.77972606e-02, 5.03177941e-02, 1.57715380e-01, .Inf,
          9.81834834e-04, 0., 2.16734603e-01, 8.03655479e-03,
          1.53639507e+01, 2.49250007e+00, 3.48820972e+00, 1.67007828e+00,
          1.54830945e+00, 1.29025787e-01, 1., 1. ]
      - [ 8., 4.44633029e-02, 3.69726978e-02, 1.18357338e-01, .Inf,
          6.21447398e-04, 0., 1.71172485e-01, 1.08717065e-02,
          2.06470909e+01, 2.11949325e+00, 3.17504454e+00, 1.97641945e+00,
          1.88500237e+00, 2.35625297e-01, 0., 1. ]
      - [ 12., 9.18202996e-02, 8.33031163e-02, 2.59230554e-01, .Inf,
          1.12351011e-02, 0., 3.93562943e-01, 2.00418849e-02,
          1.03310976e+01, 2.52923012e+00, 2.73138142e+00, 1.40065706e+00,
          2.58971071e+00, 2.15809226e-01, 0., 1. ]
      - [ 4., 3.32343057e-02, 2.57433597e-02, 7.72288591e-02,
          1.81379635e-03, 6.59923301e-14, 0., 7.72308186e-02,
          1.28718028e-02, 1.69771209e-01, 1.57515931e+00, 1.56425178e+00,
          1.80624247e+00, 2.94997191e+00, 7.37492979e-01, 1., 1. ]
      - [ 6., 5.89681529e-02, 4.89948541e-02, 1.39615238e-01,
          1.65942293e-02, 1.22659520e-04, 0., 1.95390061e-01,
          1.91799141e-02, 8.58800030e+00, 1.78549314e+00, 2.99306607e+00,
          2.32305193e+00, 3.15800929e+00, 5.26334882e-01, 1., 0. ]
      - [ 6., 5.95789962e-02, 4.96754162e-02, 1.42669186e-01, .Inf,
          1.36533141e-04, 0., 1.93984956e-01, 1.73539016e-02,
          8.33213997e+00, 1.80575848e+00, 2.95068622e+00, 2.28937459e+00,
          3.22750306e+00, 5.37917197e-01, 1., 0. ]
      - [ 3., 2.82019973e-02, 2.25466732e-02, 5.15127890e-02,
          9.64663632e-04, 6.48834264e-10, 0., 6.38636276e-02,
          1.94811150e-02, 1.24502859e+01, 6.15757287e-01, 1.47863781e+00,
          2.56107593e+00, 2.71528339e+00, 9.05094445e-01, 1., 1. ]
      - [ 12., 1.36956617e-01, 1.24754608e-01, 3.30518901e-01,
          1.60992399e-01, 2.34673209e-02, 0., 6.60978794e-01,
          4.17532139e-02, 1.03137999e+01, 2.45036364e+00, 3.21615624e+00,
          1.72607577e+00, 3.18473101e+00, 2.65394241e-01, 0., 0. ]
      - [ 5., 5.05283400e-02, 3.87537442e-02, 1.21272236e-01,
          7.37150013e-03, 5.45802977e-05, 0., 1.44035444e-01,
          1.79103576e-02, 8.66934681e+00, 1.57741833e+00, 2.48809433e+00,
          2.27478933e+00, 3.25000000e+00, 6.49999976e-01, 0., 0. ]
      - [ 5., 7.82455876e-02, 5.51653095e-02, 1.85562626e-01,
          5.26664127e-03, 8.25678289e-05, 0., 2.25919649e-01,
          4.63788994e-02, 8.76550102e+00, 2.21697736e+00, 1.19080520e+00,
          1.09464371e+00, 3.54999995e+00, 7.09999979e-01, 0., 1. ]
      - [ 5., 5.13149500e-02, 3.92021127e-02, 1.16488427e-01,
          9.21027828e-03, 2.05064120e-04, 0., 1.67731375e-01,
          2.22367551e-02, 1.58597641e+01, 1.49131513e+00, 2.68190312e+00,
          2.45342779e+00, 3.29000974e+00, 6.58001959e-01, 0., 0. ]
      - [ 3., 3.58912982e-02, 2.39277035e-02, 7.17823207e-02,
          1.28514250e-03, 3.20120178e-14, 0., 7.17831105e-02,
          2.07220390e-02, 8.71299505e-02, 1.05032742e+00, 1.04406774e+00,
          1.80837834e+00, 3.95000005e+00, 1.31666672e+00, 0., 1. ]
      - [ 5., 5.79188019e-02, 4.42006774e-02, 1.44155994e-01,
          9.77106765e-03, 1.91843974e-05, 0., 1.54015914e-01,
          1.74203701e-02, 5.17751884e+00, 1.68713355e+00, 2.25938272e+00,
          2.06341481e+00, 4.11000061e+00, 8.22000146e-01, 0., 0. ]
      - [ 5., 5.74206449e-02, 4.61232439e-02, 1.40698612e-01,
          1.04907965e-02, 3.28888680e-04, 0., 1.62266731e-01,
          1.96274649e-02, 9.28501606e+00, 1.71903634e+00, 2.28218126e+00,
          2.10660791e+00, 3.97372890e+00, 7.94745803e-01, 0., 0. ]
      - [ 5., 6.07159100e-02, 4.82027605e-02, 1.43807873e-01,
          1.24552660e-02, 4.50719963e-05, 0., 1.78542361e-01,
          2.19095703e-02, 7.26576805e+00, 1.55377901e+00, 2.55745387e+00,
          2.33576012e+00, 4.09106684e+00, 8.18213344e-01, 0., 0. ]
      - [ 5., 6.79054931e-02, 5.39360419e-02, 1.61456212e-01,
          1.56613719e-02, 8.23552909e-06, 0., 1.95660144e-01,
          2.38246415e-02, 6.45309448e+00, 1.58170557e+00, 2.53336763e+00,
          2.31293154e+00, 4.54382467e+00, 9.08764958e-01, 0., 0. ]
      - [ 4., 6.82428107e-02, 5.55774420e-02, 1.51351690e-01,
          7.61288870e-03, 1.62371993e-03, 0., 1.56613350e-01,
          2.92771515e-02, 4.52419472e+00, 1.57706451e+00, 1.56177056e+00,
          1.82301092e+00, 4.33995867e+00, 1.08498967e+00, 1., 0. ]
      - [ 4., 6.65380359e-02, 5.08438088e-02, 1.54666960e-01,
          5.45857521e-03, 2.01537514e-05, 0., 1.58450127e-01,
          2.78096069e-02, 2.00672746e+00, 1.68334746e+00, 1.39268231e+00,
          1.60976529e+00, 4.81995392e+00, 1.20498848e+00, 0., 1. ]
      - [ 4., 6.03616610e-02, 4.67673764e-02, 1.37360767e-01,
          6.86673354e-03, 8.92761182e-06, 0., 1.47910953e-01,
          2.69845873e-02, 4.28739405e+00, 1.35486174e+00, 1.91156197e+00,
          2.20792270e+00, 4.70571470e+00, 1.17642868e+00, 0., 0. ]
      - [ 3., 4.09365967e-02, 2.74138525e-02, 8.16835314e-02,
          1.79252087e-03, 9.30913541e-11, 0., 8.22415501e-02,
          2.37494390e-02, 1.88561642e+00, 9.69483197e-01, 1.12491190e+00,
          1.94840455e+00, 4.64000034e+00, 1.54666674e+00, 0., 1. ]
      - [ 5., 6.11760281e-02, 4.68557514e-02, 1.54429078e-01,
          9.15364549e-03, 2.97672767e-03, 0., 1.57986030e-01,
          1.76714286e-02, 6.38609552e+00, 1.94098163e+00, 1.83224547e+00,
          1.67810440e+00, 4.40999985e+00, 8.81999969e-01, 0., 0. ]
      - [ 5., 5.77635802e-02, 4.38270271e-02, 1.45883083e-01,
          9.24608763e-03, 5.52933816e-05, 0., 1.49417445e-01,
          1.68596208e-02, 2.63994122e+00, 1.78907573e+00, 2.06609678e+00,
          1.88977778e+00, 4.13000011e+00, 8.26000035e-01, 0., 0. ]
      - [ 4., 5.99346235e-02, 4.57900912e-02, 1.37143031e-01,
          6.67990232e-03, 1.31077075e-04, 0., 1.51162386e-01,
          2.93815229e-02, 5.82889080e+00, 1.39027071e+00, 1.88012612e+00,
          2.17917156e+00, 4.49053526e+00, 1.12263381e+00, 1., 1. ]
      - [ 5., 6.11240491e-02, 5.01250513e-02, 1.49551719e-01,
          1.16819553e-02, 2.41141388e-04, 0., 1.66943163e-01,
          1.90443248e-02, 7.23375368e+00, 1.73909664e+00, 2.25357032e+00,
          2.07009792e+00, 4.23999977e+00, 8.47999930e-01, 1., 1. ]
      - [ 5., 5.71728162e-02, 4.50180471e-02, 1.41194403e-01,
          8.91237985e-03, 1.19453034e-04, 0., 1.52360111e-01,
          1.71972215e-02, 6.64399481e+00, 1.73122108e+00, 2.22517848e+00,
          2.04042602e+00, 4.01484728e+00, 8.02969456e-01, 0., 0. ]
      - [ 5., 6.01395369e-02, 4.69484553e-02, 1.38883278e-01,
          1.13153169e-02, 1.23634192e-04, 0., 1.82539523e-01,
          2.32054926e-02, 7.79478455e+00, 1.52053118e+00, 2.63339758e+00,
          2.40748835e+00, 3.84446812e+00, 7.68893600e-01, 0., 0. ]
      - [ 5., 5.65988347e-02, 4.43435088e-02, 1.40846416e-01,
          9.22697596e-03, 2.32055118e-05, 0., 1.49522319e-01,
          1.68066751e-02, 4.23248100e+00, 1.73095930e+00, 2.22680926e+00,
          2.03429842e+00, 4., 8.00000012e-01, 0., 0. ]
      - [ 6., 5.90744615e-02, 4.74278219e-02, 1.55305460e-01, .Inf,
          1.05613988e-04, 0., 1.68382689e-01, 1.39739411e-02,
          8.70013618e+00, 1.90783143e+00, 2.49764633e+00, 1.93985748e+00,
          3.50996661e+00, 5.84994435e-01, 0., 0. ]
      - [ 6., 6.57274649e-02, 5.29541373e-02, 1.74151778e-01, .Inf,
          5.18264947e-04, 0., 1.85631484e-01, 1.53575493e-02,
          8.02304649e+00, 2.05979991e+00, 2.25040579e+00, 1.76720703e+00,
          3.97228193e+00, 6.62046969e-01, 0., 1. ]
      - [ 6., 5.76992705e-02, 4.61670458e-02, 1.51984468e-01, .Inf,
          2.33896444e-05, 0., 1.63990512e-01, 1.42252920e-02,
          5.54574585e+00, 1.91450572e+00, 2.53494573e+00, 1.96466351e+00,
          3.39442801e+00, 5.65738022e-01, 0., 0. ]
      - [ 11., 1.07026123e-01, 9.73674506e-02, 3.06018174e-01,
          3.79190493e+00, 1.58595406e-02, 0., 4.87026751e-01,
          3.43211070e-02, 1.34453259e+01, 2.52410626e+00, 2.71211123e+00,
          1.41430879e+00, 3.42756152e+00, 3.11596513e-01, 0., 0. ]
      - [ 6., 5.23362309e-02, 4.18693908e-02, 1.38114423e-01, .Inf,
          2.09197169e-04, 0., 1.56614110e-01, 1.52733335e-02,
          1.06833763e+01, 1.87504792e+00, 2.56447768e+00, 1.99385583e+00,
          3.01553273e+00, 5.02588809e-01, 0., 0. ]
      - [ 4., 3.64877954e-02, 2.89220326e-02, 8.25862437e-02,
          2.29986431e-03, 3.30718867e-05, 0., 8.65244716e-02,
          1.48362173e-02, 6.18951893e+00, 1.40235865e+00, 1.81159496e+00,
          2.09810543e+00, 2.75463343e+00, 6.88658357e-01, 1., 1. ]
      - [ 8., 1.04284227e-01, 7.96765387e-02, 2.65473306e-01,
          4.63567898e-02, 2.20820541e-03, 0., 3.47308457e-01,
          3.63311060e-02, 7.11464739e+00, 2.11808968e+00, 3.35353684e+00,
          2.10225296e+00, 2.75635672e+00, 3.44544590e-01, 1., 1. ]
      - [ 4., 3.15227248e-02, 2.47488096e-02, 7.01899230e-02,
          1.96464988e-03, 1.35720311e-05, 0., 7.89223388e-02,
          1.34172291e-02, 1.10150156e+01, 1.28770113e+00, 1.99930513e+00,
          2.31150293e+00, 2.55720091e+00, 6.39300227e-01, 1., 1. ]
      - [ 6., 3.62853371e-02, 2.91967988e-02, 9.64218527e-02, .Inf,
          1.51832774e-03, 0., 1.01228558e-01, 8.34844727e-03,
          1.11097040e+01, 2.02033329e+00, 2.18126225e+00, 1.70595312e+00,
          2.20997906e+00, 3.68329853e-01, 1., 1. ]
      - [ 5., 3.66855338e-02, 2.88553238e-02, 9.21487585e-02,
          6.09234907e-03, 1.35684531e-04, 0., 9.62264314e-02,
          1.08065214e-02, 1.32125301e+01, 1.89018893e+00, 1.96012950e+00,
          1.79786468e+00, 2.63000011e+00, 5.26000023e-01, 1., 1. ]
      - [ 6., 3.93325984e-02, 3.17519940e-02, 1.01603866e-01, .Inf,
          8.28324573e-06, 0., 1.17502943e-01, 1.14325099e-02,
          1.05906935e+01, 1.85427380e+00, 2.71016765e+00, 2.09982419e+00,
          2.19997907e+00, 3.66663188e-01, 1., 1. ]
      - [ 6., 3.58018950e-02, 2.86027435e-02, 9.54846740e-02, .Inf,
          7.48006350e-05, 0., 1.01713926e-01, 9.01624560e-03,
          5.93781805e+00, 1.96360600e+00, 2.39913225e+00, 1.86812794e+00,
          2.12997985e+00, 3.54996651e-01, 1., 1. ]
      - [ 6., 3.26304659e-02, 2.60644611e-02, 8.85408074e-02, .Inf,
          3.27764210e-05, 0., 9.22510475e-02, 8.27436615e-03,
          1.50120163e+01, 2.04524326e+00, 2.28329849e+00, 1.77622342e+00,
          1.66498411e+00, 2.77497351e-01, 1., 1. ]
      - [ 8., 3.47651318e-02, 2.88536418e-02, 9.83337909e-02, .Inf,
          7.59339368e-04, 0., 1.11272320e-01, 5.84308896e-03,
          3.12562599e+01, 2.43987632e+00, 2.19046783e+00, 1.37755859e+00,
          1.61498463e+00, 2.01873079e-01, 1., 1. ]
      - [ 6., 3.20644751e-02, 2.60923784e-02, 8.37143511e-02, .Inf,
          7.97505054e-05, 0., 9.48721170e-02, 8.57028738e-03,
          1.66501369e+01, 1.95377970e+00, 2.51240468e+00, 1.96670806e+00,
          1.88998199e+00, 3.14996988e-01, 1., 1. ]
      - [ 8., 5.42149208e-02, 4.15268503e-02, 1.48526013e-01, .Inf,
          1.00776539e-04, 0., 2.01235563e-01, 2.76146103e-02,
          1.40377893e+01, 2.12129641e+00, 3.33971310e+00, 2.06293058e+00,
          1.87980294e+00, 2.34975368e-01, 1., 1. ]
      - [ 6., 3.96922305e-02, 3.33008096e-02, 9.49561819e-02, .Inf,
          9.09055889e-05, 0., 1.34564385e-01, 1.70997232e-02,
          1.12842569e+01, 1.81068242e+00, 2.96735835e+00, 2.30621576e+00,
          2.02498078e+00, 3.37496787e-01, 1., 1. ]
      - [ 9., 5.04419692e-02, 4.50002514e-02, 1.34712234e-01,
          1.85281429e-02, 2.38243752e-04, 0., 1.88844338e-01,
          1.13055231e-02, 1.82528496e+01, 2.22253370e+00, 3.41118979e+00,
          1.94092107e+00, 1.87449706e+00, 2.08277449e-01, 1., 1. ]
      - [ 8., 4.74661738e-02, 3.94980125e-02, 1.25484332e-01, .Inf,
          5.67047857e-04, 0., 1.75705552e-01, 1.46352164e-02,
          1.18080540e+01, 2.20807815e+00, 3.11309218e+00, 1.96378410e+00,
          1.95730722e+00, 2.44663402e-01, 0., 1. ]
      - [ 12., 3.30915861e-02, 2.81023998e-02, 9.73973721e-02, .Inf,
          2.35525746e-04, 0., 1.24471150e-01, 3.97338998e-03,
          5.89970741e+01, 2.48186278e+00, 3.18522859e+00, 1.51516747e+00,
          9.51678276e-01, 7.93065205e-02, 1., 1. ]
      - [ 4., 5.72689287e-02, 4.73221280e-02, 1.21545449e-01,
          5.12010464e-03, 4.91354265e-04, 0., 1.41384706e-01,
          2.61528809e-02, 6.57248163e+00, 1.86839223e+00, 1.17372811e+00,
          1.40668535e+00, 1.99934876e+00, 4.99837190e-01, 1., 0. ]
      - [ 14., 3.88248004e-02, 3.33980583e-02, 1.12787224e-01, .Inf,
          2.42906553e-03, 0., 1.70122415e-01, 5.64711122e-03,
          4.72831841e+01, 2.70027399e+00, 2.91037202e+00, 1.32575369e+00,
          9.48738813e-01, 6.77670613e-02, 1., 0. ]
      - [ 8., 3.78277302e-02, 3.14879343e-02, 1.02791339e-01, .Inf,
          8.24618968e-04, 0., 1.42994359e-01, 9.36787203e-03,
          3.27158585e+01, 2.14747787e+00, 2.90694571e+00, 1.83021355e+00,
          1.66103566e+00, 2.07629457e-01, 1., 1. ]
      - [ 13., 7.32060298e-02, 6.27931952e-02, 2.05157638e-01,
          1.14683166e-01, 2.74609588e-03, 0., 3.01142901e-01,
          1.39933322e-02, 2.14936047e+01, 2.52509308e+00, 3.60055161e+00,
          1.63940072e+00, 1.90378535e+00, 1.46445021e-01, 1., 1. ]
      - [ 14., 5.64766228e-02, 4.91502024e-02, 1.71836555e-01, .Inf,
          1.73746678e-03, 0., 2.34482765e-01, 7.24261999e-03,
          3.50696526e+01, 2.57830977e+00, 3.42688775e+00, 1.48260224e+00,
          1.37511599e+00, 9.82225686e-02, 0., 1. ]
      - [ 8., 3.93733159e-02, 3.18480358e-02, 1.09498598e-01, .Inf,
          1.81573952e-04, 0., 1.26033857e-01, 7.47628883e-03,
          2.15711823e+01, 2.15661836e+00, 2.86626339e+00, 1.79442823e+00,
          1.48422623e+00, 1.85528278e-01, 1., 1. ]
      - [ 22., 1.17915466e-01, 1.08561784e-01, 2.80493498e-01,
          9.43508816e+00, 3.21805365e-02, 0., 4.90441442e-01,
          1.45396357e-02, 3.14424305e+01, 2.78396463e+00, 3.73016119e+00,
          1.48360014e+00, 1.25889230e+00, 5.72223775e-02, 1., 1. ]
      - [ 14., 4.58346605e-02, 3.87044363e-02, 1.25574440e-01, .Inf,
          1.72625261e-03, 0., 1.93145871e-01, 7.63325952e-03,
          4.62771416e+01, 2.52732444e+00, 3.72709894e+00, 1.63017821e+00,
          1.01000249e+00, 7.21430331e-02, 0., 1. ]
      - [ 12., 4.17887792e-02, 3.53551991e-02, 1.22823916e-01, .Inf,
          5.02008479e-04, 0., 1.68217823e-01, 5.91871142e-03,
          4.96051712e+01, 2.59722185e+00, 3.03440857e+00, 1.51408839e+00,
          1.26586139e+00, 1.05488449e-01, 1., 1. ]
      - [ 14., 4.39497456e-02, 3.85347344e-02, 1.25688300e-01, .Inf,
          1.79350725e-03, 0., 2.23036915e-01, 9.97794326e-03,
          5.66449776e+01, 2.54702878e+00, 3.53273916e+00, 1.56139231e+00,
          1.06701422e+00, 7.62153044e-02, 1., 1. ]
      - [ 20., 5.51026203e-02, 4.75809947e-02, 1.65879995e-01,
          4.91842553e-02, 3.39161162e-03, 0., 2.45477840e-01,
          5.71929757e-03, .Nan, 2.88148952e+00, 2.87309384e+00,
          1.15314341e+00, 8.78024817e-01, 4.39012423e-02, 0., 1. ]
      - [ 6., 3.23568918e-02, 2.77810022e-02, 8.24144259e-02, .Inf,
          6.23199332e-04, 0., 1.05249122e-01, 1.08850375e-02,
          2.75220699e+01, 2.10021377e+00, 2.08065605e+00, 1.67138064e+00,
          1.87498224e+00, 3.12497050e-01, 1., 1. ]
      - [ 24., 5.90813309e-02, 5.09062149e-02, 1.90001190e-01, .Inf,
          3.19857686e-03, 0., 3.09298664e-01, 4.88722511e-03,
          6.20039749e+01, 2.89683342e+00, 3.39612651e+00, 1.11466980e+00,
          8.25695932e-01, 3.44039984e-02, 1., 1. ]
      - [ 22., 4.35844250e-02, 3.71578075e-02, 1.46988198e-01,
          9.81072235e+00, 9.04154847e-04, 0., 2.34468028e-01,
          6.60432363e-03, 7.24998245e+01, 2.80607367e+00, 3.51767564e+00,
          1.15813935e+00, 6.76457942e-01, 3.07480879e-02, 1., 1. ]
      - [ 8., 4.48077172e-02, 3.76449972e-02, 1.16046540e-01, .Inf,
          1.97053567e-04, 0., 1.59344435e-01, 9.91040003e-03,
          1.15236092e+01, 2.11893702e+00, 3.30206776e+00, 2.04439259e+00,
          1.85932279e+00, 2.32415348e-01, 1., 1. ]
      - [ 7., 3.85583378e-02, 3.11619546e-02, 1.04784124e-01,
          6.66733691e-03, 7.23318517e-05, 0., 1.17170371e-01,
          7.95972440e-03, 1.48702726e+01, 2.12322235e+00, 2.70415473e+00,
          1.85349381e+00, 1.83044231e+00, 2.61491746e-01, 1., 1. ]
      - [ 21., 5.07951267e-02, 4.38588187e-02, 1.54501036e-01,
          5.74761108e-02, 3.92666133e-03, 0., 2.43462130e-01,
          4.85796575e-03, .Nan, 2.74550986e+00, 3.49662209e+00,
          1.24958527e+00, 8.58996212e-01, 4.09045815e-02, 1., 1. ]
      - [ 6., 3.32772881e-02, 2.73503121e-02, 8.15876275e-02, .Inf,
          7.73614011e-06, 0., 1.05478778e-01, 9.47518833e-03,
          1.51010275e+01, 1.80386853e+00, 2.90934348e+00, 2.25413203e+00,
          1.84844840e+00, 3.08074743e-01, 1., 1. ]
      - [ 16., 4.49307561e-02, 4.01052684e-02, 1.24503367e-01, .Inf,
          1.26573129e-03, 0., 2.21632838e-01, 8.23487807e-03,
          6.37690125e+01, 2.75652933e+00, 3.43313003e+00, 1.46069860e+00,
          8.92912030e-01, 5.58070019e-02, 1., 1. ]
      - [ 6., 3.37033272e-02, 2.75464226e-02, 8.15876275e-02, .Inf,
          2.94973779e-05, 0., 1.10913321e-01, 1.14023583e-02,
          1.42558641e+01, 1.77271235e+00, 2.96300578e+00, 2.29749203e+00,
          1.84844840e+00, 3.08074743e-01, 1., 1. ]
      - [ 22., 4.44466583e-02, 3.71713191e-02, 1.46988332e-01,
          1.26950026e+01, 1.27174100e-03, 0., 2.75463969e-01,
          6.76007895e-03, 8.02119827e+01, 2.86457229e+00, 3.53219318e+00,
          1.21117985e+00, 6.74981058e-01, 3.06809563e-02, 1., 1. ]
      - [ 16., 5.53166829e-02, 4.86022085e-02, 1.47089794e-01, .Inf,
          1.96188479e-03, 0., 2.42395595e-01, 1.06771449e-02,
          4.21946106e+01, 2.62946939e+00, 3.42778540e+00, 1.48747933e+00,
          9.27656114e-01, 5.79785071e-02, 1., 1. ]
      - [ 8., 4.01156619e-02, 3.33790556e-02, 1.15507782e-01, .Inf,
          5.30411548e-04, 0., 1.29120111e-01, 7.12507358e-03,
          2.07574673e+01, 2.36409807e+00, 2.48606825e+00, 1.56106627e+00,
          1.70042217e+00, 2.12552771e-01, 1., 1. ]
      - [ 16., 5.13840951e-02, 4.65176627e-02, 1.39819205e-01, .Inf,
          1.47822686e-03, 0., 2.65303642e-01, 1.14469808e-02,
          4.85689278e+01, 2.67833877e+00, 3.50106287e+00, 1.48173225e+00,
          9.52210844e-01, 5.95131777e-02, 1., 1. ]
      - [ 8., 3.77642587e-02, 3.10612954e-02, 1.08367577e-01, .Inf,
          7.18042837e-04, 0., 1.22848712e-01, 7.04736449e-03,
          2.42584190e+01, 2.24651718e+00, 2.65333819e+00, 1.66658628e+00,
          1.69889987e+00, 2.12362483e-01, 1., 1. ]
      - [ 24., 4.78254408e-02, 4.12351601e-02, 1.48032665e-01, .Inf,
          1.18385663e-03, 0., 2.60848403e-01, 5.59439370e-03,
          8.66864166e+01, 2.80315781e+00, 3.38908267e+00, 1.12260842e+00,
          6.82060838e-01, 2.84192022e-02, 1., 1. ]
      - [ 24., 4.74378616e-02, 4.06517610e-02, 1.54171914e-01, .Inf,
          3.56046623e-03, 0., 2.27972180e-01, 4.29662550e-03,
          6.63626480e+01, 2.79359961e+00, 3.47984910e+00, 1.12927401e+00,
          7.43772268e-01, 3.09905112e-02, 1., 1. ]
      - [ 8., 3.74422744e-02, 3.15558761e-02, 1.04614995e-01, .Inf,
          6.45147869e-04, 0., 1.32913291e-01, 7.77633861e-03,
          3.07956238e+01, 2.24616623e+00, 2.73127270e+00, 1.71577132e+00,
          1.69271505e+00, 2.11589381e-01, 1., 1. ]
      - [ 8., 3.81550565e-02, 3.12155318e-02, 1.08367614e-01, .Inf,
          3.35402816e-04, 0., 1.22854225e-01, 7.04578264e-03,
          2.44343624e+01, 2.28910851e+00, 2.64280152e+00, 1.64920557e+00,
          1.69367349e+00, 2.11709186e-01, 1., 1. ]
      - [ 8., 3.96239869e-02, 3.23191993e-02, 1.15507774e-01, .Inf,
          6.43551582e-04, 0., 1.32894948e-01, 7.80595280e-03,
          1.81195545e+01, 2.32152009e+00, 2.57480478e+00, 1.62904072e+00,
          1.69649780e+00, 2.12062225e-01, 1., 1. ]
      - [ 8., 3.79033647e-02, 3.12256254e-02, 1.05737917e-01, .Inf,
          1.36500783e-03, 0., 1.39702380e-01, 8.30604695e-03,
          3.06385212e+01, 2.24616671e+00, 2.69706964e+00, 1.71838260e+00,
          1.68998396e+00, 2.11247995e-01, 1., 1. ]
      - [ 38., 1.19124964e-01, 1.11388780e-01, 3.49646866e-01,
          5.10987580e-01, 4.93600331e-02, 0., 5.77486336e-01,
          1.29005536e-02, 5.83050232e+01, 2.98002839e+00, 3.02277803e+00,
          9.10863698e-01, 9.30776060e-01, 2.44941059e-02, 1., 0. ]
      - [ 8., 3.82636823e-02, 3.16041932e-02, 1.10692963e-01, .Inf,
          5.30421676e-04, 0., 1.30474120e-01, 9.05593950e-03,
          3.16088886e+01, 2.22364974e+00, 2.72277236e+00, 1.70562470e+00,
          1.68287575e+00, 2.10359469e-01, 1., 1. ]
      - [ 8., 3.18334438e-02, 2.67809331e-02, 8.61185864e-02, .Inf,
          5.34953550e-04, 0., 1.26315594e-01, 8.00221041e-03,
          4.66894760e+01, 2.23493624e+00, 2.84488678e+00, 1.80509424e+00,
          1.39935899e+00, 1.74919873e-01, 1., 1. ]
      - [ 7., 3.81255448e-02, 3.23360972e-02, 9.81648266e-02,
          1.01378243e-02, 2.55746010e-04, 0., 1.11815393e-01,
          1.06874341e-02, 8.29699993e+00, 2.10141325e+00, 2.76364255e+00,
          1.90884161e+00, 1.29504645e+00, 1.85006633e-01, 1., 1. ]
      - [ 8., 3.07895504e-02, 2.53969487e-02, 8.78136158e-02, .Inf,
          2.91092510e-05, 0., 9.23132151e-02, 4.94419504e-03,
          1.82296467e+01, 2.27721739e+00, 2.61367464e+00, 1.61689126e+00,
          1.38998687e+00, 1.73748359e-01, 1., 1. ]
      - [ 14., 4.48884852e-02, 3.86362262e-02, 1.32042140e-01, .Inf,
          4.82374849e-03, 0., 1.79586798e-01, 6.15723804e-03,
          4.07115479e+01, 2.58546710e+00, 3.09459424e+00, 1.38357580e+00,
          1.09882367e+00, 7.84874037e-02, 1., 1. ]
      - [ 12., 4.66978475e-02, 3.87416556e-02, 1.32494152e-01, .Inf,
          2.74268183e-04, 0., 1.90744609e-01, 6.77431189e-03,
          3.17199554e+01, 2.45137382e+00, 3.64120173e+00, 1.70975244e+00,
          1.30226791e+00, 1.08522326e-01, 1., 1. ]
      - [ 12., 5.02776206e-02, 4.19699661e-02, 1.44894019e-01, .Inf,
          3.54481832e-04, 0., 2.07966104e-01, 1.21002011e-02,
          1.97524185e+01, 2.43289518e+00, 3.62675953e+00, 1.70056212e+00,
          1.46354413e+00, 1.21962011e-01, 0., 1. ]
      - [ 12., 5.60699478e-02, 4.65100221e-02, 1.58574283e-01, .Inf,
